%YAML:1.0
my_svm: !!opencv-ml-svm
   svm_type: C_SVC
   kernel: { type:LINEAR }
   C: 2.5000000000000000e+000
   term_criteria: { epsilon:1.1920928955078125e-007, iterations:1000 }
   var_all: 4096
   var_count: 4096
   class_count: 3
   class_labels: !!opencv-matrix
      rows: 1
      cols: 3
      dt: i
      data: [ 0, 1, 2 ]
   sv_total: 3
   support_vectors:
      - [ 6.56628748e-003, -8.28543038e-004, 7.35017564e-003,
          3.84631613e-003, -2.88100098e-004, 3.74123850e-003,
          -9.32149356e-004, 4.19888087e-003, 6.70113740e-003,
          7.27897510e-003, 3.38446908e-003, 7.50808557e-003,
          1.28577705e-002, 8.92305840e-003, 3.87042150e-004,
          2.03796965e-003, -5.49348630e-003, 7.31973723e-003,
          2.03113235e-003, 1.50432605e-002, 5.77457668e-003,
          1.76890083e-002, 2.33959104e-003, 2.96793459e-003,
          1.32971425e-002, 1.04129454e-002, 2.20587868e-002,
          9.77474730e-003, -6.70501613e-004, 5.73100569e-003,
          7.06283934e-003, 6.88337907e-003, -8.30204040e-003,
          -1.14804902e-003, -1.39160072e-002, -1.59011455e-003,
          -1.06659718e-002, -7.30231265e-003, -2.71309679e-003,
          -1.20842149e-002, -1.58165593e-003, -1.02136191e-002,
          5.62473666e-003, -1.47681599e-002, -3.59040685e-003,
          -6.85138395e-003, -6.34476775e-003, -3.31862993e-003,
          -5.33841457e-003, -4.17570025e-003, 1.19284866e-003,
          -1.09327212e-003, -1.28844418e-002, -1.49688972e-002,
          -6.92074420e-003, -8.72525293e-003, -7.89007358e-003,
          -9.17503238e-003, -4.18133149e-003, -5.67510724e-003,
          -1.16303377e-002, 8.48057738e-004, -1.40554002e-002,
          -6.22349931e-003, 1.29827010e-002, 1.02091220e-003,
          2.03814190e-002, 2.03881543e-002, 1.47478310e-002,
          9.03939083e-003, 3.45134665e-003, -6.44218689e-003,
          4.60046111e-003, 1.03920475e-002, 4.95080044e-003,
          1.71852782e-002, 1.01036290e-002, 6.95786672e-003,
          8.66063312e-003, 1.63474474e-002, -2.75676185e-003,
          8.31128936e-003, 2.11870521e-002, 1.04223192e-002,
          5.29394392e-003, 2.11422774e-003, 1.26140323e-002,
          5.77323651e-003, -2.06866558e-003, -8.72367003e-004,
          3.27710016e-003, 1.17382538e-002, 2.14938889e-003,
          9.49488487e-003, 1.51269250e-002, 6.66234735e-003,
          8.11776705e-003, -8.58255546e-004, 1.48989474e-002,
          6.81485655e-003, -2.79970956e-003, 1.04689477e-002,
          4.94023180e-003, 1.02775712e-002, 1.54180517e-002,
          1.79009624e-002, 3.94889386e-003, 1.44920005e-002,
          9.59356315e-003, 1.28726717e-002, 2.03681807e-003,
          1.29458113e-002, 6.85582310e-003, 1.76471341e-002,
          -2.63271085e-003, 1.70453638e-002, 1.02812145e-002,
          8.02617334e-003, 1.39427884e-002, 1.05993645e-002,
          6.38062600e-003, 1.22741517e-003, 1.50606558e-002,
          1.06563540e-002, 5.56517392e-003, 1.62560947e-003,
          9.82403383e-003, 2.70973844e-003, 8.35941266e-003,
          7.74731673e-003, -1.87475991e-003, 4.56729613e-004,
          -1.31186831e-003, 7.41159136e-004, -1.85633695e-003,
          1.30732246e-002, -1.96251553e-003, -1.48836209e-003,
          2.77974177e-004, -7.06975209e-003, -2.62162811e-003,
          8.18817224e-003, 4.71954001e-003, 3.10098543e-003,
          -1.52851420e-003, 4.03888011e-003, 4.12351964e-003,
          3.62357241e-003, 2.41284069e-004, -3.38538992e-003,
          3.45222978e-003, -9.00554005e-003, -1.36535498e-003,
          -1.78594538e-003, 6.73864236e-007, -4.43296134e-003,
          3.60165769e-003, -5.14402939e-003, 7.16080610e-003,
          5.61489584e-003, -1.66562237e-002, -9.67785064e-003,
          -1.52265942e-002, -2.27406854e-003, 4.02748934e-004,
          -8.46710615e-003, -1.07751433e-002, -1.54314721e-002,
          -1.01274382e-002, -5.06876409e-003, -9.30833351e-003,
          -1.74982343e-002, -9.06939805e-003, -1.62210106e-003,
          -5.50255366e-003, -4.69534047e-004, -2.04862691e-002,
          -7.94618204e-003, -1.01373103e-002, -1.19831767e-002,
          7.97047513e-004, -7.48129375e-003, -1.62816811e-002,
          -8.61404464e-003, -7.53138913e-003, -1.25329643e-002,
          -8.12715106e-003, -1.70279201e-002, -1.46707995e-002,
          -1.04512572e-002, -1.26277748e-002, -9.95452981e-003,
          -2.87959911e-003, 1.16525555e-003, -1.28905661e-002,
          -5.93426824e-003, -3.62053420e-003, 2.00181245e-003,
          -1.27161457e-003, 1.58945215e-003, -1.02017894e-002,
          -1.11463359e-002, 2.16363627e-003, -8.85732705e-004,
          -4.62268945e-003, -3.70589527e-003, -4.27225698e-003,
          5.36840060e-004, -6.58977684e-003, -6.92935521e-003,
          4.07317327e-003, -4.79194522e-003, -1.34107834e-002,
          -3.87464953e-003, -4.98152757e-003, -4.67832806e-003,
          2.97701219e-004, -4.87916125e-003, 1.36345404e-003,
          7.45083438e-004, -9.58648627e-004, -3.18017299e-003,
          -9.94025823e-003, 2.02030060e-003, -1.25199100e-002,
          -1.48947630e-003, -1.63336715e-003, 2.44313967e-003,
          -7.27000507e-003, -3.90546327e-003, 2.46725485e-005,
          9.27123299e-004, -3.85321630e-003, -9.30103101e-003,
          -8.95820279e-003, -3.25516029e-003, -4.03958140e-003,
          -8.84212181e-003, -2.98595708e-003, 5.14486665e-003,
          -3.73581168e-003, -4.96750604e-003, -3.56957642e-003,
          -9.05099150e-004, -3.54078878e-003, -8.22584797e-003,
          -7.02144997e-003, 1.67721708e-003, -7.86386430e-003,
          -4.80862288e-003, 5.04643843e-003, -9.88303684e-003,
          -9.32424050e-003, -3.76171269e-003, -1.23948241e-002,
          -6.07254542e-003, 1.60957919e-003, 1.47196825e-003,
          -5.20529598e-003, 4.26610326e-003, 5.89109841e-004,
          -6.79089269e-003, -1.36079127e-003, -2.80679174e-004,
          -8.52456875e-003, 4.98309545e-003, -6.25891797e-003,
          -1.13575393e-002, -3.29516246e-004, -5.80579042e-004,
          3.92585108e-003, -1.51912682e-004, -7.00662658e-003,
          -8.37953761e-003, 1.69127563e-003, -1.55613786e-002,
          4.04607097e-004, 5.87278558e-003, -2.70172674e-003,
          -1.07143456e-002, -1.25934300e-003, 8.29785783e-003,
          5.06079465e-004, 3.94669781e-003, 2.44190567e-003,
          1.30564696e-003, 2.00735265e-003, 1.46619207e-003,
          4.87991376e-003, 4.68644267e-003, 6.18441449e-003,
          3.91229102e-003, 3.73167824e-003, 7.93196913e-003,
          1.53452540e-002, 8.13773740e-003, 1.31448898e-002,
          7.59095512e-003, 9.33619961e-003, 1.78761093e-003,
          7.54318712e-003, 9.40605160e-003, 9.54064168e-003,
          3.21906013e-003, 2.88525247e-003, 4.70102159e-003,
          1.06877731e-002, 9.59159900e-003, 5.47308894e-003,
          1.26312533e-002, 9.55038052e-003, 5.17698750e-003,
          2.85455887e-003, 7.10746367e-003, 9.84753575e-003,
          6.82309084e-003, 8.71073920e-003, -3.50688235e-004,
          3.29662953e-003, 7.94180948e-003, -2.78429594e-004,
          -9.54444613e-003, -9.76056699e-003, -7.86661450e-003,
          -2.20067427e-003, -2.45540566e-003, -4.95208614e-003,
          6.35923469e-004, -9.65730194e-003, -5.17193414e-003,
          -4.39026766e-003, -6.54702657e-004, -1.35522112e-002,
          -6.40040357e-003, -4.35146037e-003, -9.66964476e-003,
          -7.25602382e-004, 1.90407038e-003, -1.27395485e-002,
          -6.14067400e-003, -9.94117465e-003, -9.77380760e-003,
          -4.73249238e-003, -1.86794177e-002, -1.12491334e-002,
          -8.01703613e-003, -5.31982724e-003, -6.52746251e-003,
          -4.34697699e-003, -4.59283125e-003, -6.02708058e-003,
          -5.61803719e-003, 1.45508023e-003, -3.84522974e-003,
          6.36069616e-003, -2.88330321e-003, 1.56539539e-003,
          -1.82889315e-004, 1.36768664e-004, 5.59905870e-003,
          3.18964419e-004, 4.89266997e-004, -4.15156037e-003,
          -2.89482996e-004, 5.23044635e-003, 4.42561344e-004,
          -6.72572991e-003, 7.35291420e-003, 3.06043687e-004,
          -6.44077361e-003, 4.06301720e-003, -1.59793079e-003,
          4.86262282e-003, -1.97976129e-003, 6.74710097e-003,
          -6.51242037e-004, 5.66474441e-003, 7.47611979e-003,
          1.13121737e-002, -1.08369358e-003, -3.38126626e-003,
          3.70018207e-003, -4.39615734e-003, 1.88819284e-003,
          -9.24496818e-003, -5.62130706e-004, 8.52277328e-004,
          2.44423747e-003, 6.23711897e-003, 1.04013700e-002,
          3.51572759e-003, 2.27532582e-003, 1.20142661e-003,
          5.08538727e-003, 4.41959500e-003, -2.60031573e-003,
          -1.46446133e-003, 1.24132456e-002, 1.53558170e-002,
          -3.72058176e-003, 2.55662971e-003, 4.86727012e-003,
          -5.06913383e-003, 7.32326368e-003, -4.33998648e-003,
          -5.20841032e-003, -2.07392452e-003, -2.36944505e-003,
          5.71387762e-004, 3.48832109e-003, -3.20191286e-003,
          -7.71767693e-003, -4.03721817e-003, -1.52971351e-003,
          -8.37158039e-003, 8.91063921e-003, -6.41465979e-003,
          -5.80108352e-003, -6.46976708e-003, 3.53049813e-003,
          -5.92849916e-003, -2.87533831e-003, 3.78731522e-004,
          -1.29000386e-002, -5.91456331e-003, -1.92286130e-002,
          -1.53322809e-003, -2.93455156e-003, -6.14214363e-003,
          -8.38715397e-003, -1.17192538e-002, -3.50803044e-003,
          -5.30829886e-003, -1.34894662e-002, -2.84123537e-003,
          -4.89893230e-003, -9.25975759e-003, -8.84037558e-003,
          1.49380101e-003, -7.40917027e-003, -7.62535259e-003,
          4.40402742e-004, -1.12353452e-003, -8.69772024e-003,
          -1.33046731e-002, 1.73056312e-003, -1.06203957e-002,
          -4.09956416e-003, -2.84860912e-003, -9.91763826e-003,
          -7.26244412e-003, -2.45204545e-003, -9.80636664e-003,
          -4.55715833e-003, 1.52125605e-003, -5.80733502e-003,
          -1.14746233e-002, -4.46344446e-003, -5.85144432e-003,
          6.93775294e-003, 2.66145612e-003, -1.34337218e-002,
          -1.07188672e-002, -4.08811262e-003, 1.83869107e-003,
          -3.06251226e-003, -6.35216525e-003, -3.88449174e-003,
          -2.99501792e-003, 5.86676225e-003, -1.69426911e-002,
          -3.08998651e-003, -3.96535452e-003, -9.60375089e-003,
          -8.25935788e-003, -1.26871187e-002, -1.05443103e-002,
          4.30965470e-003, 5.87076088e-003, -1.40274235e-003,
          -1.29706990e-002, -1.82640292e-002, -1.38125662e-002,
          -1.40661560e-002, -1.25331255e-002, -1.54664181e-002,
          -2.04754528e-002, -1.59147047e-002, -1.17051527e-002,
          -1.22661004e-002, -1.46989012e-002, -1.84384082e-002,
          -2.02456415e-002, -1.75510384e-002, -1.26536218e-002,
          -1.22899283e-002, -1.93498861e-002, -1.42262289e-002,
          -1.32684857e-002, -1.62703786e-002, -9.14309453e-003,
          -1.07224537e-002, -1.20923156e-002, -1.59898363e-002,
          -2.04799902e-002, -1.48517722e-002, -1.78658720e-002,
          -3.36620864e-003, -1.59015972e-002, -1.96262971e-002,
          -2.25356836e-002, -1.92682389e-002, 1.01918355e-003,
          1.00466590e-002, 9.68552195e-003, 1.27491923e-002,
          1.07427370e-002, 1.55327078e-002, -2.35070335e-003,
          3.22046806e-003, -5.97088179e-003, 1.15892210e-003,
          4.16644197e-003, 7.24509917e-003, 7.95070454e-003,
          1.32899787e-002, 1.30415494e-002, 4.80302935e-003,
          1.76604104e-003, 1.60478093e-002, 9.14275926e-003,
          1.19854063e-002, -1.16766628e-003, 2.44159414e-003,
          2.30795145e-003, 4.14432213e-003, 9.58806486e-004,
          -2.47210893e-003, 1.23595381e-002, 5.52588422e-003,
          1.15255015e-002, -2.20753695e-003, 9.78876557e-003,
          4.50561696e-004, 2.84686976e-004, -3.33104050e-004,
          1.42844440e-003, 3.60129820e-003, 8.91925185e-004,
          -2.07911897e-003, 3.67075391e-003, -3.89720243e-003,
          1.29838809e-002, 8.58709915e-004, 5.70997922e-003,
          -3.23133124e-003, -4.92269127e-003, 9.00714844e-003,
          1.76451786e-003, 1.18372468e-002, 1.07177282e-002,
          -6.22911961e-004, 6.44925190e-003, 4.13484027e-004,
          1.03932116e-002, 1.10451588e-002, 9.26179253e-003,
          8.88053677e-004, 7.72789493e-003, 9.95024480e-003,
          3.09086684e-003, -9.09339171e-004, 2.34089931e-003,
          7.11453473e-003, 1.66490918e-003, 8.92718043e-003,
          1.45149995e-002, 1.40062878e-002, -3.58741358e-003,
          6.20428799e-003, 3.43073509e-003, -1.10985746e-003,
          8.33516184e-004, 1.16480878e-002, 1.02082686e-002,
          -2.44146050e-003, 3.14501673e-003, 1.10043455e-002,
          1.12749022e-002, 1.34473788e-002, 5.31935459e-003,
          -1.00798160e-003, -8.28996301e-003, 1.74001772e-002,
          1.19590741e-002, 8.81309621e-003, 5.55114076e-003,
          1.08263046e-002, 4.38750954e-003, 2.90643773e-003,
          7.74064660e-003, 1.07550854e-003, 9.35974997e-003,
          6.65717525e-003, 8.51204526e-003, 1.28450179e-002,
          1.14378883e-002, 1.15591567e-002, -2.24872050e-003,
          -4.59207082e-003, -9.57709830e-003, -4.55841003e-003,
          -4.49906755e-003, -3.05815047e-004, -3.76671250e-003,
          1.39865407e-003, -1.04111694e-002, -3.60770966e-003,
          -4.24690358e-003, -6.71177963e-003, -3.52654117e-003,
          1.76242518e-003, -6.12117059e-004, -1.12804817e-002,
          3.81212169e-003, -6.87122624e-003, -5.57849556e-003,
          -4.07351227e-003, -4.85529425e-003, -9.03527252e-003,
          -2.90605356e-003, -5.73614659e-003, -4.77055367e-003,
          1.80252688e-003, 7.04323989e-004, -3.06397863e-003,
          -1.79356430e-003, -1.13864867e-002, 2.69317627e-003,
          -1.43824406e-002, -2.47283117e-003, 4.07520361e-004,
          1.07175577e-003, 7.33418530e-003, -2.63303693e-004,
          -1.21445989e-003, -2.83061789e-004, 5.72506664e-003,
          -4.27061133e-003, -2.37138849e-003, 4.00491478e-003,
          4.47675912e-003, 4.24212078e-003, -5.85811865e-003,
          -1.14206225e-003, -2.05867668e-003, 8.99963453e-003,
          -7.04442058e-003, 7.43774511e-003, 5.90433041e-003,
          -3.56577034e-003, 9.08115006e-004, 2.27159518e-003,
          -6.69651898e-003, 9.58337274e-004, -5.29265788e-004,
          -1.42513996e-003, -3.43227512e-005, 8.22657894e-004,
          -3.93988378e-003, -2.80788960e-003, 6.78796181e-003,
          -1.22473587e-003, 6.86587812e-003, -4.21510870e-003,
          9.55169147e-004, -8.49416538e-004, -1.08923223e-002,
          -3.36711248e-003, 1.23679568e-003, -2.19249818e-003,
          2.22638762e-003, -8.60722922e-003, -3.52156651e-003,
          -7.08501088e-003, 6.84557250e-004, -8.86613131e-003,
          -2.75172503e-003, -1.37483831e-002, 4.83880658e-003,
          3.91869945e-003, 3.18372389e-003, -5.42603200e-003,
          9.59408097e-003, -4.45945188e-003, -4.74555837e-003,
          -2.34850869e-003, -5.07968059e-003, -6.26682164e-003,
          -2.11344752e-003, -4.17966116e-003, -5.92139724e-004,
          2.35258997e-003, 3.57754016e-003, 3.26667428e-002,
          3.90118780e-003, 1.73601955e-002, 1.69397630e-002,
          1.52433338e-002, 2.57436326e-003, 6.14213850e-003,
          6.34908304e-003, 2.28247736e-002, 1.11971032e-002,
          2.14478634e-002, 1.71645973e-002, 1.33577464e-002,
          1.89087112e-002, 2.23718886e-003, 6.21524360e-003,
          3.59597504e-002, 2.08632741e-002, 2.14341637e-002,
          7.76007446e-003, 1.89915616e-002, 1.07719749e-002,
          1.52374581e-002, 1.80072039e-002, 1.19172027e-002,
          -6.33435673e-004, 1.28300469e-002, 8.79815593e-003,
          1.41078960e-002, 1.27546480e-002, 1.17730731e-002,
          1.76524408e-002, 4.57810471e-003, -1.08527308e-002,
          -5.39755309e-003, -3.36103723e-003, -5.74882748e-003,
          -8.71205516e-003, -6.50985120e-003, 2.91852118e-003,
          -5.35664009e-003, -4.93410695e-003, -9.76723991e-003,
          -4.04073065e-003, -1.53309610e-002, -7.32969306e-003,
          -2.41407380e-003, -9.41225048e-003, -1.73162557e-002,
          -1.23196775e-002, -1.17713800e-002, -8.80982913e-003,
          -7.49097764e-003, -1.24623058e-002, -8.24344065e-003,
          3.17911431e-003, -1.01498980e-002, -4.84577380e-003,
          -4.96394467e-003, -1.21105195e-003, -1.05912993e-002,
          -1.10275736e-002, -3.20198899e-003, -2.47066692e-002,
          -1.21988105e-002, 4.91661346e-003, -1.02120619e-002,
          5.27402479e-003, -1.00443210e-003, -5.76341758e-003,
          8.80350638e-003, -6.80229068e-003, 4.68902662e-003,
          -3.05900606e-003, -5.73502760e-003, -9.00480524e-003,
          -9.68459435e-003, -3.62416427e-003, -1.86758768e-003,
          3.54702212e-003, -7.24078668e-003, -5.57740312e-003,
          -6.58371160e-003, -5.68873622e-003, -7.33251637e-003,
          4.92906850e-003, -3.52530018e-003, -1.11634459e-003,
          -6.44069724e-003, -1.75363775e-002, 5.93414763e-003,
          3.03869601e-003, -9.11977794e-003, -5.44302724e-003,
          -1.34088974e-002, -3.31460917e-003, 2.43137707e-004,
          -1.10531598e-002, -1.09028341e-002, -9.06737056e-003,
          -1.43087581e-002, -1.58082452e-002, -1.62021443e-002,
          -2.02783253e-002, -2.11799890e-002, -2.04610247e-002,
          -8.29066802e-003, -1.72232464e-002, -1.71823017e-002,
          -1.43185118e-002, -1.07398564e-002, -2.51937322e-002,
          -1.42336860e-002, -1.86466053e-002, -2.28589885e-002,
          -1.03633087e-002, -7.70682935e-003, -8.85082595e-003,
          -1.35904606e-002, -1.10342018e-002, -4.74542845e-003,
          -7.11688539e-003, -9.29908734e-003, -8.09424277e-003,
          -1.08908815e-002, -1.24780284e-002, -4.60377196e-003,
          -1.58184413e-002, 3.23195220e-003, -3.38160060e-003,
          -2.13096570e-003, -2.09207367e-003, 2.13184627e-003,
          -5.34362812e-003, 3.54581838e-003, 3.03667248e-003,
          9.60256718e-003, -3.81287391e-004, 1.00917388e-002,
          3.07965348e-003, -3.16455524e-004, 3.65470909e-003,
          -2.01905402e-003, -7.49538513e-003, -4.61176364e-003,
          2.68278131e-003, 4.19138378e-004, -2.56623747e-003,
          7.36838207e-004, 2.20505707e-003, -2.73709861e-003,
          -1.12990127e-003, 4.84141614e-003, 1.13549232e-002,
          -5.49166522e-004, 7.16984319e-003, 2.26726965e-003,
          2.09723576e-003, 1.38633314e-003, -5.38433762e-003,
          -6.79726992e-003, -3.08325095e-003, -7.19544943e-003,
          -7.51499273e-003, -1.05032967e-002, -8.93608260e-004,
          -1.53827202e-003, -8.54499079e-003, 1.13786478e-003,
          -4.96025803e-003, -1.63103547e-003, 5.37049398e-003,
          -6.55388553e-003, -1.00567201e-002, -4.75593423e-003,
          -4.05125087e-003, -1.72148895e-004, -3.73628060e-003,
          5.59115596e-003, -8.20115022e-003, -5.85686881e-003,
          -2.03690515e-003, -6.28776476e-003, -2.76930071e-003,
          2.24047413e-004, -6.76023029e-003, 1.93497667e-003,
          -8.07689910e-004, -5.27373375e-003, -5.89155825e-003,
          -4.40761494e-003, -8.61837715e-003, -2.24895636e-003,
          1.22410022e-002, 2.17360957e-003, -3.07297497e-003,
          5.32803545e-003, 7.87524786e-003, 4.68164729e-003,
          1.52600778e-003, -1.90317794e-003, -7.01605855e-003,
          3.16055561e-003, 5.27265435e-003, -2.41214223e-003,
          -5.58692776e-003, 4.66487603e-003, -2.68582534e-003,
          -2.91078561e-003, 9.47085209e-003, -5.21144830e-004,
          4.13291389e-003, 9.86897200e-003, 1.12136425e-002,
          3.75086605e-003, -1.15300855e-003, -3.58621078e-003,
          -4.75987140e-003, -5.61033841e-003, -3.39278049e-004,
          -3.88637709e-004, 6.03521336e-003, 1.49216852e-003,
          -5.38044935e-003, 3.80223244e-003, -1.65070742e-002,
          -1.85636412e-002, -5.28892456e-003, -6.71217777e-003,
          -3.68916872e-003, -2.81375390e-003, -1.02983182e-002,
          -6.20153360e-003, -6.86238147e-003, -7.59421010e-003,
          1.62788515e-003, -3.26386187e-003, 1.05078740e-003,
          -3.53224645e-003, -8.55906866e-003, -1.92669930e-003,
          -1.84622556e-002, -5.85645158e-003, -5.78875560e-003,
          -1.72423723e-003, -1.82202784e-003, -8.23782873e-004,
          5.47925709e-003, -3.58677516e-003, -9.07220598e-003,
          1.56977912e-003, -1.07452960e-003, -1.14472024e-002,
          -1.72255829e-003, -1.43198436e-002, -1.09885056e-002,
          -2.64505367e-003, -4.32535447e-003, -2.33177398e-003,
          6.40752332e-005, -4.58930433e-003, -5.90764731e-003,
          4.96178027e-003, -3.12116113e-003, -7.34986411e-003,
          2.49118987e-003, 3.89216980e-003, 6.50395593e-003,
          -6.09869463e-003, 2.28297999e-004, -1.28543458e-003,
          2.57365825e-003, -1.82146020e-003, -3.78745701e-003,
          3.89991957e-003, -6.19988004e-003, 1.80675869e-003,
          -1.58050621e-004, 6.57296460e-003, -2.63612950e-003,
          -6.04706467e-004, -8.85714311e-003, -5.57252811e-003,
          -3.63561930e-003, -8.18836782e-003, -5.59029169e-003,
          -1.09363245e-002, -4.54453006e-003, -3.20067047e-003,
          -8.19079112e-003, 3.13292863e-003, 1.04500474e-002,
          -5.83279599e-003, -2.94557610e-003, 3.86516983e-003,
          -6.46457169e-003, 6.74382411e-003, -7.34355813e-003,
          -3.00078234e-003, 1.02175679e-002, 5.01994102e-004,
          -2.87861185e-004, -4.28909482e-003, 4.95579501e-004,
          3.43743013e-003, -2.69991159e-003, -1.15307642e-003,
          7.57109467e-003, -8.39969050e-003, 1.15070050e-003,
          1.54425960e-003, 6.07964909e-003, -1.78662105e-003,
          5.84701076e-003, 3.92316002e-003, 7.74577959e-004,
          -6.53836550e-003, -2.66761170e-003, 2.80501693e-003,
          3.55243753e-003, -1.09451031e-002, -5.94507568e-002,
          -3.80517505e-002, 2.09403187e-001, -3.57893147e-002,
          3.72214429e-002, -3.55303623e-002, 1.51131526e-001,
          -1.11208335e-001, 1.12382203e-001, 1.67591810e-001,
          -1.68642908e-001, -3.41017358e-002, -1.68605283e-001,
          -1.72338113e-001, 1.27090782e-001, -3.19282860e-002,
          -5.52455138e-004, -1.13801241e-001, 6.96802437e-002,
          -1.34699598e-001, -9.51389074e-002, 1.71507657e-001,
          -9.20116156e-002, 2.86691159e-001, 1.46889627e-001,
          -1.67100191e-001, -2.14267120e-001, -1.23217471e-001,
          2.11709604e-001, -3.84476297e-002, 7.55061209e-002,
          9.93299857e-002, 3.07615437e-002, 1.12151071e-001,
          -7.18097836e-002, 5.11929672e-003, -8.93233567e-002,
          5.75215816e-002, 1.85110524e-001, 4.95132506e-002,
          1.67648166e-001, 3.34877297e-002, 2.01839477e-001,
          4.24999923e-001, -1.96462572e-001, -1.35472849e-001,
          1.93897426e-001, 6.23375736e-002, -2.07281187e-002,
          5.19255623e-002, -2.06647754e-001, 6.93537518e-002,
          8.65042880e-002, 1.43171012e-001, -1.79224074e-001,
          8.86414647e-002, -2.15274960e-001, -4.82259952e-002,
          1.49320617e-001, 2.33438909e-001, -4.61257473e-002,
          -2.46565193e-002, 6.21681334e-003, 3.50663066e-002,
          -5.12032360e-002, -3.91731620e-001, -5.10369986e-002,
          -1.20177679e-001, 1.44106582e-001, 3.34518254e-001,
          3.22858810e-001, -1.49000481e-001, -1.14923246e-001,
          1.15981586e-001, -2.04597726e-001, 1.15306564e-001,
          1.08572943e-002, -4.06490266e-001, -9.52196270e-002,
          1.29750282e-001, -1.94031999e-001, -2.06045926e-001,
          -2.86319107e-001, 9.31274667e-002, 1.40204176e-001,
          -2.90354118e-002, 3.88659909e-002, -1.19429015e-001,
          4.39246595e-002, -1.95784584e-001, -2.64852464e-001,
          -6.74067065e-002, -1.50454774e-001, 2.06905514e-001,
          2.71364331e-001, 2.02840358e-001, 1.21505134e-001,
          -2.54910082e-001, -1.53481334e-001, 1.54545501e-001,
          2.09906146e-001, 1.29154593e-001, 3.20861310e-001,
          4.73109707e-002, -4.10274006e-002, 1.30909339e-001,
          7.12274611e-002, 2.93175858e-002, 3.67022365e-001,
          -3.55671644e-002, 9.09374212e-004, -1.33835450e-002,
          4.71591324e-001, 8.04106891e-002, 3.97996679e-002,
          -8.07200521e-002, -3.14323641e-002, -1.24152489e-001,
          3.24935392e-002, -9.74724665e-002, -1.04102433e-001,
          1.15343742e-002, 1.40656322e-001, 5.57002388e-002,
          2.01818496e-001, 2.82934397e-001, 1.45669669e-001,
          -5.18383132e-003, -4.48865769e-003, 8.65616947e-002,
          7.60242119e-002, 1.67806819e-001, -2.85450846e-001,
          3.36698778e-002, 4.75022525e-001, -8.84669200e-002,
          1.33545250e-001, 4.15647626e-002, 1.47636682e-001,
          1.62132934e-001, 5.76969944e-002, -2.08466694e-001,
          1.64401636e-001, 3.74657512e-001, 3.92800085e-002,
          -1.72913801e-002, 5.99506535e-002, -4.89393562e-001,
          -6.95388317e-002, 6.36437982e-002, 7.00428337e-002,
          -1.05882987e-001, -1.79417521e-001, 2.99066287e-002,
          3.20201996e-003, 3.34904343e-001, 1.80032805e-001,
          -7.80623555e-002, -1.54887348e-001, 1.12716854e-001,
          2.03303203e-001, 9.51694623e-002, -1.40825346e-001,
          -8.86153355e-002, 1.06136903e-001, 9.86098945e-002,
          5.06404757e-001, 1.48967057e-001, -5.50778536e-003,
          2.85307497e-001, -9.88440812e-002, -1.07032269e-001,
          3.22968274e-001, -6.46084547e-002, -1.20750859e-001,
          1.27982140e-001, -1.01867784e-002, 2.93552518e-001,
          -4.14146446e-002, -3.54986161e-001, 5.69763780e-002,
          8.43797550e-002, 1.96606040e-001, -6.11583479e-002,
          3.31834316e-001, -9.81338099e-002, 1.35419378e-002,
          1.56836621e-002, -1.37063652e-001, -8.48537385e-002,
          4.23158109e-001, -2.63109714e-001, 2.14347363e-001,
          1.64158091e-001, -1.12267576e-001, 5.36133125e-002,
          1.36273494e-002, -1.38292182e-002, 4.84833866e-002,
          -1.81312356e-002, 3.12151641e-001, 1.78274453e-001,
          -2.03113168e-001, 1.53709158e-001, -8.21351334e-002,
          -5.01697548e-002, 8.89643952e-002, 2.56087750e-001,
          8.90379921e-002, 4.09058668e-002, 1.66940708e-002,
          -4.76529859e-002, -1.79368407e-002, 8.76965970e-002,
          1.87529653e-001, 6.36110976e-002, -6.13921275e-003,
          -1.00938171e-001, -3.76860313e-002, -2.05556629e-004,
          1.43395492e-003, 3.32521610e-002, 2.01241877e-002,
          8.26193485e-004, 3.41603644e-002, 3.01833987e-001,
          5.48469126e-002, 2.16959909e-001, 2.18879744e-001,
          -3.81166071e-001, -3.33265848e-002, 2.32246950e-001,
          5.00320047e-002, 1.51229978e-001, 1.16412684e-001,
          5.54377446e-004, 4.61953044e-001, -4.10983190e-002,
          3.97573672e-002, -8.64410400e-003, -3.81101072e-002,
          8.76609683e-002, 1.91175416e-002, -9.28195044e-002,
          4.55396473e-001, 1.94413900e-001, -1.83002740e-001,
          6.56986237e-002, 7.15744719e-002, -1.95538804e-001,
          3.66412126e-003, -5.31076789e-002, 1.03203200e-001,
          7.91979805e-002, 4.08961058e-001, 2.81325489e-001,
          -8.79322439e-002, -3.56128067e-002, -1.09101355e-001,
          1.38145119e-001, 7.61703104e-002, 2.72170782e-001,
          4.47703779e-001, 1.63935468e-001, 9.95865539e-002,
          1.97923005e-001, 3.83910611e-002, 8.50799456e-002,
          3.73545527e-001, -1.61894873e-001, 9.23757330e-002,
          1.76445805e-002, 1.63987875e-002, 3.60235274e-001,
          1.37599528e-001, 2.57629514e-001, 2.96818495e-001,
          2.14826446e-002, -5.93096577e-002, -1.83570400e-001,
          -9.17236283e-002, -2.26404727e-001, -5.11033535e-001,
          -4.79034670e-002, 3.25053297e-002, 3.84021871e-004,
          6.47879541e-001, -1.24982558e-001, -1.28260866e-001,
          2.63544153e-002, -5.95998690e-002, -7.29773194e-002,
          2.41497740e-001, -2.36494929e-001, 4.91023920e-002,
          -2.11414397e-001, -1.48651525e-001, 2.75263079e-002,
          -2.35096570e-002, 7.29475915e-002, 5.91312023e-003,
          -1.41536564e-001, 2.55283207e-001, -1.02334321e-001,
          -1.48998708e-001, 3.39486867e-001, -4.01369631e-001,
          -1.22765921e-001, 2.37825036e-001, 1.04146279e-001,
          -2.33976632e-001, -6.76778629e-002, 5.13688624e-001,
          -9.84449238e-002, 5.10622337e-002, 1.55337796e-001,
          -9.93538797e-002, -9.83734205e-002, 1.67136580e-001,
          -1.61846191e-001, 2.43600652e-001, 4.23339047e-002,
          -1.07182980e-001, -2.23396663e-002, 1.13421991e-001,
          -5.65135404e-002, 4.25750352e-002, -1.84830308e-001,
          -1.96558535e-001, 8.56350362e-002, -2.15262741e-001,
          2.43812546e-001, 1.39127553e-001, 5.79547659e-002,
          2.84420788e-001, -1.30271450e-001, -5.49285747e-002,
          -1.52623327e-002, 1.11371942e-001, -1.99575312e-002,
          1.76582873e-001, 8.99746343e-002, 5.21974564e-002,
          -3.95554490e-002, -6.56392891e-003, -2.24604040e-001,
          -3.02661713e-002, 7.91194811e-002, -5.44406055e-003,
          1.85503468e-001, 3.21261026e-002, -8.77017155e-002,
          -2.30100323e-002, 2.91265607e-001, -7.76300812e-003,
          7.30276406e-002, -3.25524390e-001, 1.43857058e-002,
          3.14467102e-002, 2.58828700e-001, -1.85858309e-001,
          3.05248231e-001, 5.71930826e-001, 5.06312609e-001,
          1.90086350e-001, 9.57686529e-002, 1.53789401e-001,
          3.71060461e-001, 1.03891723e-001, 4.13075626e-001,
          -1.43123433e-001, -6.58494607e-002, 9.83163863e-002,
          -7.75631610e-003, 2.69171298e-001, 6.34364933e-002,
          1.70581222e-001, -1.44676939e-001, 1.49073839e-001,
          2.47903928e-001, 1.61310628e-001, 1.06920078e-001,
          -1.70961991e-001, -2.55185980e-002, 6.20106375e-003,
          -4.28056829e-002, -3.09407618e-002, 1.49707004e-001,
          -1.18254125e-001, 7.95195103e-002, -2.16699261e-002,
          -7.83716515e-003, 1.80369951e-002, 3.61820795e-002,
          6.25576312e-003, 9.05947462e-002, -7.64904022e-002,
          4.23317729e-003, 3.42348158e-001, 7.65686333e-002,
          -6.00052290e-002, 6.00086004e-002, 1.73786208e-001,
          -1.29531428e-001, -1.20869763e-001, 2.55224615e-001,
          -3.30471136e-002, -2.19499711e-002, 5.75033352e-002,
          -3.40251595e-001, -3.99815261e-001, 7.77310133e-002,
          1.04199402e-001, -3.30766946e-001, 7.83183575e-002,
          2.11182356e-001, 4.45015848e-001, -2.94951610e-002,
          -1.25608742e-001, 1.71746746e-001, 1.07121617e-001,
          -4.16275710e-001, 4.79179680e-001, 3.97336572e-001,
          5.16863838e-002, -1.30665988e-001, 1.16829805e-001,
          1.86035752e-001, 4.23915088e-001, 1.99499741e-001,
          -2.65734851e-001, 1.39004871e-001, 5.68568818e-002,
          -2.29034275e-001, -9.36722085e-002, -2.22849119e-002,
          2.51870543e-001, 2.28306234e-001, -2.40153223e-002,
          2.87247002e-001, 2.35334281e-002, -1.05032161e-001,
          1.13102578e-001, -9.93928090e-002, -1.22290850e-001,
          3.33420336e-001, 1.63067207e-001, -1.83240604e-002,
          -2.74607725e-003, 4.15507667e-002, 1.20809831e-001,
          -2.77261585e-002, 3.16516250e-001, -2.85679121e-002,
          4.34985310e-001, 2.28780761e-001, -2.39206016e-001,
          6.20993832e-003, 6.36515766e-002, 2.10258085e-002,
          -1.49087772e-001, -1.11133024e-001, 1.01806121e-002,
          1.28265500e-001, -1.01315878e-001, -1.14707083e-001,
          -1.90777302e-001, 1.12539895e-001, 1.90821052e-001,
          -3.01782221e-001, -1.32689014e-001, 5.95302358e-002,
          -1.25496775e-001, -2.24047452e-001, 8.17217678e-002,
          3.00891370e-001, -2.56129026e-001, 3.01099122e-001,
          -2.17245236e-001, 3.07691753e-001, -4.85617248e-003,
          4.80191946e-001, 5.92389815e-002, 1.88788012e-001,
          -6.12147450e-002, -9.89293158e-002, -9.06810462e-002,
          -1.25263408e-001, -1.80517465e-001, 3.11858177e-001,
          8.43225494e-002, 1.24951176e-001, 1.95356175e-001,
          1.68845411e-002, -1.02271318e-001, -6.47334531e-002,
          1.24697968e-001, 3.59951884e-001, 3.02576125e-001,
          -2.51664477e-003, 4.00182366e-001, 2.48003900e-001,
          8.70934427e-002, 1.89261824e-001, 2.36789837e-001,
          1.11249894e-001, -1.06151976e-001, 1.60717696e-001,
          6.28559589e-002, -1.78467423e-001, 2.56554335e-001,
          -7.35514984e-002, -9.02567133e-002, 1.94492549e-001,
          -2.36172304e-001, -1.00316316e-001, 1.23420581e-001,
          8.61160308e-002, 1.28955528e-001, -9.48693454e-002,
          2.02643156e-001, 4.88403767e-001, 2.09042281e-001,
          -1.62932813e-001, -8.69574025e-002, 2.11741850e-001,
          -4.10454683e-002, -2.99256146e-002, 7.35715032e-002,
          -3.95587683e-002, -1.39176145e-001, 4.51814145e-001,
          1.02504767e-001, 1.70617953e-001, 2.09906235e-001,
          -7.51413330e-002, -5.59993871e-002, 3.19112241e-001,
          2.53681570e-001, 2.77106285e-001, 2.78401515e-003,
          -3.47784674e-003, 3.24308097e-001, 1.59634784e-001,
          -1.47631383e-002, -2.15081677e-001, 1.77831069e-001,
          -1.66884080e-001, -8.28982219e-002, -4.26353142e-002,
          -3.86600569e-002, 5.72654530e-002, -1.60719275e-001,
          2.68389821e-001, -1.48578957e-001, 4.59027022e-001,
          -1.34781152e-001, 5.48764989e-002, -7.37435790e-003,
          2.79765636e-001, -1.17655378e-002, 1.76115006e-001,
          -3.08373988e-001, 2.00660884e-001, 3.66585672e-001,
          -4.12450656e-002, -5.11041917e-002, -8.73676091e-002,
          2.38059565e-001, -3.37971270e-001, -3.62921923e-001,
          -1.14255808e-002, -2.20572338e-001, -3.80403548e-002,
          1.09253392e-001, 6.97486475e-002, -2.66964614e-001,
          -1.08883508e-001, 2.57982194e-001, -5.47942109e-002,
          8.24063644e-003, -3.69441323e-002, -2.39418283e-001,
          4.87081446e-002, 2.50628460e-002, -6.14695288e-002,
          5.97271994e-002, 2.20389366e-001, -1.64935812e-002,
          3.59107517e-002, 1.46017790e-001, -1.59359984e-002,
          1.59378704e-002, 1.32857144e-001, 1.49596960e-003,
          8.39448050e-002, 1.16151214e-001, 1.39781415e-001,
          1.79476589e-001, 4.18216467e-001, -1.28351554e-001,
          -9.07703638e-002, 2.70334035e-001, -1.40165061e-001,
          -1.73171908e-001, -7.69907087e-002, 1.60225898e-001,
          1.95430920e-001, -1.32204562e-001, -6.44937828e-002,
          -2.11831376e-001, -3.20373960e-002, 5.67308724e-001,
          -6.21033423e-002, 5.19103527e-001, 2.18981117e-001,
          -1.00271177e+000, 7.11693019e-002, -1.65586323e-002,
          -3.33112866e-001, 2.12505013e-001, 2.82349378e-001,
          2.21435726e-001, 1.84453607e-001, -2.18412787e-001,
          3.62549484e-001, -2.47169048e-001, 8.36242586e-002,
          2.14738280e-001, -1.26119748e-001, 4.81309835e-003,
          -1.17247239e-001, -3.11577469e-001, 1.36672119e-002,
          -4.17327918e-002, 5.78479208e-002, -3.27638537e-001,
          -7.78602287e-002, -3.86416987e-002, 1.57299891e-001,
          7.40639269e-002, -9.54011232e-002, -9.42002807e-005,
          2.42873266e-001, -1.03426002e-001, 4.03795600e-001,
          2.35081449e-001, 3.03247601e-001, -3.32803726e-001,
          1.90879539e-001, 2.04619602e-003, 1.22399420e-001,
          1.71712041e-001, -1.44128218e-001, 7.03029558e-002,
          1.13116995e-001, -7.22262785e-002, 2.45911986e-001,
          -1.05736637e-003, -3.10340047e-001, 2.42802035e-002,
          1.01784043e-001, 6.00671247e-002, -1.62624612e-001,
          -3.57507169e-002, -8.18727911e-002, -1.87697839e-002,
          -1.01366341e-001, 1.67330548e-001, 3.01713437e-001,
          -1.18388027e-001, -1.20644346e-001, 3.41041535e-002,
          -1.88095182e-001, -6.29496947e-002, -8.67867023e-002,
          1.10557199e-001, 8.26533884e-002, 3.00601512e-001,
          1.35725334e-001, -2.25966528e-001, 2.83356637e-001,
          -2.66418189e-001, 1.29608542e-001, 3.44056278e-001,
          -3.33570950e-002, -5.14658988e-002, 3.55396509e-001,
          2.81538844e-001, 1.22122765e-001, -1.02860376e-001,
          -9.37947780e-002, 7.83775374e-002, -4.11963649e-003,
          1.12378813e-001, -2.07980752e-001, -1.22910596e-001,
          -2.96774507e-001, -2.73137242e-001, 2.53578991e-001,
          -1.60139605e-001, 1.95463859e-002, 3.00737023e-001,
          5.04105866e-001, 1.09621808e-001, -1.74835756e-001,
          3.68674174e-002, 1.59269854e-001, -7.92475790e-002,
          7.00016459e-003, -2.92398017e-002, 7.76354671e-002,
          -2.76562899e-001, 3.56135905e-001, 9.25925151e-002,
          -1.79632187e-001, -1.63521111e-001, 2.52740443e-001,
          -2.00164482e-001, -1.25769913e-001, 1.19823575e-001,
          -1.31694078e-001, -1.64513037e-001, 3.36261213e-001,
          3.38427067e-001, 5.96729165e-004, -7.73582608e-002,
          4.79900777e-001, 1.44473642e-001, -3.47834200e-001,
          8.46710578e-002, 6.15347624e-002, 4.06706184e-002,
          6.36158958e-002, 2.53728122e-001, -9.75828692e-002,
          9.15566608e-002, -2.45072655e-002, -3.67450267e-001,
          -6.15767064e-003, 3.48064750e-001, -1.62630871e-001,
          -3.33850414e-001, 1.17858358e-001, -2.02534616e-001,
          -5.76656498e-002, 4.78106737e-002, 1.34321600e-001,
          6.63353577e-002, -9.26509798e-002, 1.00349993e-001,
          -8.68961886e-002, -1.84163362e-001, 1.04511559e-001,
          -1.18744858e-001, 3.08412649e-002, -7.22365677e-002,
          -2.79042274e-001, -9.93397310e-002, 1.41904965e-001,
          -6.07796460e-002, -2.08437577e-001, 1.32891759e-001,
          -3.24367620e-002, -2.54114624e-002, 4.32893671e-002,
          -7.52860457e-002, -7.30658397e-002, -2.36891910e-001,
          1.50732160e-001, 1.54651389e-001, -1.94779143e-001,
          1.65905386e-001, -7.00050965e-002, -9.06270668e-002,
          6.20177723e-002, 3.45768370e-002, -3.02318364e-001,
          1.67720050e-001, -4.91819978e-002, -2.12947890e-001,
          2.62246784e-002, 5.77346347e-002, 6.26917258e-002,
          2.81072408e-001, -2.65036821e-002, -8.02880079e-002,
          4.20634151e-002, -6.21290058e-002, -1.64856181e-001,
          -1.58150196e-001, 5.03697284e-002, 3.13841403e-002,
          -3.09196208e-002, -1.33656621e-001, -8.51803869e-002,
          -3.53393294e-002, -2.71966398e-001, 2.33261794e-001,
          -6.80054724e-002, 3.85572195e-001, 1.16850622e-001,
          2.75081731e-002, 4.39704448e-001, 9.52823833e-002,
          -3.65764588e-001, 5.17339349e-001, 2.31275916e-001,
          -1.53914443e-003, -3.36998701e-001, -2.32896375e-004,
          3.11830100e-002, 2.95144618e-001, -5.84196560e-002,
          3.22349876e-001, -3.00902337e-001, 1.07161537e-001,
          3.19369465e-001, -1.73580632e-001, 2.38291278e-001,
          3.84787053e-001, 3.74953121e-001, -5.55922806e-001,
          6.28073663e-002, 6.58398643e-002, -7.36941292e-004,
          -4.78519201e-002, -3.07963919e-002, -1.14325881e-001,
          1.03558004e-001, 2.78117150e-001, 3.13963860e-001,
          7.97562487e-003, 6.49073303e-001, 2.67007232e-001,
          -2.43212849e-001, 8.96358192e-002, 1.78431392e-001,
          3.14090103e-002, 2.73934662e-001, -3.03311467e-001,
          5.85113652e-002, 2.04370096e-001, -1.15187615e-001,
          1.22563682e-001, -6.40918836e-002, 1.74570650e-001,
          2.17414841e-001, 2.04304397e-001, -1.55725507e-002,
          -2.55002361e-003, -1.33188576e-001, 7.21993983e-001,
          1.25769451e-001, 9.49418098e-002, 1.05869524e-001,
          -1.11776359e-001, 4.52400744e-002, -5.85301854e-002,
          1.04442827e-001, 1.15013205e-001, -2.66280007e-002,
          -1.81595817e-001, 3.22469324e-001, 3.02342415e-001,
          -3.33944410e-001, -1.29852712e-001, -7.76941255e-002,
          2.14870036e-001, 5.19446209e-002, 3.73340361e-002,
          2.68238664e-001, -1.97749212e-002, 5.88382296e-002,
          -2.77185161e-002, 5.67809284e-001, -1.56951368e-001,
          9.39486921e-003, -8.17128867e-002, -1.33514643e-001,
          -1.34648964e-001, 1.47023022e-001, -2.89423585e-001,
          -1.18846837e-002, -3.15548539e-001, 9.41390917e-002,
          -3.05708468e-001, 2.15543002e-001, 1.36624381e-001,
          -1.74677044e-001, 2.02010944e-001, -1.80027336e-001,
          -3.62586975e-001, 2.54642129e-001, 1.84459522e-001,
          -2.09648348e-003, -3.38550776e-001, 2.79671341e-001,
          -1.06429838e-001, -7.30215386e-002, 1.08135670e-001,
          -1.96335256e-001, -2.24735007e-001, 9.59324241e-002,
          1.36741653e-001, 8.46278518e-002, 3.52168351e-001,
          -1.61298513e-002, 4.87542823e-002, 1.12776734e-001,
          3.44212949e-002, 1.32792965e-001, 1.89024955e-001,
          3.29488516e-001, -3.37099470e-002, -2.36963764e-001,
          1.39027268e-001, -1.30563259e-001, 2.39367425e-001,
          -4.38097008e-002, 4.49513704e-001, -1.27575517e-001,
          3.89779627e-001, -1.19114652e-001, -9.33821350e-002,
          -1.78027488e-002, -2.02829763e-001, 2.52889782e-001,
          3.99772599e-002, 2.03458250e-001, 5.11058927e-001,
          -9.26732365e-003, -7.32390815e-003, 2.48223126e-001,
          -6.69138357e-002, 5.36038838e-002, -8.45788345e-002,
          2.77837425e-001, -1.23346448e-001, 1.23695172e-001,
          -8.02199170e-003, 7.98576921e-002, -3.02485824e-001,
          2.10304856e-001, 2.97562918e-003, -7.64223048e-003,
          -3.71358901e-001, 8.49791542e-002, -6.40731230e-002,
          1.23058513e-001, 2.04333931e-001, 5.22717237e-001,
          2.05051124e-001, -1.06365150e-002, 6.46668673e-002,
          7.41086826e-002, -3.00592035e-001, -1.04707358e-002,
          1.03115253e-001, 1.65344879e-001, 1.64056383e-002,
          -1.73562542e-002, 3.91450077e-002, 9.39634070e-002,
          -4.00669500e-002, -3.06133404e-002, 9.98739153e-002,
          1.58569574e-001, -3.39261964e-002, 8.38985108e-003,
          7.95782432e-002, 2.24670783e-001, -1.71085387e-001,
          -3.17223817e-002, -2.19562963e-001, 1.25030335e-002,
          1.11964971e-001, -6.50819987e-002, 6.02342933e-003,
          -2.66936928e-001, 3.16562712e-001, -1.91321205e-002,
          -1.41990587e-001, -8.67783502e-002, 3.93116809e-002,
          1.00338839e-001, 1.16271533e-001, 3.99568826e-002,
          1.73348978e-001, -6.39115423e-002, -1.95019886e-001,
          2.11264238e-001, 3.01346004e-001, -1.20604686e-001,
          6.16728701e-002, 1.45218465e-002, 4.61042859e-002,
          4.59102951e-002, -8.04763809e-002, -1.29148573e-001,
          -1.16875775e-001, 1.33143052e-001, 2.08708383e-002,
          -5.55459224e-002, -1.68068618e-001, 7.26579106e-004,
          2.50587881e-001, 2.33396664e-001, -9.63607207e-002,
          -6.71321973e-002, -1.14509650e-001, -1.01816393e-001,
          2.65670776e-001, -1.67679433e-002, -1.80893362e-001,
          -1.30494758e-001, 2.02251419e-001, 1.53215956e-002,
          8.44666362e-002, -1.97845623e-002, -1.76118612e-001,
          -4.13874909e-002, 6.07176647e-002, 1.75259605e-001,
          6.76620901e-002, -6.62265792e-002, -4.36531931e-001,
          1.90316051e-001, -2.29794942e-002, 1.70338839e-001,
          2.60363638e-001, 1.91914499e-001, -1.54528365e-001,
          7.11934343e-002, -4.17696945e-002, -2.40258947e-001,
          5.03867716e-002, 1.95966199e-001, 1.16070710e-001,
          1.16861030e-001, 5.28606713e-001, 2.51021981e-001,
          6.80787340e-002, 2.37555038e-002, 1.10979415e-001,
          3.07251692e-001, -2.15953439e-001, 3.80222462e-002,
          -2.29333825e-002, -3.32509935e-001, 4.49973419e-002,
          2.24412888e-001, 3.49519141e-002, -7.90950004e-003,
          -2.25030839e-001, -1.91771090e-001, 1.79538399e-001,
          -1.84605166e-001, -2.01086357e-001, 6.08764827e-001,
          3.32958205e-003, -6.22789413e-002, 2.95030236e-001,
          -2.89393455e-001, 4.13297027e-001, 9.33300108e-002,
          2.11541831e-001, 1.20996766e-001, 3.51594448e-001,
          -9.15180072e-002, 1.27189280e-002, 9.40072462e-002,
          1.55726507e-001, 4.87215281e-001, -1.23438984e-001,
          -1.89785048e-001, 8.56602639e-002, -1.58349618e-001,
          -2.53554165e-001, -4.72871959e-002, 6.43749088e-002,
          6.94128033e-003, 2.23089725e-001, -6.84897229e-002,
          -3.51993740e-002, -4.28716272e-001, 2.32313097e-001,
          -2.03712463e-001, 2.28066251e-001, 8.53500329e-003,
          -4.05495847e-003, -1.15579769e-001, 1.65934294e-001,
          -9.94865075e-002, 2.34371528e-001, -4.22319360e-002,
          -1.75507754e-001, 9.66928974e-002, 3.10854670e-002,
          2.88052022e-001, -1.25402614e-001, -3.32551539e-001,
          9.75857526e-002, -1.40324309e-001, -1.13822063e-002,
          9.22852010e-003, 2.42453173e-001, -6.07352406e-002,
          5.96932396e-002, 1.16684297e-002, -2.37286314e-002,
          7.88757950e-002, 1.33442124e-002, 1.44651504e-002,
          -1.87909111e-001, -1.28282771e-001, -8.25455338e-002,
          -1.49191260e-001, 3.76159064e-002, 6.20114990e-002,
          1.46652922e-001, -1.94423854e-001, -2.21901432e-001,
          -7.80411158e-003, 5.60115017e-002, 1.30585015e-001,
          -2.66983747e-001, 9.19067636e-002, -1.77950814e-001,
          4.40581655e-003, -1.69485033e-001, 8.97298940e-003,
          -3.18045378e-001, -3.82405937e-001, 1.89778641e-001,
          -8.28078091e-002, -3.82419080e-002, 1.65890992e-001,
          1.76949486e-001, -2.90958762e-001, 2.93486357e-001,
          1.26471147e-001, 4.29547429e-002, 7.44502768e-002,
          1.26987845e-001, -2.46403813e-001, -2.35428780e-001,
          1.20351650e-001, -3.16304043e-002, -1.26070887e-001,
          -8.24807677e-003, -6.61668852e-002, -1.06856920e-001,
          9.28014442e-002, 1.39922323e-002, -1.52559265e-001,
          2.07596153e-001, -3.95404100e-002, 2.21664935e-001,
          1.38883322e-001, 2.73615330e-001, 1.21332102e-001,
          9.06048939e-002, 7.09738016e-001, -2.55978256e-001,
          5.96038289e-002, -2.08829306e-002, 3.35170984e-001,
          8.14205632e-002, 4.23852876e-002, -3.08574766e-001,
          -1.96732879e-001, 1.78569425e-002, 5.21798491e-001,
          -1.34380132e-001, 5.48073575e-002, -1.92860380e-001,
          -1.93800345e-001, 1.25119522e-001, 2.00845271e-001,
          -1.86366156e-001, -3.75045270e-001, 1.16136938e-001,
          2.65538674e-002, -2.33750269e-002, -6.77991845e-003,
          -6.11040480e-002, 2.46500224e-002, 9.97058526e-002,
          1.65692996e-002, 2.11881995e-002, 1.79882929e-001,
          8.81301016e-002, 1.76103324e-001, 1.79056730e-002,
          1.45175457e-001, 2.43929237e-001, 4.26430634e-004,
          -1.66304290e-001, -1.22717239e-001, 1.50075004e-001,
          -1.32979631e-001, -8.07496160e-002, -8.33005458e-002,
          1.95295036e-001, -1.43850014e-001, -1.26339003e-001,
          -7.61779025e-002, -1.16874970e-001, -1.61270909e-002,
          2.86069185e-001, 1.88635051e-001, -1.94157407e-001,
          -3.01024728e-002, -6.10490516e-002, 1.06679901e-001,
          1.34783704e-002, -1.80261865e-001, 1.77021902e-002,
          3.65401171e-002, -1.30607814e-001, -1.17957331e-001,
          -4.74673584e-002, -6.82273060e-002, -2.78634727e-001,
          3.96474332e-001, 2.47825116e-001, 5.90673685e-002,
          6.21795356e-002, -1.60212666e-001, 2.78542042e-001,
          -1.85672585e-002, 1.99094504e-001, -6.81306422e-002,
          1.67165473e-001, -5.66461608e-002, -1.61345638e-002,
          -2.71280985e-002, 2.86788009e-002, 3.16290967e-002,
          -6.43041953e-002, 1.26810387e-001, -1.75253209e-002,
          6.96724504e-002, 4.55414318e-002, -2.06452742e-001,
          -1.65605426e-001, -1.40229389e-001, -2.94396486e-002,
          -1.63148105e-001, 2.15938110e-002, 5.23074083e-002,
          5.42108901e-002, 1.81789007e-002, -1.75980087e-002,
          -1.18887544e-001, -1.93022117e-001, 1.38069227e-001,
          3.26404832e-002, 4.44319956e-002, 6.12835214e-002,
          1.29411042e-001, -4.81046662e-002, -2.16783479e-001,
          1.65507272e-001, -4.20779102e-002, -1.01718746e-001,
          -2.08502039e-001, -8.19180459e-002, 7.50309899e-002,
          1.65844634e-001, -8.06893855e-002, 1.09336600e-001,
          -1.64123985e-003, 8.89962912e-002, -6.41057044e-002,
          -3.57901715e-002, 2.48042971e-001, -1.52965263e-001,
          -7.80023634e-002, -3.37785184e-002, -7.46926814e-002,
          -1.40291065e-001, 6.31157607e-002, 1.41497508e-001,
          7.38635808e-002, -1.52813286e-001, 4.46043089e-002,
          -6.38746703e-003, 1.19606741e-001, 8.97822604e-002,
          -3.28414857e-001, -1.08201087e-001, -2.94360697e-001,
          1.45478835e-002, -3.14724714e-001, -9.70355794e-002,
          1.19515017e-001, 8.39204565e-002, 9.71970484e-002,
          1.60951108e-001, 7.28292987e-002, -1.31033987e-001,
          -1.82336003e-001, -3.45381047e-003, -4.86415058e-001,
          -2.01746017e-001, -1.20371111e-001, 1.18304327e-001,
          -8.74628425e-002, -4.82419997e-001, -1.43196866e-001,
          3.24302703e-001, -1.96821183e-001, -4.02286470e-001,
          -1.36603922e-001, -3.22553664e-001, -3.48719627e-001,
          4.70139414e-001, -3.60048637e-002, 3.83837104e-001,
          2.13665649e-001, 2.22605273e-001, 2.61632800e-001,
          1.57045409e-001, 4.30289879e-002, 3.16438675e-001,
          -3.33713740e-001, 4.20739800e-002, 1.63350150e-001,
          3.29161763e-001, -1.60453752e-001, -1.53268740e-001,
          4.08772707e-001, -3.85283194e-002, -2.00964421e-001,
          1.70318093e-002, -7.39319101e-002, 1.35371447e-001,
          -3.65008891e-001, -2.33315788e-002, -7.95808211e-002,
          -2.96910942e-001, 1.75862893e-001, -1.96259484e-001,
          2.21163332e-001, -2.75595427e-001, 5.99094182e-002,
          2.54380088e-002, 1.66781470e-001, 4.05894779e-002,
          2.06558973e-001, 2.07589809e-002, 2.52249330e-001,
          -2.81417310e-001, 6.79998919e-002, 3.69191736e-001,
          -1.75570726e-001, 1.20008281e-002, -9.69801680e-004,
          9.96877477e-002, 2.97414333e-001, -2.06498250e-001,
          9.52497274e-002, 5.80572560e-002, 2.69516110e-001,
          -2.53770113e-001, -2.13416237e-002, -1.06612019e-001,
          -2.77606159e-001, -3.73403206e-002, -1.84753500e-002,
          1.85563833e-001, -9.21859391e-005, -2.37286687e-001,
          3.01281601e-001, 1.59777626e-001, -2.46277913e-001,
          -2.27095470e-001, -7.23859593e-002, 4.77012873e-001,
          1.58011526e-001, 1.97659031e-001, 1.34854257e-001,
          -1.55991271e-001, 2.45906308e-001, 3.03757846e-001,
          2.49288693e-001, 1.25138864e-001, 5.23778275e-002,
          -4.12741274e-001, -6.60674497e-002, 1.55283898e-001,
          2.07956657e-001, -1.00623518e-001, 1.08505882e-001,
          -1.32615119e-001, 9.41808075e-002, -2.45077863e-001,
          5.68665229e-002, 1.28121123e-001, 2.46936738e-001,
          -2.36419648e-001, 1.50701329e-001, 1.68979123e-001,
          -2.29600966e-001, 2.55652100e-001, -5.24425618e-002,
          -8.53822157e-002, -2.22219482e-001, -2.79190391e-001,
          9.58195031e-002, -1.23870686e-001, 1.12231158e-001,
          -1.28863797e-001, 4.34288196e-002, 3.03204153e-002,
          1.60709426e-001, 7.32225031e-002, -8.97696465e-002,
          -2.65519377e-002, -2.13110223e-001, 1.04723603e-001,
          2.31685534e-001, 1.53550655e-001, 7.28413761e-002,
          -2.98152901e-002, -2.47305602e-001, -3.00624609e-001,
          -1.65877670e-001, -2.28391960e-001, 8.31973106e-002,
          -5.89197218e-001, -3.36819924e-002, 7.41429031e-002,
          1.42915040e-001, 6.03744574e-002, 5.05849458e-002,
          -9.21775848e-002, -8.41992274e-002, 2.12276801e-002,
          1.85168877e-001, 5.83490636e-003, 2.79607385e-001,
          5.03862798e-002, 1.77325219e-001, 8.27038959e-002,
          -1.01302862e-001, -9.29887816e-002, 2.92706251e-001,
          4.66482490e-001, 4.60574292e-002, 1.19120799e-001,
          1.46636531e-001, 7.42975622e-002, 8.35917443e-002,
          6.32527351e-001, 1.33589581e-001, 1.68616593e-001,
          -1.94819242e-001, 1.71407163e-001, 1.95207179e-001,
          1.53494105e-001, 2.96365529e-001, -1.66559681e-001,
          -2.99811214e-001, 2.29485873e-002, 1.57414988e-001,
          8.14131461e-003, 6.33192882e-002, 1.73371449e-001,
          -1.69161484e-001, -2.19533052e-002, -1.37059642e-002,
          2.79916404e-003, 1.32549658e-001, 5.48449084e-002,
          9.41834077e-002, 2.68797250e-003, -7.42385583e-003,
          -5.01330476e-003, 2.54748225e-001, 1.71686277e-001,
          2.53719743e-002, 1.94981858e-001, -6.60268441e-002,
          3.48065287e-001, -6.76667271e-003, 1.86565623e-001,
          -9.89187062e-002, 1.70006692e-001, -3.56663689e-002,
          9.14086550e-002, 3.20766568e-002, 1.75662026e-001,
          -1.97663218e-001, 1.27392113e-001, 5.97451366e-002,
          -1.59488842e-001, 7.49586076e-002, 3.29750963e-002,
          -5.40410466e-002, -1.78013474e-001, -1.23115830e-001,
          -5.66283241e-002, 5.45865037e-002, 2.61502936e-002,
          -5.25789917e-004, -2.03608349e-001, 2.07528055e-001,
          -2.06606761e-001, -1.00923203e-001, 2.14770645e-001,
          -1.22874334e-001, 6.10830523e-002, -1.59716755e-002,
          -1.65536813e-002, -1.14388235e-001, -1.52636394e-001,
          -3.34310323e-001, 3.84760387e-002, 2.12001875e-002,
          2.16149651e-002, 1.95487171e-001, 1.08301245e-001,
          -1.86791345e-001, -1.19629383e-001, -7.53594860e-002,
          3.11130404e-001, -3.22054356e-001, -3.20778564e-002,
          -2.15943471e-001, 2.52572224e-002, -4.66881990e-001,
          2.41853580e-001, 2.83257842e-001, -2.51650631e-001,
          1.25111595e-001, -1.50830925e-001, 2.28736490e-001,
          1.53252646e-001, 2.00615466e-001, 2.03081891e-001,
          3.13999385e-001, -2.92762756e-001, 3.63860101e-001,
          -2.26131439e-001, -7.30311573e-002, 1.28925711e-001,
          -1.94082990e-001, 1.71524063e-001, 6.15484007e-002,
          1.14156097e-001, 2.26295948e-001, 6.81626350e-002,
          4.76546586e-002, 4.09294367e-002, -1.07608795e-001,
          7.55519807e-001, -2.48395279e-001, 1.28516957e-001,
          -2.33563960e-001, 2.53771335e-001, -5.70748150e-002,
          2.34068409e-002, 6.50449842e-002, -4.84578088e-002,
          3.43029648e-002, 1.70642987e-001, 1.99243307e-001,
          4.75839600e-002, -1.31826028e-001, -2.73889657e-002,
          1.08695380e-001, 3.06817681e-001, 2.43302822e-001,
          1.91046149e-001, 1.03070907e-001, -4.73930640e-003,
          -9.53470096e-002, 1.37985408e-001, 5.55439200e-003,
          8.57542902e-002, -1.01724997e-001, 1.14926491e-002,
          3.43908310e-001, 8.47861543e-002, 1.64241880e-001,
          4.74541962e-001, 1.56431183e-001, -4.38979305e-002,
          1.58789098e-001, 1.54320151e-001, -1.48755968e-001,
          7.30963945e-002, -2.34331712e-001, 5.49191758e-002,
          1.90201569e-002, 4.64882702e-002, -2.20493928e-001,
          -4.69707809e-002, 3.19044478e-002, -1.25778750e-001,
          8.75459313e-002, -9.09733176e-002, 1.57127365e-001,
          -1.75826088e-001, 5.58241867e-002, 4.19192128e-002,
          2.10510567e-001, 1.31550267e-001, 6.81200847e-002,
          9.71340090e-002, 1.16012678e-001, 6.13883473e-002,
          2.85672009e-001, 4.26890962e-002, 2.93216914e-001,
          -8.00692216e-002, -1.22329809e-001, 3.39195430e-001,
          -9.87670049e-002, -9.60994884e-003, 1.00980317e-002,
          2.22505219e-002, 1.28476741e-002, 2.30675384e-001,
          1.42792901e-002, -3.54274482e-001, 2.81919190e-003,
          -9.44563150e-002, -1.85482442e-001, -5.11402152e-002,
          -2.58207858e-001, 1.28815800e-001, -5.42725086e-001,
          4.44426984e-002, -1.87390804e-001, -1.17685527e-001,
          3.98662612e-002, 3.53615992e-002, 1.99608728e-001,
          2.04495098e-002, -8.41831341e-002, -1.28217697e-001,
          5.00662886e-002, 4.86827269e-002, 1.94391146e-001,
          -4.25354391e-002, 1.38961345e-001, -1.20846801e-001,
          -2.52724558e-001, 3.29160213e-001, -3.76220755e-002,
          -6.07358702e-002, 2.51152404e-002, 1.14712439e-001,
          -3.71782817e-002, -8.77439752e-002, -7.21399561e-002,
          1.18759610e-001, -3.44279766e-001, 3.52367252e-001,
          1.62341326e-001, 2.13659391e-001, 7.78288916e-002,
          1.18770376e-001, 2.59052329e-002, 1.23942621e-001,
          2.30625972e-001, -5.57215326e-003, -2.82287430e-002,
          -1.06846012e-001, 3.45868677e-001, -1.70371592e-001,
          9.46478397e-002, -2.81734997e-003, -7.94172511e-002,
          1.98302299e-001, 1.80184439e-001, 1.86441928e-001,
          1.69370562e-001, -1.14454627e-001, 5.03715724e-002,
          1.74445316e-001, 1.54261693e-001, 3.74351069e-002,
          1.45955443e-001, 2.38637000e-001, -1.58789471e-001,
          -1.10822069e-002, -2.20875368e-002, 1.17648179e-002,
          2.47276515e-001, 2.12989107e-001, -1.44363478e-001,
          -6.55730218e-002, 1.66932181e-001, -3.69137824e-001,
          1.10764891e-001, 4.32911739e-002, -4.55701143e-001,
          1.21397572e-002, 8.00616145e-002, 2.24176168e-001,
          4.59575728e-002, -2.55961686e-001, 2.29113802e-001,
          -8.55608881e-002, -1.19823935e-002, -8.88144597e-002,
          1.59414440e-001, 2.67774388e-002, 7.22478867e-001,
          -2.26808846e-001, -1.38842659e-002, 9.42263752e-002,
          -1.66768711e-002, 2.09737271e-001, 5.04114747e-001,
          3.03781122e-001, -1.85800701e-001, -1.66304454e-001,
          1.13227122e-001, 9.46809351e-002, 1.05781913e-001,
          1.63475618e-001, 8.02099984e-003, 2.46975329e-002,
          2.52392888e-001, -2.90739387e-002, 2.93709431e-002,
          -7.80419186e-002, -8.43909234e-002, 2.40663309e-002,
          1.55233428e-001, -6.35955781e-002, 2.64207631e-001,
          8.47674757e-002, -2.85303537e-002, 1.84916511e-001,
          8.98216814e-002, -1.77463457e-001, 7.85482600e-002,
          2.31530041e-001, 3.26865464e-002, 1.58942729e-001,
          -1.38721928e-001, 4.69244383e-002, 2.89557487e-001,
          2.56873784e-003, -1.36704534e-001, 9.21152532e-002,
          8.29311758e-002, -2.02165954e-002, 1.27954423e-001,
          1.57914072e-001, -8.52555409e-002, 1.87205542e-002,
          -1.95220754e-001, 1.19585367e-002, 1.61325887e-001,
          2.99321190e-002, -1.41804904e-001, -3.95879075e-002,
          3.16706032e-001, -1.14062972e-001, 9.99098644e-002,
          5.46585470e-002, 2.19723359e-001, -3.89838703e-002,
          1.10890821e-001, -1.29552037e-001, 1.75658107e-001,
          2.75082439e-001, 1.72944233e-001, 8.15019310e-002,
          -1.22690335e-001, -2.12797374e-002, 3.00463110e-001,
          3.08219582e-001, 5.64868115e-002, 2.45653659e-001,
          1.40893261e-003, 4.03401405e-002, -4.92217727e-002,
          -7.00859129e-002, 5.31037375e-002, 7.47809038e-002,
          -1.82974897e-002, -1.94523588e-001, 6.91318745e-003,
          1.49754167e-001, -2.02856600e-001, -1.35587066e-001,
          2.13752724e-002, 2.12616533e-001, -1.02625228e-001,
          2.06863329e-001, 8.85694325e-002, 2.41388991e-001,
          3.46282035e-001, -1.74607128e-001, 8.17169696e-002,
          -1.11125574e-001, -3.14618200e-002, -1.46435976e-001,
          8.76180679e-002, 1.52251244e-001, 2.64814645e-001,
          2.42510401e-002, 4.30792272e-002, -5.56394979e-002,
          -7.06337094e-002, 1.31008670e-001, -1.94295034e-001,
          2.65622623e-002, -2.06948981e-001, 4.67594564e-002,
          2.95700021e-002, -1.81530192e-001, -2.04932526e-001,
          2.26853013e-001, -6.85335277e-003, 5.67018688e-002,
          -6.07189238e-002, 5.09769432e-002, 7.52565116e-002,
          -6.84974194e-002, 2.11911704e-002, -1.69635192e-001,
          -5.90719171e-002, -1.59041047e-001, 2.56941468e-001,
          -3.33344430e-001, 1.76148131e-001, 2.15547364e-002,
          5.72952777e-002, -1.85734823e-001, 1.86734140e-001,
          -1.71395987e-001, 3.49805236e-001, 9.46063474e-002,
          -9.44989324e-002, 6.31663874e-002, 1.76609516e-001,
          4.96254079e-002, 7.15357214e-002, 2.08852500e-001,
          -4.22612071e-001, -2.73912381e-002, 7.42013240e-003,
          4.35843430e-002, 2.35606298e-001, 1.49179295e-001,
          -6.33807629e-002, 1.40433609e-001, 9.82049033e-002,
          1.01416431e-001, -1.19914219e-001, -9.56996623e-003,
          -6.96398923e-003, 7.72100464e-002, 1.31588474e-001,
          -7.27074742e-002, 3.11735302e-001, 4.50057611e-002,
          -2.97831316e-002, 8.34043398e-002, -1.32283151e-001,
          -9.56802722e-003, 4.50595804e-002, 1.25147119e-001,
          4.82521087e-001, -3.58979069e-002, -1.56059712e-001,
          4.13129449e-001, 2.12384351e-002, 2.31489949e-002,
          -2.40107939e-001, -6.65806904e-002, -4.43065502e-002,
          1.31045029e-001, -6.90740123e-002, -1.22034676e-001,
          1.52469492e-002, 2.48505585e-002, -6.42959960e-003,
          -3.48949194e-001, 8.50114226e-002, -2.51755148e-001,
          -5.70977964e-002, 1.17392994e-001, 9.25478861e-002,
          -1.08210035e-001, 1.47762522e-001, 2.53920741e-002,
          2.12730736e-001, 1.92670897e-001, 9.13202986e-002,
          7.12469816e-002, 1.33353680e-001, -3.09100002e-001,
          -1.79223374e-001, 5.97072206e-002, 1.77193373e-001,
          1.69620425e-001, -6.43695965e-002, 3.41463149e-001,
          1.89343527e-001, -6.16979115e-002, -3.07858028e-002,
          -9.36459471e-003, 8.73535126e-002, 7.71431252e-002,
          1.75489545e-001, 1.51768133e-001, -3.46957445e-002,
          1.06078304e-001, 1.63613439e-001, 2.62728008e-003,
          2.07504839e-001, 1.24201491e-001, 2.13960081e-001,
          3.95381674e-002, 1.87719151e-001, -8.93944688e-003,
          1.41348317e-001, -1.84205577e-001, 1.05444171e-001,
          -5.39011732e-002, -8.81839916e-002, 1.38214827e-001,
          -1.04917727e-001, -1.95352435e-001, -1.60821334e-001,
          1.77529946e-001, 2.03345776e-001, -1.73905909e-001,
          -3.85085553e-001, -5.49367145e-002, 2.30810866e-001,
          -7.86757469e-003, 2.47734003e-002, 7.00858831e-002,
          1.59356445e-001, -2.03482151e-001, 8.01688656e-002,
          1.30514547e-001, 2.26301730e-001, -1.33897923e-002,
          4.86914217e-001, 1.01698451e-001, 1.47262901e-001,
          1.84434485e-002, 2.96272725e-001, -7.40377456e-002,
          -9.43104699e-002, -4.72920090e-001, 2.73820609e-001,
          -6.60089254e-002, -1.96263641e-002, 5.64464152e-001,
          7.88972154e-003, 2.74318159e-001, -3.24949175e-002,
          2.84156978e-001, 3.14020254e-002, -2.79607605e-002,
          4.87308800e-001, 1.05642684e-001, 1.05750509e-001,
          1.72518164e-001, 3.99228662e-001, -4.04832810e-001,
          -1.45205677e-001, 9.04656649e-002, 6.37680143e-002,
          1.77597612e-001, -1.93561643e-001, 7.20755383e-002,
          2.55733788e-001, 2.46507034e-001, -4.99413088e-002,
          -3.49670812e-003, 1.46189511e-001, 1.67496309e-001,
          3.43350470e-002, 6.34439662e-002, 2.32402593e-001,
          -1.09060600e-001, 1.50420871e-002, -3.74754846e-001,
          2.90899724e-001, -8.19290895e-003, 4.01469395e-002,
          -1.81231871e-002, 1.39482483e-001, -3.05857897e-001,
          1.07168905e-001, 6.32733107e-002, -1.39339909e-001,
          -5.15330255e-001, 1.49961822e-002, 1.26062110e-001,
          -2.49718457e-001, -1.32125601e-001, 3.54314665e-003,
          -1.14687048e-001, 6.72821179e-002, 3.55912815e-003,
          -6.06840588e-002, 1.04164600e-001, -1.42601788e-001,
          2.23760203e-001, -2.51662303e-002, -1.82386354e-001,
          5.31526878e-002, -1.29271209e-001, 3.06005478e-001,
          -1.08910359e-001, 1.03602812e-001, -2.22965851e-002,
          1.25398085e-001, 2.72516608e-001, 1.33365229e-001,
          -6.05705269e-002, 1.77606836e-001, 1.66067764e-001,
          -1.13649867e-001, -1.32622123e-001, 1.69276714e-001,
          9.53160897e-002, 1.83701664e-002, 1.02272123e-001,
          2.16745019e-001, 7.15348274e-002, 2.29084030e-001,
          -2.22831473e-001, -2.20328718e-002, -1.25729479e-003,
          -1.67638376e-001, -6.27006590e-003, 1.94272891e-001,
          2.64239103e-001, 1.26900449e-001, 3.74871795e-003,
          4.73899156e-001, -5.00964224e-002, 7.24240318e-002,
          -2.12199107e-001, 3.41006190e-001, -1.97484329e-001,
          -1.76756993e-001, 8.73154849e-002, 2.99067110e-001,
          1.40830681e-001, 2.46051803e-001, -1.46648198e-001,
          8.37957188e-002, -9.69689619e-003, -6.88618943e-002,
          -8.07678550e-002, -1.46338329e-001, 1.75284341e-001,
          9.20279324e-002, -1.26430765e-001, 9.04227346e-002,
          3.64188820e-001, 1.66023850e-001, -1.33194596e-001,
          -4.37822081e-002, 5.58189228e-002, -1.58357307e-001,
          2.86052469e-002, 1.25965849e-001, 5.51345386e-002,
          5.64280786e-002, -2.30073646e-001, 8.52927864e-002,
          -7.53379613e-002, -6.20685332e-002, -1.45321876e-001,
          -7.44138286e-002, -2.23886669e-002, -1.88208707e-002,
          -2.25395963e-001, -5.95263280e-002, -2.74041593e-001,
          -8.77423212e-002, -1.04101926e-001, 9.44988728e-002,
          2.57518664e-002, 2.60174215e-001, 1.14115618e-001,
          9.20331627e-002, -5.44977821e-002, 6.55298121e-003,
          -9.44898278e-002, 2.05368400e-001, 4.66561578e-002,
          1.12451963e-001, 7.64836967e-002, 3.90392169e-002,
          2.30675623e-001, -9.18782596e-003, -1.60780206e-001,
          1.43755330e-002, -2.05888180e-003, -1.83738962e-001,
          -6.13047220e-002, -1.41414925e-001, -1.97370574e-001,
          4.95022275e-002, -3.63719836e-002, 1.10005490e-001,
          6.22260235e-002, -4.09374908e-002, -3.72020490e-002,
          7.97058791e-002, 2.38957748e-001, -1.44073665e-001,
          1.30020112e-001, 8.40100199e-002, 3.77046391e-002,
          7.42133241e-003, 1.09139919e-001, -5.11456951e-002,
          7.94362500e-002, -2.00468823e-001, 6.51054904e-002,
          -5.71687929e-002, 2.64334321e-001, -6.20900420e-003,
          -4.49267924e-002, -1.55634545e-002, -1.29379585e-001,
          -8.85990039e-002, -3.12197171e-002, -1.02270983e-001,
          5.86560257e-002, 6.68303594e-002, 1.77409872e-001,
          4.62423533e-001, -1.14572152e-001, -9.57623497e-002,
          -1.56973362e-001, 1.66036084e-001, 2.28562370e-001,
          -8.79681632e-002, -8.62129778e-002, 3.13767314e-001,
          3.99911016e-001, 3.62430692e-001, -8.49301368e-002,
          3.36606234e-001, 9.13926810e-002, -2.74341524e-001,
          -1.93267852e-001, -2.62966633e-001, 3.91847253e-001,
          1.30056515e-001, -2.48435885e-002, 2.29591981e-001,
          -2.70879269e-001, 2.24217013e-001, -1.29173189e-001,
          3.06179225e-001, -1.52564272e-001, -1.18691109e-001,
          -1.68418974e-001, -1.98076084e-001, 1.21538170e-001,
          7.44713917e-002, -1.36879668e-001, -2.72280991e-001,
          -1.52037740e-001, 9.18921530e-002, -5.83739839e-002,
          1.57599986e-001, -5.26894145e-002, 3.63672189e-002,
          3.79253142e-002, -9.45791230e-003, -1.87417403e-001,
          9.20266807e-002, 1.63424127e-002, 2.02813268e-001,
          6.91394284e-002, 2.07959011e-001, -6.46424219e-002,
          1.48758575e-001, 4.69662696e-002, -1.22209512e-001,
          -2.46076792e-001, -9.43130404e-002, 6.39578849e-002,
          7.16581419e-002, -5.49541712e-002, 1.42129004e-001,
          1.94601357e-001, -1.35396600e-001, -3.79583165e-002,
          1.10396102e-001, 7.22147524e-002, 9.17382017e-002,
          -5.63417673e-002, 2.60452688e-001, 4.53086793e-002,
          -4.33207601e-002, 3.77484933e-002, 9.81948823e-002,
          -4.50990489e-003, -1.99166775e-001, -6.83870688e-002,
          -1.97569579e-001, -1.10951386e-001, 1.05460556e-002,
          7.48226373e-003, 1.58720955e-001, -1.79246522e-003,
          -1.92946330e-001, -6.93043545e-002, 1.94611892e-001,
          -4.42903712e-002, 5.48552312e-002, -1.82158258e-002,
          -3.28586876e-001, -2.02590749e-001, -1.37223095e-001,
          -2.65381988e-002, 6.70793727e-002, -1.51672125e-001,
          5.08707203e-002, 1.38896611e-002, 1.51321650e-001,
          2.57226750e-002, -5.09801507e-002, -2.51039833e-001,
          6.57868907e-002, 2.11901501e-001, 1.53049394e-001,
          -6.77211583e-002, -9.72958505e-002, 4.54530604e-002,
          3.03659048e-002, 2.08305120e-001, 2.63066500e-001,
          -8.17124099e-002, 5.10691218e-002, 3.30111757e-002,
          3.06830198e-001, 2.29757968e-002, -6.55863062e-002,
          -2.10741013e-001, -6.62336797e-002, -1.35403574e-001,
          -6.53387001e-003, -1.79181501e-001, -2.87961811e-001,
          1.84068665e-001, 1.65437311e-001, 8.30827802e-002,
          6.12190738e-002, -1.06854461e-001, 1.30898371e-001,
          1.19783588e-001, -1.08646881e-002, -2.02391133e-001,
          -1.15889739e-002, -2.83895079e-002, -2.91753054e-001,
          -2.83746958e-001, -3.27417664e-002, -9.14499313e-002,
          -9.79762450e-002, 7.87006542e-002, 9.12220851e-002,
          3.43674421e-002, 2.65296549e-001, 2.11174064e-003,
          4.73228604e-001, -2.48403683e-001, -2.71895677e-001,
          -2.40103509e-002, 1.44670634e-002, -1.56455606e-001,
          -6.01981580e-002, 9.30749252e-002, 2.88535878e-002,
          2.36984670e-001, -1.38997752e-002, 2.41398007e-001,
          1.50722980e-001, 3.34498733e-002, -6.10761046e-002,
          2.23331731e-002, -3.47999424e-001, -1.11065451e-002,
          -2.52944767e-001, 6.44972920e-002, -1.41615644e-001,
          5.20295441e-001, 5.69823794e-002, -2.81754863e-002,
          1.54440105e-001, -1.09396085e-001, -2.52707843e-002,
          -1.32990614e-001, -7.96752200e-002, 2.16738626e-001,
          -4.23310371e-003, 1.85514987e-001, -9.57876742e-002,
          2.48735577e-001, 2.85017133e-001, -4.33141947e-001,
          -1.02412693e-001, 1.46304592e-001, -5.40053137e-002,
          -9.26208943e-002, 7.09696263e-002, -1.14935720e-002,
          3.09189707e-001, 1.68929454e-002, -2.04523787e-001,
          -6.38935715e-002, 2.29752213e-002, -3.67811620e-002,
          -8.35519750e-003, 8.09882134e-002, -4.49638888e-002,
          8.34348891e-003, -1.37873545e-001, 1.06646068e-001,
          -3.58629525e-002, 1.10415474e-001, -1.82716727e-001,
          -4.00254875e-001, 1.05544575e-001, 3.55084836e-002,
          1.74539864e-001, 3.68889570e-001, -1.15512468e-001,
          -3.95943336e-002, -1.84040084e-001, 1.64176017e-001,
          3.45147878e-001, 1.33244067e-001, -1.03684939e-001,
          2.00973526e-001, -1.05789363e-001, 1.19388670e-001,
          -3.03445369e-001, 1.30458087e-001, 1.21998549e-001,
          -1.42034575e-001, -2.09763750e-001, -1.19961381e-001,
          2.92002633e-002, -1.50508091e-001, -1.64329305e-001,
          -1.32028103e-001, 9.39532295e-002, 5.19871712e-002,
          1.62178627e-003, -4.27154787e-002, -1.66538879e-001,
          2.28476852e-001, -2.11775512e-001, -6.31500334e-002,
          1.11211285e-001, -6.98739886e-002, 2.48548716e-001,
          -6.07186146e-002, 2.03488633e-001, 1.18960492e-001,
          5.66907898e-002, 2.22990245e-001, 1.65110245e-001,
          4.30744104e-002, -8.10780376e-003, 3.01016301e-001,
          1.70944646e-001, 1.51406392e-001, 3.42537463e-001,
          -9.94457155e-002, 8.19918215e-002, 2.90183276e-001,
          2.64194697e-001, -3.08928061e-002, -2.41203476e-002,
          2.56603360e-001, 8.05549845e-002, 2.09356770e-001,
          -4.87994030e-002, -1.65076181e-001, 7.37816393e-002,
          1.37959093e-001, 1.23710847e-002, 2.03030556e-001,
          6.50406629e-002, 2.83098649e-002, -5.67263067e-002,
          -1.57162473e-002, 3.09056025e-002, 1.74885541e-001,
          -4.44722287e-002, -9.24763978e-002, 2.40613651e-002,
          1.41562581e-001, -1.41376093e-001, -8.69837999e-002,
          -9.35709924e-002, 9.62498188e-002, -1.50630683e-001,
          5.06591462e-002, 4.01995480e-002, 1.59154609e-001,
          -1.13875046e-001, 9.50646698e-002, -1.89737808e-002,
          -2.13044032e-001, 9.54410285e-002, 1.29226372e-001,
          6.78953677e-002, -4.65407148e-002, 1.77855924e-001,
          -1.80923283e-001, -1.15718432e-001, 8.41155797e-002,
          -1.03714883e-001, 4.15440165e-002, 5.47618270e-002,
          1.07143328e-001, -2.62329169e-002, -2.00108722e-001,
          3.03683393e-002, 2.67198265e-001, 4.57305741e-003,
          4.53280360e-002, 2.25569934e-001, -3.46125960e-002,
          -7.72066042e-002, -3.81716758e-001, 1.36651425e-002,
          1.57462284e-001, 2.86950245e-002, 2.12978691e-001,
          6.61203712e-002, -9.18788239e-002, 1.58281058e-001,
          -5.42429313e-002, -5.17357141e-002, 1.14385456e-001,
          2.80336607e-002, 1.74694151e-001, -1.89637974e-001,
          -9.65080038e-002, -1.98397875e-001, 2.71229625e-001,
          -1.26633465e-001, 7.41344616e-002, 2.35987902e-002,
          1.59955263e-001, -1.09404087e-001, -1.25509307e-001,
          8.84030089e-002, -3.31753969e-001, 3.18997428e-002,
          -1.42744392e-001, 9.18238461e-002, -1.65874258e-001,
          -1.01965718e-001, 1.03774674e-001, 2.25682855e-001,
          -2.26576105e-001, -2.66926512e-002, 5.92451021e-002,
          -4.02326107e-001, 3.37022431e-002, -2.55757362e-001,
          -1.84145108e-001, -2.45019689e-001, 4.65134710e-001,
          -1.92605317e-001, 1.85432434e-002, 1.66790038e-001,
          5.36643080e-002, 1.19876973e-001, -2.29387283e-001,
          -9.33797285e-002, -2.45073706e-001, 1.17212452e-001,
          -2.62659848e-001, 1.56851485e-002, 1.78733304e-001,
          -8.65343437e-002, -1.53245807e-001, -1.49318218e-001,
          -2.74067894e-002, 2.52719641e-001, 9.65845585e-002,
          1.94780707e-001, -7.84880947e-003, 1.90432385e-001,
          1.23985618e-001, 1.80190310e-001, 1.51299298e-001,
          -3.28583494e-002, 4.71086949e-002, 1.67948380e-001,
          1.41315416e-001, 4.09834594e-001, -2.73172140e-001,
          -2.10296605e-002, 2.93121971e-002, 7.25627989e-002,
          -2.75544375e-002, 3.61181378e-001, 1.39920861e-001,
          -4.46241528e-001, -8.81181359e-002, 2.25016363e-002,
          2.36079037e-001, 2.53138095e-001, 5.26102372e-002,
          2.25636642e-002, 1.38369530e-001, 1.21782981e-001,
          -2.77450737e-002, 8.30985978e-002, 3.03915218e-002,
          2.80966371e-001, -1.19188949e-001, 2.20257208e-001,
          6.20350659e-001, 1.34450719e-001, -1.53017104e-001,
          -1.16128124e-001, 1.20380662e-001, 1.74001873e-001,
          -4.01998371e-001, -3.16628851e-002, 2.70436227e-001,
          1.40099572e-002, 5.51760048e-002, 4.20203418e-001,
          1.71570480e-001, 1.41764894e-001, 9.19934958e-002,
          2.32073009e-001, 2.70894110e-001, -4.49702181e-002,
          1.12196781e-001, 5.99016668e-003, 2.39250153e-001,
          2.34418903e-002, 1.40803576e-001, 1.54970437e-001,
          3.25005174e-001, 9.24107879e-002, -9.38537123e-004,
          2.11939052e-001, -8.48134905e-002, -6.96384860e-003,
          2.87069738e-001, 9.60397869e-002, -2.56512612e-002,
          2.47530207e-001, 1.78919777e-001, 7.88869187e-002,
          2.40474433e-001, -4.45597386e-003, -1.27020329e-001,
          -4.15193923e-002, -1.37410969e-001, -1.38958007e-001,
          -1.44265175e-001, -2.87649296e-002, 2.83169895e-002,
          6.44750148e-002, -8.37469324e-002, 2.65750736e-001,
          -4.84494604e-002, -3.87578696e-001, -1.30167589e-001,
          9.18337628e-002, 5.51869452e-001, -5.07635251e-002,
          -1.28115952e-001, -5.60222864e-002, 1.94189876e-001,
          -2.81588025e-002, -2.59083420e-001, -1.11944176e-001,
          -1.93373278e-001, 1.84143484e-001, 2.44041458e-001,
          -1.73293814e-001, 6.84524924e-002, 2.68875271e-001,
          1.18992470e-001, -6.77195340e-002, -1.67822644e-001,
          1.35022953e-001, 1.84679218e-002, -1.86141774e-001,
          2.81996787e-001, 3.01721454e-001, -8.10782835e-002,
          -1.20116845e-001, 2.17008919e-001, 2.37448573e-001,
          -3.69851559e-001, -2.49632031e-001, 1.42615110e-001,
          -4.30395789e-002, -4.21512090e-002, 1.79914534e-001,
          -7.95929804e-002, -3.77641618e-001, 4.04198110e-001,
          -5.16878255e-002, 1.35990486e-001, 8.56595766e-003,
          -1.66423082e-001, 2.56305158e-001, -1.99614018e-001,
          -1.00549899e-001, -1.04487143e-001, -1.61590636e-001,
          -2.89569497e-001, 1.07881911e-001, 9.41575840e-002,
          2.79039919e-001, 1.21774122e-001, 8.41038078e-002,
          -2.58401453e-001, 8.30395147e-002, -2.29899287e-001,
          3.61552745e-001, 5.99275604e-002, -1.62553159e-003,
          -1.03398800e-001, -5.54450974e-002, 1.04406759e-001,
          1.23923831e-001, -2.63176620e-001, -1.53503910e-001,
          3.98657843e-002, -3.32919657e-002, 2.33142972e-002,
          3.92899722e-001, -1.48971826e-002, -2.48064678e-002,
          2.44742204e-002, 1.16424456e-001, -5.77324368e-002,
          4.50730771e-002, -1.55510247e-001, -8.50186571e-002,
          2.75176913e-002, 8.78534392e-002, 1.62452133e-003,
          2.75728554e-002, -1.50651157e-001, 1.29226983e-001,
          -4.71122786e-002, -1.70587793e-001, 2.42360279e-001,
          1.49043498e-003, 1.57976091e-001, 1.21232465e-001,
          -4.13594879e-002, -1.77513629e-001, 1.20778464e-001,
          -4.53484468e-002, -1.52721018e-001, -6.46659508e-002,
          4.10909027e-001, 1.35481268e-001, 3.41687491e-003,
          -1.04699604e-001, -1.30497053e-001, 6.09040745e-002,
          -7.05128908e-002, 8.91701430e-002, -2.79857852e-002,
          -8.35592800e-004, 7.79907480e-002, -6.78684339e-002,
          -3.65205973e-001, -1.62531942e-001, -6.17624596e-002,
          7.20636919e-002, -2.76048541e-001, 1.26723424e-001,
          1.93672240e-001, 2.01549202e-001, -3.65503222e-001,
          8.92260596e-002, 2.17315033e-001, 1.21492013e-001,
          -1.99686319e-001, -1.56109571e-001, -2.91391104e-001,
          7.20541403e-002, 1.08838245e-001, -1.49912164e-001,
          3.17173660e-001, -2.72587482e-002, 2.67169550e-002,
          -2.06652343e-001, -1.40620589e-001, -2.08294719e-001,
          1.02310508e-001, 1.35073632e-001, -2.72074603e-002,
          -1.82178065e-001, 1.84132993e-001, -9.23009813e-002,
          3.18825066e-001, 1.95327066e-002, 3.70364726e-001,
          -1.33559853e-002, 2.94888834e-003, -9.60232988e-002,
          -8.77203271e-002, 1.70896098e-001, 2.21257985e-001,
          9.97489020e-002, 1.89984038e-001, 3.75806808e-001,
          4.38276604e-002, 8.22879001e-002, -5.01764938e-002,
          1.51379898e-001, 5.59015572e-002, -1.05705835e-001,
          -4.63818647e-002, -1.31730363e-001, 2.25700378e-001,
          7.91929886e-002, 5.12135327e-002, 2.20261827e-001,
          1.10070936e-001, 1.11156054e-001, -1.60950094e-001,
          4.50842679e-002, -7.25697353e-002, 5.00863977e-002,
          1.26458406e-001, -1.79320291e-001, -9.90851521e-002,
          3.78901780e-001, 3.03656738e-002, 4.62594360e-001,
          8.33401680e-002, 7.39838630e-002, 2.92695761e-001,
          8.68451744e-002, 5.26184477e-002, -1.17211372e-001,
          4.35068868e-002, 5.52549362e-002, -2.04984069e-001,
          1.60026014e-001, 8.35755318e-002, 1.00992294e-002,
          -3.67434025e-001, 3.21237266e-001, 2.10137561e-001,
          6.26606494e-002, -1.69500977e-001, 2.22027749e-001,
          -1.23342782e-001, -3.33208114e-001, 3.64448905e-001,
          2.48499855e-001, -1.23287991e-001, 2.35089377e-001,
          6.21733665e-002, 3.97177458e-001, 9.60908011e-002,
          3.13165128e-001, -2.91573573e-002, -1.71661317e-001,
          -1.96721759e-002, -1.56055331e-001, 1.29372757e-002,
          3.41736585e-001, -6.74197674e-001, 3.48873258e-001,
          -3.09480564e-003, -2.64011741e-001, 3.82269956e-002,
          -1.95766896e-001, -4.67062235e-001, 1.52657181e-002,
          1.06936611e-001, 4.69515502e-001, -2.02391937e-001,
          5.16993878e-003, 7.48348683e-002, 6.21073283e-002,
          1.24661647e-001, 7.04764389e-004, -1.96850114e-002,
          8.28322992e-002, -2.90598478e-002, 3.33134711e-001,
          1.56785250e-002, 1.56256661e-001, -1.71816885e-001,
          -1.36160702e-001, 1.51448607e-001, -3.09708323e-002,
          -1.43308550e-001, 1.42471075e-001, 1.87737476e-002,
          -1.05015866e-001, -4.81542051e-002, -1.30274951e-001,
          3.24202366e-002, 1.87543496e-001, 1.93902612e-001,
          1.14687243e-002, 1.11360922e-001, 5.92302494e-002,
          5.57658114e-002, -1.02277182e-001, 1.17995664e-001,
          -2.84955390e-002, -1.18575804e-001, 5.56359366e-002,
          2.10992023e-001, -1.29553834e-002, 1.39151691e-002,
          6.15459532e-002, -2.23693445e-001, -1.37987696e-002,
          -1.69385761e-001, -2.06772983e-002, -1.56388953e-001,
          5.87557144e-002, -8.19601342e-002, -2.60013551e-001,
          -1.28984243e-001, -1.02265693e-001, -1.60718203e-001,
          -1.29283294e-001, 4.07243311e-001, 2.44407237e-001,
          1.75462991e-001, -1.68612659e-001, -1.54142544e-001,
          6.00204349e-001, 2.85182655e-001, 2.13026717e-001,
          -1.90943736e-003, 1.88013822e-001, -4.04739231e-002,
          1.47833720e-001, 3.58387619e-001, 4.12052333e-001,
          -4.62322943e-002, 8.44128523e-003, 1.69564322e-001,
          -3.54545526e-002, 6.54600188e-002, -1.43352792e-001,
          1.23779148e-001, -3.38479519e-001, 1.70627832e-001,
          -1.89545259e-001, 3.77491452e-002, -6.88199624e-002,
          2.55124182e-001, -9.91861820e-002, -1.06632620e-001,
          -4.40660901e-002, 1.32809490e-001, 5.58341257e-002,
          2.59248819e-002, 2.89052665e-001, -2.23599881e-001,
          5.28459437e-002, -1.43875182e-001, 1.75167173e-001,
          -1.72816992e-001, 2.64982767e-002, -1.06682427e-001,
          -6.18012883e-002, 9.54100415e-002, 8.58525783e-002,
          2.03862816e-001, -3.07178609e-002, -9.36562754e-003,
          -1.71342328e-001, 2.37912849e-001, 4.62579317e-002,
          7.92644098e-002, -2.86867052e-001, 1.13224916e-001,
          -7.05300272e-002, -9.07279849e-002, 2.96720237e-001,
          1.22459251e-002, -5.73608093e-002, 3.44544142e-001,
          -3.71119604e-002, 5.99580765e-001, -1.87730491e-001,
          -1.77512169e-001, -3.72452170e-001, 1.40966162e-001,
          -4.69557345e-002, 3.09236795e-001, 1.53176382e-001,
          9.86080840e-002, 4.66349088e-002, -6.29559681e-002,
          4.44116175e-001, -1.92340724e-002, -3.06668486e-002,
          4.83284444e-001, -1.84274793e-001, 4.17363904e-002,
          -8.34566206e-002, -1.52824232e-002, -5.30589931e-003,
          -2.27476045e-001, 1.88680232e-001, 1.56486332e-001,
          4.66234684e-002, 4.88082791e-004, -1.63627148e-001,
          1.11900948e-001, -1.84884593e-001, -1.56091928e-001,
          -2.20707431e-002, 2.90876217e-002, 3.09239656e-001,
          1.15017407e-001, 1.41747845e-002, 1.49462253e-001,
          -1.10212378e-001, 2.78606176e-001, -1.01136804e-001,
          1.46386318e-003, 2.61192232e-001, -1.91008478e-001,
          4.21725273e-001, 1.74389541e-001, -1.31966053e-002,
          6.52714297e-002, -2.64305234e-001, -5.60286902e-002,
          5.48962057e-002, -1.81650490e-001, 6.27416372e-001,
          -1.04309998e-001, -3.14283758e-001, 6.98667020e-002,
          1.24469064e-001, -9.99477357e-002, 2.60621250e-001,
          -8.65881965e-002, -9.38655064e-002, 3.63221347e-001,
          -1.03207357e-001, -1.68112889e-001, -4.20177609e-001,
          2.36414045e-001, 7.25839213e-002, 1.75323546e-001,
          1.90076962e-001, -1.26373217e-001, -1.98100686e-001,
          1.79206803e-001, -1.24767371e-001, 2.05800980e-001,
          7.11840764e-002, 6.39539212e-002, -4.15781364e-002,
          9.38059613e-002, -6.16090409e-002, 1.34875625e-001,
          -3.80175970e-002, -1.65609106e-001, -4.82066683e-002,
          2.12448150e-001, 5.98765425e-002, -2.39765003e-001,
          -1.79093480e-001, 2.11205110e-001, 2.10212737e-001,
          -1.27130300e-001, 2.55493701e-001, 1.64366141e-001,
          -3.31687003e-001, -7.05158487e-002, 2.99734652e-001,
          1.14008069e-001, -5.16870506e-002, 2.10662752e-001,
          1.96715593e-001, 1.47513766e-002, 5.89775071e-002,
          -7.79067213e-003, -2.50933081e-001, 6.45605251e-002,
          -1.78518429e-001, 3.20871115e-001, -1.07562253e-002,
          1.70013364e-002, 1.26287669e-001, -5.87455789e-003,
          1.37201354e-001, 1.52241662e-001, 5.61688691e-002,
          1.11201994e-001, 7.96480104e-002, 1.63952913e-002,
          2.70911515e-001, 2.53550708e-001, -2.54557252e-001,
          2.59643346e-001, -1.24034278e-001, 1.70048267e-001,
          8.41528177e-002, 6.32701367e-002, 3.23146760e-001,
          1.20125331e-001, -4.67721261e-002, 8.71180221e-002,
          -3.71788353e-001, -1.66548461e-001, 1.92371216e-002,
          2.05282986e-001, -1.11985520e-001, 2.36195698e-002,
          3.01683217e-001, 3.92542213e-001, -2.25206822e-001,
          9.97990742e-003, 1.19762488e-001, 3.54149193e-002,
          7.21761733e-002, 1.01383485e-001, 4.84951474e-002,
          2.18231808e-002, 1.89795308e-002, -3.43226886e-004,
          -2.04338193e-001, 2.85010727e-004, -2.85792112e-001,
          3.33368897e-001, 6.77827979e-003, -2.23554015e-001,
          1.64316222e-001, -9.77006257e-002, -1.17678054e-001,
          -8.31994042e-002, 1.73303634e-001, 2.38633156e-001,
          -1.48875229e-002, 2.68490314e-002, -2.03804120e-001,
          -5.33314086e-002 ]
      - [ -1.11488777e-003, -9.03988723e-003, 2.99706560e-004,
          3.58141260e-004, -7.54028885e-003, -5.17233554e-003,
          -1.79530471e-004, -4.98645334e-003, 2.69032945e-003,
          -4.81008459e-003, 2.91139330e-003, 3.24958889e-003,
          2.68737110e-003, 3.43256257e-003, -1.15963258e-002,
          4.88978752e-004, -1.16593912e-002, 5.44000138e-003,
          -6.37560897e-003, -3.04008229e-003, -9.07625817e-003,
          6.29635574e-003, -5.92854107e-003, -2.38126796e-003,
          4.86525567e-003, 4.11881221e-004, 4.31459863e-003,
          2.19414406e-003, 1.67795655e-003, 7.45923398e-003,
          -6.52716821e-003, 4.39240225e-003, -4.09973785e-003,
          2.35989760e-003, -7.51005579e-003, 1.60350977e-003,
          2.14072200e-003, -1.98477483e-003, 2.66017159e-003,
          -1.14503857e-002, 3.59659456e-003, 4.45089256e-003,
          4.20295354e-003, -1.22527862e-002, -7.92488176e-003,
          -4.31497302e-003, -2.14036484e-003, 3.53559246e-003,
          -2.94067012e-003, -1.72988675e-003, 5.30133862e-003,
          3.05513688e-003, -6.98104827e-003, 4.48538736e-003,
          3.62006598e-004, -1.97428628e-003, 2.09634751e-003,
          -6.77188253e-003, 1.37802018e-002, 2.49836361e-003,
          -2.61129858e-003, 7.96712993e-004, -9.88884922e-003,
          -5.40970452e-003, -1.72662940e-002, -1.14581361e-002,
          -8.55013495e-004, -4.62833326e-003, -1.01805190e-002,
          -6.22143969e-004, -1.60097349e-002, -1.87244900e-002,
          -2.22819895e-002, -2.63591553e-003, -1.18537555e-002,
          2.71594804e-003, -1.35812499e-002, -2.46641692e-002,
          -3.34607391e-003, -1.07942298e-002, -1.45433256e-002,
          -4.26169718e-003, 4.13850555e-003, -1.21830655e-002,
          -9.10810474e-003, -1.12854932e-002, -8.14357249e-004,
          -1.75762773e-002, -1.79851539e-002, -7.12397275e-003,
          -1.47534627e-002, 3.36981937e-003, -1.23007428e-002,
          -1.07139079e-002, 2.24479241e-003, -8.29791930e-003,
          -9.91245359e-003, -2.03845520e-002, 1.11593028e-004,
          -7.19691999e-003, -1.18714320e-002, -4.85677924e-003,
          -5.31689404e-003, -7.76090333e-003, -4.54741716e-003,
          1.29628954e-002, -1.30798034e-002, -4.18569194e-003,
          -9.40673612e-003, 4.12068376e-003, -1.24085201e-002,
          4.98086389e-004, -5.52639319e-003, -1.14252418e-002,
          -7.81035656e-003, -7.07553793e-003, 1.25103607e-003,
          -1.13555351e-002, 4.99612419e-003, 2.36658589e-003,
          -1.51678342e-002, -1.58405490e-002, 1.10908579e-002,
          1.35079375e-003, -4.63219266e-003, -7.83754420e-003,
          3.78060527e-003, -1.08431755e-002, 1.06132971e-002,
          7.49232667e-003, -5.61673008e-003, 7.11507211e-003,
          -1.89599246e-004, 1.26751093e-003, -1.29820150e-003,
          2.24798713e-002, 3.95745598e-003, 3.68901133e-003,
          6.18899183e-004, -3.04902182e-003, 3.87873151e-003,
          7.92607944e-003, -3.59430071e-003, 1.57462840e-003,
          -9.97127406e-003, 1.09810894e-002, -3.40971351e-003,
          5.42651862e-003, 7.11358059e-003, -2.69872649e-003,
          1.30103249e-002, 3.36525170e-003, 1.06188736e-003,
          1.40907604e-003, 7.06421025e-003, 6.95516169e-003,
          -6.37111999e-003, 3.88246449e-003, 2.08273996e-002,
          2.14669504e-003, -9.76862665e-003, -8.19430873e-003,
          -7.16635073e-003, -2.10732198e-003, -2.58174987e-004,
          -4.77295602e-003, -8.06182437e-003, -1.42039377e-002,
          -6.30789576e-003, 1.75131275e-003, -6.04435336e-004,
          -7.39666587e-003, -4.18529613e-003, -6.39554439e-003,
          5.35189116e-004, -3.97503795e-003, -8.45080707e-003,
          -6.15941454e-003, -8.62030219e-003, -4.48578037e-003,
          -1.30100711e-003, -1.01439154e-003, -1.91581808e-003,
          -4.13664011e-003, 9.33903444e-004, -8.48273095e-003,
          4.32784786e-004, -1.14195747e-002, -5.73418057e-003,
          -3.97525728e-003, -1.03692822e-002, -5.69480751e-003,
          -1.06770284e-002, -1.50807016e-003, -6.37409417e-003,
          1.33732636e-003, -6.20016921e-003, 6.26995508e-003,
          -2.52885441e-003, -8.07173736e-003, -3.01988050e-003,
          3.21387080e-003, -2.48931639e-004, 2.97017209e-003,
          -2.84027192e-003, -5.66059491e-003, -1.95237622e-003,
          -1.58829021e-003, -5.88379684e-004, -5.68755716e-003,
          3.32182995e-003, -7.68550858e-003, -7.64957583e-003,
          -4.60253982e-003, -4.68999962e-004, -3.55961523e-003,
          -2.25270167e-003, -2.33940408e-003, 7.70533166e-004,
          -2.89787655e-003, -5.65097015e-003, -2.58879038e-003,
          -1.03171431e-002, 3.19275656e-003, 7.54037220e-003,
          1.19528156e-002, 1.99297126e-002, 1.33354580e-002,
          1.63982026e-002, 1.44768124e-002, 1.50016872e-002,
          9.08399001e-003, 1.02278562e-002, 1.23317288e-002,
          9.88304056e-003, 1.84746962e-002, 9.12598055e-003,
          -5.83103276e-004, 9.32900643e-004, 2.72997525e-002,
          1.09732132e-002, 5.92522463e-003, 9.76132229e-003,
          9.76010785e-003, 1.11360895e-002, 1.14881964e-002,
          1.03022605e-002, 1.55088855e-002, 6.11461187e-003,
          6.03934610e-003, 2.12555844e-002, 4.18550335e-003,
          4.97741438e-003, 1.46025550e-002, 1.56107768e-002,
          1.05832955e-002, -1.14772171e-002, -6.93634572e-003,
          -5.24849445e-003, 6.85111852e-003, 1.25487975e-003,
          -1.41042750e-003, -1.19073112e-002, 2.71374267e-003,
          -9.94788576e-003, 3.35362321e-003, -1.23385154e-002,
          -6.28286786e-003, -3.88187380e-003, 3.14780767e-003,
          6.95304526e-003, -2.07076129e-003, -5.01729408e-003,
          -3.95075139e-003, -4.72627021e-003, -3.70276393e-003,
          3.88630037e-003, -4.94686747e-003, -7.43955979e-003,
          -1.32428911e-002, -1.48374995e-004, 8.38905852e-003,
          -7.00650597e-003, 1.66741211e-003, 6.58975856e-004,
          -1.81232544e-003, -8.63786507e-003, -1.10085774e-002,
          -2.92268638e-002, -2.74672695e-002, -4.49662916e-002,
          -1.83573160e-002, -2.95290425e-002, -2.96409000e-002,
          -1.59640294e-002, -2.55751908e-002, -2.15043016e-002,
          -2.32412610e-002, -2.32396331e-002, -3.97945829e-002,
          -3.30154337e-002, -3.20584811e-002, -3.34554985e-002,
          -2.85749193e-002, -2.77351551e-002, -3.34072523e-002,
          -2.41102949e-002, -2.28200853e-002, -3.05765290e-002,
          -2.58864071e-002, -1.55394925e-002, -1.39779141e-002,
          -3.05620916e-002, -3.13142650e-002, -2.09181383e-002,
          -2.73471363e-002, -2.39767563e-002, -3.34226452e-002,
          -1.99961830e-002, -2.85424609e-002, -4.03493363e-003,
          5.78037114e-004, -5.20088430e-003, 3.97624262e-003,
          4.85626399e-004, -1.04948203e-003, -3.45907942e-003,
          -5.35685848e-003, -6.79284660e-003, -5.03491284e-003,
          -5.25631383e-003, 8.66885006e-004, -8.11516494e-003,
          -5.04425028e-004, 1.73257955e-003, -6.69268286e-003,
          -9.00106505e-003, 6.68948609e-003, -2.43172632e-003,
          -1.71323703e-003, 1.48678035e-003, -2.53013079e-003,
          -2.95160175e-003, -1.41575569e-002, -7.17686675e-003,
          -4.13157861e-004, -6.23866450e-003, -5.54516353e-003,
          -4.34596650e-003, 3.56357568e-003, 4.68943734e-003,
          -2.78263167e-003, -1.22735752e-002, -1.27005838e-002,
          2.35370034e-003, -1.36563545e-002, -5.55487955e-003,
          -4.79426747e-003, -2.97396979e-003, -4.10002144e-003,
          -9.78473388e-003, -1.05612678e-002, -1.04880836e-002,
          -1.92253105e-002, -2.61014700e-003, -1.38076711e-002,
          -1.19128516e-002, -5.93080744e-003, -6.54856348e-003,
          -7.72237638e-003, -1.99645292e-003, 9.87530220e-004,
          -1.21953655e-002, -8.12901370e-003, 6.14028331e-003,
          -4.95163118e-003, 3.50951031e-003, -6.36950077e-004,
          -4.28308314e-003, -6.53251028e-003, -1.39064435e-002,
          -1.85400993e-002, -2.55302247e-003, -1.41233746e-002,
          1.46052362e-002, 4.36747866e-003, 4.24301345e-003,
          -1.92168308e-003, 3.74815776e-003, 1.37407584e-002,
          3.17915133e-003, 1.06424105e-003, 2.65805982e-004,
          1.09646246e-002, 1.28319710e-002, -1.25799421e-003,
          3.17228632e-003, 1.14526115e-002, 2.12718081e-002,
          6.38691150e-003, 6.58554723e-003, 1.07013350e-002,
          1.25361793e-003, 8.37394875e-003, 9.24332440e-003,
          8.30790773e-003, 1.24851323e-003, 3.97589244e-003,
          6.08061906e-003, 3.79856280e-003, 1.00597497e-002,
          1.84913911e-002, 2.62848032e-003, -2.33825226e-003,
          -2.61016842e-003, 1.84118953e-002, 9.10169678e-004,
          -1.57940667e-002, 3.44338012e-004, 3.44350748e-003,
          -3.59782134e-003, -4.86483332e-003, -2.86513241e-003,
          -5.61687211e-003, -3.97432549e-003, -1.31852059e-002,
          -1.40187040e-003, 3.09683429e-003, -3.75055801e-003,
          -6.55401545e-003, 2.29285448e-003, -1.06393499e-002,
          -9.30443034e-003, -1.00794835e-002, 2.30140332e-003,
          -5.30071976e-003, -1.24082584e-002, -1.26622925e-002,
          1.91472107e-004, -2.21370463e-003, -7.96607416e-003,
          6.23204606e-003, -4.23391466e-004, -7.89013319e-003,
          -7.72032375e-003, 1.92502141e-003, -8.72573536e-003,
          -5.99528337e-003, 1.65944919e-002, 2.28789598e-002,
          1.75735615e-002, 1.33670457e-002, 2.09875181e-002,
          1.63309239e-002, 3.50614414e-002, 3.03029381e-002,
          1.34406900e-002, 2.14555226e-002, 3.11159454e-002,
          2.23841313e-002, 3.01972795e-002, 2.19646581e-002,
          2.45995335e-002, 3.47801484e-002, 3.35185304e-002,
          2.72368416e-002, 1.95160937e-002, 1.43808033e-002,
          2.40956526e-002, 2.36820802e-002, 1.28936563e-002,
          1.42950602e-002, 1.80551615e-002, 2.45135352e-002,
          2.71648839e-002, 1.75867695e-002, 2.37859543e-002,
          2.07265429e-002, 3.48566063e-002, 2.37785112e-002,
          -4.94687213e-003, -6.94407523e-003, -8.34474992e-003,
          -1.57091604e-003, -2.05138186e-003, -7.40892603e-004,
          -2.47201067e-003, 3.15417536e-003, -2.87513947e-003,
          2.47935881e-003, -5.64962626e-003, -4.49437834e-003,
          -1.33885827e-003, -4.45001153e-003, -7.78552145e-003,
          -1.43858837e-003, 2.32433062e-003, -6.24717027e-003,
          -4.14686697e-003, 3.00553534e-003, 4.73255944e-003,
          1.43065851e-003, -2.46207067e-003, -4.08165064e-003,
          -1.29032144e-002, -8.41687142e-004, -5.86347422e-003,
          3.78070679e-003, 2.21474460e-004, -2.07922631e-003,
          8.65016540e-004, -7.87070859e-003, 2.03057453e-002,
          2.75223553e-002, 2.97878385e-002, 2.58202963e-002,
          2.88086943e-002, 2.68522836e-002, 1.62028167e-002,
          2.38727350e-002, 1.01259397e-002, 2.47755684e-002,
          2.75116675e-002, 3.24397087e-002, 2.81394813e-002,
          3.51087227e-002, 2.96110529e-002, 2.73327399e-002,
          1.89773962e-002, 3.04206647e-002, 3.29085551e-002,
          2.49753278e-002, 2.78802533e-002, 2.14451272e-002,
          2.30216905e-002, 2.45832615e-002, 2.53456291e-002,
          2.33433768e-002, 2.98598669e-002, 2.88546532e-002,
          2.19247527e-002, 2.25499943e-002, 2.14563143e-002,
          2.16352344e-002, -5.10006770e-003, -4.34434693e-003,
          5.52448165e-003, 8.74285679e-003, 6.49028411e-003,
          -1.22025202e-003, 6.47550169e-003, -4.70209075e-003,
          2.06593368e-002, 4.41348733e-004, 1.54968100e-002,
          -4.94763767e-003, 6.75024185e-003, 5.00791660e-003,
          7.17872987e-003, 3.67450382e-004, 5.98510075e-003,
          1.11311786e-002, 1.67805851e-002, 4.02202888e-004,
          9.56239738e-003, 2.00753193e-002, 3.99780832e-003,
          4.92690410e-003, 7.98495486e-003, 1.00228870e-002,
          1.37433037e-002, 2.88667902e-003, -3.23435757e-003,
          8.89167096e-003, 1.55441510e-003, 1.02681378e-002,
          -5.37172100e-003, -1.11419139e-002, -5.87864546e-003,
          2.16026185e-003, 2.53019156e-003, 1.91508036e-003,
          4.65917727e-003, 6.39813079e-004, -4.65928065e-003,
          -5.66322356e-003, -8.74258485e-003, -4.93103592e-003,
          3.64350644e-003, -4.85760579e-003, -2.96746613e-003,
          -4.13144566e-003, -6.33219909e-003, 3.15725594e-003,
          1.22947013e-003, -1.94435765e-003, 1.11869890e-002,
          -5.03519736e-003, -7.98805431e-003, -1.03903731e-004,
          2.19648122e-003, 6.53817609e-004, -2.56874086e-003,
          4.33071190e-003, -5.70669118e-003, 9.54999868e-003,
          7.67126447e-004, -7.06316764e-003, -9.44001321e-003,
          -7.43987272e-003, -1.53696537e-002, -2.36113500e-002,
          -5.60857728e-003, -6.53144147e-004, -1.25540448e-002,
          -1.03812972e-002, -1.74651351e-002, -1.29764937e-002,
          -2.23131385e-002, -1.81766432e-002, -1.13299405e-002,
          -1.38012534e-002, -1.47741633e-002, -1.85605921e-002,
          -2.16022767e-002, -1.67675018e-002, -2.10637059e-002,
          -1.39479805e-002, -1.12350453e-002, -2.35385187e-002,
          -1.38036888e-002, -1.02460524e-002, -1.92068797e-002,
          -7.33418250e-003, -3.62661108e-003, -1.11779412e-002,
          -1.52318589e-002, -1.94852389e-002, -5.93628082e-003,
          -1.30480491e-002, -7.10786087e-003, -1.17639145e-002,
          -5.36091952e-003, 8.78700241e-003, -5.70450677e-003,
          -7.52002420e-003, -6.09622477e-003, 1.30487629e-003,
          -1.04244770e-002, -7.25751836e-003, -1.32912921e-003,
          -9.74164519e-004, -8.40929709e-003, -2.45823152e-003,
          -8.46159179e-003, 4.72385529e-003, -2.73803272e-003,
          -1.06616626e-002, -4.98326542e-003, -3.05064162e-003,
          -1.09183984e-002, -1.09767662e-002, -6.73782965e-003,
          -4.47737798e-003, -8.15306138e-003, -2.06264644e-003,
          -5.64579340e-003, 2.21877685e-003, -7.32326298e-004,
          -1.43191982e-002, -1.18084988e-002, -8.63826554e-003,
          8.69699102e-003, 1.36792446e-002, 8.81415326e-003,
          1.47173116e-002, 2.58702189e-002, -4.91033948e-004,
          6.72326516e-003, 1.98192168e-002, 1.37081128e-002,
          1.07369851e-002, 1.86590385e-002, 1.58544648e-002,
          1.44115882e-002, 1.06502241e-002, 6.92410255e-003,
