%YAML:1.0
my_svm: !!opencv-ml-svm
   svm_type: C_SVC
   kernel: { type:LINEAR }
   C: 1.2500000000000000e+001
   term_criteria: { epsilon:1.1920928955078125e-007, iterations:1000 }
   var_all: 4096
   var_count: 4096
   class_count: 3
   class_labels: !!opencv-matrix
      rows: 1
      cols: 3
      dt: i
      data: [ 0, 1, 2 ]
   sv_total: 3
   support_vectors:
      - [ 2.38335878e-001, -1.33238539e-001, 1.65634215e-001,
          -1.15463085e-001, -2.21235052e-001, 1.21094614e-001,
          1.00434549e-001, -6.94508385e-003, 9.31853130e-002,
          1.99920684e-001, -8.35871249e-002, 4.09271717e-001,
          4.79824364e-001, 2.99231917e-001, -3.80568393e-002,
          1.45719191e-002, -3.21219265e-001, 1.05460443e-001,
          2.44938955e-002, 5.21461606e-001, 3.34855735e-001,
          6.59468710e-001, -1.93848610e-001, -3.09661254e-002,
          4.43993777e-001, 2.70628393e-001, 7.58678794e-001,
          3.28490555e-001, -6.45722225e-002, 1.30409017e-001,
          3.59128624e-001, 2.44482756e-001, -2.05697566e-001,
          2.02078354e-002, -7.00481236e-001, 8.88696536e-002,
          -6.35476351e-001, -1.26630589e-001, -1.00433782e-001,
          -5.56528747e-001, 1.69213906e-001, -4.24966544e-001,
          5.35608470e-001, -4.76228714e-001, -7.97358304e-002,
          -2.53360003e-001, -2.21460745e-001, -1.27895966e-001,
          -4.37172025e-001, 8.13146960e-003, -6.67911991e-002,
          3.15048605e-001, -6.29612803e-001, -5.25070548e-001,
          -2.48239219e-001, -1.67694584e-001, -4.22245800e-001,
          -3.35689932e-001, -2.18069971e-001, 4.78170253e-002,
          -6.13634109e-001, 1.79782107e-001, -6.50953770e-001,
          -2.81277090e-001, 3.45239997e-001, 5.35331890e-002,
          1.02489948e+000, 6.26197278e-001, 6.46798611e-001,
          2.78110653e-001, 2.10602790e-001, -6.56880081e-001,
          5.69886751e-002, 5.36913335e-001, 1.87659249e-001,
          6.95167124e-001, -1.23221152e-001, 7.50168636e-002,
          2.96462059e-001, 6.65558398e-001, -3.15511435e-001,
          1.83622226e-001, 8.12121272e-001, 2.58417428e-001,
          3.93158495e-001, -1.07327200e-001, 3.62707108e-001,
          2.52984107e-001, -1.30242318e-001, -1.34745538e-001,
          1.85711443e-001, 1.82079941e-001, -7.79221728e-002,
          3.19523185e-001, 6.36287570e-001, 8.71038437e-002,
          2.28596330e-001, -1.67703763e-001, 4.70630050e-001,
          1.13049366e-001, -2.18290657e-001, 1.42017663e-001,
          -1.83152705e-001, 3.05335045e-001, 6.78380251e-001,
          6.94123924e-001, 1.01374179e-001, 5.84335983e-001,
          1.59337386e-001, 4.72615749e-001, -6.07210808e-002,
          -1.65417828e-002, 1.92758307e-001, 6.48836315e-001,
          -3.13749999e-001, 7.61443019e-001, 2.19841361e-001,
          3.10434878e-001, 4.13114995e-001, 2.58431584e-001,
          1.77742213e-001, -1.28898785e-001, 6.26470029e-001,
          3.92878860e-001, -4.04090155e-003, -9.80749950e-002,
          -8.15816000e-002, -2.59179890e-001, 5.34436584e-001,
          1.31369442e-001, -1.13745615e-001, 1.33929983e-001,
          4.00496751e-001, 3.03969532e-001, 1.77182015e-002,
          7.56586075e-001, 1.07122347e-001, -1.07667096e-001,
          1.07278712e-001, -2.33473361e-001, 6.55636936e-002,
          6.44602001e-001, 4.68641251e-001, 1.47599012e-001,
          2.19389841e-001, 2.89717793e-001, 3.46193969e-001,
          2.12772876e-001, 2.23708034e-001, -2.42705494e-001,
          9.08871219e-002, -2.54534364e-001, -2.77363583e-002,
          5.38227633e-002, 2.18813986e-001, -1.47482753e-001,
          3.97372425e-001, 2.72365540e-001, 3.60041171e-001,
          8.90056789e-002, -6.39878631e-001, -3.90720993e-001,
          -5.61561227e-001, 1.54232025e-001, 1.11507274e-001,
          -8.58773068e-002, -3.54564518e-001, -5.81598103e-001,
          -1.23748116e-001, -1.50532514e-001, -3.59068871e-001,
          -6.01782739e-001, -1.45022735e-001, 5.24062756e-003,
          1.72249489e-002, 1.26505658e-001, -6.08041346e-001,
          -9.45739374e-002, -3.96745265e-001, -2.29403496e-001,
          2.26304039e-001, -1.74891114e-001, -6.95054948e-001,
          6.68990761e-002, -7.89690986e-002, -3.02381486e-001,
          -2.90599525e-001, -7.59031177e-001, -5.31106412e-001,
          -4.05498773e-001, -5.37894845e-001, -2.39892572e-001,
          2.04053536e-001, 1.60746351e-001, -2.76571363e-001,
          -2.10201815e-001, 3.06996316e-001, 1.69439822e-001,
          3.53681952e-001, 4.34106439e-001, -1.60244331e-001,
          -1.29826233e-001, 3.72847438e-001, 3.81364852e-001,
          -5.05342484e-002, 4.04725492e-001, 2.70563096e-001,
          3.88629794e-001, -2.25287452e-002, 1.87696606e-001,
          5.04208744e-001, -6.37538657e-002, -2.58323878e-001,
          4.61203568e-002, 6.49786089e-003, 2.23356932e-001,
          2.01242670e-001, -4.75774035e-002, 3.87474775e-001,
          5.54123104e-001, 1.52079567e-001, 6.69622943e-002,
          -9.79186073e-002, 3.29524606e-001, -1.24314658e-001,
          -3.81316304e-001, 2.86788225e-001, 1.18340351e-001,
          -4.58479941e-001, 3.06504935e-001, -7.24030361e-002,
          1.01844415e-001, -1.93962470e-001, -3.15543801e-001,
          -4.01204973e-001, -1.09839588e-001, -2.25474492e-001,
          -3.62255216e-001, -1.79526389e-001, 4.08667445e-001,
          -1.32485688e-001, -7.06488192e-002, -4.85481657e-002,
          -2.39518457e-004, -1.40495911e-001, -3.15058768e-001,
          -5.23169935e-001, 1.65747479e-001, -3.28443170e-001,
          -1.57341257e-001, 1.91119909e-001, -2.25878194e-001,
          -1.97834477e-001, 7.51264170e-002, -6.06140137e-001,
          -2.28131339e-001, 3.21028620e-001, 2.49925926e-001,
          -1.06364176e-001, 2.92822212e-001, -3.58864889e-002,
          -1.45124242e-001, 6.10614493e-002, 2.73792952e-001,
          -3.74334991e-001, 5.38581073e-001, -1.43724963e-001,
          -1.34694293e-001, 1.92295581e-001, 5.55882715e-002,
          4.30279225e-001, 1.04898714e-001, -4.17939425e-001,
          -3.86050820e-001, 1.81541573e-002, -6.24092817e-001,
          3.36646706e-001, 2.01592058e-001, 1.77705333e-001,
          -2.66443044e-001, -3.38702463e-002, 5.36379039e-001,
          7.80312419e-002, 4.87607718e-001, 2.04322651e-001,
          1.83908105e-001, 3.19240332e-001, 1.81933567e-001,
          -6.58387598e-003, -7.22859055e-002, 1.39809504e-001,
          1.30722895e-001, 1.15251541e-001, 2.07457349e-001,
          6.34334922e-001, 1.47771314e-001, 4.96564955e-001,
          3.54306310e-001, 2.15061530e-001, -8.03663582e-002,
          1.92713007e-001, 1.37670174e-001, 3.40706021e-001,
          -1.34756848e-001, -2.17548497e-002, -1.84288733e-002,
          3.59336197e-001, 2.47326702e-001, 2.44431019e-001,
          2.88622767e-001, 3.58716398e-001, 2.56469399e-001,
          -3.86938713e-002, 1.85345277e-001, 3.88464898e-001,
          1.22569084e-001, 1.56493545e-001, -3.07941228e-001,
          1.53467467e-004, 3.99946064e-001, -2.69163158e-002,
          -2.69527674e-001, -4.84228194e-001, -4.37047303e-001,
          1.97291687e-001, -2.19803125e-001, -3.05130273e-001,
          -4.10368443e-002, 1.12565504e-002, -2.08238021e-001,
          -1.50234684e-001, 5.62513135e-002, -5.50713897e-001,
          -5.11275837e-003, -1.26625255e-001, -5.26166439e-001,
          -6.41888827e-002, 1.17612444e-001, -3.54265898e-001,
          -1.86157450e-001, -4.76868868e-001, -3.83950830e-001,
          -1.98745593e-001, -6.92748189e-001, -2.86601186e-001,
          -2.71121144e-001, -1.36140481e-001, -1.57375827e-001,
          -2.62097448e-001, -1.99387386e-001, 7.96721056e-002,
          -3.55673060e-002, 2.61571735e-001, -3.31207782e-001,
          5.21773286e-002, -1.93436816e-001, -3.45029286e-003,
          1.36850953e-001, 6.35861307e-002, 2.22977951e-001,
          -9.94022563e-002, 2.08782181e-001, -2.09964409e-001,
          -2.38625020e-001, 2.75969833e-001, 2.02725261e-001,
          -2.45938092e-001, 2.78233767e-001, -4.62040342e-002,
          -4.02830601e-001, 1.39515132e-001, 2.68073063e-002,
          9.90572385e-003, 5.37462756e-002, 1.82088450e-001,
          -3.36068757e-002, 1.50133401e-001, 2.30255574e-001,
          3.13595057e-001, -7.56646618e-002, -1.00149222e-001,
          -2.60059107e-002, -1.58926636e-001, 1.53088078e-001,
          -4.31233644e-001, -2.10999504e-001, 9.73960832e-002,
          4.29194681e-002, 1.99964136e-001, 6.22716248e-001,
          -4.07687314e-002, -7.71500021e-002, 3.03893667e-002,
          2.62028009e-001, 2.13253468e-001, 8.98969024e-002,
          1.27515746e-002, 5.92259049e-001, 6.62319362e-001,
          5.52549176e-002, -5.12146950e-002, -2.39681043e-002,
          -2.91896522e-001, -2.58643529e-003, -2.41163433e-001,
          -2.36232996e-001, -1.82489723e-001, -3.44335854e-001,
          -2.45438889e-001, 4.47394788e-001, -1.30895540e-001,
          -5.61042845e-001, -2.32743412e-001, -1.89141124e-001,
          -5.18873632e-001, 1.68960035e-001, -8.10610279e-002,
          -1.38179734e-001, -4.43699844e-002, 3.28642100e-001,
          -7.48467967e-002, -1.37640433e-002, -2.73538996e-002,
          -5.33983827e-001, -2.80902028e-001, -5.26331782e-001,
          1.57231510e-001, 3.20498645e-001, -2.36199975e-001,
          -4.17979270e-001, -4.51001883e-001, -1.67901754e-001,
          -6.92344233e-002, -4.99917686e-001, 4.26333174e-002,
          -1.46635085e-001, -1.20166674e-001, -2.97719061e-001,
          3.90941799e-001, -7.43001625e-002, -1.16590410e-001,
          2.70285547e-001, 3.27223390e-001, -2.91514963e-001,
          -1.92604601e-001, 1.93952039e-001, -3.74753475e-001,
          -4.22234684e-002, -1.62730932e-001, -7.23382905e-002,
          -2.95280874e-001, 8.51962343e-002, -3.17807078e-001,
          -2.63747245e-001, 2.19596386e-001, -1.91851467e-001,
          -4.89545286e-001, 9.27651599e-002, -1.21693298e-001,
          6.02673590e-001, 2.55057454e-001, -5.89893103e-001,
          -3.27227652e-001, 4.27872017e-002, 4.04705018e-001,
          -6.33533001e-002, -1.49189800e-001, 2.50021685e-002,
          1.31410643e-001, 3.72488886e-001, -3.82293493e-001,
          4.00698856e-002, 6.14628531e-002, -2.95819223e-001,
          -3.56996566e-001, -6.72281384e-001, -4.13818508e-001,
          2.37865597e-001, 3.66836876e-001, 4.29282896e-002,
          -2.34107971e-001, -3.66148055e-001, -2.37065822e-001,
          -6.37514070e-002, -2.52496034e-001, -5.08097887e-001,
          -5.35389304e-001, -1.99655756e-001, -1.84609458e-001,
          -5.06069839e-001, -4.65453476e-001, -5.14948010e-001,
          -5.30465901e-001, -4.91765916e-001, -1.69394925e-001,
          -1.72237769e-001, -4.60655212e-001, -2.53828377e-001,
          -1.81506917e-001, -3.32125992e-001, -1.24943152e-001,
          8.14000703e-003, -2.89135754e-001, -4.92645949e-001,
          -3.99717093e-001, -1.95314705e-001, -5.00341415e-001,
          -1.10031277e-001, -2.52485454e-001, -4.88042444e-001,
          -4.82804537e-001, -4.74646300e-001, -3.57159078e-002,
          6.46543145e-001, 5.61079264e-001, 5.61573744e-001,
          6.94943547e-001, 4.48695123e-001, -1.41603723e-001,
          3.23501527e-001, 7.78100938e-002, 4.16942567e-001,
          2.93159157e-001, 6.05245888e-001, 3.47258210e-001,
          5.26974618e-001, 3.55167598e-001, 3.61811250e-001,
          3.10867250e-001, 7.04095244e-001, 5.25722742e-001,
          4.65755343e-001, 6.56828135e-002, 2.11265594e-001,
          2.18888577e-002, 8.21459368e-002, 4.60182168e-002,
          -1.83517188e-001, 7.91134655e-001, 1.20305471e-001,
          4.38044846e-001, 8.75709392e-003, 4.87054706e-001,
          -1.29760370e-001, -1.96078166e-001, -1.09560452e-001,
          3.43717724e-001, 3.41579318e-001, 1.30154029e-001,
          -5.66986911e-002, -5.68152666e-002, -8.42521526e-003,
          4.59735960e-001, 3.64663154e-001, 1.86078608e-001,
          -1.21844359e-001, -4.92913187e-001, 3.05138797e-001,
          1.28533943e-002, 5.47889829e-001, 6.57947063e-001,
          7.88738802e-002, 4.05600965e-002, -1.26040801e-001,
          4.76619244e-001, 4.21430767e-001, 4.00044411e-001,
          -9.76218656e-002, 4.62966859e-001, 2.79995173e-001,
          -1.29473269e-001, -1.62511200e-001, 1.03328014e-002,
          3.64480883e-001, 8.14815164e-002, 6.54069185e-001,
          5.05609751e-001, 1.68141246e-001, -1.72831938e-001,
          -4.48929548e-001, -5.06489500e-002, -3.87483209e-001,
          -1.55789971e-001, 1.96768031e-001, 3.04196775e-001,
          -3.11852187e-001, -5.18007129e-002, 6.00246906e-001,
          3.81956041e-001, 1.34200841e-001, 2.22811118e-001,
          -2.97213674e-001, -2.52141416e-001, 2.74636596e-001,
          3.64006460e-001, 1.09012313e-001, 6.79963734e-003,
          1.44092143e-001, 1.27347670e-002, -1.34981453e-001,
          2.37022147e-001, -3.68214667e-001, 4.05004472e-001,
          9.81920362e-002, -2.26883128e-001, 2.65366703e-001,
          2.14959487e-001, 3.13735425e-001, -1.92102287e-002,
          -1.62956715e-001, -5.90844154e-001, -1.98815316e-002,
          -2.47196376e-001, 1.88466653e-001, 1.87797491e-002,
          -6.06059246e-002, -6.15873635e-001, 2.67645530e-002,
          -2.37378791e-001, -3.93397398e-002, -1.01533733e-001,
          1.55731753e-001, -1.54117927e-001, -2.75516391e-001,
          1.91222668e-001, -1.44665942e-001, -8.72065723e-002,
          -6.20917901e-002, -6.32513762e-002, -3.92034501e-001,
          -8.07678849e-002, -1.02754302e-001, -1.88044712e-001,
          1.29804298e-001, -1.49324027e-004, -2.38222435e-001,
          6.91380501e-002, -3.22867006e-001, 4.02626812e-001,
          -7.35520244e-001, -7.98532143e-002, 5.06602749e-002,
          -4.01820317e-002, 1.79783657e-001, 1.43787055e-003,
          -1.25408724e-001, -1.31976724e-001, 3.11091870e-001,
          -6.94412738e-002, 5.93171641e-002, 2.99780726e-001,
          1.30073473e-001, 1.70789197e-001, -1.88065916e-001,
          -8.93806666e-002, -5.59230983e-001, 5.00324547e-001,
          -3.80478293e-001, 1.61702260e-001, 3.73354912e-001,
          -1.06703728e-001, 1.72823370e-001, -1.94431059e-002,
          -2.82196522e-001, 1.00546956e-001, 1.44751057e-001,
          -7.95512795e-002, 1.20853062e-003, -1.51990369e-001,
          -9.91765261e-002, -1.64689034e-001, 1.49582893e-001,
          1.66161790e-001, 6.49042010e-001, 1.98951259e-001,
          2.19162524e-001, 2.57018626e-001, -2.29467288e-001,
          3.51156183e-002, 5.37596405e-001, 1.98990107e-001,
          3.52110118e-001, 3.09070591e-002, 1.63474247e-001,
          -1.40090555e-001, 3.15434545e-001, -1.66739509e-001,
          -1.01244384e-002, -2.86029696e-001, 7.12150455e-001,
          4.71053660e-001, 3.39283794e-001, 8.64617079e-002,
          6.16467595e-001, 4.98384118e-001, 3.47276963e-002,
          2.01569766e-001, 1.72323525e-001, -1.95768848e-001,
          1.14263877e-001, -2.42236834e-002, 1.07342690e-001,
          5.35601556e-001, 5.63022494e-001, 9.57045794e-001,
          1.26283675e-001, 3.29086035e-001, 4.23428804e-001,
          1.89130321e-001, -1.71307430e-001, 3.83919090e-001,
          -2.27357775e-001, 7.36210048e-001, 2.40521938e-001,
          6.34326160e-001, 8.86181593e-001, 4.70746994e-001,
          7.10220814e-001, -3.90937686e-001, 1.41016275e-001,
          1.30399406e+000, 6.29083395e-001, 8.09568465e-001,
          9.51506570e-002, 6.38584256e-001, 5.42332649e-001,
          3.79095078e-001, 7.63598561e-001, 4.80529219e-001,
          -3.76573443e-001, 3.73767346e-001, 1.22449405e-001,
          2.28334919e-001, 2.08408326e-001, -9.26585570e-002,
          9.33115780e-001, 2.92346716e-001, -9.56785679e-002,
          4.40554731e-002, 2.62155533e-001, 5.67840636e-002,
          -1.89117014e-001, 3.10682971e-002, 3.62768203e-001,
          -2.49496102e-001, -9.34517160e-002, -2.17310503e-001,
          -2.10747048e-001, -8.43350410e-001, -2.26322606e-001,
          1.30610093e-001, -2.60186225e-001, -7.34910071e-001,
          -6.84719026e-001, -3.19412261e-001, -3.76033723e-001,
          -1.75228179e-001, -3.11712325e-001, -3.12155396e-001,
          1.79248497e-001, -4.05755937e-001, -1.30363673e-001,
          -1.87430650e-001, 1.96880773e-001, -2.98173279e-001,
          -3.72718453e-001, -1.51407495e-001, -9.79951084e-001,
          -3.86937320e-001, 2.74337262e-001, -5.66964865e-001,
          4.37334180e-001, -1.34319738e-001, 4.56135795e-002,
          4.56619024e-001, -2.99910992e-001, 6.57736838e-001,
          -2.15426907e-001, 2.82794759e-002, -2.71182686e-001,
          8.88521001e-002, -2.74397314e-001, 3.47336046e-002,
          3.52659732e-001, -3.48655343e-001, 1.76045135e-001,
          1.27599135e-001, -1.06378593e-001, -4.36139703e-001,
          4.93996888e-001, -2.70324111e-001, -1.56801581e-001,
          -2.72310793e-001, -6.76573932e-001, 1.57769799e-001,
          1.84240013e-001, -3.89264077e-001, -2.88372397e-001,
          -4.36043322e-001, 1.33305296e-001, 1.25792129e-002,
          -2.66074181e-001, -3.07902306e-001, -3.27915430e-001,
          -4.02125090e-001, -5.07094383e-001, -5.34519911e-001,
          -7.34498441e-001, -6.79048777e-001, -7.21254587e-001,
          -1.07601266e-002, -5.38722277e-001, -5.16769826e-001,
          -5.16211987e-001, -2.43254662e-001, -7.61106014e-001,
          -3.67485046e-001, -5.84944010e-001, -8.85357320e-001,
          -3.04256052e-001, -2.46722192e-001, 7.21095875e-002,
          -1.66952088e-001, -3.39226872e-001, 1.62167057e-001,
          -2.47467965e-001, -1.00838162e-001, -1.43561780e-001,
          -2.71834403e-001, -1.08668283e-001, 6.86890334e-002,
          -5.46098650e-001, 7.07047224e-001, 1.44867629e-001,
          1.55651256e-001, 1.80205941e-001, 3.51194322e-001,
          -4.73630391e-002, 3.56582642e-001, 5.14122784e-001,
          9.29736853e-001, 2.21067905e-001, 8.98596168e-001,
          5.15097499e-001, 4.63336319e-001, 1.21973202e-001,
          3.04155499e-001, -7.55884722e-002, 1.52863532e-001,
          6.23307467e-001, 3.57386559e-001, 7.70550966e-002,
          3.54104191e-001, 4.79146779e-001, 8.35977122e-002,
          2.25495324e-001, 6.81551874e-001, 9.99370456e-001,
          4.39054042e-001, 8.02395761e-001, 3.89237732e-001,
          4.94393528e-001, 4.36625034e-001, 9.49447900e-002,
          -1.13359272e-001, -4.83955219e-002, -3.20717752e-001,
          -1.52601153e-001, -3.60776752e-001, 1.83817127e-003,
          2.38796592e-001, -2.14416757e-001, 3.64616841e-001,
          -1.69475377e-001, -1.15555212e-001, 3.23271155e-001,
          -1.51025981e-001, -2.97809392e-001, 1.81487743e-002,
          1.22732572e-001, 1.40067339e-001, -1.02793492e-001,
          3.04818839e-001, -9.15061086e-002, -1.72569737e-001,
          -3.10125619e-001, -1.05769664e-001, 1.63253292e-001,
          2.30847895e-001, 6.55903220e-002, 5.51682591e-001,
          3.56510550e-001, -5.52364439e-002, -1.72398418e-001,
          1.47387847e-001, -2.62507737e-001, -4.31385219e-001,
          4.78512138e-001, -4.45411474e-001, -2.36102194e-001,
          1.08854711e-001, 2.28298262e-001, 2.01444596e-001,
          -1.45908847e-001, -4.81715322e-001, -2.54792750e-001,
          -9.52659771e-002, 4.05614883e-001, -4.43776578e-001,
          -4.25418377e-001, -4.00188640e-002, -1.77825406e-001,
          -2.43670776e-001, 2.72257566e-001, -1.27043039e-001,
          -1.73404917e-001, 2.40702972e-001, 6.07233979e-002,
          -1.37299178e-002, -4.72698212e-001, -3.83631170e-001,
          -4.53183316e-002, -3.97825986e-001, -2.33043373e-001,
          -1.87444463e-001, -1.83771640e-001, -3.27610701e-001,
          -2.29774192e-001, 4.02256846e-001, -6.07670665e-001,
          -3.52762729e-001, 2.85332482e-002, -2.35986158e-001,
          -9.69061442e-003, 4.71583493e-002, -2.60445774e-001,
          -4.84896032e-003, -2.37193882e-001, -1.96269229e-001,
          2.00830802e-001, -6.88642785e-002, 2.83977747e-001,
          -4.08901237e-002, -4.29682940e-001, 2.15778679e-001,
          -7.74378479e-001, -2.03440323e-001, -5.13603613e-002,
          1.70516059e-001, -1.04446318e-002, 1.03205517e-001,
          5.61316788e-001, -9.57692564e-002, -2.08609775e-001,
          2.57210433e-001, 1.66302860e-001, -4.53904063e-001,
          1.61341429e-001, -4.34515178e-001, -9.73648056e-002,
          -2.61113811e-002, -4.27525155e-002, -4.75447625e-002,
          2.24460661e-001, -3.40181351e-001, -8.44191462e-002,
          3.28773379e-001, 2.14748904e-001, -1.60330355e-001,
          7.91510046e-002, 5.63767612e-001, 2.32939065e-001,
          -1.07786953e-001, 1.62923053e-001, 2.11668964e-002,
          1.41234651e-001, -1.44731507e-001, -2.51151085e-001,
          4.02278900e-001, 1.37357801e-001, 1.73707142e-001,
          1.36906415e-001, 5.73824823e-001, -1.76552311e-001,
          2.19545469e-001, -3.72862041e-001, -1.68194115e-001,
          2.53739655e-001, -1.15052231e-001, 6.41146526e-002,
          -3.04012656e-001, 3.60334729e-004, -2.93714881e-001,
          -1.26229957e-001, 2.36793607e-001, 3.30049723e-001,
          -2.40640089e-001, 8.49067420e-002, 2.05240190e-001,
          -3.53941143e-001, 5.55186152e-001, -1.72288612e-001,
          -1.21360503e-001, 2.06239015e-001, -5.90829849e-002,
          -8.19699615e-002, -1.02337472e-001, 1.72773302e-001,
          1.00966237e-001, -2.78661430e-001, -1.31020427e-001,
          5.08201718e-001, -3.68995488e-001, 2.64981449e-001,
          1.16873324e-001, 1.31820709e-001, -1.15410076e-003,
          1.04648672e-001, 3.26616645e-001, -1.16412222e-001,
          -4.63227838e-001, -1.53781503e-001, 4.13541729e-003,
          2.39432693e-001, -5.01094580e-001, -9.50214684e-001,
          -3.24325413e-001, -2.52813160e-001, -7.81988382e-001,
          -8.06213915e-003, -3.30833226e-001, -7.54343212e-001,
          -3.15063387e-001, -5.37903942e-002, -6.44052804e-001,
          -6.57392502e-001, -2.24440917e-002, -1.21053509e-001,
          -4.18492667e-002, -5.46358287e-001, -4.53448504e-001,
          -6.69241786e-001, -4.57414627e-001, -1.83017358e-001,
          -1.72050446e-001, -6.34132028e-001, -1.38307840e-001,
          -5.55584908e-001, 1.17141642e-002, -2.72084951e-001,
          -6.33453846e-001, -2.49770641e-001, -7.81369328e-001,
          -6.50411308e-001, -7.41774261e-001, -8.02018046e-001,
          -6.00136723e-003, -1.67379379e-002, 1.47422254e-001,
          -2.61643231e-001, 1.70185551e-001, -4.07516882e-002,
          -8.98807570e-002, -5.85623980e-001, -3.93600240e-002,
          1.86321497e-001, -4.18360978e-001, -2.38003850e-001,
          1.64863523e-002, 9.92731079e-002, 2.57323772e-001,
          3.95920910e-002, -1.46945447e-001, -3.23977321e-001,
          5.45288861e-001, 2.65514366e-002, 3.18167388e-001,
          -2.49534175e-002, -7.09782168e-002, 3.76654207e-003,
          -1.68414637e-001, 1.79662228e-001, -2.10064650e-001,
          -6.67571008e-001, 4.84653078e-002, 2.98442900e-001,
          -1.73474073e-001, -2.68361241e-001, -2.22547818e-002,
          -3.51210713e-001, 3.30259323e-001, 1.66436285e-001,
          -1.72627687e-001, 5.51691465e-002, 3.23966026e-001,
          -1.16324008e-001, -3.42710619e-003, -1.65054828e-001,
          -3.24119240e-001, -4.07595724e-001, 5.24074078e-001,
          2.25942895e-001, -3.00757796e-001, 7.10063398e-001,
          2.65514016e-001, -1.61512896e-001, 2.92036831e-001,
          -2.94963747e-001, 3.06600362e-001, -9.10296440e-002,
          -5.27382553e-001, 2.61717945e-001, 1.36984855e-001,
          4.30244356e-001, -4.87233214e-002, 1.79234460e-001,
          5.23356736e-001, -1.50362536e-001, -4.74750340e-001,
          -1.78691536e-001, 3.05959582e-001, 2.28248268e-001,
          -4.27157879e-001, -8.52591470e-002, 3.85467887e-001,
          -2.03830287e-001, 1.17469989e-001, 6.46278620e-001,
          -6.34021223e-001, 4.26817983e-001, -3.33391517e-001,
          -2.42481492e-002, -1.67795509e-001, 1.89246222e-001,
          -2.04877153e-001, 4.70104039e-001, -3.16080898e-001,
          6.30561858e-002, 5.15137427e-002, 4.99034971e-001,
          -8.01237002e-002, 8.65893289e-002, -6.05503321e-001,
          -2.54732788e-001, 5.01423657e-001, 5.59806973e-002,
          -5.47924697e-001, 5.33097535e-002, 3.26818407e-001,
          1.55247048e-001, 3.77208412e-001, 1.67922452e-001,
          -1.27269216e-002, -3.28877985e-001, 1.18249677e-001,
          -1.11335451e-002, -1.27175869e-002, -2.39271745e-001,
          5.20730734e-001, -2.09928930e-001, 1.69044122e-001,
          7.84817040e-002, -8.92880410e-002, -2.78034643e-003,
          8.67104679e-002, -5.44269644e-002, 6.48335321e-003,
          -7.64100626e-002, -4.62369248e-002, 4.37978715e-001,
          -2.30906814e-001, -8.46628025e-002, -9.56956297e-002,
          2.01210126e-001, 7.26436675e-002, -8.91699716e-002,
          -2.05686256e-001, -2.07815692e-001, 7.46772513e-002,
          2.37084657e-001, -6.81807324e-002, -2.01408401e-001,
          -3.72751176e-001, 1.23589091e-001, -5.89392856e-002,
          -3.06366950e-001, -6.54776469e-002, 2.96359688e-001,
          1.92151800e-001, 2.84489840e-001, -1.69933215e-001,
          1.79505214e-001, -9.00258310e-003, 2.23107003e-002,
          2.50749942e-003, -2.01876462e-001, 5.62220335e-001,
          -3.37649919e-002, -2.11354300e-001, 4.69292849e-001,
          1.36375993e-001, -6.95755929e-002, 2.14213014e-001,
          3.56056452e-001, -3.78672667e-002, -1.94471970e-001,
          5.20407036e-002, 5.44404760e-002, 3.31113964e-001,
          1.10119358e-001, 1.08959325e-001, 2.54814476e-001,
          5.58861531e-003, 3.50984901e-001, 1.34840176e-001,
          4.02004063e-001, -2.16689020e-001, -2.38670781e-001,
          -1.52053222e-001, 4.66303080e-002, -8.99504364e-001,
          5.29504195e-002, 1.38792470e-002, -3.31358463e-001,
          -2.89917290e-001, -4.08904225e-001, -3.44997406e-001,
          -3.40436995e-001, 2.26111840e-002, -2.37818225e-003,
          -2.61742711e-001, -4.72897559e-001, 1.34985507e-001,
          2.09846105e-002, -1.34800211e-001, -2.56777585e-001,
          7.57507384e-002, 1.44479379e-001, -4.25557792e-002,
          -1.37943044e-001, -6.79031909e-001, 1.27966017e-001,
          -4.78172153e-001, -4.57131237e-001, -6.46876171e-002,
          -6.86058581e-001, -2.25030035e-001, -5.23781955e-001,
          -2.67975330e-001, -7.94102773e-002, 2.84541488e-001,
          -3.07841361e-001, -2.64792852e-002, 1.39533356e-001,
          1.73203558e-001, 2.31951382e-002, -2.53036350e-001,
          -5.14447093e-001, 6.52152121e-001, 1.21065259e-001,
          1.03093241e-003, -1.54189691e-001, 8.93892907e-003,
          -1.43023208e-001, -3.09176236e-001, -5.65522239e-002,
          -3.93714964e-001, -4.48520109e-002, -5.46869457e-001,
          -4.13619548e-001, -7.69268647e-002, -4.65813816e-001,
          -8.83873403e-001, -1.69570029e-001, -6.46873057e-001,
          -4.49236572e-001, -3.00542742e-001, 5.12384415e-001,
          -4.55608934e-001, 1.46106198e-001, -5.80590889e-002,
          2.10219488e-001, -3.71622264e-001, -9.81722176e-002,
          4.11989354e-002, 5.44898957e-002, -9.14741009e-002,
          7.40672126e-002, 8.24090466e-002, -7.06220642e-002,
          -1.53896555e-001, -1.58197875e-003, -4.56404351e-002,
          -2.48462453e-001, 2.77641624e-001, 1.66688114e-001,
          3.68364912e-004, -2.57713236e-002, 1.29602626e-001,
          1.31001577e-001, -5.72051220e-002, 1.57739908e-001,
          -4.23738688e-001, -2.01821625e-001, 1.71922877e-001,
          3.82335365e-001, 5.55970609e-001, 8.18101108e-001,
          5.83620608e-001, 1.34452209e-001, -2.32825950e-002,
          3.06713402e-001, 3.60031009e-001, 3.37006956e-001,
          4.24175799e-001, 3.73111039e-001, 3.85014892e-001,
          3.72935593e-001, 6.62170351e-001, -1.00139961e-001,
          2.91618854e-001, 5.26238084e-001, 7.09363539e-003,
          2.05129117e-001, 1.08607505e-002, -2.41447911e-002,
          1.57045081e-001, 2.77658880e-001, -4.68988344e-003,
          4.00379270e-001, 6.23653948e-001, 3.68518919e-001,
          3.74138087e-001, 3.15794289e-001, 6.73639476e-001,
          6.60667539e-001, 5.55387080e-001, -1.77983820e-001,
          5.86214483e-001, 4.05407280e-001, 2.57623106e-001,
          1.61249444e-001, 3.02849263e-001, 7.44086027e-001,
          8.22399650e-003, -5.86214252e-002, 1.70256361e-001,
          4.25209701e-001, -1.11019142e-001, 5.28708339e-001,
          -2.51315217e-002, 3.21722895e-001, 1.84207074e-002,
          3.25521052e-001, 1.16438292e-001, 3.97109807e-001,
          3.50989513e-002, 1.49745136e-001, -8.22663307e-002,
          1.22047611e-001, 1.79279581e-001, 3.20808858e-001,
          9.17363837e-002, 1.10939950e-001, 4.08721805e-001,
          -2.22035110e-001, 4.32262182e-001, 9.66472551e-002,
          2.21322343e-001, -2.69179404e-001, 4.92609322e-001,
          5.09748638e-001, 3.59066635e-001, -1.07078321e-001,
          8.98344740e-002, -1.22163646e-001, 7.63700455e-002,
          1.97146222e-001, -2.66026467e-001, -4.52374220e-002,
          1.40297264e-001, 6.18999451e-002, 1.93928152e-001,
          5.22779584e-001, 1.72014520e-001, 3.84158015e-001,
          -1.84600309e-001, -1.49333045e-001, 1.02111295e-001,
          4.39300165e-002, 5.03704190e-001, -1.22815464e-003,
          -1.36428207e-001, 2.77197033e-001, 8.20526928e-002,
          -1.71365932e-001, 1.73230931e-001, 1.22971922e-001,
          4.48740385e-002, 2.49979421e-001, -2.46440962e-001,
          5.18933594e-001, 2.31462225e-001, -8.43924507e-002,
          7.27767110e-001, 3.33996505e-001, 2.68224746e-001,
          9.72527117e-002, 3.57961833e-001, 3.80957103e-003,
          3.23421173e-002, 1.84748784e-001, -1.35702223e-001,
          2.78573275e-001, -7.48984963e-002, 7.02266693e-002,
          3.57570827e-001, 5.09721220e-001, 1.00917988e-001,
          -1.16271615e-001, -1.21448942e-001, -1.85959727e-001,
          6.32179201e-001, 1.43475950e-001, -1.55281812e-001,
          9.97896194e-002, 6.62859678e-002, 1.70177042e-001,
          3.76358293e-002, 6.32625997e-001, 2.79374897e-001,
          -1.39167249e-001, -6.37028143e-002, -3.92996445e-002,
          1.67255029e-001, 4.54173647e-002, 2.55420893e-001,
          6.89581215e-001, 3.74408364e-002, -1.14068594e-002,
          4.23719548e-002, 2.68223464e-001, 3.76807064e-001,
          -8.91976893e-001, -1.85859412e-001, 1.47443056e-001,
          2.28921130e-001, -3.96405965e-001, -1.70339793e-001,
          -3.30425262e-001, -2.65568733e-001, 4.94930632e-002,
          -2.02590361e-001, -5.57294369e-001, -2.38769278e-001,
          -2.93816537e-001, -8.75713304e-002, 6.65064752e-002,
          -2.38058612e-001, -2.44363502e-001, -3.27559680e-001,
          8.69766902e-003, -7.41579011e-002, -3.77804875e-001,
          -4.24415290e-001, -1.05339020e-001, -1.02691151e-001,
          -3.61450054e-002, 3.42214219e-002, 1.03182616e-002,
          -3.79929692e-001, 3.01274620e-002, -1.11554146e-001,
          3.56670320e-001, 3.96152616e-001, 1.11270212e-001,
          5.65452099e-001, -3.29128981e-001, -7.43421447e-003,
          2.93213487e-001, 4.70267802e-001, 4.28440243e-001,
          2.99215108e-001, 5.38373291e-001, 3.20640624e-001,
          4.19271618e-001, 3.05977523e-001, 3.64613682e-001,
          -8.43335539e-002, -3.24159414e-001, 1.34668380e-001,
          1.71239421e-001, 1.13696992e-001, 4.89776656e-002,
          -1.03958420e-001, -6.92054182e-002, 2.38997921e-001,
          1.08549893e+000, -3.74661148e-001, 6.24682546e-001,
          3.91697258e-001, 3.05752307e-001, -2.37549350e-001,
          -1.55961767e-001, -4.47206199e-001, -7.08600163e-001,
          -8.11384261e-001, -2.69262493e-001, -1.78624585e-001,
          -1.63972989e-001, -4.49753523e-001, -2.25167841e-001,
          -1.99050635e-001, -1.09487750e-001, 6.50025383e-002,
          -9.37817618e-002, -4.12988871e-001, -5.12668975e-002,
          -2.20640138e-001, -6.56980336e-001, -1.15272082e-001,
          2.90031850e-001, 1.14284411e-001, -3.07894260e-001,
          -5.71140230e-001, 1.60078201e-002, -1.81062520e-001,
          -4.51576531e-001, -8.18355441e-001, -2.14453071e-001,
          -5.92393160e-001, -3.91988456e-001, 5.86162545e-002,
          -5.01467586e-001, -2.09895521e-001, 1.14105098e-001,
          -3.47966462e-001, -1.57037437e-001, 3.44039321e-001,
          6.14648402e-001, -5.42267978e-001, -2.28877395e-001,
          1.64225310e-001, 9.32386890e-002, -1.65870026e-001,
          1.41937613e-001, 1.83137551e-001, -2.21891001e-001,
          -1.84473202e-001, -1.19840063e-001, 4.19105798e-001,
          7.69587308e-002, 4.73602414e-002, 2.60218084e-001,
          2.89303720e-001, 3.74859154e-001, -3.05686623e-001,
          2.76260916e-002, 2.13531591e-002, 4.43956375e-001,
          -3.90879035e-001, 1.69383943e-001, 3.26885968e-001,
          -2.55833328e-001, -6.97577238e-001, -2.08058655e-001,
          -5.90084314e-001, -3.69285755e-002, -2.21611977e-001,
          5.98145485e-001, -2.33927757e-001, 8.69998753e-001,
          3.05689365e-001, 2.98235565e-001, 2.85566360e-001,
          5.91364682e-001, 3.91120136e-001, -2.05872506e-001,
          6.48826599e-001, 2.58855484e-002, 4.19355631e-001,
          6.14361428e-002, 2.91850477e-001, 5.94105907e-002,
          3.08174312e-001, -1.18891532e-002, -2.80095451e-002,
          4.33813214e-001, 2.07024425e-001, 4.60810870e-001,
          6.74391508e-001, 3.71106386e-001, 1.40014797e-001,
          5.48669934e-001, 4.16441500e-001, 4.99885499e-001,
          -2.32163697e-001, 1.21061049e-001, 3.65188777e-001,
          1.41006991e-001, 2.27551252e-001, -1.63008302e-001,
          -1.14040099e-001, 4.75872718e-002, -1.45204708e-001,
          -4.96008039e-001, -1.07575551e-001, 8.04488361e-002,
          -5.02010994e-002, -2.15482533e-001, -1.77212402e-001,
          -8.45983997e-002, -1.10370234e-001, 2.55088419e-001,
          -1.56808689e-001, 1.43816799e-001, 2.45388076e-002,
          8.68587121e-002, 2.22631004e-002, 2.19815355e-002,
          2.22581714e-001, -2.38141671e-001, -1.76425055e-001,
          -4.25189584e-001, 3.64318579e-001, -2.00141177e-001,
          1.69996232e-001, -2.55527705e-001, -5.99994957e-001,
          -4.61950809e-001, 1.30385622e-001, -3.61631483e-001,
          -2.31893346e-001, 5.99987507e-002, 5.61082184e-001,
          5.15744984e-001, 3.41514140e-001, 3.71971250e-001,
          2.53892004e-001, -1.02136068e-001, 1.32069603e-001,
          7.60519028e-001, 1.06394732e+000, 9.96355899e-003,
          2.05013007e-001, 2.51973182e-001, 9.17881504e-002,
          8.40495452e-002, 1.49292544e-001, 2.06841841e-001,
          -9.67358202e-002, 1.16251662e-001, -2.70706624e-001,
          3.75729352e-001, 3.40176702e-001, 5.66955924e-001,
          5.09092331e-001, 2.78052658e-001, -2.75787771e-001,
          5.59087336e-001, -1.54517278e-001, 1.32127553e-001,
          1.35531843e-001, -2.69857198e-001, 1.85978994e-001,
          -1.70583457e-001, 2.91395605e-001, -4.07889187e-001,
          2.76151597e-002, 8.65360647e-002, -4.01337355e-001,
          6.94180131e-002, 2.22634897e-002, -2.21335858e-001,
          1.04820251e-001, -1.19983576e-001, -3.29597592e-001,
          2.06532285e-001, -1.30873442e-001, -7.68458992e-002,
          1.82680607e-001, -4.29891348e-002, -2.87113845e-001,
          -3.44755262e-001, -9.95594189e-002, -5.46716511e-001,
          2.00609304e-003, -3.25709492e-001, -7.16540754e-001,
          -5.84224045e-001, -1.56009123e-001, -6.28806710e-001,
          -1.81248590e-001, -2.25920975e-001, -9.71359685e-002,
          2.18463838e-002, -4.85790260e-002, 1.22985125e-001,
          -1.34429589e-001, 1.02294669e-001, -7.88491547e-001,
          1.93491682e-001, 2.44987637e-001, 1.67296633e-001,
          -7.58703500e-002, -1.71208754e-001, 2.28812713e-002,
          -5.50889671e-002, 4.88594621e-001, -1.53840914e-001,
          -1.62864387e-001, 8.71784836e-002, 3.33761483e-001,
          -7.46751130e-002, -1.23924747e-001, -2.10668549e-001,
          3.10223196e-002, 1.75598804e-002, -2.60976553e-001,
          -3.30193698e-001, 2.19395701e-002, 1.79122925e-001,
          -5.65334149e-002, 4.95453775e-002, 1.63728252e-001,
          2.09638253e-002, -3.73233765e-001, -4.08969402e-001,
          6.14492059e-001, 1.78003330e-002, 4.34260279e-001,
          2.11205319e-001, 5.72568059e-001, -1.16791904e-001,
          4.06158030e-001, 2.01275647e-002, 5.60321808e-001,
          6.25383556e-001, 3.94553453e-001, 6.57217383e-001,
          3.27609152e-001, 4.36942011e-001, 2.51204660e-003,
          5.74132323e-001, 5.97914338e-001, 1.01234987e-001,
          5.24152756e-001, 4.69956964e-001, 1.90090388e-001,
          3.64705443e-001, -1.10717505e-001, 2.32574135e-001,
          -1.02611236e-001, 8.11670199e-002, 5.55238605e-001,
          -1.33802652e-001, 3.66234452e-001, 1.14409655e-001,
          2.51671582e-001, -3.15106648e-004, 4.96578574e-001,
          -1.78753152e-001, -1.38536140e-001, 3.89269024e-001,
          4.18475389e-001, 2.65601397e-001, 3.30566674e-001,
          2.10952349e-002, 6.24771655e-001, -3.21789389e-003,
          6.63468242e-001, -2.03885231e-002, -3.84542346e-002,
          2.37707317e-001, 1.74554721e-001, 1.06335223e-001,
          -3.53034176e-002, 7.23545924e-002, 1.21907126e-002,
          7.21125081e-002, 2.24907640e-002, 1.05203904e-001,
          3.94099742e-001, 5.64535661e-003, 2.98344284e-001,
          1.92329004e-001, -4.65184487e-002, -8.80596712e-002,
          8.55776072e-001, 2.15661734e-001, 6.87193498e-002,
          3.13472077e-002, 2.40709662e-001, 1.53476045e-001,
          -1.91236421e-001, 6.22336939e-002, -1.55601978e-001,
          3.90661210e-001, 2.65254170e-001, -2.25987270e-001,
          7.51795396e-002, 2.53768593e-001, 4.88682427e-002,
          6.10310063e-002, -1.40762970e-001, -2.68765390e-001,
          1.45818830e-001, 2.66974896e-001, -4.77327518e-002,
          1.62405714e-001, -1.79937914e-001, 1.31538615e-001,
          4.82517667e-002, -2.09136028e-002, 5.14356673e-001,
          5.11818945e-001, -1.35600746e-001, -7.62537867e-002,
          3.08542043e-001, 6.59052059e-002, 1.66980401e-001,
          -8.52520093e-002, -5.03887117e-001, -1.77815259e-001,
          5.89836061e-001, -1.24471970e-001, 5.81318259e-001,
          -1.81366906e-001, -4.04754356e-002, 3.58889461e-001,
          4.85302120e-001, 1.98296949e-001, 4.96782921e-002,
          -1.93361908e-001, 1.76662594e-001, 2.11365432e-001,
          5.30845940e-001, 7.51915872e-001, 2.84070164e-001,
          4.05283362e-001, 6.81400955e-001, 5.87410688e-001,
          3.60427231e-001, 6.03131950e-001, 5.32722235e-001,
          4.36305761e-001, 5.13778389e-001, 7.65559435e-001,
          5.17435312e-001, -3.29096287e-001, 6.81435573e-004,
          3.39990139e-001, 5.35854578e-001, 3.29815149e-001,
          -2.45471627e-001, 1.44542530e-001, 4.80129570e-001,
          -2.33000785e-001, 4.99256164e-001, -2.89975666e-002,
          2.10847855e-001, -5.43559194e-002, -3.91051024e-001,
          -2.90492237e-001, -2.42142335e-001, -2.72334576e-001,
          4.81694102e-001, 7.09466338e-001, 1.32302880e-001,
          9.13940445e-002, 5.88352323e-001, 3.55839968e-001,
          5.78487255e-002, 6.24302290e-002, 1.55706972e-001,
          -2.05478758e-001, 5.69951124e-002, 2.57474393e-001,
          2.85514176e-001, 8.21787268e-002, 1.54211625e-001,
          3.60432804e-001, 1.30178437e-001, 5.67099631e-001,
          8.61245245e-002, 1.36203378e-001, 1.61188349e-001,
          -1.12387119e-002, 1.02344722e-001, 3.37522358e-001,
          4.99766409e-001, 2.05427378e-001, -1.80412427e-001,
          -7.92926997e-002, -2.30847433e-001, 2.29705691e-001,
          7.09508732e-002, 6.28227144e-002, -1.53602824e-001,
          5.71177065e-001, 1.19742379e-001, 4.24922466e-001,
          6.20936513e-001, -4.46654946e-001, -3.68558131e-002,
          -6.94546774e-002, -3.83925378e-001, 2.20407605e-001,
          -3.50953013e-001, -2.32377633e-001, -6.08408511e-001,
          2.08908841e-001, -2.86750674e-001, -1.81358486e-001,
          -4.10516262e-001, 1.59233257e-001, 2.77491193e-002,
          -2.39935726e-001, 1.53776303e-001, -3.14063549e-001,
          -1.28007814e-001, 3.82199019e-001, -4.25848514e-001,
          -6.49679229e-002, 3.02147835e-001, 5.20782113e-001,
          4.65825975e-001, -1.00496583e-001, -5.45347780e-002,
          1.76390484e-001, 9.13906693e-002, 4.35256034e-001,
          -3.26374084e-001, 6.33882657e-002, -3.73799860e-001,
          -4.30509865e-001, -3.93430628e-002, -1.59995649e-002,
          -8.66859108e-002, -3.13959926e-001, -3.42316568e-001,
          -1.05532527e-001, -1.79242775e-001, 3.78313124e-001,
          -3.19966406e-001, 3.37584466e-001, -4.09523696e-002,
          8.66264850e-002, -1.76814616e-001, 2.99008749e-003,
          -1.33302182e-001, 5.16647756e-001, -1.07896216e-001,
          -1.98914081e-001, -7.85546824e-002, -1.02045484e-001,
          1.68701008e-001, 1.82695631e-002, 2.66463369e-001,
          3.04948688e-001, 1.54815271e-001, -1.30472168e-001,
          -2.53686998e-002, 3.19084495e-001, 2.57825833e-002,
          4.57812175e-002, 5.89430749e-001, 2.92947769e-001,
          1.27200767e-001, -4.05628234e-001, 4.44508284e-001,
          -1.86313197e-001, 4.28295791e-001, 6.28615245e-002,
          4.58955407e-001, -1.44777641e-001, 1.20768356e+000,
          2.48253703e-001, 4.14593905e-001, 7.26619959e-001,
          3.06113273e-001, 2.73787025e-002, 5.27765453e-001,
          2.74552070e-002, -2.18731284e-001, -1.08793207e-001,
          -2.00738028e-001, -1.86640456e-001, -8.29447091e-001,
          -8.52312744e-002, -5.13685718e-002, -3.23027223e-001,
          4.80884016e-002, -1.17277972e-001, -6.61280870e-001,
          -1.55643746e-001, -1.79660872e-001, -4.58075494e-001,
          -3.73950332e-001, -4.10152227e-001, -1.40034676e-001,
          -1.66569784e-001, -2.79059261e-001, -3.12402248e-001,
          -4.81668599e-002, -2.16332451e-001, -3.87000203e-001,
          -1.82875961e-001, -2.42020711e-001, 2.63998121e-001,
          1.38273537e-001, 6.59311796e-003, -3.22887480e-001,
          -4.74272430e-001, -1.22643106e-001, -2.57069916e-001,
          2.02676356e-002, 3.78462344e-001, 1.91346869e-001,
          7.80474767e-002, 1.22943580e-001, 8.52753460e-001,
          -1.36338040e-001, -1.85310602e-001, 2.76655937e-003,
          4.20907497e-001, 1.13595799e-002, -1.63493901e-001,
          -4.92253050e-004, 7.67589286e-002, 4.07889754e-001,
          3.80802631e-001, 2.59574026e-001, 5.57914078e-001,
          -2.62462735e-001, 5.29206336e-001, 4.56895143e-001,
          1.96028724e-001, 4.04330462e-001, 1.75630167e-001,
          5.42334914e-001, -1.53635055e-001, 1.96493343e-001,
          -9.73575935e-002, 4.30793732e-001, 7.18536198e-001,
          3.85278612e-001, 4.26063627e-001, 3.88727963e-001,
          7.03694224e-001, -1.49775194e-002, 9.82225478e-001,
          2.17281297e-001, 3.08459371e-001, 4.04861242e-001,
          2.03430757e-001, -3.82139683e-001, 4.81741458e-001,
          3.26359533e-002, 9.26812887e-001, -1.36327460e-001,
          2.30768397e-001, 1.24355018e-001, 1.12487361e-001,
          -6.91038072e-002, 5.30613422e-001, 8.06702018e-001,
          6.51756048e-001, -1.28727376e-001, 1.19033329e-001,
          1.99554667e-001, -3.71700943e-001, 2.94710129e-001,
          1.75528958e-001, 5.92236698e-001, 2.12404445e-001,
          4.05485094e-001, -2.67837405e-001, -9.03417692e-002,
          1.38130933e-001, -2.65309542e-001, -2.95823574e-001,
          3.87175828e-001, 6.80258214e-001, -1.02932930e-001,
          9.68353450e-002, 1.86168298e-001, -4.25346166e-001,
          -1.75558984e-001, -5.69003373e-002, 8.53275955e-002,
          9.37841296e-001, 6.48230851e-001, 4.54065770e-001,
          3.87864321e-001, 5.44117153e-001, 5.75740576e-001,
          -8.02711099e-002, 1.53119847e-001, -3.26864570e-002,
          1.64096385e-001, 6.23126030e-001, -1.48159906e-001,
          5.25834322e-001, 2.20917597e-001, 3.19729179e-001,
          2.68498868e-001, 1.11433074e-001, 2.27863155e-002,
          2.36391366e-001, 2.07945526e-001, 3.46312702e-001,
          -4.27918851e-001, -2.86585927e-001, 1.78823695e-001,
          -4.45314199e-002, 6.29899204e-002, -3.21196824e-001,
          -1.13147877e-001, -1.08210869e-001, -2.59956956e-001,
          1.43337980e-001, -1.94132820e-001, -6.11902535e-001,
          -4.80780512e-001, 6.35054559e-002, -4.55449633e-002,
          1.20108366e-001, -5.20804077e-002, -1.00461155e-001,
          -3.01103234e-001, -7.09812939e-001, -3.09092879e-001,
          -3.10636222e-001, -4.58924919e-001, 2.39407066e-002,
          -4.50405758e-003, -2.79367626e-001, -2.89926201e-001,
          9.52696875e-002, -4.97197211e-001, -3.37186664e-001,
          -1.67436257e-001, 6.41968623e-002, -3.08324993e-001,
          -1.73946813e-001, -5.36255717e-001, 3.86073768e-001,
          -5.39530158e-001, -3.54370624e-001, -2.11800694e-001,
          -1.51095614e-001, -2.74281144e-001, -1.43673420e-002,
          -1.13162450e-001, -4.07053530e-001, 3.26658428e-001,
          -6.08593285e-001, -4.64786351e-001, 2.42722481e-001,
          -5.50895452e-001, 2.73922142e-002, -2.14585796e-001,
          -3.48552674e-001, -4.68850017e-001, -7.31852531e-001,
          -2.18422562e-001, 1.40657444e-002, -1.75110996e-001,
          2.36493617e-001, -1.44958317e-001, 4.93653268e-002,
          -3.46212555e-003, -4.72246408e-001, -4.69319612e-001,
          6.76688924e-002, 5.15026391e-001, 3.73186231e-001,
          -1.89590052e-001, -1.03777247e-002, 5.67262053e-001,
          4.67847884e-001, -6.82871491e-002, 2.94015735e-001,
          -8.78860205e-002, 2.51696259e-001, -1.58621654e-001,
          1.72956288e-001, 3.52423400e-001, -9.03076082e-002,
          -5.04393578e-001, 1.13798343e-001, -2.97645628e-002,
          1.74433172e-001, 1.94809780e-001, -8.60862061e-002,
          -3.78626108e-001, 2.30583832e-001, 6.47512376e-002,
          -5.76402573e-003, 3.84353906e-001, -1.96629152e-001,
          -3.58806372e-001, -7.90586919e-002, -2.31731609e-001,
          -9.41800773e-002, 3.97009045e-001, -1.27472043e-001,
          2.05776747e-002, 1.92098282e-002, 1.57219067e-001,
          -2.20591143e-001, -3.02980840e-001, -4.96936917e-001,
          6.70057209e-003, -1.36816800e-001, 1.84124801e-002,
          -1.09617963e-001, -3.53872836e-001, 4.08676893e-001,
          -2.50861079e-001, 2.23879851e-002, -2.58238405e-001,
          -3.91976297e-001, 2.82534182e-001, -4.70649153e-002,
          -4.10695255e-001, -1.26413420e-001, -2.13430244e-002,
          -1.82007760e-001, 3.01472485e-001, -3.99366468e-002,
          -4.53353018e-001, -4.57360983e-001, -4.23543155e-001,
          -4.04490888e-001, -4.21000868e-001, 2.04545915e-001,
          -6.94158077e-001, -4.29879546e-001, 5.65865219e-001,
          -7.02487230e-002, 1.66435793e-001, -1.14253618e-001,
          -9.71310213e-002, 9.55946445e-002, 3.78635973e-001,
          1.14328057e-001, 2.46480867e-001, 1.01773560e-001,
          1.97698429e-001, -4.40870225e-001, 5.13984859e-001,
          -7.85920173e-002, 1.03217930e-001, -4.35960479e-002,
          3.98656875e-002, -4.75961983e-001, 4.69709665e-001,
          -2.34186217e-001, 3.03675920e-001, -1.04723655e-001,
          5.31328857e-001, 3.50826889e-001, 3.18148524e-001,
          1.82035193e-002, -5.88029251e-002, -1.95850521e-001,
          -2.23264888e-001, -3.45602661e-001, -5.36837995e-001,
          4.91710156e-001, -4.83695298e-001, -2.20163822e-001,
          -1.49864301e-001, -5.76475620e-001, 7.59035274e-002,
          -4.50292557e-001, -2.26171032e-001, -3.89902592e-001,
          -4.47670162e-001, -8.94454569e-002, -3.68691176e-001,
          -2.90125906e-002, -4.06944007e-001, -3.15206498e-001,
          -6.04068577e-001, -2.87331015e-001, -4.07347769e-001,
          -4.83290285e-001, -2.07019851e-001, -8.74356478e-002,
          -2.38949478e-001, -4.32936728e-001, -3.36358622e-002,
          -5.06232202e-001, -7.16751739e-002, -4.90078814e-002,
          -3.14236403e-001, -2.47250959e-001, -1.48302123e-001,
          -5.04260063e-001, -6.44872069e-001, -5.15205801e-001,
          5.90247773e-002, 8.62104446e-002, 5.62238991e-001,
          -3.16757768e-001, 1.00917302e-001, 3.05494875e-001,
          -3.03453207e-001, -1.05110891e-001, -2.24586695e-001,
          -7.63453364e-001, 4.07241434e-001, 8.88570175e-002,
          -2.99224332e-002, 5.12589440e-002, 1.58612654e-001,
          -1.21080779e-001, 1.44426450e-001, 1.52101945e-002,
          -6.76826179e-001, -5.46415485e-002, -9.16620791e-002,
          5.37454449e-002, -6.31794810e-001, -2.09964946e-001,
          3.24000686e-001, 2.19325244e-001, 2.17876554e-001,
          4.20012604e-003, 2.38731652e-002, -8.89866352e-002,
          -5.25821209e-001, -7.93457925e-002, -4.42514122e-001,
          -2.59560436e-001, -3.02820623e-001, -9.21007805e-003,
          -4.07842137e-002, 2.13838033e-002, 8.55688304e-002,
          -2.38448188e-001, 1.65917397e-001, -4.00339127e-001,
          -2.79295027e-001, -2.36589700e-001, 3.81817192e-001,
          5.46613336e-001, 1.49582371e-001, 1.12869866e-001,
          -8.13782513e-002, -2.16699228e-001, -2.54756808e-001,
          -8.79739895e-002, 3.19624335e-001, -5.77428117e-002,
          1.18261069e-001, 3.60120833e-001, -6.07959460e-003,
          3.23470891e-001, 1.59353122e-001, 4.03025970e-002,
          -2.53150076e-001, 2.41807885e-002, 6.67601526e-001,
          7.09074259e-001, -4.66952324e-001, -1.68403804e-001,
          -2.31152922e-001, -5.01600623e-001, -5.53777814e-001,
          -4.57910508e-001, -6.21139765e-001, -2.81981349e-001,
          2.59559274e-001, -2.37185404e-001, 1.90517500e-001,
          4.90564078e-001, -2.72408009e-001, -2.79359132e-001,
          9.24870372e-002, -5.60882986e-001, -2.18739614e-001,
          -5.68804324e-001, 3.51904392e-001, 6.74698502e-002,
          -4.98695105e-001, -3.31388295e-001, -2.98404634e-001,
          7.89165422e-002, -1.82625160e-001, 2.01753108e-003,
          -1.78322539e-001, 3.03228083e-003, -1.83868751e-001,
          -2.20425457e-001, -2.57472277e-001, -3.42367709e-001,
          3.93577158e-001, -1.26075968e-001, -8.86049122e-003,
          3.71882141e-001, -1.04766682e-001, 5.41583240e-001,
          -4.35901582e-001, -1.75316364e-001, -3.01029384e-001,
          -2.29374349e-001, 1.38673499e-001, -6.89832047e-002,
          -1.66559070e-001, -2.31035054e-001, -1.37726322e-001,
          -1.59687862e-001, 3.56855206e-002, -2.45303646e-001,
          -6.14539564e-001, -7.11356178e-002, 2.44995907e-001,
          -2.56197304e-001, -1.62527412e-002, 1.94243163e-001,
          2.66560435e-001, 1.73653178e-002, -2.80144453e-001,
          -5.30609787e-001, -1.66175827e-001, -6.45161748e-001,
          -3.54945511e-002, -4.40844983e-001, -5.15091956e-001,
          1.35902092e-001, -6.24558806e-001, -5.92812181e-001,
          -1.76573187e-001, -5.46554208e-001, -8.13921154e-001,
          -5.49317777e-001, -7.32302070e-001, -8.05035293e-001,
          -2.61817038e-001, -8.41727331e-002, -2.28903472e-001,
          -8.14578354e-001, -3.51479173e-001, -1.41755462e-001,
          -5.46615243e-001, -3.86570126e-001, -2.46019900e-001,
          -1.72824442e-001, -5.44520617e-001, -2.33530298e-001,
          -4.52349991e-001, -4.52136427e-001, -3.66049021e-001,
          1.11225165e-001, -4.79041636e-002, -6.08703852e-001,
          2.49100626e-002, -3.12114865e-001, -6.98548257e-001,
          -3.29290569e-001, 4.78840411e-001, -2.12325007e-001,
          2.77225077e-001, 3.91991436e-002, 5.20880558e-002,
          2.17709526e-001, -8.00047815e-002, 4.91519898e-001,
          3.96618783e-001, 8.43790695e-002, 2.11295336e-001,
          5.56730628e-001, 5.34387492e-002, -2.28366375e-001,
          5.45110583e-001, 6.72834218e-001, 3.48412335e-001,
          6.45201683e-001, 2.76105404e-001, 2.61380732e-001,
          2.24976435e-001, 3.31595615e-002, 5.08418500e-001,
          2.42471904e-001, -2.13866398e-001, 3.65560293e-001,
          8.22266117e-002, 9.49749537e-003, 1.62862331e-001,
          -3.67366523e-002, 1.08381815e-001, 1.90692127e-001,
          -3.55181545e-001, -4.46155548e-001, -2.47252822e-001,
          -4.50309157e-001, -4.32268977e-001, -2.95361638e-001,
          -2.44301811e-001, -1.09513319e+000, -9.61792544e-002,
          -2.10368782e-001, -1.50625631e-001, -8.32897604e-001,
          6.65925965e-002, 3.00059188e-002, -4.35144514e-001,
          1.90027013e-001, -3.56162667e-001, -1.49464205e-001,
          -5.59715629e-001, 2.35345975e-001, -4.25865829e-001,
          -3.11938554e-001, 1.58096150e-001, -3.34385842e-001,
          -2.09803849e-001, -1.75760999e-001, -3.93422395e-001,
          -1.10141113e-001, -1.67635277e-001, -1.99322864e-001,
          -3.22240293e-001, -2.11952284e-001, -2.25138471e-001,
          -1.75122842e-001, -6.22976199e-002, 1.63829878e-001,
          -1.75278097e-001, 5.53697467e-001, -2.56045341e-001,
          1.95768420e-002, 9.62913930e-002, 6.47987844e-003,
          -1.30350038e-001, -3.18985313e-001, -1.58666953e-001,
          -1.68997794e-001, -3.75111103e-001, 1.88652098e-001,
          6.27186239e-001, 3.21514696e-001, -4.29396242e-001,
          2.12993994e-001, 1.38087794e-002, -3.49749297e-001,
          -8.16381769e-004, 3.00918311e-001, -1.97750390e-001,
          4.49580014e-001, 2.21647665e-001, 4.87599671e-002,
          -4.90910336e-002, -6.68550655e-002, -3.71440381e-001,
          1.16339467e-001, 4.79916394e-001, -7.99483135e-002,
          -4.10128444e-001, -3.05178966e-002, 4.04081970e-001,
          -1.52511224e-001, -2.05230996e-001, 1.26206085e-001,
          2.04541329e-002, -4.26861942e-002, -1.82109237e-001,
          3.90356302e-001, -1.89699233e-001, -1.79617479e-001,
          -3.83287042e-001, 2.27773547e-001, -1.37335896e-001,
          -3.16858023e-001, 3.60376596e-001, 2.94484079e-001,
          -1.59807339e-001, 3.16081494e-001, 1.15602590e-001,
          8.53002191e-001, -1.82641707e-002, 4.74837482e-001,
          2.43324712e-001, 3.68040890e-001, 1.60317495e-001,
          2.19080448e-001, -4.50430453e-001, -2.29700863e-001,
          2.86426425e-001, 1.67648479e-001, 3.29049766e-001,
          2.85025686e-001, 1.05504766e-001, -1.23550370e-002,
          1.61608741e-001, -1.12936191e-001, -2.76294351e-001,
          -3.10347259e-001, -2.01912120e-001, -2.26916194e-001,
          -1.37629867e-001, 6.22151829e-002, 1.20547684e-002,
          9.73764211e-002, 2.88192481e-001, 3.02934527e-001,
          3.89251709e-001, 1.24767080e-001, -1.53407186e-001,
          1.48497656e-001, 2.07023337e-001, 5.32747805e-001,
          -1.05309047e-001, -1.14637010e-001, -2.36293096e-002,
          -2.61427350e-002, 1.01473927e-001, 3.17007840e-001,
          1.37965739e-001, 2.99801767e-001, 6.63360715e-001,
          -2.07205117e-001, 5.94400287e-001, 2.06382364e-001,
          5.82546666e-002, 2.22644433e-001, 3.51292230e-002,
          1.57464951e-001, 4.06950533e-001, 5.72678149e-001,
          2.53844053e-001, 4.27647442e-001, 1.32332906e-001,
          1.05350748e-001, 3.29857409e-001, 1.41689003e-001,
          2.09207788e-001, 4.19695020e-001, 8.13209772e-001,
          3.11580002e-001, 8.62346441e-002, 3.91850680e-001,
          9.33300927e-002, -4.65347618e-003, 1.27555996e-001,
          4.17788357e-001, 1.82936281e-001, 4.82495248e-001,
          1.63986221e-001, 5.81119716e-001, 1.83146417e-001,
          3.17370772e-001, -1.00518532e-001, 1.24014892e-001,
          1.16078369e-001, -6.56572804e-002, 4.13603634e-001,
          -1.92973152e-001, 2.07927480e-001, -1.01060562e-001,
          1.83825910e-001, 5.16171396e-001, -2.14511203e-003,
          -1.02897910e-002, 3.23157907e-001, 3.77559453e-001,
          4.02285963e-001, 3.76849711e-001, 3.40630889e-001,
          -1.28237724e-001, 3.53280365e-001, 1.91272527e-001,
          2.87638843e-001, -9.58440006e-002, 4.41006869e-001,
          4.50082719e-001, 1.69345886e-001, -9.20592807e-003,
          4.12842743e-002, 4.46133107e-001, 1.20586962e-001,
          2.05003902e-001, 2.20006809e-001, 1.93437129e-001,
          -3.51609319e-001, 1.12064471e-002, -5.60786463e-002,
          9.29777231e-003, 1.25084043e-001, -7.74753451e-001,
          -4.31534238e-002, -1.54263854e-001, -6.28937542e-001,
          -1.56910524e-001, 1.31304607e-001, -2.11461019e-002,
          -3.12201917e-001, 3.87822181e-001, -3.00026536e-001,
          2.18889609e-001, -2.08970472e-001, 3.41387540e-002,
          1.60331473e-001, -9.42967832e-004, 2.09137630e-002,
          1.46132886e-001, -3.26556653e-001, -9.73943919e-002,
          -3.05666983e-001, 2.50141714e-002, -4.39315081e-001,
          1.24923587e-001, -6.12703264e-001, 6.38309345e-002,
          -4.94910181e-001, -8.38635769e-003, 2.96637326e-001,
          1.66113809e-001, 7.02147841e-001, 4.97926295e-001,
          7.34903038e-001, 1.55065387e-001, 6.16869509e-001,
          7.65518486e-001, 3.42577428e-001, 4.41251427e-001,
          5.16097248e-001, 5.72200477e-001, 6.31824136e-001,
          8.58815089e-002, 6.01625979e-001, 7.27028608e-001,
          2.94997156e-001, 2.52201498e-001, 1.42493498e+000,
          3.26963574e-001, 4.54433620e-001, 4.06469434e-001,
          -2.60274351e-001, 6.19239390e-001, 7.75647163e-001,
          5.36529064e-001, 1.92069814e-001, 1.03950107e+000,
          -3.78278270e-002, 6.43376350e-001, 5.86850584e-001,
          8.23268354e-001, 4.72938955e-001, -7.47896209e-002,
          -2.05046311e-001, 3.06817591e-001, -1.20530866e-001,
          1.85227156e-001, 6.42749786e-001, -2.68094420e-001,
          2.67426163e-001, 1.29377171e-001, 6.31125942e-002,
          1.18178524e-001, 5.92020452e-001, 1.34356143e-002,
          2.37600759e-001, 3.18997085e-001, 5.87849081e-001,
          -3.80718827e-001, -7.12985158e-001, -1.01463385e-001,
          3.39665443e-001, 4.96645778e-001, -6.20409362e-002,
          4.31213081e-001, -4.59044486e-001, 3.75354066e-002,
          -4.22617763e-001, -2.86143899e-001, 2.07099551e-003,
          2.86014408e-001, 1.65009215e-001, 5.93368888e-001,
          -2.53527731e-001, -3.72258097e-001, 8.37163702e-002,
          -1.03443667e-001, -2.85759307e-002, -1.34554490e-001,
          6.13179058e-002, -3.48238856e-001, -3.73148881e-002,
          -1.66385114e-001, -1.88513175e-001, -2.82780588e-001,
          1.66249350e-001, -1.25877455e-001, -3.79237950e-001,
          -3.43632349e-003, -2.55472809e-001, -3.53883356e-001,
          -3.87517750e-001, -6.43419027e-002, 1.68791898e-002,
          -2.58070499e-001, -2.90155768e-001, -3.18859994e-001,
          -2.57164121e-001, -2.92796195e-001, -4.17818069e-001,
          -3.46796274e-001, 3.51763405e-002, -4.60425705e-001,
          -4.02285933e-001, 9.76804569e-002, -1.61645576e-001,
          2.10612584e-002, 1.23644903e-001, 8.89274105e-002,
          -2.30328903e-001, -3.40153009e-001, 5.00920452e-002,
          3.15807939e-001, 2.28955358e-001, -1.90179646e-002,
          1.03700720e-001, -6.74750879e-002, 4.66066718e-001,
          -3.67193997e-001, -3.17365259e-001, -4.56997693e-001,
          -4.74954620e-002, 1.75322473e-001, -2.88953688e-002,
          5.42125583e-001, 3.23999524e-001, -4.67961691e-002,
          -8.73388052e-002, -2.40402579e-001, -1.36197163e-002,
          -1.49736702e-002, 5.18682934e-002, -5.80768995e-002,
          4.66453843e-003, -2.24281400e-002, -1.15488470e-001,
          2.18960904e-002, -2.43762508e-001, -3.79498810e-001,
          -2.47953266e-001, 4.00124937e-002, -2.13767588e-001,
          2.01985762e-001, -3.66738200e-001, 7.44483769e-002,
          5.74101448e-001, 1.36024088e-001, -4.56797052e-003,
          -5.45224607e-001, -3.22206855e-001, 4.84339565e-001,
          -1.21967860e-001, 5.82458153e-002, -4.97246087e-001,
          3.59898955e-001, -1.50877491e-001, 1.07556641e-001,
          5.67219779e-002, -1.52962580e-001, -2.05658138e-001,
          -1.24366842e-001, -3.02412897e-001, -3.22516203e-001,
          7.51503766e-001, 2.41663098e-001, 1.29979223e-001,
          3.00676852e-001, 1.01462424e-001, 1.03864521e-001,
          -1.92000970e-001, -3.47950876e-001, 9.95784625e-002,
          -1.34263411e-001, -2.76366621e-001, -4.62033033e-001,
          -2.42965929e-002, -2.27137387e-001, -4.16886955e-001,
          -3.05033356e-001, 3.88739519e-002, 1.15006439e-001,
          -5.13073504e-001, -2.86410421e-001, -8.04662108e-002,
          -4.60201949e-001, -6.46567717e-002, -4.13939297e-001,
          -7.41470277e-001, 2.52128720e-001, 2.21784517e-001,
          -4.51107472e-001, -3.21980834e-001, -4.16529268e-001,
          -1.35888189e-001, -3.96269023e-001, 1.07636526e-001,
          -1.42882332e-001, 1.49055123e-001, 1.45888552e-001,
          -1.40779698e-003, -5.73310494e-001, -5.99936366e-001,
          3.13275397e-001, -7.96333179e-002, 1.70297503e-001,
          4.81693298e-002, -1.73507363e-001, 6.74991310e-002,
          -8.77225399e-002, 2.59480655e-001, 2.02588186e-001,
          2.63180524e-001, 1.08437732e-001, -3.73716176e-001,
          -2.87563205e-001, -1.93202451e-001, -2.14316845e-001,
          -1.34389579e-001, -4.41822678e-001, 6.13170981e-001,
          1.20892003e-002, 2.39044413e-001, -1.37991950e-001,
          3.81975532e-001, -3.75141412e-001, -3.41461778e-001,
          9.68878940e-002, 3.80952626e-001, -2.37062961e-001,
          -7.90888444e-002, -1.38419926e-001, 4.39692289e-001,
          7.61558339e-002, -3.57004315e-001, -1.02842040e-001,
          1.73449665e-001, -2.06157520e-001, 3.81727442e-002,
          -8.70344266e-002, -1.74659342e-002, -2.39642724e-001,
          -2.89223909e-001, -2.66147822e-001, -5.59069633e-001,
          1.05645642e-001, -3.93569529e-001, -1.33678645e-001,
          -5.49513042e-001, -1.80933222e-001, 5.49279034e-001,
          -2.17628285e-001, -2.39343166e-001, -5.31979464e-002,
          1.43935218e-001, -2.85945833e-001, -6.15178943e-001,
          -3.34780216e-001, -2.78773248e-001, -2.46602431e-001,
          -1.79103136e-001, -1.38464762e-004, 2.97481922e-004,
          4.09178846e-002, -5.59245527e-001, -5.39094090e-001,
          1.04239576e-001, -2.83234984e-001, 1.63055852e-001,
          -2.26668581e-001, 9.77072790e-002, -1.44233838e-001,
          1.15081720e-001, 2.00325295e-001, -3.19619209e-001,
          -6.79657161e-002, -8.52999389e-002, 3.60613197e-001,
          -8.39614153e-001, 5.58567464e-001, -2.72531807e-002,
          6.24273065e-003, 2.92184763e-002, 7.91025460e-002,
          1.59408733e-001, 1.87891513e-001, 1.83573350e-001,
          2.19013005e-001, 2.04412211e-002, 3.33592445e-001,
          -2.13652238e-001, -1.85983088e-002, -3.18853378e-001,
          1.85218707e-001, -4.42263693e-001, 9.78606865e-002,
          2.59836286e-001, 1.00509226e-001, 1.15844354e-001,
          -2.27570802e-001, -1.31960467e-001, -2.20874399e-001,
          -1.55048206e-001, 1.55187920e-001, -4.97546457e-002,
          -3.59024912e-001, -1.31558329e-001, 1.96015522e-001,
          2.42039129e-001, -2.32815444e-002, -3.12682271e-001,
          -4.07375693e-001, -3.03023696e-001, -8.48002285e-002,
          -1.22984566e-001, -3.06774020e-001, 4.22063291e-001,
          4.12105508e-002, -2.53276169e-001, -2.15831250e-001,
          1.75618246e-001, -2.66072005e-001, -4.58347887e-001,
          -8.79386589e-002, 1.53926596e-001, 1.83816865e-001,
          2.19182909e-001, 1.88273072e-001, -3.13977748e-002,
          -3.78526747e-001, -4.29568470e-001, -3.63555819e-001,
          -8.66351068e-001, 1.15989327e-001, 1.60388395e-001,
          -1.22316517e-001, 5.08986600e-002, 6.08715475e-001,
          5.97502813e-002, -2.65566975e-001, -3.77659678e-001,
          -7.63552412e-002, -1.37597308e-001, -1.61955431e-001,
          -3.40804785e-001, -2.83965711e-002, 1.96916074e-001,
          -5.12778282e-001, -8.98918882e-002, -3.57560441e-002,
          -4.24634218e-002, -2.82098293e-001, -2.12264538e-001,
          1.14217721e-001, -1.72790512e-001, -2.99982101e-001,
          -7.26238713e-002, -2.85683632e-001, -8.59281197e-002,
          -1.68973178e-001, -5.50998986e-001, -3.40732634e-001,
          -2.32997432e-001, -7.16820419e-001, -3.39873821e-001,
          -2.46883348e-001, -3.33758116e-001, -5.31258762e-001,
          -1.55111074e-001, -5.76905683e-002, -2.02505410e-001,
          -1.31769538e-001, -1.62293449e-001, -5.04585691e-002,
          1.77029823e-003, 6.86039627e-002, -5.00730217e-001,
          1.44430056e-001, -3.33039731e-001, -1.67465031e-001,
          -4.42721218e-001, -6.69852197e-002, -3.27835917e-001,
          -5.63437223e-001, -4.39544499e-001, -7.11495221e-001,
          -4.22295392e-001, -4.57186550e-001, -1.56139106e-001,
          2.49903146e-002, -3.49737346e-001, -2.61404634e-001,
          -4.32553083e-001, -4.63813961e-001, -8.15148652e-002,
          1.06716476e-001, 2.99879611e-001, 3.64827588e-002,
          -1.82113592e-002, 2.80167222e-001, 7.16680437e-002,
          2.84541816e-001, 1.49010599e-001, 3.27212065e-001,
          4.34606373e-001, -8.28360319e-002, 2.98614234e-001,
          -1.31192124e-002, -1.90891758e-001, 2.73365200e-001,
          -1.02272546e-002, 2.88033076e-002, 1.18558280e-001,
          1.39156461e-001, -1.96937621e-001, 4.30300981e-001,
          4.07429695e-001, -1.03948146e-001, 3.06823687e-003,
          3.19994330e-001, -2.67465144e-001, 4.27326327e-003,
          -4.74532619e-002, 1.92613795e-001, -1.10733122e-001,
          -1.75788119e-001, -1.42617580e-002, -4.98822987e-001,
          4.29438204e-001, -3.76982093e-001, -4.43114080e-002,
          -2.17085943e-001, -3.91868502e-002, -2.08970327e-002,
          -6.34304881e-001, 2.21903995e-002, 9.21259522e-002,
          -5.74134707e-001, -1.50383905e-001, -2.63817549e-001,
          -1.35739818e-001, -2.32464090e-001, 2.67490130e-002,
          -2.62486339e-001, -2.12257922e-001, -5.04491851e-002,
          -1.38645932e-001, -1.83921710e-001, -2.89234698e-001,
          -3.42019945e-001, 1.46222219e-001, 3.22477631e-002,
          3.14281195e-001, -4.12138291e-002, -1.55151293e-001,
          1.98301077e-001, 1.36743542e-002, 1.09522887e-001,
          -2.94013143e-001, 2.31807619e-001, -5.46896160e-001,
          -5.27383052e-002, -1.38776094e-001, -1.19780071e-001,
          2.05170408e-001, -1.01057820e-001, 2.83833474e-001,
          -2.93014944e-001, 1.29394978e-002, 2.74669737e-001,
          -1.25360228e-002, -1.15715928e-001, 2.84725815e-001,
          5.00053912e-002, 2.58923680e-001, 2.05347598e-001,
          -1.13153398e-001, -3.49131167e-001, -2.87648708e-001,
          -3.77565138e-002, 1.84965268e-001, -2.55813271e-001,
          2.00359419e-001, 2.31977627e-001, -4.32719976e-001,
          -1.10430634e-002, 1.22083731e-001, -3.31617035e-002,
          3.34270038e-002, -6.44202650e-001, 2.87982821e-001,
          -1.23413153e-001, -9.78091210e-002, 4.28880006e-002,
          -7.62507245e-002, -2.56647766e-001, -2.50317931e-001,
          2.74221096e-002, 8.72106925e-002, -6.01146631e-002,
          2.17254847e-001, -3.10038418e-001, -5.46623915e-002,
          8.35229084e-003, -2.91674912e-001, 1.40202373e-001,
          -1.82564557e-001, -2.27981657e-002, -1.97367743e-001,
          -6.05372190e-001, 8.48180652e-002, -2.36758605e-001,
          -3.16576421e-001, 2.40789592e-001, -9.49304029e-002,
          -3.13984118e-002, -1.25159234e-001, 4.55148965e-002,
          -9.28263217e-002, -2.24350050e-001, -2.16756687e-001,
          -5.44164002e-001, 1.71566784e-001, -2.26220433e-002,
          2.32807860e-001, 6.79104924e-002, -3.59635919e-001,
          1.86236620e-001, 6.54080391e-001, -1.32050037e-001,
          2.81184107e-001, 1.38925448e-001, 1.79990172e-001,
          -3.45158339e-001, 5.36687791e-001, -8.76021832e-002,
          6.07407212e-001, 2.94055015e-001, -2.27428705e-001,
          2.48810038e-001, 1.96200803e-001, -1.02825180e-001,
          1.22134134e-001, 3.77826571e-001, 2.23745555e-001,
          5.17827133e-003, 8.40031028e-001, 3.45935225e-001,
          -2.78017600e-003, 1.29452899e-001, 6.39033794e-001,
          2.35711560e-001, -4.58120480e-002, 5.34522116e-001,
          4.09232587e-001, 6.63295314e-002, -7.64451474e-002,
          4.68973219e-002, -2.35896170e-001, 5.80928251e-002,
          -1.14731409e-001, 8.05673152e-002, 2.40350410e-001,
          3.24601412e-001, 2.62085497e-001, 2.38894448e-001,
          -3.13431062e-002, 7.12884068e-002, 3.88124943e-001,
          8.21005479e-002, 2.34936357e-001, 1.30489677e-001,
          4.18659836e-001, 1.11258976e-001, 2.82557756e-001,
          -2.82998174e-001, 4.48599100e-001, -8.47467259e-002,
          -1.71571448e-001, 4.89368677e-001, 1.65998548e-001,
          4.84666713e-002, 1.18672922e-001, 5.13195813e-001,
          4.32334393e-002, -1.82659224e-001, 3.64687920e-001,
          1.11329213e-001, 1.74834117e-001, 3.88175219e-001,
          4.96181190e-001, -7.95210525e-002, 4.13200259e-002,
          -4.07124348e-002, -1.58079252e-001, -7.37507734e-003,
          1.32692546e-001, 4.68125008e-002, 7.88787484e-001,
          -1.77235603e-001, 2.77839303e-001, 1.47359163e-001,
          -5.99911928e-001, -4.47749458e-002, 7.26048648e-002,
          2.24222198e-001, 1.30858034e-001, -5.60813136e-002,
          1.20008528e-001, 4.14218843e-001, 3.57814401e-001,
          3.09471220e-001, 5.65131865e-002, -7.11689740e-002,
          6.77696049e-001, 7.79008493e-003, 2.62626201e-001,
          2.09690854e-001, -6.45986721e-002, 1.40936583e-001,
          -5.46500266e-001, -2.46422380e-001, -1.66920230e-001,
          -2.91283667e-001, -6.57655448e-002, -5.95713675e-001,
          -3.72454286e-001, -5.05497269e-002, -9.76151824e-002,
          -3.75911713e-001, 2.64559865e-001, -3.54605317e-001,
          -3.77271101e-002, -3.41891468e-001, -2.68921822e-001,
          -4.29045558e-001, -4.56724644e-001, -9.04714406e-001,
          -5.58112741e-001, -3.12024117e-001, -2.65943855e-001,
          -4.51960057e-001, 2.04715338e-002, -3.71387690e-001,
          -1.52773216e-001, -3.50663602e-001, -3.59899700e-002,
          -4.86490875e-001, -8.56190026e-002, -1.59520254e-001,
          5.65263391e-001, 4.53256130e-001, -2.78048009e-001,
          3.24130893e-001, 3.10819834e-001, 1.28167793e-001,
          -2.02930570e-002, 5.89556575e-001, -2.89253712e-001,
          5.02039433e-001, 4.83448565e-001, -3.39793473e-001,
          3.00752550e-001, 3.04917693e-001, -2.03306377e-001,
          -1.01125352e-001, -1.05585627e-001, 4.86119568e-001,
          2.69198328e-001, 1.76788568e-001, 2.21396774e-001,
          2.11469531e-001, -4.13855374e-001, 4.63953465e-001,
          1.32609710e-001, 1.61028340e-001, 3.48505706e-001,
          2.33584493e-001, -2.43198648e-001, 1.42022848e-001,
          -5.13663813e-002, 3.14167619e-001, 1.78570524e-001,
          6.57302201e-001, 4.54886347e-001, 2.49872878e-001,
          -6.16302118e-002, 5.73853433e-001, 1.72090203e-001,
          -3.13679904e-001, 1.40908360e-001, 2.34353676e-001,
          5.83394706e-001, 4.08645749e-001, 4.31516320e-001,
          7.45569229e-001, 3.99430633e-001, -1.10123366e-001,
          2.31905431e-001, 5.87262549e-002, 1.88558444e-001,
          3.93033504e-001, -5.70584908e-002, 1.61697268e-001,
          6.76528513e-002, 5.57051539e-001, 3.40100557e-001,
          8.90716687e-002, 4.83381078e-002, 1.24040218e-002,
          5.91958985e-002, 5.16795278e-001, 1.95802882e-001,
          4.53605115e-001, 4.96516302e-002, -4.07455564e-001,
          -3.05953920e-001, -3.15539911e-002, -3.25277179e-001,
          -2.36433875e-002, 1.03098534e-001, -1.64445996e-001,
          1.14409432e-001, 9.18364525e-002, -4.21333015e-001,
          -1.37198344e-001, -3.89469773e-001, -2.19145373e-001,
          3.99945453e-002, 1.36488095e-001, 3.94132622e-002,
          -2.11644024e-001, -2.98271398e-003, -4.35357951e-002,
          3.22640598e-001, 1.46873310e-001, -2.91320771e-001,
          -3.93660218e-001, -1.29519001e-001, 2.40700707e-001,
          -1.19169138e-001, -1.37742192e-001, -7.53263056e-001,
          -4.01683509e-001, -5.66017926e-001, -1.71665192e-001,
          -4.22484040e-001, 8.53326544e-002, -2.28598237e-001,
          -7.57313818e-002, -3.08573812e-001, 1.50859922e-001,
          8.47535655e-002, 2.20672205e-001, -1.46002039e-001,
          -7.27024376e-002, 2.21676722e-001, -2.77065665e-001,
          -3.00751776e-002, 5.36365628e-001, -1.03600457e-001,
          -1.78426523e-002, -3.06324542e-001, -4.97699417e-002,
          3.04536987e-002, 5.97970605e-001, 4.93173718e-001,
          2.96048820e-001, 1.11410178e-001, -2.11469546e-001,
          1.55232176e-002, 1.73066154e-001, -9.52943563e-002,
          3.34968641e-002, -4.77069691e-002, -1.86026409e-001,
          -1.30538076e-001, 1.21270910e-001, 1.21826515e-001,
          -9.91257727e-001, -2.77433991e-001, 1.47770550e-002,
          -3.75496805e-001, -4.87268537e-001, 7.63432607e-002,
          -2.51770079e-001, -2.40165100e-001, -6.15643784e-002,
          1.66699111e-001, -1.89632952e-001, -9.05546397e-002,
          2.71965712e-001, -3.40792149e-001, 2.21451193e-001,
          1.57243118e-001, -1.41919628e-001, -4.70613092e-001,
          -4.20337707e-001, -1.08932197e-001, -2.98291951e-001,
          -6.07780851e-002, -4.81649309e-001, -1.59386709e-001,
          -5.50168157e-001, -2.21439198e-001, -1.95590071e-002,
          1.34764954e-001, 9.38922167e-002, -1.30922934e-002,
          -1.25913277e-001, 2.97156088e-002, -6.82208091e-002,
          -2.67318636e-001, 2.32539162e-001, -1.13442761e-003,
          4.09759320e-002, -4.67629358e-003, 5.29529154e-002,
          1.53648481e-001, 2.78626889e-001, -8.26787576e-003,
          1.50934696e-001, 1.85649008e-001, 6.11204207e-001,
          -1.10171542e-001, -3.81116644e-002, -5.23911417e-002,
          3.00449193e-001, -9.03906450e-002, -3.33680779e-001,
          5.37978888e-001, 9.61250365e-002, -1.02714486e-001,
          -2.33316958e-001, 1.68731958e-002, 2.01610133e-001,
          2.44738623e-001, -1.03002815e-002, -1.92254558e-001,
          -3.38226795e-001, 1.44886598e-002, -1.23350866e-001,
          -3.68999690e-002, -1.08594270e-002, 1.51201472e-001,
          3.26973826e-001, -4.59141247e-002, -1.96741864e-001,
          -2.25263730e-001, 4.02361095e-001, 2.72033155e-001,
          6.81346238e-001, 2.34432533e-001, 1.57934755e-001,
          7.78217912e-002, -3.78547847e-001, 3.31256419e-001,
          1.35825410e-001, 2.80152798e-001, 3.98943096e-001,
          -1.76269606e-001, 1.90610707e-001, 2.18201414e-001,
          -1.93867180e-002, 1.24419451e-001, 4.89725828e-001,
          4.04514790e-001, 1.39451876e-001, -2.05407888e-001,
          -1.99354023e-001, 5.70519716e-002, 1.19640715e-001,
          3.32890660e-001, -4.11285967e-001, -3.27969491e-002,
          7.90432811e-001, -1.83695540e-001, 1.78181052e-001,
          1.18057705e-001, -1.21397428e-001, 2.09584743e-001,
          6.52733743e-002, -2.82544047e-002, 6.94816560e-002,
          3.16047341e-001, 1.23431988e-001, -9.36503485e-002,
          2.03571483e-001, 1.67577580e-001, -2.97643751e-001,
          8.74031246e-001, 5.09385228e-001, 3.94596040e-001,
          5.39199889e-001, -2.49715149e-001, 2.35080104e-002,
          4.06971201e-003, 4.53861475e-001, 5.01749337e-001,
          -2.05640439e-002, 7.11757123e-001, 4.07187045e-001,
          1.54321626e-001, 8.85784067e-003, 2.46471778e-001,
          3.85716520e-002, 3.59552443e-001, -2.72121932e-002,
          3.30808461e-001, 4.50076789e-001, 2.48027518e-002,
          3.48520488e-001, 2.05342304e-002, -7.33820498e-002,
          1.99696511e-001, 4.44592945e-002, 4.96722877e-001,
          2.88909376e-001, 6.33444428e-001, -1.57783806e-001,
          3.63980561e-001, 4.99967068e-001, 9.17274877e-002,
          7.87415281e-002, 1.33983135e-001, 4.14995700e-001,
          4.93105918e-001, 2.02706084e-001, 3.49040806e-001,
          1.92163050e-001, 5.11925697e-001, 4.42113727e-001,
          1.42239526e-001, -1.13430709e-001, 1.49779961e-001,
          1.69187918e-001, 2.62514532e-001, 2.21444085e-001,
          -4.92144935e-002, -1.54666066e-001, 6.43203914e-001,
          3.36487114e-001, 7.92856738e-002, 9.73478612e-003,
          2.07661167e-001, 3.32328469e-001, 1.87923476e-001,
          -2.39406496e-001, 4.40188386e-002, 2.77611017e-002,
          -1.20712534e-001, 4.26276118e-001, 3.92284065e-001,
          5.37782431e-001, 5.67585230e-001, -7.82619655e-001,
          3.94800633e-001, 7.35229850e-002, -3.87179196e-001,
          -4.14106190e-001, 2.89374948e-001, 1.51895270e-001,
          -1.18685449e-002, 3.92451733e-001, 1.99022591e-001,
          4.68646437e-001, 1.27312526e-001, 2.90564746e-001,
          3.38116169e-001, 2.91140437e-001, 4.87538427e-001,
          -9.22220126e-002, 5.47641180e-002, 1.38429299e-001,
          -7.67645389e-002, 2.63964888e-002, 2.17986107e-002,
          2.20667049e-001, -2.45187461e-001, 2.60304004e-001,
          3.09168160e-001, -1.01058237e-001, -1.75995618e-001,
          5.04449606e-001, 2.60161012e-001, -6.78868368e-002,
          1.15020841e-001, -2.24382505e-001, 1.81878120e-001,
          2.48486206e-001, -2.11604059e-001, -1.71795890e-001,
          1.24936141e-001, 5.46909928e-001, 2.06644963e-002,
          3.54395866e-001, 5.39069772e-002, 1.11328326e-001,
          -1.48102388e-001, 5.54806180e-002, 3.24528098e-001,
          -1.31988779e-001, -7.38097206e-002, -4.92962264e-002,
          2.60431141e-001, -8.51938725e-002, -3.69413167e-001,
          -2.50313252e-001, -4.90410179e-001, -5.92339456e-001,
          3.39152247e-001, -5.94392598e-001, 3.02789956e-001,
          -2.84017831e-001, 6.90091103e-002, -4.61973459e-001,
          -7.41539478e-001, 7.66753173e-003, 6.39518976e-001,
          2.10636094e-001, 4.01303470e-002, 2.66424268e-001,
          -4.28473726e-002, 4.05224621e-001, -4.02689129e-001,
          6.75440282e-002, 1.21180750e-002, 6.00247502e-001,
          -4.11093533e-001, 2.42619514e-001, 3.52698386e-001,
          -4.32624102e-001, 1.36769399e-001, -7.91345984e-002,
          4.26778734e-001, -1.16648152e-003, -8.39289930e-003,
          -4.81974632e-002, 5.93675613e-001, -2.76755959e-001,
          2.69636869e-001, -4.60531145e-001, 1.86213180e-001,
          2.97583282e-001, 5.16432464e-001, 2.22269431e-001,
          -8.56731310e-002, 4.03355993e-002, 3.10904663e-002,
          -2.26434603e-001, 5.37629366e-001, 3.04954410e-001,
          1.76854119e-001, 1.58104468e-002, 5.20311296e-002,
          4.07043964e-001, 5.33070751e-002, 3.23818147e-001,
          -2.80056382e-004, 1.19358853e-001, 2.50071794e-001,
          -1.16125844e-001, 4.05809022e-002, -1.88848883e-001,
          -2.44088724e-001, -5.97997867e-002, 4.79384214e-002,
          -7.63081834e-002, -4.38653380e-001, 7.16315508e-002,
          -1.27924740e-001, -3.15707028e-001, -1.32302150e-001,
          1.37170717e-001, -3.19661230e-001, -9.78714153e-002,
          -4.75583039e-002, -2.66919166e-001, -2.35697180e-002,
          -2.05525741e-001, -2.21119914e-002, 1.29942536e-001,
          -9.70262438e-002, -9.60507467e-002, -2.43818998e-001,
          1.98781699e-001, -2.04342887e-001, 9.92093906e-002,
          -1.96027175e-001, 2.73224771e-001, -1.73297718e-001,
          -8.09339881e-002, 1.48269385e-001, -1.64106965e-001,
          -1.77633017e-001, 1.94628928e-002, -4.50050831e-002,
          -1.96251765e-001, 5.20435095e-001, 3.39141935e-001,
          4.08070870e-002, 1.00733489e-001, 3.64264250e-001,
          4.26095605e-001, 3.97543341e-001, 2.34095827e-001,
          3.02864939e-001, 5.92530072e-002, 1.54018790e-001,
          4.24694836e-001, 2.16816217e-002, 4.89588410e-001,
          2.03780040e-001, 8.93083036e-001, 6.23670757e-001,
          4.59026992e-001, 2.13953421e-001, 1.62413493e-001,
          2.99005687e-001, 5.52424371e-001, -2.10194930e-001,
          3.12853664e-001, -1.91523865e-001, 1.52871594e-001,
          5.31747222e-001, 1.02363572e-001, 2.98410237e-001,
          5.85879564e-001, 4.97270256e-001, -6.93821013e-002,
          -2.68935531e-001, -3.21385890e-001, -5.06792068e-001,
          3.29611599e-001, -3.84518623e-001, 2.23627482e-002,
          1.54313505e-001, 2.20416533e-003, -1.26971930e-001,
          -2.12588400e-001, 9.10936072e-002, -4.11942601e-002,
          1.43495157e-001, -6.01933837e-001, 1.39493644e-001,
          1.16759434e-001, 5.16575668e-003, 3.09361488e-001,
          2.61110067e-001, 1.17955513e-001, -3.19771588e-001,
          -4.98004965e-002, -5.57955623e-001, 1.90823838e-001,
          1.29347593e-001, 2.63316214e-001, 2.56030858e-001,
          2.53363580e-001, 1.46266997e-001, -3.10266584e-001,
          -3.91816527e-001, 4.32699397e-002, 1.81018695e-001,
          1.87173203e-001, 2.75115609e-001, 4.04334486e-001,
          4.00829643e-001, -3.83493483e-001, 3.46302092e-001,
          2.59478599e-001, 7.02806413e-002, 8.55202854e-001,
          2.81996466e-002, 5.19547105e-001, -8.45159888e-002,
          2.28586942e-001, 4.76995558e-001, 3.75394881e-001,
          4.31004971e-001, 3.31550650e-002, 2.42081955e-001,
          6.57292724e-001, 1.60553232e-001, 3.78042907e-001,
          -1.68974474e-001, 3.85760278e-001, 1.88527733e-001,
          7.05053031e-001, 5.28775215e-001, 3.71233404e-001,
          6.09212697e-001, 3.59053522e-001, 7.27727786e-002,
          1.80399612e-001, 1.57452166e-001, -1.91985786e-001,
          -4.13116515e-001, -3.90632451e-001, -2.01808214e-001,
          3.63895714e-001, -1.89433098e-001, -5.05882382e-001,
          5.60967699e-002, -6.24373674e-001, -3.96865726e-001,
          -3.54891479e-001, -3.85936320e-001, -5.85803650e-002,
          -4.71544176e-001, -4.07337099e-002, -8.10739040e-001,
          -9.25432742e-002, -5.37402391e-001, -2.01681092e-001,
          -2.88586795e-001, -4.60196733e-001, 3.57313529e-002,
          -6.94181442e-001, 1.29294768e-001, -4.13322091e-001,
          2.12535530e-001, 1.95715591e-001, -1.52946919e-001,
          -7.07592607e-001, -8.51185620e-001, 1.70022827e-002,
          4.52868819e-001, 5.88236988e-001, 3.77380520e-001,
          1.03539594e-001, -1.69088468e-001, 1.63149506e-001,
          3.96163285e-001, 2.19850853e-001, 1.04247920e-001,
          3.22186500e-001, 3.29602242e-001, -2.23052323e-001,
          4.84228104e-001, 3.28637421e-001, -3.96964736e-002,
          5.13963819e-001, 3.50061029e-001, 2.86329716e-001,
          3.97806466e-001, 4.98653054e-001, -8.15095901e-002,
          6.21045470e-001, 1.08425714e-001, -9.24041495e-002,
          2.65085638e-001, 3.03952038e-001, -2.41141006e-001,
          2.14236543e-001, -1.54484123e-001, 2.50512868e-001,
          2.07899511e-001, -2.36216575e-001, 8.83500457e-001,
          3.64702016e-001, -1.34061351e-001, 1.35594279e-001,
          1.29377991e-001, 6.31606162e-001, 3.53516132e-001,
          5.58000147e-001, 4.83667463e-001, -9.56736878e-002,
          1.48650730e+000, 2.36155763e-001, 1.01069316e-001,
          1.13230951e-001, 4.22578335e-001, 4.20987874e-001,
          5.62380731e-001, 3.63846958e-001, 5.62453985e-001,
          3.64065409e-001, 7.47833490e-001, 3.32056969e-001,
          4.67721999e-001, 2.14446798e-001, 6.18074596e-001,
          1.83443666e-001, 3.37353945e-001, 1.21665731e-001,
          2.90550679e-001, -7.71559551e-002, 4.32546020e-001,
          4.30555105e-001, -3.21695328e-001, -4.89577085e-001,
          5.31659245e-001, 3.99102390e-001, -1.40946016e-001,
          -6.49712831e-002, -2.96242654e-001, 3.19588274e-001,
          -2.76650637e-001, -1.53582960e-001, -2.42133588e-001,
          2.46580973e-001, 4.90152836e-001, -6.14934717e-004,
          3.31862926e-001, -3.10961515e-001, 4.76881146e-001,
          -1.48310021e-001, 2.20901594e-001, -3.04134965e-001,
          1.12809002e-001, 4.76972729e-001, 3.55233520e-001,
          1.46363467e-001, 7.74525758e-003, -3.00681144e-002,
          -1.32278249e-001, 1.89355478e-001, 4.32434469e-001,
          2.79084414e-001, 1.56793892e-002, 3.51520658e-001,
          6.54461503e-001, 2.45116621e-001, 1.94375902e-001,
          -6.59840256e-002, 3.21138173e-001, -9.78167728e-002,
          1.44031078e-001, 4.67188269e-001, 1.64393306e-001,
          1.33371025e-001, 7.06795931e-001, 2.96401441e-001,
          4.15715635e-001, 6.29419982e-001, 4.01520520e-001,
          1.69238999e-001, 2.38283351e-001, 6.03592753e-001,
          4.65394169e-001, 1.87725812e-001, 9.16810930e-002,
          5.76665342e-001, 4.72977489e-001, -2.04376280e-002,
          -4.35834765e-001, 3.00926059e-001, 4.50045556e-001,
          2.02296972e-001, 4.61833149e-001, 4.63115066e-001,
          5.95739126e-001, 4.41169292e-001, 1.09958507e-001,
          -1.07920967e-001, 1.95625052e-001, 6.56693339e-001,
          3.62788439e-001, 4.17935044e-001, -1.33529618e-001,
          3.18343937e-001, 5.75141251e-001, 8.51439163e-002,
          3.77183855e-001, 2.30093952e-002, 1.42276734e-001,
          -2.71423876e-001, -2.82990057e-002, -3.26106846e-001,
          -4.10773717e-002, -1.29819140e-001, 1.72720522e-001,
          4.73842025e-001, 6.25839710e-001, -2.55664527e-001,
          5.94299853e-001, 1.21970832e-001, 4.05758649e-001,
          -7.50950500e-002, -2.10646287e-001, 2.74507642e-001,
          -3.41078162e-001, 1.57868266e-001, -3.19869816e-001,
          2.60472685e-001 ]
      - [ 1.47437632e-001, -1.42821535e-001, 1.30232289e-001,
          -7.08493143e-002, -3.82405370e-001, -1.19657731e-002,
          5.17548770e-002, -2.44638287e-002, 3.44916523e-001,
          -6.42317459e-002, 2.14219794e-001, 3.04477453e-001,
          1.17835738e-001, 2.56866395e-001, -1.81959216e-002,
          3.73250544e-001, -2.93654948e-001, 1.41688868e-001,
          -2.39122838e-001, 9.50438157e-002, -4.65521514e-002,
          6.54434979e-001, -1.22338891e-001, -1.45563006e-001,
          1.94314286e-001, 2.25299165e-001, 3.41886580e-001,
          3.85380685e-001, 6.55975267e-002, 4.63886023e-001,
          -2.40020707e-001, 5.44454515e-001, -5.64859211e-002,
          3.37973207e-001, -4.07501817e-001, 3.95889372e-001,
          4.82971780e-002, -3.95904742e-002, 2.37858638e-001,
          -5.74759424e-001, 1.33439168e-001, 8.48287493e-002,
          2.89710462e-001, -5.25889277e-001, -1.06491921e-002,
          -1.54282510e-001, -1.20515220e-001, 1.11288719e-001,
          -1.42884150e-001, 8.75205398e-002, 9.75452438e-002,
          5.25073946e-001, -6.30725861e-001, 1.55295789e-001,
          8.62898380e-002, -2.02096671e-001, -9.91439372e-002,
          -1.30882025e-001, 3.88878644e-001, 2.93206483e-001,
          -1.55683264e-001, 3.90718356e-002, -6.03480995e-001,
          -1.00059487e-001, -6.33670390e-001, -2.38335818e-001,
          2.11198241e-001, -2.85559222e-002, 1.43062025e-001,
          8.42866376e-002, -1.92832485e-001, -5.26688099e-001,
          -5.42419732e-001, 4.17232633e-001, 9.18129086e-002,
          5.15905082e-001, -3.15218627e-001, -3.77294809e-001,
          2.04211712e-001, -8.51526186e-002, -1.45158574e-001,
          -2.11911827e-001, 5.25975466e-001, -2.00151607e-001,
          -3.11512887e-001, -1.08643971e-001, 2.43647486e-001,
          -4.36495006e-001, -6.28390312e-001, -3.10056627e-001,
          -2.03165542e-002, 7.44413853e-001, -3.75365943e-001,
          8.44741240e-002, 2.09320322e-001, 9.33252648e-002,
          -1.20963141e-001, -4.34940279e-001, 5.78589365e-002,
          -4.36199695e-001, -3.41406092e-002, -3.20160061e-001,
          -4.59455162e-001, -7.45854914e-001, 4.49420698e-003,
          7.54752338e-001, -3.70352596e-001, 2.13783145e-001,
          -5.56284666e-001, 2.15720221e-001, -1.02065139e-001,
          7.83875212e-003, -7.88668822e-003, -2.37789854e-001,
          -5.79100966e-001, -6.93900809e-002, 6.31745636e-001,
          -5.57927787e-001, 2.60366589e-001, -1.75957575e-001,
          -8.27081680e-001, -1.27600908e-001, 4.10730153e-001,
          -1.52624622e-001, -4.32434201e-001, -2.33615682e-001,
          1.98957294e-001, -2.55598307e-001, 7.61902094e-001,
          1.95081919e-001, -2.47909427e-001, 3.24050933e-001,
          1.18655033e-001, 2.03587472e-001, -2.06210390e-001,
          9.19802964e-001, 3.07175934e-001, 3.37421805e-001,
          1.83425561e-001, -5.92299737e-002, 7.79264793e-002,
          3.55678082e-001, -1.45206526e-001, -2.26608645e-002,
          -7.70929381e-002, 5.36172867e-001, 1.42297652e-002,
          9.21507999e-002, 1.47916526e-001, 1.54905161e-003,
          5.73926628e-001, -4.59916145e-002, 1.18859828e-001,
          3.60975564e-001, 1.36711240e-001, 1.89050227e-001,
          -7.08705708e-002, 3.69566023e-001, 5.73718548e-001,
          -2.25331366e-001, -1.96099117e-001, -3.77978504e-001,
          -3.76684904e-001, 4.54118289e-002, 1.02357477e-001,
          -2.35492378e-001, -2.16766506e-001, -4.49370742e-001,
          -3.43516469e-001, -5.86202107e-002, -1.35529086e-001,
          -2.61798590e-001, -5.39978705e-002, -2.53333896e-001,
          1.41337425e-001, -1.89243741e-002, -9.81835201e-002,
          -1.85457572e-001, -2.82433510e-001, -6.33089617e-002,
          6.69064969e-002, 2.02304348e-002, -1.05389588e-001,
          -2.24121422e-001, 1.09417982e-001, -1.74710169e-001,
          -4.87316400e-002, -4.59266096e-001, 1.66051649e-002,
          -2.47618362e-001, -4.12569612e-001, -1.92696735e-001,
          -1.32656813e-001, 5.20445872e-003, -2.71171004e-001,
          6.41274229e-002, -2.44468242e-001, 3.28428477e-001,
          -5.47476187e-002, -3.06282252e-001, -3.50336283e-001,
          3.03239733e-001, 9.41958874e-002, 3.38272333e-001,
          1.52565986e-001, 1.04294522e-002, 1.30702570e-001,
          -2.58713737e-002, 2.44368613e-001, -1.26541376e-001,
          2.55423278e-001, -1.52820781e-001, -9.06398445e-002,
          9.63021517e-002, 8.48651230e-002, 6.60786079e-003,
          1.52203724e-001, -1.66082121e-002, 2.23464966e-001,
          1.58395600e-002, -5.79553889e-003, -1.04195945e-001,
          -4.55950022e-001, 2.97014743e-001, 1.93262205e-001,
          -1.34297073e-001, 5.11031985e-001, -7.41331326e-003,
          1.88670158e-001, 1.39371455e-001, 5.80712780e-002,
          -6.66579157e-002, 2.52292752e-001, 9.78250057e-002,
          2.03398749e-001, 3.56564611e-001, 2.46415213e-002,
          -2.84966737e-001, -9.31772292e-002, 8.69457781e-001,
          1.09740809e-001, 1.11648440e-001, 1.22750327e-001,
          -2.33568087e-001, 6.07670955e-002, 2.73299992e-001,
          7.68318251e-002, 7.49730691e-002, 1.12497909e-002,
          5.14828190e-002, 4.83789712e-001, -1.93094283e-001,
          -2.26391971e-001, 5.61555266e-001, 1.50157019e-001,
          1.28370985e-001, -8.39326024e-001, -8.75909626e-002,
          -9.16390121e-002, 2.87925392e-001, -7.54334703e-002,
          7.22626923e-003, -1.87560737e-001, 3.71908963e-001,
          -5.73294103e-001, 1.64126381e-001, -4.06061977e-001,
          -2.95383841e-001, -2.51150709e-002, 5.51804714e-002,
          3.30931216e-001, 1.56404842e-002, -3.60337526e-001,
          -6.75399899e-002, -1.78803638e-001, -6.53312355e-002,
          4.58423376e-001, -1.46466857e-002, -5.12989581e-001,
          -5.73539197e-001, -3.15184146e-002, 4.16441143e-001,
          -3.41285616e-001, 3.07924330e-001, 1.65809512e-001,
          -3.83911312e-001, -3.60263705e-001, -3.69398057e-001,
          -1.03366256e-001, -4.40590054e-001, -7.06565678e-001,
          -7.62176439e-002, -3.89713764e-001, -4.52763110e-001,
          -4.02600020e-001, -4.04880017e-001, -2.27196246e-001,
          -7.77077556e-001, -1.74504653e-001, -5.90114832e-001,
          -2.74212778e-001, -5.62449932e-001, -8.96041095e-001,
          -9.84156802e-002, -4.57155168e-001, -6.03192568e-001,
          -4.51460928e-001, 3.52427065e-002, -7.11073458e-001,
          -8.30424353e-002, -1.74645454e-001, 1.27742859e-002,
          -3.30305010e-001, -2.61402726e-001, -2.49438450e-001,
          -5.47794461e-001, -4.87506479e-001, -7.00868011e-001,
          -1.80740088e-001, -1.44024612e-003, -3.46675277e-001,
          1.06364392e-001, -5.31678915e-001, 9.64679345e-002,
          1.25862017e-001, -1.55168012e-001, -1.62186489e-001,
          -1.51932403e-001, -2.47962415e-001, -1.43483937e-001,
          -3.31522226e-001, 2.15229858e-002, -5.43161035e-001,
          -2.15831205e-001, 2.40987316e-001, -2.39102431e-002,
          -3.66602510e-001, 3.97945136e-001, 6.00324944e-002,
          2.47461677e-001, 7.35583678e-002, -3.54077071e-001,
          -1.46083593e-001, -6.67636633e-001, -8.96953344e-002,
          7.29812384e-002, -1.65965751e-001, -4.70071167e-001,
          -4.27908033e-001, -2.88491786e-001, 3.00594270e-001,
          -2.71285713e-001, -2.20263496e-001, -2.23617703e-001,
          5.05079217e-002, -2.41950657e-002, 3.47523391e-001,
          1.73620328e-001, 1.15590580e-001, 2.50162601e-001,
          -1.84413806e-001, 1.39191166e-001, -3.77915800e-002,
          -1.78662717e-001, 2.99231321e-001, 5.40337600e-002,
          -3.68891239e-001, 2.04404414e-001, -3.15824486e-002,
          -2.28842899e-001, 7.22048879e-002, 2.15857476e-001,
          3.52747619e-001, 3.40622842e-001, 1.21154822e-001,
          -3.06621790e-002, 2.56016403e-001, 1.05650410e-001,
          1.62977546e-001, -8.14517494e-003, -4.65613343e-002,
          -1.58534691e-001, -3.14226933e-002, -2.45876580e-001,
          8.35549712e-001, 1.34880422e-002, 2.84717381e-001,
          -2.78548867e-001, 1.49227694e-001, 7.38830447e-001,
          -1.21235671e-002, 2.85071526e-002, 1.54309079e-001,
          7.59775698e-001, 7.55512357e-001, 1.82776496e-001,
          -1.26297519e-001, 5.52338004e-001, 6.83720946e-001,
          1.60716221e-001, -2.16237262e-001, 4.49253976e-001,
          -7.68112577e-003, 4.21827435e-001, 3.85680199e-001,
          2.85758615e-001, 4.68104007e-003, 4.05312449e-001,
          -1.02686122e-001, 1.58094510e-001, 3.29827368e-001,
          4.67885822e-001, 1.20820202e-001, -3.01175654e-001,
          -2.09735110e-001, 4.24053311e-001, 3.05045217e-001,
          -3.95510346e-001, 2.91868836e-001, 4.20166790e-001,
          -2.25069851e-001, -2.60044754e-001, -1.24677025e-001,
          -2.35294998e-001, -1.95524469e-001, -4.00633723e-001,
          1.36741951e-001, 1.78034544e-001, -1.98400199e-001,
          -3.81694227e-001, -1.20123908e-001, -4.48311478e-001,
          -3.04322749e-001, -4.41182613e-001, 2.24574298e-001,
          -2.38793820e-001, -1.70781732e-001, -7.07587421e-001,
          3.51086646e-001, -8.77982974e-002, -4.91262853e-001,
          1.76694572e-001, 1.40268236e-001, -3.73865902e-001,
          -1.98446617e-001, 2.90765643e-001, -4.29587752e-001,
          -1.58116132e-001, -2.52201498e-001, 7.06043839e-002,
          -1.89267546e-001, -1.12503640e-001, -3.59098278e-002,
          -1.94202229e-001, 2.83934802e-001, 5.54008007e-001,
          -4.17971797e-002, 1.74509794e-001, 6.27395332e-001,
          2.25543573e-001, 4.73551124e-001, 9.72484052e-002,
          4.52646196e-001, 6.94565535e-001, 3.50879908e-001,
          3.44101906e-001, 5.70926592e-002, -1.50303200e-001,
          3.83704863e-002, 7.18320459e-002, -4.26357031e-001,
          -2.52513736e-001, 1.68526739e-001, -1.39284804e-001,
          9.41932648e-002, -1.41788572e-001, 2.34794095e-002,
          1.16589047e-001, 6.82010472e-001, 3.21788579e-001,
          -1.45514086e-001, -1.31869778e-001, -3.49107027e-001,
          -1.54426053e-001, -7.05681592e-002, 2.33465463e-001,
          -3.97373438e-002, 2.77006984e-001, -2.66932976e-003,
          -5.62951760e-003, -3.02696586e-001, -2.84826010e-001,
          1.27632141e-001, -8.30190033e-002, -3.88320535e-001,
          -1.96199402e-001, -1.65055230e-001, -1.93970531e-001,
          -3.68117720e-001, 8.14078078e-002, 4.43538636e-001,
          -2.27866974e-002, -1.64023489e-001, -2.42097825e-001,
          -5.44129848e-001, 9.39270332e-002, -2.06613109e-001,
          2.56966799e-001, 5.14071845e-002, -6.41370118e-002,
          1.92854345e-001, -2.59873331e-001, 1.05046509e-002,
          4.32414740e-001, 6.95741594e-001, 3.27513129e-001,
          6.07526839e-001, 5.46651483e-001, 1.02604903e-001,
          3.29833031e-001, -2.35970020e-001, 2.59980649e-001,
          6.61630332e-001, 6.61673725e-001, 6.59707248e-001,
          7.58767664e-001, 2.86653936e-001, 1.45768926e-001,
          -1.75766394e-001, 5.59295118e-001, 3.29493076e-001,
          1.89195856e-001, 1.44542024e-001, 2.85943270e-001,
          3.81875187e-002, 4.10234660e-001, 2.31339157e-001,
          2.17448100e-001, 4.80908722e-001, 1.83785141e-001,
          -8.06643367e-002, 7.06665814e-002, 9.34539139e-002,
          -1.11500127e-002, 2.48960614e-001, 6.55774251e-002,
          7.82099143e-002, 7.26951957e-001, 8.27616304e-002,
          1.77194998e-001, 3.29921722e-001, -1.16425395e-001,
          1.16661882e+000, 6.34322036e-003, 4.87979800e-001,
          -8.46498832e-002, -1.97987892e-002, 3.23445410e-001,
          4.49825913e-001, 5.09623289e-001, 6.30420208e-001,
          5.12298405e-001, 6.37824684e-002, 6.68511614e-002,
          4.10290482e-003, 6.23926520e-001, 1.66281551e-001,
          1.62418380e-001, 2.15997159e-001, 6.29349589e-001,
          6.24005973e-001, 4.48797256e-001, -6.57502860e-002,
          3.73190850e-001, 1.30282655e-001, 5.04786670e-001,
          -6.63885325e-002, -1.01029150e-001, -1.82763085e-001,
          -3.07582647e-001, -5.39135896e-002, 2.27754079e-002,
          1.15472436e-001, -2.26643756e-002, -2.89271563e-001,
          1.39286304e-002, -2.32682049e-001, 1.96575716e-001,
          1.82583392e-001, -1.04669347e-001, 2.71636993e-002,
          -3.79812658e-001, -4.64714319e-001, -8.74686018e-002,
          -2.29124531e-001, -1.89355850e-001, 8.80871341e-002,
          -1.65141135e-001, -6.16423786e-001, -3.48656744e-001,
          -1.45026550e-001, -2.91413605e-001, 1.67732239e-001,
          1.22707956e-001, -4.64339733e-001, 6.10671639e-001,
          -2.32653439e-001, -4.80698228e-001, 3.41045298e-002,
          2.11507708e-001, -6.34519994e-001, -3.28557312e-001,
          1.34161219e-001, 3.52988869e-001, 2.40483314e-001,
          -3.52712870e-002, -1.44212231e-001, 1.51257422e-002,
          2.56921314e-002, 8.95205587e-002, 4.21214104e-001,
          2.97185838e-001, -4.44230497e-001, 3.09481081e-002,
          -4.64065492e-001, -2.51862649e-002, -2.15629954e-002,
          6.06335327e-002, 6.77175894e-002, -3.28658998e-001,
          1.72640875e-001, 6.76008761e-002, -3.53878111e-001,
          6.88066781e-002, 1.72963321e-001, -8.38762149e-002,
          -9.23131183e-002, -1.98854133e-001, 2.95448661e-001,
          6.39691651e-002, -1.78740203e-001, -2.62137979e-001,
          -4.33543026e-001, 2.10902214e-001, -3.82554293e-001,
          -2.42752030e-001, -1.50442049e-001, 2.15613216e-001,
          -4.19624507e-001, -2.63925463e-001, 3.60479891e-001,
          -1.27010301e-001, -8.94106925e-002, -2.86993712e-001,
          -2.15987936e-001, -1.03735454e-001, -4.15222580e-003,
          -2.80048490e-001, -1.53592423e-001, -6.58361837e-002,
          -4.09954011e-001, -3.58781517e-001, -1.56001672e-001,
          -1.53064176e-001, -1.74739271e-001, -4.84807231e-002,
          -2.38873333e-001, 7.58347809e-002, 2.21149057e-001,
          -3.22571903e-001, -4.80376065e-001, -6.83517396e-001,
          -1.73562244e-001, 1.85261622e-001, 1.76857896e-002,
          5.40896878e-002, 6.49326563e-001, -6.47774935e-001,
          1.36480452e-002, 3.09220374e-001, 2.53274888e-001,
          7.25961030e-002, 7.47963190e-001, 4.77640741e-002,
          4.06038105e-001, -5.21534830e-002, -5.88155463e-002,
          6.04229085e-002, -1.00318305e-002, 7.23068357e-001,
