%YAML:1.0
my_svm: !!opencv-ml-svm
   svm_type: C_SVC
   kernel: { type:LINEAR }
   C: 1.0000000000000001e-001
   term_criteria: { epsilon:1.1920928955078125e-007, iterations:1000 }
   var_all: 2048
   var_count: 2048
   class_count: 3
   class_labels: !!opencv-matrix
      rows: 1
      cols: 3
      dt: i
      data: [ 0, 1, 2 ]
   sv_total: 3
   support_vectors:
      - [ 7.51936841e-006, 2.04737862e-005, -1.45079575e-005,
          2.46543932e-005, -3.28104397e-006, -6.98770418e-006,
          1.01618325e-005, 7.97612574e-006, 1.10447845e-005,
          -4.88089245e-006, 3.77080651e-005, 2.13768944e-005,
          -1.27601311e-006, 1.14766362e-005, 1.10377878e-005,
          -3.89619381e-005, -5.60743320e-006, 1.80309835e-005,
          -2.13856511e-005, 2.63966704e-005, 9.56810254e-006,
          4.53420034e-005, -2.00931800e-006, -5.57209614e-006,
          5.44742361e-005, 4.66904166e-005, 6.86160865e-006,
          -7.39888947e-007, -2.62976246e-005, -5.05392018e-006,
          -8.96677830e-006, 3.01836626e-005, 2.42649480e-006,
          1.48819099e-005, 3.80719139e-005, 3.07168630e-005,
          -1.98859616e-005, 1.76922676e-005, -1.19897340e-004,
          2.12932118e-005, 1.54126610e-005, -2.99655767e-005,
          1.18681628e-005, 1.24243456e-006, 4.93942098e-005,
          6.65114858e-005, 5.58957654e-005, -3.43949250e-005,
          7.64272500e-007, -2.28705612e-005, -1.44321448e-005,
          -5.10766404e-006, -2.89960517e-005, -1.09442917e-005,
          -5.23375002e-006, -8.24883591e-006, 3.85067942e-005,
          -1.26094765e-005, 3.23742552e-006, 6.48967898e-006,
          -2.83351146e-005, 6.05195564e-005, -2.42481065e-006,
          1.90937426e-005, 1.41140954e-005, -2.19588565e-005,
          1.42240906e-005, -2.51055972e-005, -8.60699492e-006,
          2.14051743e-005, -1.10368346e-005, -1.15832108e-006,
          -6.57347891e-006, 9.30821443e-006, 4.11390902e-005,
          8.33448757e-006, -1.09407911e-005, 1.28837082e-005,
          -6.11663745e-006, 7.19359434e-007, -1.43610223e-005,
          9.88352986e-006, 5.82207394e-005, -6.15000454e-006,
          -6.85078703e-006, -1.76759556e-006, 2.47408352e-005,
          -9.80254390e-006, 4.44860007e-007, 2.11266633e-005,
          -2.16737499e-005, 1.48826539e-005, 6.12792792e-006,
          -3.40710585e-006, -4.07388616e-005, 3.32469099e-005,
          -2.01678868e-005, -4.73226601e-006, 2.20375478e-005,
          1.26195673e-005, -5.40595465e-006, 8.12931739e-006,
          8.86623639e-006, -1.60042018e-005, -1.43198258e-005,
          4.40963413e-005, 4.81635689e-005, 2.50315770e-005,
          -3.30022522e-006, -1.97980717e-005, 3.46937413e-005,
          6.96348525e-006, 4.80517047e-005, 1.74238758e-005,
          3.14474505e-006, -3.25029760e-005, 8.74155667e-005,
          1.46505017e-005, -2.04603530e-005, 3.21008702e-005,
          1.97579516e-006, 2.32625534e-005, 2.09103127e-005,
          6.42301093e-005, 2.51240599e-005, 1.50432716e-005,
          -1.21657672e-006, 1.35048658e-005, 2.08787224e-005,
          -1.33144476e-005, -5.80339520e-006, 3.43320571e-005,
          3.22453634e-005, -3.37775273e-005, 2.46291370e-006,
          4.09450740e-006, 3.54513104e-005, 2.14220054e-005,
          2.08913261e-005, 3.17573649e-005, 1.72786458e-005,
          -3.11744734e-005, 1.63065506e-005, 3.51506205e-005,
          1.81094474e-005, 1.34334377e-005, 2.45969713e-005,
          2.05583110e-005, -4.76756395e-006, 2.27721375e-005,
          1.48023973e-005, 4.03419908e-005, 1.60736763e-005,
          1.82195090e-005, 1.39689300e-005, 6.19216225e-005,
          -1.19117349e-005, 1.76002941e-005, 1.15517478e-005,
          -1.42063425e-006, -1.34622087e-005, -4.15526338e-005,
          2.94632378e-006, 2.98241703e-005, 1.96401088e-005,
          -8.02117654e-007, 3.32411182e-005, 1.50570067e-005,
          1.06053358e-005, -2.59511871e-005, 2.90289372e-005,
          2.31669146e-005, 7.51757034e-005, -5.58695137e-006,
          2.98588157e-006, -4.63272772e-006, -1.72937453e-005,
          -2.28399476e-005, -5.06126935e-006, 3.82900180e-005,
          -3.99068267e-005, 3.26579402e-006, -3.20807849e-005,
          1.64150788e-005, -4.86775898e-005, 3.61717139e-005,
          6.33884656e-006, -2.96730923e-006, -2.65284962e-005,
          1.40578532e-005, -4.27493724e-005, -1.80097195e-005,
          1.39971326e-005, -2.52104983e-005, -3.95125198e-006,
          -1.58174880e-005, 4.28148405e-006, 4.10201501e-005,
          4.46821286e-005, 3.65572196e-005, 4.36039991e-005,
          -1.40920056e-005, -2.43161139e-005, 1.02314643e-005,
          -2.59682929e-005, 2.53809208e-006, 8.13879524e-006,
          -3.73365765e-006, 4.28950852e-006, 1.72285017e-005,
          -3.05471112e-005, 1.11300251e-005, 2.91683828e-005,
          1.58884734e-006, -5.39067805e-005, -3.74331576e-005,
          9.80321147e-006, 6.35145000e-007, -2.20886577e-005,
          -2.57226275e-005, -1.54311147e-005, 2.14223310e-005,
          -1.11400059e-005, 8.07421748e-005, 1.62843628e-006,
          6.60099977e-005, -1.86553953e-005, 2.57621487e-005,
          4.01081998e-005, 2.08459696e-005, 2.78871885e-005,
          -2.91332963e-005, -1.59622073e-006, 9.55703126e-006,
          4.60261435e-006, 3.70764210e-005, 3.66753338e-005,
          6.53885490e-006, -8.41324606e-007, -2.06450422e-005,
          1.54343543e-005, -2.47116222e-005, 4.73323089e-005,
          -4.97104957e-005, 2.00167397e-005, 1.87016449e-005,
          -2.85970764e-005, 1.26223804e-005, 4.20393153e-005,
          3.57529757e-006, -4.00394274e-005, 3.44808541e-005,
          3.49552124e-006, -1.68174356e-005, 3.28759313e-007,
          -1.91242980e-005, 7.51579046e-006, 1.83582979e-005,
          -1.34312977e-005, -1.71197746e-006, -2.20330530e-005,
          1.70075891e-005, -2.22321487e-005, -7.58929446e-006,
          5.13598934e-005, -4.04507628e-005, 5.75720405e-005,
          -1.04200972e-005, 8.26105406e-006, 7.73294960e-005,
          -1.53534093e-005, -2.50600187e-005, 1.53698657e-005,
          3.94247836e-005, 3.62343962e-005, -6.19578941e-006,
          -2.60153301e-005, 2.63586408e-005, 1.50055121e-005,
          -8.65773927e-006, -1.57568593e-005, -1.11934132e-005,
          -2.77986164e-005, -5.03793817e-005, 2.41534344e-005,
          -1.94486838e-005, 1.70619460e-005, 3.91291433e-005,
          -3.70718726e-006, 2.54552060e-006, -2.07326229e-005,
          2.05853758e-005, -2.07941084e-005, 5.98699489e-006,
          2.94116990e-006, 2.71997360e-005, -3.33889420e-006,
          7.54079156e-006, 7.22698533e-005, -9.91965953e-006,
          1.45743343e-005, -8.93164361e-006, -1.05305699e-005,
          -2.50294693e-006, 3.04797823e-007, 9.47977242e-006,
          3.80319252e-005, 3.30326220e-005, -2.91784363e-006,
          -2.11905517e-005, 4.34739777e-005, 9.77330637e-006,
          2.60821125e-005, -3.41738087e-006, -1.44371434e-005,
          1.58010167e-007, -3.29290779e-005, -1.26171717e-005,
          -2.35875832e-005, 1.87591522e-005, 6.92042113e-006,
          2.32387738e-005, 7.15650685e-006, -3.82130793e-006,
          -1.00303896e-005, 1.72041837e-005, -1.45847571e-005,
          3.23270469e-005, 4.00030476e-005, -2.95168466e-005,
          2.11171064e-005, -1.37446932e-006, 3.83584029e-006,
          3.37298516e-005, 1.28950942e-005, 1.05194922e-005,
          3.75252093e-005, 1.44934975e-005, -1.33199155e-005,
          -3.67108878e-005, -2.62684648e-006, 4.22772973e-005,
          1.57688610e-005, 2.41535099e-006, 7.85612156e-006,
          -5.34507444e-006, -1.00535981e-005, -2.47790995e-005,
          -2.58381569e-005, -2.21367463e-005, 1.24232683e-005,
          -2.20811744e-005, -3.10104515e-005, 1.07949363e-005,
          1.16539068e-005, -1.56997394e-005, 8.97749305e-006,
          -1.92878178e-005, -1.36792196e-005, 5.23577437e-005,
          2.56518579e-005, -2.93769317e-005, 2.90855787e-005,
          2.87858402e-005, 2.70403070e-005, 2.51204756e-006,
          1.71890388e-005, 9.52509799e-006, 1.13149599e-005,
          2.29608431e-005, 2.41393336e-005, -5.24193592e-006,
          -2.57661759e-005, -7.49352375e-006, 9.64772335e-006,
          2.55428204e-005, 2.49157938e-006, -4.44901025e-006,
          -2.31835588e-006, -3.67407301e-005, 1.16154815e-005,
          -3.97246076e-005, -1.11357995e-005, -2.42326169e-005,
          -1.34898664e-005, 1.56436054e-005, 2.44228140e-005,
          2.76373066e-006, -5.34475294e-005, 6.54944415e-006,
          6.70462987e-006, 1.81305791e-006, 4.56986527e-006,
          3.58713805e-005, 2.28466270e-005, 1.31601682e-005,
          6.44977699e-005, -7.24161146e-005, -4.42245291e-005,
          -1.95550892e-005, -4.10211833e-005, 3.15283105e-005,
          2.60093148e-005, 1.35437654e-006, 1.01116502e-005,
          -2.06727582e-005, -5.56283594e-005, -1.10210440e-005,
          -3.45926168e-008, 1.93049959e-006, 1.99310107e-005,
          4.35053917e-005, -4.71477870e-005, -4.47757884e-005,
          -3.14824538e-005, -3.34032711e-006, 5.09396777e-005,
          -7.40465430e-006, -4.41057127e-005, -1.88628765e-005,
          8.07729157e-006, 3.11293370e-005, 1.91983181e-005,
          3.72847462e-005, 3.72553745e-006, 2.09484715e-005,
          4.05653664e-005, 2.19310209e-006, 3.19852770e-005,
          -3.87466207e-005, 3.72720024e-006, 1.35215105e-005,
          9.49602509e-006, 2.06827517e-005, 4.12871450e-005,
          2.33136889e-005, -1.67844682e-005, 1.93249180e-005,
          3.91557842e-006, -3.19612718e-006, -1.75593323e-005,
          1.05813406e-005, -1.28699157e-005, 1.01119858e-005,
          1.42985446e-005, -5.12224733e-006, -1.25296610e-005,
          -2.01085832e-008, 3.24821558e-005, -1.53701203e-005,
          1.67532689e-005, -8.64325284e-006, -1.01967935e-005,
          -8.08604091e-006, 7.81119797e-006, -6.91051491e-006,
          -3.97618896e-006, -3.24654029e-005, 2.64261762e-005,
          3.21200309e-006, 1.38648193e-005, 2.38193184e-006,
          -2.29869966e-005, -3.61033767e-006, 2.71892782e-006,
          2.54856368e-005, -3.20893378e-005, 2.39266647e-005,
          2.17777324e-005, 2.75831735e-005, -1.58166604e-005,
          -9.17799662e-006, -1.22562915e-005, 1.79537983e-005,
          -6.09735434e-006, -1.26333071e-005, 1.03461289e-005,
          2.97686547e-005, 1.61378593e-005, -2.31753038e-005,
          -1.75872410e-005, -1.24557937e-005, -4.62661501e-006,
          -4.17763340e-006, -1.85706067e-005, 4.88160040e-005,
          -1.31818470e-005, -3.53412397e-005, 1.38734713e-005,
          -3.56705073e-006, 4.42779856e-005, -1.90050232e-005,
          1.91334075e-005, -4.51979849e-006, -2.08691063e-006,
          -1.10772999e-005, 4.72536085e-005, 9.66037805e-006,
          2.32476523e-005, -1.25874694e-005, 1.46476123e-005,
          1.17681157e-006, 5.71850751e-006, 3.30837029e-005,
          -2.90742937e-005, 2.35909447e-005, -3.23287677e-005,
          -2.00992927e-005, 1.60663240e-005, 1.43101815e-005,
          1.72098214e-006, 2.22384514e-007, 1.46851717e-005,
          2.75828297e-005, -2.79820924e-005, -1.43703492e-005,
          1.04858427e-005, 1.36460585e-005, 1.56902224e-005,
          -1.09299226e-005, 2.97107435e-005, 1.30908247e-005,
          2.31847716e-005, 6.49377034e-005, -2.84091566e-005,
          -1.67421622e-005, -6.83286999e-006, -3.68519795e-006,
          -1.16624433e-005, -2.96680014e-006, 4.81167372e-005,
          -7.60751482e-006, -3.04160744e-006, 3.14550780e-005,
          1.01915166e-005, 1.46559305e-005, 3.70171547e-005,
          1.43887391e-005, -6.75469055e-005, -1.50264202e-006,
          -4.02683781e-006, -2.36809374e-005, 1.77642669e-005,
          2.83981808e-005, -1.44256273e-005, -2.07641006e-005,
          -7.59097020e-006, 6.71212547e-006, 3.53070027e-005,
          -2.78358903e-006, 7.47748300e-006, -6.04948764e-005,
          2.75643379e-006, -5.24543066e-005, -3.72082383e-007,
          8.30934459e-006, 3.44698565e-005, 1.66266964e-005,
          1.65877253e-007, -6.78066453e-006, 4.87237485e-005,
          -7.11378698e-006, -2.20310558e-005, 9.22772961e-006,
          -2.47763478e-006, -2.09036862e-005, -2.87238581e-005,
          -9.50194863e-006, -1.99137230e-005, 6.62363482e-006,
          -4.75786837e-005, 1.39571666e-005, 9.54427014e-006,
          -5.15015017e-006, -1.69298564e-005, -2.39326182e-005,
          -3.02475556e-008, -6.92994490e-007, 2.13455423e-005,
          -2.82708697e-006, 1.13533179e-005, 1.23540831e-005,
          -3.87236287e-005, 1.53952988e-005, -1.41517021e-005,
          -2.30719306e-005, -1.42294020e-005, 2.25109688e-005,
          -1.15470357e-006, 2.62341709e-005, -6.18308559e-006,
          1.64247340e-005, -2.00872255e-005, -1.63033546e-005,
          1.79168001e-005, 2.10645485e-005, -7.40934120e-005,
          5.22592054e-005, -3.63761028e-005, -4.00355475e-006,
          -1.28201791e-005, -2.45311321e-006, 3.44653017e-005,
          -1.58357325e-005, 6.08144983e-005, -1.00706602e-005,
          -1.83465690e-005, -3.86409147e-006, -9.60727994e-006,
          -1.34989114e-005, 1.36497292e-005, -5.06740762e-005,
          9.27881320e-006, 7.20035905e-006, -2.60523120e-005,
          -2.05888136e-005, 1.83319189e-005, -6.16801753e-006,
          1.56432452e-005, 6.28199086e-006, 1.05753452e-005,
          -1.98383641e-005, -1.28544134e-005, 1.45975864e-005,
          2.69170851e-005, -1.53789222e-006, 1.06713225e-004,
          -3.32746204e-005, -2.56349153e-006, 1.24425387e-005,
          1.32328323e-005, 2.08925121e-005, 4.72846550e-005,
          5.52388301e-005, -7.38426115e-006, -1.18447515e-005,
          2.11072329e-005, -8.10713027e-006, 4.42182773e-006,
          3.24379789e-006, 2.67318737e-005, 2.55473424e-005,
          -7.70035240e-006, -2.14754200e-005, 4.95893164e-006,
          -2.55285631e-005, 1.44139285e-005, 2.05721481e-005,
          -3.59092337e-005, -1.37491124e-005, 3.13746932e-005,
          8.65363631e-007, 1.26083987e-005, 2.47093885e-005,
          3.24267821e-005, 4.65425546e-005, 7.72298972e-006,
          1.97561785e-005, -4.72560059e-005, -4.99669068e-006,
          -2.02025203e-005, 2.59737249e-006, 2.58848340e-005,
          -4.32065353e-005, -9.09182927e-006, -5.29949975e-005,
          1.53077576e-006, -2.89622676e-005, 1.80838178e-005,
          1.82361473e-005, -5.55754809e-007, 2.23516927e-005,
          1.74571087e-005, -1.61227126e-005, 1.64040157e-005,
          -2.91023607e-005, -1.96882247e-005, 3.48705289e-005,
          -1.35477794e-005, -3.27538510e-006, 2.11511269e-005,
          -3.51660128e-005, 2.85629994e-005, 3.92343973e-005,
          -2.24902160e-005, -9.41445978e-006, -3.03112683e-005,
          -7.97746452e-006, 1.05893878e-005, 1.00566867e-005,
          6.84286642e-005, -7.00727323e-005, -1.39894919e-005,
          -5.70230713e-006, 1.12761400e-005, -1.70331041e-005,
          2.40629515e-006, 4.38555362e-005, -4.56694688e-005,
          1.42345189e-005, 1.79056351e-005, -9.70657493e-006,
          -1.69586178e-006, -1.26215564e-005, -1.47124399e-006,
          -1.24300277e-005, -2.90804419e-005, -4.72904212e-005,
          5.10439031e-006, -2.02558044e-006, 4.26621082e-005,
          -1.25142640e-006, 3.00379688e-005, -5.67729585e-005,
          1.91145373e-005, 1.00951811e-005, -7.52086271e-005,
          -7.93975141e-006, 1.35476485e-005, 2.43549257e-005,
          3.30447583e-005, -2.94014026e-005, 1.16088719e-004,
          1.11621002e-005, -2.74363756e-005, -1.10179399e-005,
          9.07063350e-006, -1.23226800e-006, -4.18284653e-005,
          -2.62430203e-005, -3.26482732e-005, 1.76606572e-005,
          -1.20085897e-005, -2.11849529e-005, 9.05209799e-006,
          -4.45833357e-005, -2.50676421e-005, -2.20505572e-005,
          -1.10412093e-005, 2.93357716e-005, 3.94558447e-005,
          -4.69595943e-005, -3.25886322e-005, -8.58123349e-006,
          2.42616425e-005, -4.10555549e-005, 1.37003344e-005,
          -1.38781206e-005, 2.02299707e-005, 4.67494192e-006,
          -2.33102328e-005, 2.08180199e-006, 4.00891331e-005,
          1.85394292e-005, 2.48676333e-005, 6.40380904e-006,
          -7.51611060e-006, -9.97831103e-006, 1.55824710e-005,
          -3.53371324e-005, 9.03452838e-006, 3.27704038e-005,
          -3.47278728e-005, -2.02250812e-005, -5.51285893e-007,
          -1.36837480e-005, 2.57675256e-005, -3.22196756e-005,
          -3.72936256e-006, -2.08330639e-005, -4.97290384e-005,
          9.19618196e-006, 3.01271357e-005, 1.37277311e-005,
          4.31104672e-005, -9.70903056e-006, 6.17322513e-008,
          2.79807664e-005, 4.22357771e-005, -2.14652973e-005,
          -5.24629104e-006, 5.46900901e-006, 5.39723032e-006,
          5.37919768e-005, 7.32375383e-007, 2.03822019e-005,
          3.44438668e-005, -1.51438408e-005, -8.26683481e-006,
          4.95608838e-005, 1.17753716e-005, 1.38155547e-005,
          -1.80919087e-005, 2.28161643e-005, -5.09322053e-005,
          -1.99251117e-005, 2.17848210e-005, 2.78770785e-005,
          -9.43351461e-006, 1.09714219e-005, 1.84266191e-005,
          1.12111520e-005, -1.62138240e-005, -1.33393114e-005,
          1.58294497e-005, 2.17319375e-005, 1.26854884e-005,
          1.84160326e-005, 1.33850845e-005, -8.34703314e-006,
          -2.68362583e-005, 3.43821885e-005, 5.38483582e-005,
          1.56970455e-005, -2.64743921e-005, -1.41957098e-005,
          -1.28299262e-005, 3.03484503e-005, 6.22590187e-006,
          -3.89835077e-005, 1.72353302e-005, 6.99688244e-005,
          1.09315170e-005, -1.00441666e-005, 1.93994492e-005,
          1.41057453e-005, -4.95764580e-005, 6.04361730e-006,
          1.46329203e-005, 2.13897947e-005, 4.15809081e-005,
          2.11595398e-005, 1.82650620e-005, 2.80726108e-005,
          3.37420238e-006, -4.99287053e-005, -1.17407917e-005,
          1.23271093e-005, 1.21408664e-006, -2.28747231e-005,
          -1.45215836e-005, 1.27673848e-005, -1.86668040e-005,
          2.75575294e-005, -1.78072569e-005, -2.63599418e-006,
          1.03156035e-005, -2.50167323e-005, -1.43049383e-005,
          1.83865868e-005, 7.96680397e-005, -6.25368775e-005,
          2.19248450e-005, 4.84881566e-005, 9.66846073e-006,
          -7.51742336e-005, 2.30664100e-005, -1.15645416e-005,
          -2.32685161e-005, 4.79859009e-005, 7.48928414e-007,
          5.47638010e-005, 2.63086931e-005, 7.30043075e-006,
          6.01128231e-005, 3.80530728e-005, 7.19112677e-006,
          3.63537074e-005, 2.23174484e-005, 2.44507628e-005,
          3.03225370e-005, 3.46907996e-006, 6.56559714e-005,
          -8.12729122e-005, -5.11364487e-006, 7.75112858e-006,
          -4.12225063e-006, 3.90396308e-005, 1.90302253e-005,
          -1.16251658e-005, 9.93985759e-006, -1.34914726e-005,
          2.25219610e-005, -3.18762031e-005, -2.90535463e-005,
          -2.54610914e-005, 4.10175708e-005, -1.39584824e-006,
          2.90949829e-005, 1.25273627e-005, -5.35787985e-005,
          1.45144249e-005, -1.04437140e-005, 1.31683955e-005,
          7.67422534e-006, -3.00621996e-005, 8.31590878e-005,
          1.69785690e-005, -2.22548242e-005, -6.41117367e-005,
          -4.75122652e-005, -3.14368481e-006, 2.67206924e-005,
          4.85246455e-005, 3.71052083e-005, 3.92472903e-005,
          1.58868243e-005, -4.13973030e-005, 4.22759331e-005,
          1.65876882e-005, 2.35255015e-006, -5.83768178e-006,
          -1.30132485e-005, 7.10737186e-006, -4.68071839e-008,
          4.55475129e-005, 2.89627005e-005, 6.30892873e-006,
          6.08652044e-005, -3.04689220e-005, 3.82439657e-006,
          -1.18410389e-005, -3.99359305e-005, -4.40403273e-005,
          2.30870301e-005, 5.09882057e-006, -2.63138645e-006,
          1.80283823e-005, -4.20219767e-005, 3.10703072e-005,
          8.77099319e-006, -8.56025565e-007, -3.94152703e-005,
          2.32680304e-005, -1.70671574e-005, 6.01731554e-005,
          -7.14733505e-006, 4.11722285e-005, -3.56640430e-006,
          2.87924559e-005, 2.35297830e-005, -4.50679981e-005,
          -3.03247580e-005, 3.29762552e-005, -5.80013002e-005,
          5.10060745e-005, 5.94041157e-005, -2.91273682e-005,
          1.66457357e-005, 4.50322950e-005, 1.58856456e-005,
          -6.20209030e-005, -2.56457442e-005, -4.02305377e-005,
          -3.56099845e-005, 4.48726223e-006, 1.37338393e-005,
          3.51261006e-005, -5.30419456e-005, 1.05684796e-006,
          -1.32808782e-005, 2.03817126e-006, 9.17273883e-006,
          2.27887613e-005, 4.01700236e-005, 2.95330256e-006,
          -3.83403494e-005, -6.74411422e-006, -1.68529295e-005,
          -1.02957647e-005, 5.31363048e-006, 3.55420561e-005,
          7.46730439e-005, 1.27109297e-006, -4.14003371e-005,
          -2.00743398e-005, 1.96133237e-006, 2.06262830e-005,
          -1.00104171e-005, 2.06076288e-006, -8.36219915e-005,
          -3.87757109e-006, -2.06716013e-005, -2.34499817e-006,
          5.94188423e-005, -2.67144496e-005, 4.35664988e-005,
          3.36921261e-007, 2.30717560e-005, 9.50373033e-006,
          -2.35256130e-006, -3.42302519e-005, 1.32655441e-005,
          3.30895600e-005, -2.78108109e-005, 1.56322312e-005,
          2.21293135e-006, -2.45479769e-005, 2.25836611e-005,
          7.78233734e-005, 4.42173550e-005, -1.50620817e-005,
          7.47032900e-005, 2.22201288e-005, 5.90727832e-005,
          2.70843266e-005, 1.47991432e-005, 3.36344092e-005,
          4.94878623e-005, 3.80828315e-005, 2.93615303e-005,
          -5.12206825e-005, -1.04748233e-005, 4.78692818e-005,
          7.65085861e-006, 5.30401157e-005, -2.00719423e-005,
          6.27679719e-006, -3.08279850e-005, -7.00376313e-006,
          -2.49878849e-005, -6.66268670e-006, -9.92554851e-006,
          -5.70593329e-006, -4.61403361e-005, -1.43085008e-005,
          -1.11844238e-005, 2.79233632e-007, 3.26710579e-005,
          -7.41945087e-006, 1.44944825e-005, -2.02633237e-005,
          -3.40473639e-006, 3.37345191e-005, -4.53614530e-006,
          8.66910614e-006, -2.52059108e-005, -3.22782507e-005,
          -1.33142294e-005, -2.49429031e-005, -3.26394838e-005,
          1.51975000e-005, 2.45513966e-005, 1.17491641e-006,
          -4.85305827e-006, 3.25199562e-006, -2.03410782e-005,
          -3.30644434e-005, 2.38717234e-006, 3.63096187e-005,
          -4.76176356e-005, 2.83548979e-005, 1.08216436e-005,
          1.12057967e-006, -1.98979214e-005, 7.44067220e-005,
          3.44299747e-006, -4.86126964e-006, -2.44428229e-005,
          -1.93466312e-005, 1.64644480e-005, 8.27761614e-005,
          2.23079387e-005, 3.68753026e-005, 3.79145677e-005,
          2.87538523e-006, -1.19377501e-005, 1.13372726e-005,
          -2.33458868e-005, -1.97079371e-005, -3.38535210e-005,
          3.49201264e-006, -2.87108342e-005, 4.53817047e-005,
          2.54027600e-005, -3.86317988e-005, 1.05938516e-005,
          4.48676874e-005, -6.48982459e-005, -2.31334416e-005,
          6.48069326e-005, 5.06272909e-006, -3.95347706e-005,
          -8.50762353e-006, 1.62342567e-005, -2.89648433e-005,
          3.88053995e-005, 4.56818780e-005, 3.91559515e-005,
          -9.94361562e-006, -1.01845881e-005, 1.29116052e-005,
          1.98011749e-005, -4.00234694e-006, 3.15925354e-005,
          -1.48873723e-005, 3.20090294e-005, 6.15444560e-006,
          5.64545917e-005, -4.18154559e-005, -4.46567647e-005,
          -2.34067829e-005, -6.48491914e-006, -1.34924849e-005,
          4.09187596e-005, 2.28770987e-005, 2.94923957e-005,
          -1.47080868e-006, 3.50471455e-005, 3.53521245e-005,
          2.54947827e-005, 5.78202198e-005, 6.69507472e-006,
          2.04629614e-005, -1.47768706e-005, 3.47207788e-005,
          -2.08621423e-005, -3.03766865e-006, -1.42285205e-006,
          -4.46583726e-006, 1.33553494e-005, -6.38133588e-006,
          4.61204172e-006, -3.73261537e-005, 2.17485431e-005,
          2.38378357e-006, 2.50498215e-005, -3.23003260e-005,
          5.72450472e-006, 2.38822099e-006, 8.55268991e-006,
          6.31599178e-005, -1.31180159e-005, 1.57165250e-005,
          4.58002660e-006, 1.79312938e-005, -1.17019704e-006,
          -1.79418817e-006, -4.81936468e-006, -3.34162505e-005,
          1.06757734e-005, 7.54922712e-006, 3.82433791e-006,
          3.66831446e-005, -1.70126295e-005, 4.51414644e-006,
          2.42434890e-005, 1.47477540e-005, 1.08602999e-005,
          1.28752081e-005, 2.04695766e-006, -7.35759568e-006,
          2.88276533e-005, -3.24870889e-005, -2.23593588e-006,
          1.91742802e-005, -4.79061819e-005, 5.88393268e-005,
          -3.29256072e-005, -3.40030929e-005, 2.30921996e-005,
          -2.67115101e-005, 2.73031328e-005, -1.20515637e-007,
          -1.38823509e-006, 5.14198582e-005, 5.57336671e-006,
          6.19213779e-006, 1.83483080e-005, 1.94896020e-005,
          -1.96381825e-005, -1.18543639e-005, 1.55892522e-007,
          1.57459942e-006, 1.18658918e-005, 1.68997431e-005,
          2.96411417e-005, 2.79631222e-005, -2.41821617e-005,
          -4.90447292e-007, -4.39767928e-006, 4.12542477e-006,
          -4.81090137e-005, 3.99307683e-005, 2.66997122e-005,
          -8.70715269e-008, -1.96567034e-005, 1.42068002e-005,
          1.22549573e-005, -8.27423463e-009, -4.72090005e-006,
          2.63841412e-006, 5.64294423e-005, -3.05008621e-006,
          4.19335629e-005, -1.73166109e-006, -2.23537791e-005,
          -1.28770271e-005, 4.05553619e-005, -3.17829108e-005,
          -1.79627805e-005, 3.63860236e-005, 1.97025838e-005,
          1.07434062e-005, 8.19004526e-006, -1.86929628e-005,
          6.99715820e-005, -3.05476783e-006, -1.62053107e-006,
          -2.33401079e-005, 1.90341302e-006, 1.31321149e-005,
          -3.38798782e-005, -7.73699321e-006, -2.80712243e-006,
          1.19706001e-005, 3.46473207e-005, 5.06637844e-005,
          -7.39365305e-006, -9.14556676e-006, -2.91507185e-005,
          1.43617708e-005, 7.38696735e-006, -3.36603375e-006,
          8.32014994e-005, 2.13733310e-005, -4.49392355e-005,
          3.34253286e-006, 5.58913825e-007, 4.56680664e-006,
          1.07383730e-005, 6.39719801e-005, -1.62336746e-005,
          -2.05233755e-005, -5.87983641e-006, -6.02216969e-005,
          1.55758134e-005, -1.03510320e-005, 2.94915553e-005,
          1.66082737e-005, -4.52665481e-005, -8.39695349e-005,
          -1.27385356e-005, -2.27510209e-005, -1.91300715e-005,
          -7.01553217e-005, 5.19519199e-006, -2.62267167e-005,
          2.33714582e-005, -1.00026782e-005, -1.03797593e-005,
          8.89770763e-006, 3.87206364e-006, 9.17182842e-006,
          1.48956397e-005, -4.48374012e-005, 1.78818318e-005,
          -2.67069518e-005, 2.81342022e-006, -3.53045398e-005,
          1.44419409e-005, 1.28954007e-005, 2.09938989e-005,
          -5.56341147e-005, 1.40569027e-005, -1.88613394e-005,
          7.07305080e-005, -2.88814990e-005, -4.13449161e-005,
          7.33471006e-006, 2.99917847e-005, 2.51943220e-005,
          -7.96261338e-006, -2.86053237e-005, -1.44173862e-006,
          -3.20175823e-005, -9.20146249e-006, -1.30201970e-005,
          2.36657525e-005, 2.05571778e-005, 3.26661175e-005,
          -2.43796949e-005, -2.31593258e-005, 9.90092940e-006,
          2.65838989e-005, 5.22981600e-006, -3.41489795e-006,
          2.03541422e-005, -3.39750040e-005, 9.57119937e-006,
          1.15832700e-005, 3.63988001e-005, 3.44543732e-005,
          -4.07986772e-006, -6.51381633e-005, -2.34324179e-005,
          1.85351018e-005, -6.45920818e-006, -2.74935137e-005,
          -1.63514824e-006, -1.50531496e-005, 2.33587907e-005,
          2.88989559e-005, -2.07897119e-005, -1.30539092e-006,
          -2.84855396e-005, 1.60169584e-005, -3.53323194e-005,
          3.29081631e-005, -1.47223354e-005, 6.39582254e-007,
          -5.74549267e-006, 2.33733117e-005, 8.59902866e-006,
          5.88047369e-005, 2.66802635e-005, -3.01465680e-005,
          7.55073506e-006, 1.55495345e-005, 3.59403675e-005,
          -8.05094828e-007, -1.28064348e-005, 5.00571150e-005,
          3.34076540e-005, 1.33516289e-006, -1.04062547e-005,
          -4.59852054e-005, -3.77199444e-006, -7.64607012e-006,
          7.74782166e-005, 4.43224308e-005, -9.95692744e-007,
          -3.20625368e-005, 2.91332090e-005, 2.76365226e-005,
          3.63685613e-005, 3.03381821e-005, 6.36843561e-006,
          1.60963391e-005, -1.28477836e-006, 5.40884503e-006,
          7.36800530e-006, -1.58081184e-005, -2.48310585e-006,
          -1.56963306e-005, 6.97682799e-006, -1.11335785e-005,
          1.08839240e-005, -7.48468210e-006, -2.54760289e-005,
          3.10682844e-005, -1.04471219e-005, -1.49053394e-005,
          -3.64916013e-005, 1.02965860e-005, 1.88898284e-005,
          1.39645736e-005, -1.34266784e-005, -1.84067358e-005,
          1.24114040e-005, -2.65367726e-006, -2.50299727e-005,
          -4.28890744e-005, 1.56044625e-005, -1.06148800e-005,
          1.45545328e-005, -1.03013645e-005, -1.57926661e-005,
          9.95333835e-007, -4.15295835e-006, 2.86606210e-005,
          -6.25370012e-005, -4.95054155e-006, 2.77047602e-005,
          -1.59458414e-005, 2.61534915e-005, 7.35321300e-005,
          -1.82312961e-005, 2.28775334e-005, -5.36005100e-005,
          3.63014442e-006, 6.11702999e-005, 6.88211549e-006,
          4.68883513e-007, 3.65505402e-005, -6.76613417e-005,
          2.44514558e-005, 4.99285125e-005, -1.23691143e-005,
          6.99152297e-005, -4.10446373e-005, -1.04542150e-005,
          3.98679731e-005, 2.56993189e-006, 6.39149002e-005,
          -2.72908201e-005, -1.28890611e-006, 1.76702524e-005,
          3.06413640e-005, 5.19826390e-005, -2.19036756e-005,
          1.09784003e-006, 4.41421180e-005, 7.49909814e-005,
          3.01824766e-005, -4.30072032e-005, 3.95808893e-005,
          -6.59745092e-006, 2.43957056e-005, -2.07944277e-006,
          -2.42089959e-006, 4.23265556e-006, 1.50744461e-006,
          -3.96668520e-006, 2.47420303e-006, 1.66434547e-005,
          1.85211484e-005, 1.20848636e-005, 7.42257107e-005,
          5.94118173e-005, 5.17459375e-005, 3.56887140e-005,
          -9.83756763e-007, -2.41518264e-005, 3.00460142e-005,
          2.03754407e-005, 4.83760414e-006, 1.79579092e-005,
          3.15521320e-005, 2.18798123e-005, 1.57278846e-005,
          -2.10562903e-005, 4.47413695e-005, -1.80510233e-005,
          -6.51230366e-005, 2.70869168e-006, -4.25334520e-006,
          1.34810944e-005, -1.17373829e-005, 4.14452006e-005,
          -3.87125510e-005, 2.22852668e-005, 2.33064693e-005,
          -2.36673768e-005, -8.78952142e-006, 7.32932313e-006,
          8.03009516e-006, 2.67331598e-005, 1.08933609e-005,
          4.41526299e-006, 3.37389974e-005, -1.27747180e-005,
          -3.55139537e-006, 9.92931106e-008, 1.32908635e-005,
          -1.40958855e-006, -3.59199912e-005, 1.90546561e-005,
          2.46940708e-005, 3.43368156e-005, 1.58123403e-005,
          2.10346479e-005, 2.19203412e-005, -1.86496800e-005,
          -1.52696775e-005, -2.76686606e-005, -3.62010069e-005,
          -3.69990880e-006, -1.19577608e-005, 7.14585667e-006,
          -3.38160971e-005, 6.54260293e-005, -3.44082619e-005,
          -3.55626107e-005, 8.76364902e-006, 1.19508759e-005,
          -4.08873711e-006, 1.12783127e-004, 2.71255849e-005,
          8.89360490e-006, 3.56552155e-005, -1.12556540e-004,
          4.61618110e-005, 2.21610371e-005, 1.35880309e-005,
          1.74190864e-005, 3.41119121e-005, -2.38804696e-005,
          3.84673876e-005, 4.54061319e-006, 2.72498473e-005,
          -6.12789518e-005, -5.30762845e-005, -1.43275838e-006,
          -2.37831591e-006, 1.00620509e-005, -3.51289054e-005,
          1.24274186e-006, -4.68164253e-005, 3.93645605e-005,
          6.19408966e-005, -4.34896829e-005, 8.61016815e-006,
          1.64412686e-005, -6.71747739e-006, 4.85933961e-005,
          1.01583339e-006, -3.04596615e-005, 2.87566090e-005,
          9.56454642e-006, -4.42774262e-006, 1.07075039e-005,
          2.29318557e-005, -1.49113166e-005, -8.95988524e-006,
          -4.10286020e-006, -2.69615139e-005, 3.56038036e-005,
          5.24402913e-006, 5.98060979e-005, 3.03078214e-005,
          1.38936657e-005, 1.28256524e-005, -2.39215060e-005,
          -1.59542597e-005, -4.02313162e-005, 3.58456236e-005,
          3.24161338e-005, -1.22166985e-005, -3.58501347e-005,
          -2.74630111e-005, -1.61525095e-005, 1.35429755e-005,
          -2.82750752e-005, 4.35202892e-005, 4.20413453e-005,
          5.21272050e-005, 1.12272801e-006, -5.96586642e-006,
          -2.48497545e-005, 3.08140152e-005, -5.67837269e-005,
          -9.54874395e-006, 2.73583228e-005, 2.88930223e-005,
          1.22097272e-005, 1.68285824e-005, -6.01151078e-005,
          3.64970329e-005, 1.53213186e-005, -1.81468204e-005,
          4.09497625e-005, -1.46194216e-005, 2.80144050e-005,
          -1.99509850e-005, -1.43181223e-005, -2.74061563e-006,
          2.72812485e-005, 8.08604182e-006, -2.27048531e-005,
          -7.08385983e-007, 4.59064977e-005, 2.42491133e-005,
          9.75986495e-006, -6.47464560e-007, -5.04934633e-006,
          1.59518677e-005, -5.90504605e-005, -7.02973412e-005,
          5.08795274e-005, 2.47554617e-005, -3.06524598e-005,
          3.73899056e-005, -4.61532982e-005, -1.25027846e-005,
          1.37118268e-005, 4.47608436e-005, 1.88790327e-005,
          5.95599777e-005, 1.73800981e-005, -2.48209653e-006,
          1.98176895e-005, -4.72196962e-006, -1.63162736e-006,
          2.01182229e-006, 2.52405080e-005, 4.24512982e-005,
          8.39761651e-006, -9.57352895e-005, -3.18369689e-006,
          -5.99124178e-006, 2.73353780e-005, -6.89919659e-007,
          2.63892125e-005, -8.71672182e-006, 2.86499453e-005,
          3.17076883e-005, -2.04031130e-005, 3.67111752e-005,
          -4.04818675e-005, 8.17454384e-006, -8.36161871e-006,
          -1.53272358e-005, -1.47273440e-005, -4.87235729e-006,
          1.35302453e-005, 1.92384578e-005, 2.31180638e-005,
          1.08583081e-005, -1.89484017e-005, 3.28836431e-005,
          1.96996780e-006, -2.36771466e-005, -1.02112481e-005,
          -5.42359958e-005, -2.57165248e-005, -4.56958969e-006,
          1.13158485e-005, -1.09629764e-005, -1.87774895e-005,
          1.76582889e-005, 3.04900968e-005, -2.05604592e-005,
          8.85320060e-006, 2.04335902e-005, 1.60132986e-005,
          -1.66981863e-005, -1.59696046e-005, -4.05366372e-005,
          3.24853281e-005, -1.14751374e-005, -1.34770826e-005,
          3.91264803e-005, 3.99998353e-005, 1.52432222e-005,
          -2.80454060e-005, 1.42711260e-005, -4.61611671e-005,
          3.09728625e-006, 3.61396269e-005, 3.05559734e-005,
          -2.42045408e-005, 3.16439218e-005, 1.09389657e-006,
          1.31235836e-004, 5.36612024e-005, -3.75427874e-007,
          3.25753062e-005, -4.56354155e-006, -2.66998941e-005,
          -3.63124382e-005, 5.27752081e-006, 3.56384480e-005,
          3.15770340e-005, 5.22215632e-005, -5.45579360e-006,
          3.66835229e-006, 4.79963310e-005, -1.61304997e-005,
          -2.87589701e-005, 4.46013610e-006, 3.55871525e-005,
          -3.87242580e-005, 1.02664189e-005, -4.71586754e-005,
          -4.97118981e-006, -1.90750452e-005, 1.22304400e-005,
          2.47580338e-005, -1.66554867e-006, 1.45459253e-005,
          2.92749428e-005, -1.22937954e-005, -9.76620868e-006,
          2.21882783e-005, -1.74642014e-006, 2.70676701e-005,
          -3.67057532e-006, -1.27706135e-005, 2.99572366e-005,
          1.18690705e-005, -1.38874620e-005, -1.96219153e-005,
          -4.61183809e-005, -1.60724067e-005, 2.49466611e-005,
          2.59131557e-005, -4.97366200e-005, -2.16500102e-005,
          2.39729980e-006, -6.43900057e-005, -3.59283367e-005,
          6.35435208e-006, -5.85792986e-006, -3.30512084e-005,
          2.64603095e-005, 5.37361411e-005, 7.49000128e-006,
          -4.73586733e-005, 2.05459983e-005, 1.54889967e-005,
          1.98330545e-005, 7.30780221e-006, 1.18196594e-005,
          1.05412364e-005, -2.04832868e-005, 1.65985500e-006,
          -1.14031855e-005, 5.79720472e-006, 3.94341951e-005,
          9.20632647e-006, -4.94264750e-005, -2.29260386e-005,
          1.01729156e-005, 1.30465014e-005, 2.62243788e-007,
          -4.03158047e-005, 6.75236333e-006, 7.16188060e-006,
          -6.10625284e-006, 1.32271207e-005, 8.72140026e-006,
          -1.02064732e-005, 3.22639280e-005, 5.46521096e-006,
          1.04870733e-005, -2.88022352e-006, 1.52029379e-005,
          8.22229413e-005, 5.35753725e-006, -6.68573557e-006,
          2.65837534e-005, 1.81428925e-006, 2.90695571e-005,
          -5.08359190e-005, 3.01215223e-005, 6.15108875e-005,
          8.39547226e-007, 2.01268704e-005, 1.03227931e-005,
          3.41791274e-005, 7.44084946e-006, -1.88910326e-005,
          -1.03296343e-005, -1.41388946e-005, 2.33621486e-005,
          7.14020052e-006, -1.04437340e-005, -2.06731747e-005,
          3.24713255e-005, 5.32429694e-005, -8.72398232e-005,
          2.17769484e-005, 8.51435834e-006, 4.33638597e-005,
          2.82547194e-006, -1.81426167e-005, 1.54283316e-005,
          -1.98749840e-005, -4.32239767e-006, 4.45391270e-005,
          -5.57074054e-006, -2.33990741e-005, -1.72806576e-005,
          1.21003677e-006, 6.10383722e-005, 2.80276563e-005,
          3.15540201e-005, -1.14715222e-005, -1.98225753e-005,
          3.45395820e-005, 5.32282638e-006, -4.73907221e-006,
          5.67903408e-006, -4.72855136e-005, -5.33357925e-005,
          2.83695881e-005, -9.45337888e-006, -1.33289723e-005,
          -1.11710888e-005, 2.22465078e-005, 5.58364445e-005,
          -1.06487059e-004, -2.02060642e-006, 5.27271914e-005,
          -8.44982060e-006, -5.29139033e-005, -6.18963395e-006,
          1.96809033e-005, 1.71108695e-005, 1.03495131e-005,
          2.67576088e-005, -3.40838560e-005, -1.69797954e-006,
          -6.25921166e-006, -1.15878383e-005, -3.32132913e-006,
          -3.82874850e-006, -1.97961344e-005, 3.17227943e-007,
          6.81840129e-006, 1.75591740e-005, -4.88185906e-005,
          2.18516107e-005, 1.33479962e-005, 2.12722589e-005,
          7.07248319e-006, 3.23832683e-005, -5.07901350e-005,
          3.12172670e-005, -1.38265223e-005, 2.91714405e-005,
          -1.21084713e-005, -3.27695716e-006, 7.63228945e-006,
          -2.61880650e-005, 2.47320368e-005, 9.29490579e-006,
          1.54187738e-008, -2.10871494e-005, -8.04601859e-006,
          2.37247241e-005, -8.78394439e-006, 1.65038346e-005,
          2.51237925e-005, 4.06748841e-005, 1.59138799e-005,
          -1.73662488e-006, 7.04666945e-006, 2.05741180e-005,
          3.46143111e-006, 5.61580382e-005, 5.66827875e-005,
          -5.28647470e-005, -2.14132378e-005, -2.76251903e-005,
          5.48872085e-005, 3.50605769e-005, 3.77649449e-005,
          7.20085955e-005, -5.14647013e-007, -4.53471330e-005,
          4.52333370e-005, -6.67244922e-006, 2.53812163e-006,
          2.28627923e-005, 6.76588534e-005, -2.00902759e-005,
          -2.90539283e-005, -5.02569746e-005, 2.57927859e-005,
          -5.24944662e-005, -4.62346725e-005, -1.94806598e-005,
          -9.65591971e-006, 3.30805233e-005, 1.41546088e-005,
          1.77630536e-005, 5.04666696e-006, -1.51224513e-005,
          -1.11566051e-005, -6.63251603e-006, 1.01827782e-005,
          -3.83090082e-005, 2.34686122e-005, -4.09367058e-005,
          2.26863467e-005, -4.27619962e-005, -2.33364608e-005,
          -8.45653449e-006, -3.94630661e-005, -2.60548350e-005,
          2.20711263e-005, 2.36094183e-005, 6.57248092e-005,
          -1.48015224e-005, -2.29615489e-005, 1.64638041e-005,
          2.41245598e-005, -1.88516733e-005, 2.57200700e-005,
          1.58301664e-005, -2.24557371e-005, -2.24671585e-005,
          2.58635027e-005, 2.94320557e-006, 3.75059863e-005,
          1.05201734e-005, 3.22851229e-005, -7.31102909e-006,
          -1.71351639e-005, -6.80822268e-005, 1.02363299e-006,
          -1.47381834e-005, 2.80635613e-005, 5.25878240e-005,
          2.45822848e-005, -4.97757210e-005, 2.59055851e-005,
          -1.64136272e-005, -8.74222169e-005, 3.19586907e-005,
          2.51702622e-005, 6.25051980e-005, 3.61204256e-005,
          2.57533957e-005, -1.60640666e-005, 4.11141373e-005,
          -3.12388365e-005, -4.15854192e-005, 3.73094827e-006,
          -3.81355167e-005, 1.53300025e-005, 2.18732657e-005,
          -3.53387659e-005, -1.65373349e-005, 3.21301486e-005,
          -4.45980259e-005, -5.30396319e-005, -1.68932620e-005,
          -2.34786530e-005, 6.68994460e-007, 3.06832480e-005,
          2.07777230e-005, -2.09969694e-005, 1.44550904e-005,
          -1.47904848e-005, -5.83035626e-006, 2.09952232e-005,
          -3.79659177e-005, 2.72028738e-005, 3.54976692e-005,
          4.26624212e-007, 1.76139711e-005, 3.63847312e-006,
          -8.91170600e-007, -1.44802416e-005, 3.80938836e-005,
          9.91533852e-006, 1.01562191e-005, -5.95844540e-005,
          1.14640643e-005, 8.81588858e-006, 1.26639707e-005,
          3.21679436e-005, 2.05640117e-005, -8.44094586e-007,
          3.23023924e-005, -2.19650738e-005, -1.45526683e-005,
          -1.92281877e-005, -1.62544293e-005, 2.20553775e-005,
          -7.37535902e-006, -2.81310113e-005, -1.73858916e-005,
          -1.34581760e-005, -3.72708200e-005, -1.70100211e-005,
          -1.34587963e-005, 3.11212243e-005, -6.30844224e-005,
          3.74178526e-005, 2.41881899e-005, 1.99283954e-006,
          -1.94426848e-005, 6.19717412e-006, 1.36682147e-005,
          -3.50775044e-005, -6.95785957e-006, -1.23948421e-005,
          -7.84699932e-006, -6.36546702e-006, 8.64543563e-006,
          -3.23335444e-005, -1.35975733e-006, -7.02485477e-006,
          -1.82437161e-005, 1.75195237e-005, -1.63800833e-005,
          -3.62064493e-005, 8.31738453e-006, -1.02969198e-005,
          -3.94950548e-005, 5.38529675e-005, 3.11978511e-005,
          1.73598783e-005, -2.44735493e-005, -3.56602686e-005,
          3.61553793e-005, 3.35736186e-005, 5.95346000e-006,
          2.86235245e-005, -1.92583502e-005, -1.49780171e-005,
          2.01394669e-005, 3.78194527e-005, 3.69846020e-005,
          4.88858268e-006, 2.55055857e-005, 1.83666652e-005,
          -2.80878285e-005, 4.70253799e-005, 1.03379343e-005,
          -4.69409269e-006, -4.69051993e-005, 2.89229483e-005,
          6.23552332e-005, -1.44781106e-005, 9.19391459e-006,
          -7.77291789e-005, -2.69068914e-006, 3.12760972e-006,
          -1.18619464e-005, -5.22056944e-005, 6.19021812e-005,
          1.58396269e-005, 2.24728210e-005, 2.14835891e-005,
          1.23426262e-005, 1.45820277e-005, -1.21325484e-005,
          -4.73327818e-005, -1.98026305e-006, 2.37992081e-005,
          4.09566346e-005, 4.61283707e-005, -1.67742437e-005,
          6.02752225e-005, 2.46444670e-005, -4.48180799e-005,
          -1.89714192e-005, 1.09931489e-005, 3.57998761e-005,
          1.06858499e-006, 2.58169457e-005, 2.85461647e-005,
          4.56512535e-005, 4.58108872e-007, -2.65394410e-005,
          1.66944142e-006, 2.36816522e-005, 6.86240601e-005,
          -4.67008358e-005, -1.49779307e-005, 1.47977844e-005,
          3.10946143e-006, 1.62192609e-005 ]
      - [ 2.00915674e-005, 1.82067924e-005, -3.94730741e-005,
          1.84387554e-005, -2.55928444e-005, 4.57482383e-006,
          -1.02130989e-005, -1.51700378e-005, 1.34120701e-005,
          -1.86255238e-005, 5.48656208e-005, 4.46163085e-006,
          3.60049235e-005, 1.47096102e-006, 1.40726715e-005,
          -4.25948056e-005, -4.33649693e-005, -6.57346345e-006,
          -1.21556996e-005, -1.37421475e-005, -8.75361002e-006,
          1.91407580e-005, 6.88778528e-005, -3.04743644e-005,
          5.65370683e-005, 6.43600943e-005, -4.20524266e-005,
          1.14448258e-005, -2.48892648e-005, -2.03167419e-005,
          -3.23582353e-005, 1.10897718e-005, 1.10821893e-005,
          1.33879325e-006, -2.32642378e-005, 2.39544697e-005,
          -4.89790045e-006, 2.71023346e-005, -7.55947185e-005,
          4.48438595e-006, 4.45369187e-005, -1.98921898e-005,
          1.63576715e-005, -1.08240056e-005, 5.48586686e-005,
          7.28463638e-005, 3.99852652e-005, 2.47268304e-006,
          -8.29466899e-006, -1.67455783e-005, -2.45778956e-005,
          -1.48024073e-005, -2.06134955e-005, -1.44916448e-005,
          -3.87766204e-006, -5.36552179e-005, 4.27332452e-005,
          -2.68422355e-006, -1.60913953e-006, 1.18447479e-005,
          -4.64376899e-006, 2.57033371e-005, -4.01144007e-006,
          2.06482327e-005, -3.87247965e-005, 1.11613099e-005,
          -3.33158914e-006, -1.88586037e-005, -9.70871042e-006,
          7.95793039e-006, -8.87475562e-006, -1.18703520e-005,
          -5.56567420e-006, -1.12301932e-005, 6.00309295e-006,
          4.11192786e-006, 7.98057590e-006, 4.01010693e-005,
          -3.41136183e-005, 2.13763888e-005, -2.90222179e-005,
          1.51183740e-005, 8.60523360e-005, -3.87635810e-005,
          -4.04386774e-005, 2.55140094e-005, 4.12504342e-005,
          -1.98930456e-006, -1.48152931e-005, 6.75162710e-006,
          -6.48925197e-005, -6.67550830e-006, 1.66912032e-005,
          -2.62761969e-005, -6.45765467e-005, 4.70131454e-005,
          2.00888426e-005, 1.25615543e-005, 2.45323099e-005,
          -4.23773599e-007, 9.79102424e-006, 1.20668947e-005,
          -5.53998341e-008, -4.42374130e-007, -9.25477252e-006,
          4.47599496e-006, 4.01796169e-005, -7.30081683e-006,
          -5.62253672e-006, -1.20006143e-005, -1.57339946e-005,
          -1.98409798e-005, 2.35605912e-005, 6.90864454e-006,
          1.14022114e-005, -3.32743912e-005, 2.72894486e-005,
          1.56182996e-005, -1.93529595e-005, -5.88957628e-005,
          1.56597380e-005, 4.46782142e-005, 6.23560084e-007,
          3.77119104e-005, 3.24684734e-005, 1.06195657e-005,
          3.42083740e-006, 2.26707216e-005, -1.63909026e-005,
          -1.95907273e-006, -8.10657912e-006, 2.48013348e-005,
          4.73588807e-006, -3.42571802e-005, -7.25016162e-006,
          5.53044993e-006, 1.86016932e-005, 1.64671656e-006,
          2.94955080e-005, 4.93434018e-005, -4.65672514e-008,
          -2.01652128e-005, 1.72744731e-005, 2.35669922e-005,
          8.36802155e-006, 2.90038315e-005, 9.67280357e-006,
          3.06414768e-005, 2.55258669e-006, 1.89158345e-005,
          1.88153513e-006, 6.54752876e-006, 3.17692429e-005,
          3.09301868e-005, 1.16959518e-005, 4.86153913e-005,
          -1.54734698e-005, 1.15955290e-005, 1.11326756e-006,
          9.35804110e-006, -2.63019247e-005, -1.20175937e-005,
          1.71133343e-005, 9.96568997e-006, 1.48227937e-005,
          -3.10579017e-005, 4.39454961e-005, 9.06517471e-006,
          4.50126799e-006, -2.14997840e-006, 2.04780990e-005,
          1.96032288e-005, 6.29183342e-005, -3.85013300e-006,
          2.69158791e-005, 1.24101462e-005, -2.32131079e-005,
          -4.24278915e-005, -7.91409275e-006, -9.39807023e-007,
          -1.65151559e-005, 3.78001387e-005, 3.42372041e-005,
          5.31890191e-006, -3.05793583e-005, -5.53953032e-006,
          1.12434036e-005, -1.08757067e-005, -1.95417815e-005,
          2.22050330e-005, 3.63984469e-007, -8.09945868e-006,
          -5.06572505e-005, 1.03754780e-006, -2.89470881e-005,
          -3.83355764e-005, 1.91622657e-005, 5.13360064e-005,
          1.92822445e-005, 2.23819734e-006, 2.72572634e-005,
          -1.46362254e-005, -8.39991208e-006, -1.42670324e-005,
          2.13099702e-005, -3.13795717e-005, -1.84359906e-005,
          -5.38740323e-006, 8.52050789e-007, 2.54063689e-005,
          -2.78089956e-005, 2.45168230e-005, 2.47949993e-005,
          -7.57300722e-006, -1.26085815e-005, -2.57106258e-005,
          3.18135571e-005, -2.84631842e-005, -3.05816757e-005,
          -3.55607699e-005, -2.85901060e-005, 2.14359034e-006,
          -1.99225656e-006, 5.05539247e-005, 1.42195950e-005,
          5.32373342e-005, 8.54940117e-006, 2.37993731e-006,
          2.58378041e-005, 2.88253359e-005, 1.95500888e-005,
          -2.66453681e-005, 3.95923998e-005, 3.53617179e-005,
          -3.81170103e-005, 1.06974385e-005, 2.81376742e-005,
          2.05912147e-005, -1.73881017e-006, -2.08638558e-005,
          1.29125783e-005, -3.31954761e-005, 8.32620135e-005,
          -4.40186195e-005, 5.18786737e-006, 1.61875760e-005,
          -1.21331786e-005, -3.49222755e-005, 4.92196814e-005,
          7.90932063e-006, -4.29487336e-005, 9.65313939e-006,
          4.89660379e-005, -4.20889155e-005, 1.44290561e-005,
          -2.53105081e-005, 1.48251347e-005, 3.46071720e-005,
          -2.34363288e-005, 7.94079006e-006, -6.60010528e-006,
          3.00806969e-005, -3.86703541e-005, 4.57478418e-005,
          4.61755335e-005, -3.08961098e-005, 3.24469001e-005,
          5.45319563e-006, -2.10097460e-005, 6.75368647e-005,
          -1.07853530e-005, -3.29742325e-005, 3.53214600e-005,
          3.49288639e-005, 3.14674144e-005, 1.79118651e-005,
          -1.48866948e-005, -2.15753353e-005, 1.65910205e-006,
          -5.40114743e-005, -2.01711500e-005, -4.35699803e-006,
          -2.03309228e-005, -4.49625186e-005, 2.04368480e-005,
          -2.04103253e-006, -2.52366717e-005, 4.28262247e-005,
          -2.96423423e-006, -7.22345067e-006, -3.77397773e-005,
          -3.75793093e-006, -1.20199829e-005, 1.44741716e-005,
          -1.41417340e-005, 1.54160261e-005, -7.98323617e-006,
          1.88911636e-005, 2.26587908e-005, 1.82280382e-005,
          1.25449224e-005, -2.70987039e-006, -1.26566792e-005,
          3.40383667e-005, -2.11855204e-005, -1.66024129e-005,
          6.53127790e-005, 1.82652147e-005, -1.47243945e-005,
          -1.50063406e-005, 3.54227486e-005, -2.42655642e-005,
          4.39554242e-006, 1.87677870e-005, -3.56734417e-005,
          7.25441714e-006, -1.20933973e-005, -2.13082076e-005,
          -3.30889998e-005, 4.12234976e-006, 3.38861810e-006,
          2.37613367e-005, 1.34957709e-005, -8.31106590e-005,
          -1.87553942e-005, 6.85569421e-006, -4.72407146e-006,
          6.45358305e-005, 6.23844389e-005, 7.69947837e-006,
          2.90954194e-005, -1.24526650e-005, 7.57443058e-006,
          -7.48680168e-006, 2.45646606e-005, 9.63405728e-006,
          1.13288024e-006, 1.82897184e-005, 2.65060953e-005,
          -5.16116088e-005, 7.89775186e-006, 2.77067174e-005,
          4.60988085e-005, -3.37743841e-005, -2.38376379e-005,
          -3.90939458e-005, -1.81771684e-005, -4.84646489e-006,
          9.12481119e-006, -1.95014345e-005, 1.40141465e-005,
          -2.35867628e-005, -2.50488683e-005, 1.40084148e-006,
          1.32374662e-005, -2.60253250e-006, 2.06918480e-006,
          -1.88299746e-005, -2.52191076e-005, 1.97104328e-005,
          3.92416769e-005, -3.40613369e-005, 2.49376699e-005,
          2.25658569e-005, 4.19421704e-005, 3.09959360e-005,
          -8.98231883e-006, -6.37214907e-006, 1.59725769e-005,
          3.20106992e-005, 3.64286898e-005, -3.34641081e-005,
          -2.57256452e-005, 1.07910528e-005, 1.48457511e-005,
          -4.17524507e-006, 2.28953322e-005, -1.73769076e-005,
          1.72211749e-005, -2.58137206e-005, 1.44961832e-005,
          -2.20244892e-005, -3.19176365e-006, -2.03755826e-005,
          -1.64895064e-005, 1.18529833e-005, 1.79107610e-005,
          -2.22587296e-005, -4.30520013e-005, -2.36475225e-005,
          4.20541937e-006, -1.74147590e-005, 1.47636620e-005,
          3.06789334e-005, 1.81679152e-005, 1.97972495e-005,
          7.28195082e-005, -2.21962146e-005, -4.80675681e-006,
          3.47058885e-005, -5.51951089e-005, 1.08546974e-005,
          5.62684254e-005, -1.47399824e-005, -2.07252060e-006,
          -5.58564716e-006, -5.37229562e-006, -4.39117539e-005,
          -1.56477818e-005, 3.86098873e-005, -7.47719514e-006,
          2.35175976e-005, -6.45785258e-005, -3.44325963e-005,
          -4.63150718e-005, 8.34601724e-006, 2.37525674e-005,
          -3.75090940e-006, -2.88202846e-005, -2.94472193e-005,
          -9.86460145e-006, 3.75321979e-005, 8.56958309e-008,
          -6.36657342e-006, 2.28795579e-005, -9.78976732e-006,
          4.71376952e-005, 1.48277122e-005, 1.49412135e-005,
          -6.48613350e-005, -4.96057964e-006, 1.16092469e-005,
          2.37320705e-007, 2.97395200e-005, 2.85949263e-005,
          6.77782111e-007, -1.55520174e-005, 4.09638851e-005,
          1.36913632e-005, -2.82739711e-005, 5.97857525e-006,
          3.21084335e-005, -3.00186730e-005, 1.29127084e-005,
          2.87505918e-005, -6.91781133e-006, -7.41680151e-006,
          -3.07801429e-006, 8.33912327e-006, -2.17411489e-005,
          -1.67154685e-005, -7.72670610e-005, -8.92189109e-006,
          -2.81082725e-006, 9.97488041e-006, -2.23448587e-005,
          -1.73393062e-006, -6.48467903e-006, 2.69250959e-005,
          5.11281087e-006, 2.32491657e-005, 1.28206384e-005,
          -1.35124910e-005, 2.76812680e-005, 1.23695008e-006,
          1.30288245e-005, -1.47255087e-005, 5.87631757e-006,
          1.32419318e-005, 1.57218037e-005, 3.97110998e-005,
          -2.57784959e-005, -2.38486537e-005, 3.10554642e-005,
          -2.57590855e-005, -2.69088268e-005, 8.98347207e-006,
          3.46540692e-005, 6.65959169e-006, -5.92671022e-005,
          -1.98010912e-006, -5.85869202e-006, -1.06105244e-005,
          -3.58549478e-005, -1.41009068e-005, 2.56677522e-005,
          -3.80895399e-005, -3.19783649e-005, 3.55897573e-005,
          -3.47643509e-005, 3.30189287e-005, -5.13320799e-007,
          3.43843640e-005, -1.85601641e-006, -1.33946414e-005,
          -4.15680806e-005, -5.31768728e-006, 7.45510579e-006,
          -5.84127974e-006, -1.63175300e-005, -1.27363683e-006,
          2.35466159e-005, 8.11757309e-006, -2.80071090e-005,
          -4.16057446e-006, 1.19086790e-005, -5.14948078e-005,
          -2.74386966e-005, 1.06739651e-006, -3.35081540e-006,
          -2.19345420e-005, 1.04468236e-005, -2.69425595e-006,
          2.00865434e-005, -4.13535272e-005, -3.75216659e-005,
          6.27427926e-006, 2.52953464e-006, -7.15928218e-006,
          -4.80810413e-005, 2.75593793e-005, 1.28550691e-005,
          3.66878121e-005, 1.57424038e-005, -8.67593087e-007,
          -1.45678114e-005, -2.91411980e-005, 8.67155541e-006,
          -2.00411910e-006, 1.32189882e-006, 5.10802747e-005,
          -6.25073517e-006, 6.02079081e-006, 9.72151429e-006,
          2.96641283e-005, -1.95306184e-005, 5.52915481e-005,
          3.75519921e-005, -9.03175169e-005, 9.34363652e-006,
          -2.20085039e-005, 1.09078343e-007, 3.27906855e-005,
          1.57426548e-005, -3.79972516e-005, -2.97731440e-005,
          -4.38952411e-005, -3.14261961e-005, 4.53346329e-005,
          -5.30287798e-006, -2.19049489e-005, -5.97606959e-005,
          2.59618730e-007, -3.78621953e-005, 7.10637823e-006,
          -2.55682539e-006, 5.24930474e-005, -4.67395876e-006,
          -7.73300781e-006, 1.16333358e-005, -1.20900177e-005,
          -8.41602741e-007, -3.47236187e-006, 3.89973102e-005,
          1.17280067e-007, -1.47772844e-005, -3.52176467e-005,
          -1.76450467e-005, 6.00322210e-007, 1.98697671e-005,
          -5.23903836e-005, 3.19845058e-005, -1.40843313e-005,
          9.92179957e-006, -2.97588213e-005, -6.71458474e-006,
          -8.01370879e-006, 1.69267842e-005, 1.14595387e-005,
          -1.59084229e-005, -2.04822318e-005, 6.33479294e-006,
          -4.01057914e-005, 7.36017046e-006, -1.35931705e-005,
          -1.44494661e-005, -9.89814725e-006, 4.42483688e-005,
          -2.47354342e-006, 2.54770675e-005, -5.65180289e-006,
          -1.97238132e-005, -5.55614861e-006, -6.45713726e-006,
          -1.54593763e-005, 7.97472603e-006, -3.55337434e-005,
          5.18320157e-005, -4.30910404e-006, -2.31768408e-005,
          -1.48213639e-005, -3.50623741e-005, 1.18458893e-005,
          3.32376271e-006, 2.45565570e-005, -2.79374490e-005,
          -6.84837596e-006, -1.66615882e-005, 5.53632854e-005,
          -6.31480077e-007, 1.26410723e-005, -4.18615818e-005,
          8.00275939e-006, -2.02495335e-006, 1.05698280e-006,
          -1.24349745e-005, 9.93052709e-006, 4.67814825e-005,
          2.25202184e-005, -1.24598537e-005, -2.89556488e-006,
          1.88669437e-005, -2.30915302e-005, -1.70263720e-005,
          2.08357851e-005, 6.67046334e-006, 1.32201589e-004,
          -2.25288131e-005, 2.00876875e-005, 1.73136814e-005,
          3.27436028e-005, -5.32089416e-006, 8.51186051e-005,
          2.77196996e-005, 2.20747438e-006, -1.99843339e-006,
          4.33043388e-005, 5.10453492e-006, 1.64385492e-005,
          2.51272354e-006, 2.94928304e-005, -4.51486676e-006,
          -6.10268216e-006, -9.49578607e-005, 1.34450272e-006,
          -1.78044320e-005, -1.32230543e-005, -2.62032590e-005,
          -4.13088164e-005, -4.26296901e-006, 2.57537413e-005,
          1.16441142e-005, -1.14976265e-005, -1.38049591e-005,
          1.12384823e-005, 9.57453994e-006, -9.18385194e-006,
          -8.11459176e-006, -1.87927453e-005, 1.73089502e-005,
          -3.31504343e-005, 1.44977969e-006, 1.19143133e-005,
          -2.91787474e-005, -4.83809072e-006, -3.41804298e-005,
          -4.36559967e-005, -1.70551866e-005, 5.03331876e-006,
          -1.64868143e-005, -1.96496094e-005, 3.12769589e-006,
          5.41420777e-005, 2.65430626e-005, -1.04539604e-005,
          -3.79740377e-005, -9.75409239e-006, -2.28360077e-005,
          -5.40722212e-005, 1.15920477e-006, 1.80466814e-005,
          -5.41571208e-005, 1.89716229e-005, 4.47202983e-005,
          -5.12611587e-005, -2.30567348e-005, -4.06697218e-005,
          -5.93751429e-006, 4.41031443e-006, -4.59804170e-007,
          4.21868135e-005, -4.48715400e-005, -6.72487931e-006,
          -2.74609556e-005, 2.24761952e-005, -1.55098751e-005,
          4.02132991e-006, 2.17821071e-005, -4.75720408e-005,
          1.07682372e-005, 2.46290801e-005, -1.01434525e-005,
          3.31424526e-005, -4.85747187e-005, -3.52997922e-005,
          2.89781892e-005, -3.44990403e-005, -5.29625395e-005,
          6.65548896e-006, -6.04560728e-006, -6.40876306e-006,
          -5.00774058e-006, 5.17763183e-005, -3.43687861e-005,
          3.25283099e-006, 2.59826320e-005, -1.01653197e-004,
          -3.52711286e-005, 3.37354395e-005, 4.42178243e-005,
          6.34089201e-006, 8.39181121e-006, 1.26375162e-004,
          -1.95412013e-005, -4.94539963e-005, -2.40315367e-005,
          6.02376822e-005, -2.34940053e-005, -4.22512421e-005,
          -5.68869546e-005, -1.80134266e-005, 4.62533098e-005,
          5.55181805e-006, -5.62502100e-005, 2.86718041e-005,
          -1.20741883e-004, -7.85085831e-006, -2.47056269e-005,
          8.96436632e-006, 2.10708222e-005, -2.79977030e-006,
          -6.10333009e-005, -3.08545823e-005, -4.27262312e-005,
          5.95425408e-005, -3.29430077e-005, 1.20860032e-005,
          2.98678133e-005, -8.49025218e-006, 3.03220695e-005,
          -2.62848607e-005, -6.80588755e-006, 2.67295891e-005,
          -7.21267554e-007, 6.56548800e-005, -1.44917283e-006,
          -1.96479396e-005, 8.99491170e-006, 7.99389018e-005,
          -7.23268022e-005, 4.63994684e-006, 3.80008823e-005,
          -5.12743864e-005, -1.95459688e-005, -4.92772870e-006,
          -1.81319992e-005, 1.42920944e-005, -6.70685986e-005,
          2.59166918e-005, 9.88463216e-006, -4.55820227e-005,
          -2.72129600e-005, -8.67018844e-006, 4.11540896e-006,
          2.74290651e-005, -9.87718795e-006, 2.85787683e-005,
          4.09364075e-005, 2.49264085e-005, -4.05619576e-005,
          3.71870760e-006, 6.04412025e-006, -2.88520232e-006,
          1.30407552e-005, 8.69087307e-006, 1.54940208e-005,
          3.17807244e-005, -4.02766500e-006, -1.29256441e-005,
          2.71637673e-005, 3.79144185e-005, -5.12293627e-005,
          -3.13104210e-005, 2.52605660e-005, -6.17749538e-005,
          -4.60701776e-005, 3.13560195e-005, 2.79025858e-006,
          -2.12544564e-005, 4.01037578e-005, -1.39038357e-005,
          -4.05443425e-005, -1.12225362e-005, -1.49329462e-005,
          3.19637948e-005, -4.83493532e-005, 8.42783436e-007,
          2.41691396e-006, 2.66705556e-005, 2.22483395e-005,
          -2.56879157e-005, 5.33888015e-005, 5.94472913e-005,
          1.05789013e-005, -3.05363865e-005, -3.72859795e-005,
          -1.14643044e-005, 1.33822014e-005, 1.63720836e-006,
          -3.00831198e-006, 6.87027750e-006, 6.97090509e-005,
          3.20796535e-005, -4.63473625e-005, 3.27237613e-005,
          -7.36961510e-006, -1.37746849e-006, 6.76473519e-006,
          5.55219458e-006, 4.47515995e-005, 3.99457676e-005,
          -1.15074872e-005, -2.18417590e-005, 8.24676590e-006,
          -1.13406295e-005, -4.68992475e-005, -3.17792401e-005,
          2.07959820e-005, 1.87517235e-005, -8.23545488e-005,
          -3.34188576e-006, 7.32085425e-007, 9.84181315e-006,
          3.68230831e-005, 1.62016531e-005, -2.62527883e-005,
          -7.94339667e-006, -2.49841050e-005, -3.46457159e-006,
          -8.41788369e-006, 3.74710944e-005, -7.35198628e-005,
          2.31743998e-005, 6.42203740e-005, 1.07165433e-005,
          -5.10559876e-005, -9.38467383e-006, -1.13556789e-005,
          -6.67527929e-005, 3.32716154e-005, -9.10403651e-006,
          3.30952935e-005, -1.42852923e-005, -1.08695767e-005,
          -1.22206593e-005, 2.97508795e-005, -2.56642834e-005,
          1.69752752e-006, -5.03161846e-006, 2.99488856e-005,
          1.61553289e-005, 1.68371735e-005, 6.22738735e-005,
          -1.11597343e-004, 1.32707710e-005, 2.12385839e-005,
          -2.11401784e-005, 1.98984053e-005, 3.48059475e-005,
          5.00023998e-006, 2.42776296e-005, -3.30142939e-005,
          3.27053931e-005, -1.49610159e-005, -5.17666631e-005,
          -6.29791830e-005, 6.54797259e-005, 1.43441102e-005,
          4.95139720e-005, 2.41641715e-006, -6.17860351e-005,
          -2.53877770e-005, 1.01558362e-005, -1.31873521e-005,
          1.24129156e-005, -5.42355374e-005, 4.13582020e-005,
          -2.60072538e-005, -2.50035009e-005, -5.75032536e-005,
          -5.16463188e-005, -1.49163616e-005, 1.20489576e-005,
          1.12162452e-005, 8.71182565e-005, 2.38953180e-005,
          2.48128399e-005, -2.75477796e-005, 2.61621462e-005,
          2.25709282e-005, 9.34800755e-006, 1.85605149e-005,
          -3.01213804e-005, -1.76574451e-006, 1.74345223e-005,
          3.62806059e-005, 3.01176788e-005, -1.92402058e-005,
          2.64757909e-005, -1.52256325e-006, -1.23221589e-005,
          6.14464989e-006, -4.24355130e-005, -4.16464500e-005,
          -2.45342908e-005, 9.55759424e-006, -4.82756550e-005,
          2.82675210e-005, -6.61179947e-005, 1.00190528e-005,
          1.27267394e-005, -4.03260201e-005, -3.63284489e-005,
          5.71559140e-005, -1.57506784e-005, 1.59364135e-005,
          2.81695138e-005, 4.08715314e-005, -1.51340043e-006,
          4.23954989e-005, 2.49989589e-005, -7.23131961e-005,
          -1.45432623e-005, 5.16948276e-005, -4.90859675e-005,
          4.24311183e-005, 7.86825694e-005, -3.41260493e-005,
          1.38542009e-005, 5.36075895e-005, 2.91374308e-005,
          -3.54366057e-005, -4.01021607e-005, -2.36266296e-005,
          -5.28795099e-005, -7.73370084e-006, 2.96250582e-005,
          3.04340701e-005, -3.59869009e-005, 4.98307190e-006,
          -1.92644220e-005, -1.59599203e-005, -1.53629007e-005,
          -5.43488795e-006, 1.01942978e-005, -2.31922386e-005,
          -4.45062578e-005, -2.71274348e-005, -7.82729603e-006,
          -2.02870106e-005, -7.27851148e-006, 5.32836275e-005,
          7.34458517e-005, -2.30264814e-005, -4.87519319e-005,
          -4.25495491e-005, -1.75788919e-005, -1.78421742e-005,
          5.73898797e-006, -4.94727692e-006, -1.09407236e-004,
          6.45994123e-006, -1.92174757e-005, -1.28163201e-005,
          4.23285783e-005, -3.10167743e-005, 2.46411728e-005,
          -5.44115801e-006, 3.13789787e-005, -1.85517979e-006,
          7.26494818e-007, -4.43392855e-005, -3.79198500e-005,
          2.68458170e-005, -3.04397490e-005, -2.71226254e-005,
          -6.98493704e-006, -9.14570228e-006, 2.66367624e-005,
          2.85881561e-005, -2.57013721e-006, -3.07965893e-005,
          1.06485160e-004, 8.96346392e-005, 2.66583011e-005,
          -1.25007164e-005, 5.47196532e-006, 1.85779554e-005,
          2.86951454e-005, 3.13815763e-005, 2.79013875e-005,
          -2.94991096e-005, -2.77229137e-005, 5.74553269e-005,
          1.55375965e-005, 2.81505418e-005, -2.95295158e-005,
          3.94732115e-006, -7.26581129e-006, -2.28883364e-005,
          1.53926285e-005, -4.65489893e-006, 9.08685706e-006,
          -1.90725641e-005, 1.87826772e-005, -1.36878762e-005,
          -1.92208026e-005, -3.97676449e-005, 2.38469820e-005,
          1.74238121e-005, -5.19534296e-006, -1.66907703e-005,
          1.85542547e-006, 4.32517118e-006, 4.41062111e-005,
          -7.63121625e-006, -3.59147384e-006, -4.40667609e-005,
          -3.45897424e-005, 2.25291205e-006, -1.87261248e-005,
          -4.97162489e-007, 3.99306155e-005, -3.41583473e-005,
          -1.43222687e-005, -6.93144921e-006, 1.79622111e-005,
          -1.34097345e-005, -5.48813523e-006, 2.88578467e-005,
          -3.61154525e-005, 2.10483886e-005, 2.22113449e-005,
          -4.43074759e-006, 2.81922094e-005, -7.73047759e-006,
          -5.64778493e-005, -1.80807165e-005, -3.85740850e-006,
          -4.91216724e-007, 2.57641859e-005, 7.24117272e-005,
          4.22511562e-007, 1.81726409e-006, -5.31967407e-006,
          -4.27108080e-006, -3.02842182e-005, 1.20602253e-005,
          -8.50547003e-005, -7.24798010e-005, 1.70784733e-006,
          -3.67977664e-005, -4.46438971e-005, 2.79228352e-005,
          3.97838085e-006, -3.75466916e-005, -4.56040507e-005,
          -2.64463215e-005, -4.32389934e-005, -5.67555981e-005,
          3.83191036e-005, -3.39215112e-005, -4.13332382e-005,
          5.02141556e-005, 4.68138569e-005, -3.72381583e-005,
          -1.21274124e-005, 2.54737188e-006, 4.28912390e-005,
          -3.04238310e-005, -1.30756362e-007, -7.91537605e-006,
          1.90399915e-005, 1.95234679e-006, 2.63738093e-005,
          -7.66309040e-006, 4.27488412e-005, 4.05971441e-005,
          1.66284262e-005, -1.28098663e-005, -4.76153855e-006,
          -2.66911356e-005, -2.09674690e-005, 1.30586341e-005,
          1.59880547e-005, -1.23163409e-005, 1.19791475e-005,
          -3.94578892e-005, 1.79319231e-005, 3.60799349e-005,
          1.51022905e-005, -3.37164397e-006, -2.20892889e-006,
          3.51339695e-005, -2.74756876e-005, 2.06414315e-005,
          -1.51625036e-005, -1.92788366e-006, 5.40496603e-006,
          8.94413643e-006, 3.51527560e-005, -2.05531196e-005,
          -9.06867081e-006, -4.32847337e-005, 8.93137167e-006,
          1.42853360e-005, 5.15354895e-006, -1.22266047e-005,
          2.06824061e-005, -7.66446283e-006, 8.18325316e-006,
          2.74222948e-005, 4.26959959e-005, 2.01498096e-005,
          8.85005375e-006, -1.25437200e-005, -1.68338681e-006,
          -4.92888694e-006, 2.41833254e-006, -1.71227548e-005,
          -6.16652824e-006, 9.89403270e-006, 1.24309072e-005,
          -2.45440551e-005, -2.28598924e-006, -2.36512733e-005,
          3.07031441e-005, -2.29283796e-006, 1.12422422e-005,
          5.21723678e-006, 1.25793940e-005, -2.76240298e-005,
          2.65135986e-005, -1.64428457e-005, -4.77158355e-005,
          3.19263904e-006, -4.76084642e-005, 3.06926922e-005,
          -7.21448896e-006, -1.53659425e-006, 5.39162429e-005,
          -3.67306529e-005, 4.26701899e-006, 6.16006173e-006,
          1.47820901e-005, 4.61030795e-005, -1.21965850e-005,
          1.18665303e-005, -2.58781092e-005, -8.19808338e-006,
          -2.49669974e-005, -3.15136931e-005, -1.27686308e-005,
          3.46910065e-006, -1.83136854e-006, 9.01375370e-006,
          1.34447464e-005, 2.12754130e-005, -5.26658296e-005,
          -1.51721852e-005, -4.72535066e-006, -6.92376034e-006,
          -4.41933917e-005, 2.95716818e-005, -4.39772020e-006,
          1.11974703e-006, -1.37019370e-005, 9.97759344e-006,
          2.89540531e-005, -1.49933121e-005, 1.27474468e-005,
          -2.22394010e-005, -8.06965181e-006, 5.94955509e-006,
          1.81124014e-005, 6.39851805e-006, -1.50396581e-005,
          -8.18436638e-006, 1.71824922e-005, -4.48830142e-005,
          1.25812385e-005, -1.68465760e-006, 2.32614593e-006,
          -8.55191047e-006, 2.37524637e-006, 3.63673971e-005,
          7.75053704e-005, -1.62952856e-005, -1.61909759e-006,
          -3.53767718e-005, -1.39928970e-005, 2.39891870e-005,
          -2.51037727e-005, -2.53063154e-005, 4.20061988e-005,
          2.23783854e-006, 1.32676792e-006, 6.15325480e-005,
          -2.49484347e-005, -6.48002197e-006, -4.95041131e-005,
          1.39913564e-005, -2.68814110e-005, 2.88401361e-006,
          6.50561778e-005, 1.42450494e-006, -6.18550548e-005,
          2.16436838e-005, 4.89968334e-005, -1.23071140e-005,
          1.54519748e-005, 3.00434403e-005, -1.71068514e-005,
          -5.29482459e-005, -3.44123055e-006, -5.29613826e-005,
          4.74387161e-005, -1.10964929e-005, 4.00726385e-005,
          1.86811940e-006, -1.81480300e-005, -9.46157379e-005,
          -2.98517898e-005, -9.87765270e-006, -6.10465358e-005,
          -5.82445937e-005, -3.34193028e-005, 3.09422649e-005,
          2.46798008e-005, 1.54460049e-005, 5.65262781e-006,
          -7.80396203e-006, 4.30618638e-006, 1.16182873e-005,
          1.53656074e-005, -3.94546169e-006, -1.32720543e-005,
          -6.89828494e-006, -3.17386980e-006, -8.25375878e-007,
          1.95539815e-005, 1.57454688e-005, 7.03402975e-006,
          -6.13362718e-005, -1.66741083e-005, -4.40193116e-006,
          5.44093637e-005, -2.38994598e-005, -3.07780501e-005,
          3.28747519e-005, 3.40117222e-005, 1.97236495e-005,
          -2.93251360e-005, -2.57720967e-005, 3.54547183e-006,
          -4.32093912e-005, -4.74800163e-006, -1.34993052e-005,
          1.17816717e-005, 2.25835129e-006, -3.29624709e-005,
          -4.46606555e-006, -4.20888318e-005, -2.37510121e-005,
          4.23128176e-006, 2.10164890e-005, -2.03731124e-005,
          2.23203388e-005, -9.80846926e-006, -2.28940153e-005,
          1.67164417e-005, -1.03784078e-005, 2.40405097e-005,
          -5.72826684e-006, -8.89736912e-005, -6.08931550e-005,
          6.35678498e-006, -3.08360868e-005, -4.78880756e-005,
          -6.21383224e-005, -4.19047610e-005, -3.46530542e-005,
          1.70214917e-005, -4.46831655e-005, -1.06345378e-005,
          -2.79655305e-005, -2.16916142e-005, -3.95296956e-006,
          2.33096489e-005, -5.40033252e-005, 1.81886412e-006,
          5.67870211e-006, 6.29211308e-006, 4.55429199e-006,
          1.50779442e-005, 1.24780217e-005, -2.08745496e-005,
          8.71688258e-007, 1.33815784e-005, 3.49603361e-005,
          3.85897438e-005, -3.94268973e-005, 2.00346458e-005,
          3.35541336e-005, -5.15017405e-007, -1.99735609e-006,
          -4.37509188e-005, -2.98342566e-005, -2.27490236e-005,
          4.60855517e-005, 2.24436317e-005, 2.61883542e-006,
          8.97851442e-006, 2.14929387e-005, 3.22595879e-005,
          5.19536707e-006, 3.49164438e-005, 1.07004234e-005,
          1.14344593e-005, -1.04734127e-005, 8.77624188e-006,
          -1.34252905e-005, -1.89598068e-005, 5.87468094e-006,
          2.93656249e-005, 6.71410635e-006, -8.53259371e-006,
          2.78186617e-005, -4.37555318e-005, -2.76400788e-005,
          -1.40948760e-005, -7.19500895e-006, -2.68628810e-005,
          -3.88795961e-005, -1.20075974e-005, 2.04884345e-005,
          -1.02065280e-006, -8.11097550e-007, -1.67880189e-005,
          -3.59053229e-005, 2.12476857e-006, -3.21153784e-005,
          -6.90523884e-005, 1.22910542e-005, -4.45453989e-005,
          -1.11096460e-005, 1.74365778e-005, -3.77615361e-005,
          3.12957891e-005, 3.80601305e-005, 3.82100443e-005,
          -6.78592114e-005, 1.52639714e-005, -1.25024335e-005,
          -2.93409994e-005, -7.82762254e-006, 6.98026561e-005,
          1.82030490e-005, -2.01077455e-006, -6.43919484e-005,
          -3.60023041e-005, 1.26366513e-005, 1.15225821e-005,
          3.61238090e-005, 4.72550564e-005, -5.48862263e-005,
          1.58428338e-005, 5.31680707e-005, -1.57549730e-005,
          7.09025044e-005, -4.14868873e-006, 7.47119543e-007,
          3.06404181e-005, 4.23399069e-005, 4.80153176e-005,
          2.13684943e-005, 1.94181721e-005, 9.78253956e-006,
          4.38635398e-005, 1.93056349e-005, -2.66968400e-005,
          -3.39950457e-005, 5.54300386e-005, 1.82876283e-005,
          2.25785152e-005, -2.91282322e-005, 6.73642207e-005,
          -1.71736738e-005, 3.00125212e-005, 2.24086943e-006,
          1.38218647e-005, -2.42421429e-005, 1.08264167e-005,
          -9.25725089e-006, -5.27909142e-005, -6.62838556e-006,
          5.18387023e-005, 4.77556432e-006, 3.66703571e-005,
          8.64266476e-005, 5.41028166e-005, 5.72094905e-005,
          2.76405372e-005, -2.87804614e-005, 6.33596255e-006,
          -1.23702748e-005, 1.08933818e-005, 2.17663364e-005,
          2.01691419e-005, 1.92384887e-005, 4.63754550e-005,
          -6.10484931e-005, 2.86013510e-005, -8.57295618e-006,
          -9.80279292e-005, 1.27877520e-005, 1.13466967e-005,
          2.28050812e-005, -2.19010326e-005, 1.89576513e-005,
          -7.46351288e-005, 6.60506601e-007, 2.73744790e-005,
          -7.86127202e-006, -8.12329654e-006, -9.68771587e-007,
          -1.29769057e-006, -2.08971760e-005, -5.01797240e-006,
          5.79131074e-006, 2.59087738e-005, -4.65698758e-005,
          -3.22462329e-005, -5.13570922e-005, -2.33451237e-006,
          -1.73767821e-005, -3.61049097e-005, 3.84707491e-005,
          2.96081053e-005, 1.66389668e-006, -1.93692108e-006,
          3.95947936e-005, 2.35523316e-006, -4.04630882e-005,
          9.56038002e-006, -8.26113308e-007, -1.49007465e-005,
          -2.03736090e-005, -1.91933723e-005, 4.28575646e-007,
          -2.87235162e-005, 1.06465297e-004, -5.54155522e-005,
          -4.43021199e-005, -7.97578923e-006, 4.18160816e-005,
          1.71145530e-005, 5.50472796e-005, 1.62898796e-005,
          -2.61279802e-005, 2.84290559e-006, -1.24126411e-004,
          4.16011826e-005, 9.49210244e-006, -8.74911257e-006,
          4.89835802e-005, 1.75196546e-005, -6.52643985e-006,
          4.84927186e-005, -4.92121726e-005, -1.48688275e-006,
          -5.41669069e-005, -1.83843258e-005, -8.81900360e-006,
          -1.01801197e-006, 2.67657961e-005, -3.68404471e-005,
          -3.71280839e-005, -1.40390048e-005, 4.96656285e-005,
          7.33240813e-005, -6.59941215e-005, -7.78865069e-006,
          2.84464604e-005, -2.05319284e-005, 4.12547888e-005,
          -3.22093592e-006, -5.50182494e-006, 1.55995701e-006,
          -2.12018513e-005, -1.66465616e-005, 5.22175142e-005,
          7.35161302e-005, -3.54656077e-005, -4.65232034e-007,
          7.53307006e-007, 9.46964883e-006, 2.62900321e-005,
          1.60141735e-005, 7.08135412e-005, 1.57990726e-005,
          7.07190975e-006, 1.27671938e-005, -1.88998467e-006,
          -1.42452482e-005, -6.15587051e-005, 3.79987723e-005,
          2.45405154e-005, 6.52576864e-006, 3.62352216e-006,
          -4.52337990e-005, -5.82057601e-006, -3.85123931e-005,
          -8.96742931e-005, -7.40918813e-006, -1.36964436e-005,
          4.46470367e-005, 1.29096052e-005, 1.49827947e-005,
          -1.20406858e-005, 7.25518305e-007, -4.17630326e-005,
          -9.32143394e-006, 2.32061102e-005, -2.28419412e-006,
          -1.43764410e-007, 2.07567427e-005, -2.99074218e-005,
          1.97519748e-005, -1.82037256e-005, -2.51057500e-005,
          3.47965602e-006, -3.74431947e-005, 2.27846049e-005,
          -2.57090942e-005, -2.34274671e-006, -3.60661361e-005,
          -5.06531433e-006, 4.70222722e-006, -6.74465991e-005,
          2.03115860e-006, 3.83809420e-005, 1.69744999e-005,
          -2.23587995e-005, 1.79410436e-005, -2.76501419e-006,
          1.15298299e-005, -5.25637552e-005, -9.23678090e-005,
          1.33665790e-005, 3.96971109e-006, 2.05587207e-006,
          1.70037965e-005, -5.92938559e-005, -8.30073805e-006,
          -1.13462293e-005, 1.11586678e-005, -1.41584396e-005,
          3.09243696e-005, 4.67377795e-005, 4.40351141e-006,
          9.09704977e-006, -3.23248537e-006, 3.73438052e-005,
          -9.45494685e-006, -1.03597422e-005, 4.01741017e-005,
          1.63474870e-005, -7.55763322e-005, -4.91754781e-006,
          2.88782047e-007, 1.02952345e-005, 4.39730366e-006,
          4.12749832e-005, -2.79863725e-005, 1.04646551e-005,
          1.60862637e-005, 6.29293663e-006, 2.08103575e-005,
          -3.75700693e-005, -2.63075981e-005, -2.01271050e-005,
          -1.88447502e-005, -9.34035506e-006, -1.08335535e-005,
          2.37778713e-005, 7.41357599e-006, -2.44563817e-005,
          -5.50423601e-006, -3.90426067e-005, 2.46244235e-006,
          -9.89696855e-006, -4.02921760e-005, -4.19606185e-005,
          -6.29642818e-005, -3.21532389e-005, -2.45375213e-005,
          2.54153565e-005, -8.21451067e-006, 2.43113191e-005,
          -7.22070581e-006, -1.39213644e-005, -2.78107309e-005,
          -5.01300747e-006, 7.69060716e-006, -1.91149829e-005,
          2.11322149e-005, -1.24246408e-005, -6.88857326e-005,
          -2.87736711e-005, -2.65798517e-005, -3.58665020e-005,
          3.95181269e-005, 4.66780621e-005, 4.11179099e-005,
          -3.60863924e-005, -6.76527179e-006, -7.40909600e-005,
          -5.20028561e-006, 4.28487256e-005, 4.47127059e-005,
          7.03293199e-006, 1.09807979e-005, 2.97185170e-006,
          8.47335396e-005, 7.17516159e-005, -1.76947142e-005,
          3.13430573e-005, 3.89180104e-006, -4.62864919e-005,
          -2.38284520e-005, 1.09497287e-005, 4.31764383e-005,
          5.19913810e-005, 1.69291779e-005, -3.67561297e-005,
          8.23482060e-006, 2.18139721e-005, -6.59828074e-005,
          -3.48328867e-005, -1.33187814e-005, 9.12635096e-006,
          -1.47339142e-005, -3.98872589e-006, -4.89744416e-005,
          -2.18150726e-005, -2.25498316e-005, -6.76709806e-006,
          2.07035555e-005, 7.68508926e-006, 2.01104776e-005,
          8.98911185e-006, -2.25734821e-005, -1.60481013e-005,
          -1.27542171e-005, 2.10033431e-005, 2.33720584e-005,
          -3.17073500e-005, -1.07602573e-005, 9.83497921e-006,
          -9.75554485e-006, -2.34696508e-005, -9.13534450e-007,
          -5.62189125e-005, -2.26626689e-005, 2.47858516e-005,
          5.48978132e-005, -7.94736407e-005, -1.66087448e-005,
          9.77487889e-006, -7.19769741e-005, -2.06281475e-005,
          1.92207353e-005, -1.12078660e-005, -2.25028834e-005,
          4.14692840e-005, 3.10915639e-005, 7.84707390e-006,
          -4.73392029e-005, 1.56265542e-005, -8.90638512e-006,
          1.09100483e-005, -9.45162537e-006, 1.72263117e-005,
          1.72459258e-005, 1.32613277e-005, 1.36575034e-006,
          3.94438985e-006, -5.55446422e-006, 6.65301632e-005,
          1.75414652e-006, -5.31039186e-005, -3.40093902e-005,
          -6.34979597e-006, -1.55043381e-005, 1.86041252e-005,
          -2.66845782e-005, 4.91065930e-006, -2.26096134e-007,
          -3.46102133e-005, 1.61058470e-005, 2.51751612e-006,
          -7.51072412e-006, 2.79211054e-005, 5.10652944e-006,
          -1.27169160e-005, -3.73051880e-005, 2.21485789e-005,
          1.40990651e-005, -4.50813750e-005, -3.51220260e-005,
          9.51904531e-006, 1.03160630e-006, 4.15714458e-005,
          -5.89820520e-005, -3.49475849e-005, 3.36546364e-005,
          -6.55315262e-006, -9.43765554e-006, -1.42945487e-006,
          -4.05306992e-006, -2.87478379e-005, -5.51418907e-006,
          2.22763756e-005, -3.71345777e-005, 3.05778412e-005,
          9.23144671e-006, -2.23484440e-005, -9.53379495e-005,
          2.10653106e-005, 4.85072560e-005, -8.10076453e-005,
          -1.37994948e-005, 3.02065419e-005, 1.68986335e-005,
          3.92715701e-005, -2.64946848e-005, -2.07962039e-005,
          -3.62407736e-005, 1.53971796e-005, 4.96091416e-005,
          2.88271640e-005, -2.87814637e-005, -3.36053236e-005,
          7.60331113e-006, 1.03238119e-004, 3.40044135e-005,
          -1.01844571e-005, 1.62286287e-005, 4.69482211e-006,
          -9.42081897e-006, 9.27677320e-007, -4.62662820e-006,
          1.31552652e-005, -7.48052407e-005, -3.47550595e-005,
          4.91692153e-005, -2.66956067e-005, 3.51015588e-005,
          -3.04518035e-005, 1.14292288e-005, 2.84029738e-005,
          -4.22767807e-005, -2.68868371e-005, 3.56534802e-005,
          2.36228534e-005, -6.59646539e-005, 2.66256411e-005,
          -1.55026410e-005, -8.75491878e-006, -2.06668301e-005,
          6.18571066e-005, -2.26639600e-006, 3.54601289e-005,
          -2.12754967e-005, -1.99673068e-005, -2.90114695e-005,
          -4.12295958e-005, -4.16519288e-005, 1.76186331e-005,
          2.78621301e-005, 2.42642400e-005, -5.69235781e-005,
          2.25030635e-006, -6.67320001e-006, 5.29513500e-006,
          -3.14575591e-005, 2.43736145e-006, -2.55530940e-005,
          2.72816378e-005, 4.74535409e-005, 2.48841243e-005,
          -1.88800714e-005, 5.41430345e-005, -3.07216797e-005,
          5.00523629e-006, 3.60694612e-005, -1.76618755e-006,
          -4.15510476e-006, -6.40250946e-005, 1.09392859e-005,
          2.12445539e-005, -1.04714009e-005, -2.95097052e-005,
          3.96734140e-005, 2.95936898e-005, 3.64549851e-005,
          -2.63768525e-005, 1.03914249e-006, 2.43404556e-005,
          -8.16585089e-006, 7.37430673e-005, 3.28439455e-005,
          -4.89458616e-005, 1.85030749e-005, -3.43691390e-005,
          1.18177304e-005, 4.40952717e-005, 2.73233491e-005,
          4.97556393e-005, -1.65808196e-005, -1.01027672e-005,
          7.38931485e-005, -5.15231586e-005, 5.42912039e-006,
          1.49865182e-005, 1.03610895e-004, -1.70341609e-005,
          -2.80037142e-007, -6.61284776e-006, 8.94338064e-006,
          -5.82111679e-005, 6.31662442e-006, -2.46506752e-005,
          -1.50572005e-005, 3.70386647e-006, 4.68567523e-005,
          3.44226214e-006, -1.24845392e-005, -1.09728971e-005,
          -1.09686262e-005, 1.54565951e-005, 1.05053814e-005,
          -2.36926480e-005, 9.30057649e-006, -2.95137543e-005,
          -1.29359660e-005, -1.00430761e-005, -8.11109658e-006,
          -4.61787380e-007, -4.35836300e-005, -2.36388023e-005,
          -1.95694643e-008, 2.05958586e-005, 4.15870054e-005,
          -2.10043345e-005, -7.54096664e-006, 6.86002159e-006,
          2.09058089e-005, 8.92449134e-006, 2.03801937e-005,
          7.19758191e-006, -4.87297511e-005, -1.70299281e-005,
          3.17541458e-006, -1.16142737e-005, 4.73677428e-005,
          9.90660646e-006, 3.72499344e-005, -2.96518465e-005,
          -2.58015843e-005, -4.79108930e-005, -2.71099707e-005,
          -5.54678400e-006, -3.47033574e-006, 4.27945743e-005,
          1.24427852e-005, -6.80139492e-005, 1.21032747e-006,
          5.27703321e-007, -1.00253230e-004, -3.98032944e-006,
          2.32869970e-005, 3.54490294e-005, 7.75733588e-006,
          2.28538320e-005, -2.24460637e-005, 5.46776100e-005,
          -1.93515243e-005, -7.80058544e-005, -2.29936886e-005,
          -7.09957749e-005, 1.61583539e-005, 1.56938804e-005,
          -4.02067453e-005, -1.48742856e-006, -1.73784956e-005,
          -4.75064844e-005, -6.50141883e-005, -4.77999420e-005,
          2.55955774e-006, 1.73058961e-005, -1.72007203e-005,
          7.80113896e-006, -3.16797668e-005, -7.02968691e-006,
          -1.78344726e-005, 1.05343661e-005, 1.93589658e-005,
          1.59456965e-006, 1.89907551e-005, -1.51840595e-005,
          2.78325933e-006, 5.55577981e-006, -1.29216869e-005,
          -1.64656794e-005, -1.69271425e-005, 3.79566081e-005,
          1.28920328e-006, -1.01135274e-005, -3.56378296e-005,
          -3.66417444e-005, 5.92542601e-005, -1.14012537e-005,
          2.38917473e-005, 4.02951846e-005, -5.89023111e-005,
          2.06663663e-005, -2.24059204e-005, 3.91182948e-006,
          -2.64445735e-005, -1.43064508e-005, 7.85045704e-005,
          -1.26749037e-005, -2.86407449e-005, -8.33702506e-005,
          -5.45446092e-005, -5.02500552e-005, -2.70784494e-005,
          -4.50489694e-007, 3.03465117e-006, -7.62486015e-005,
          3.47126334e-005, 1.63144668e-005, 2.42207466e-006,
          -3.13204473e-005, -1.69185187e-005, -2.29697180e-005,
          -4.49508079e-005, -1.51010108e-005, -1.43148027e-005,
          -2.16462395e-005, 2.96688086e-006, -6.49625781e-006,
          -2.17106390e-006, -1.13338665e-005, -1.95154116e-005,
          -3.45818771e-005, -5.84686950e-006, -4.24685913e-006,
          2.35774023e-005, -2.38709822e-006, -1.60430682e-005,
          -7.10421082e-005, 1.87302467e-005, 3.60775521e-005,
          -2.48286851e-005, -4.84123011e-005, -2.20246438e-005,
          5.58959582e-005, 2.46981035e-005, 9.89005366e-006,
          2.43573650e-005, -1.80232200e-005, -2.40557056e-005,
          2.32102366e-006, 2.09320169e-005, -8.84086148e-007,
          2.06792123e-007, 1.16911206e-005, 1.79836945e-007,
          9.70014662e-006, 5.53857135e-005, 1.09122338e-005,
          -2.63192542e-005, -7.64102952e-005, 1.53472811e-005,
          -1.65937017e-005, 2.04707030e-005, 2.69016655e-005,
          -9.47224253e-005, 5.68913129e-006, -1.85374902e-005,
          -4.69975457e-005, -5.48754215e-005, 6.12061704e-005,
          -1.94536915e-005, 5.39766261e-005, -5.73348625e-005,
          1.91572667e-006, 5.21411096e-007, -5.31816877e-005,
          -4.46980121e-005, -1.05941535e-005, 1.06942152e-005,
          6.85730993e-005, 5.83441724e-005, -6.87867578e-006,
          1.03734441e-004, -2.55976192e-005, -6.30693612e-005,
          -1.39711137e-005, -9.59877707e-006, 1.07092346e-005,
          1.15626426e-005, -1.26138111e-005, 2.59675289e-005,
          -2.68882068e-005, 4.55491863e-005, -5.15981810e-005,
          3.80300798e-006, -2.69275620e-006, 5.85290509e-005,
          -1.05430727e-005, -4.45842998e-005, -7.38297285e-006,
          -5.37312371e-005, 3.45173030e-005 ]
      - [ 3.21905100e-005, 1.90760129e-005, -4.83743133e-006,
          2.73232899e-006, 2.15612381e-005, 6.45314431e-005,
          -1.02139398e-004, -7.57836679e-005, -2.14755846e-006,
          1.69368036e-006, -2.53901521e-006, -3.65004780e-005,
          8.69168216e-005, 3.35306358e-005, -6.82718237e-005,
          3.22218330e-005, -2.50574358e-005, -2.54840143e-005,
          3.04742807e-005, -1.00237536e-004, -2.50500416e-005,
          -4.85841229e-005, 5.87235445e-005, -6.32140473e-006,
          -2.85330807e-005, 5.18810011e-005, -9.72148337e-005,
          -1.15267321e-005, 3.43956926e-005, -3.69692389e-005,
          -1.83412849e-005, -8.39915811e-005, -1.31140850e-005,
          3.33919197e-005, -9.21648825e-005, 4.39095020e-005,
          1.31900915e-005, -2.46726067e-005, 1.01659076e-004,
          -1.42888130e-005, -8.29246892e-006, -3.84587474e-005,
          2.14440342e-006, -6.99081575e-005, -5.91299831e-005,
          5.42527559e-005, -3.16728874e-005, -1.37147726e-005,
          3.25872497e-005, 8.29009296e-005, 6.03230148e-007,
          2.37850272e-005, 2.22930594e-005, -5.13540035e-005,
          -1.18912621e-005, -3.14425924e-005, 3.66344684e-005,
          3.85301719e-005, 4.18278942e-005, 2.58853597e-005,
          -1.03143293e-005, -1.28365558e-004, 5.55199722e-006,
          3.27618795e-006, -3.83399893e-005, 4.35196569e-007,
          -3.40795341e-005, -3.10166433e-005, 2.48233464e-005,
          -8.92621101e-005, -2.18753735e-006, 1.06023708e-005,
          3.69672925e-005, -5.93017648e-005, -5.11440558e-005,
          7.55734509e-005, 3.09538591e-005, -1.04212986e-005,
          -3.18602929e-007, -1.84335713e-005, -3.75930395e-005,
          -2.39192013e-005, -5.76327802e-005, -7.41268013e-005,
          -3.55201955e-005, 1.38427222e-005, 2.21687442e-005,
          7.10006680e-006, -3.44881628e-005, -6.72274182e-005,
          -8.08831974e-005, -1.61787993e-005, 1.15951343e-006,
          -2.37058448e-005, 1.18638527e-005, -5.46592419e-005,
          4.14170208e-005, 3.93492410e-005, -8.50941942e-005,
          2.37331769e-005, 3.55875309e-005, -4.33776295e-005,
          -7.74429554e-006, 6.82409109e-006, -7.74408181e-005,
          -8.08388504e-005, 1.20405530e-005, -1.06928310e-004,
          1.76283027e-006, -4.08349006e-005, -3.26383015e-005,
          -5.33268612e-005, -1.01977275e-004, -2.30833120e-005,
          -4.49123218e-005, -8.98991129e-006, -1.26778497e-004,
          -4.05290848e-005, 5.88817747e-005, -1.74332163e-004,
          9.12898759e-006, 5.09926431e-005, -8.18477201e-005,
          -1.11703434e-004, -2.37450313e-005, -5.15457432e-005,
          1.89777002e-005, 4.48047031e-005, -5.10484351e-005,
          5.72850149e-005, -3.74204828e-005, 2.10413941e-006,
          -6.54946634e-005, 3.05517860e-005, -3.93912160e-007,
          1.63447712e-005, -9.23239277e-005, -1.57657487e-005,
          -3.10392716e-005, 5.81842942e-005, -6.29398055e-005,
          6.78045981e-005, -2.79122469e-005, -2.18852110e-005,
          -4.39412834e-005, 5.29104727e-006, 4.25083772e-006,
          2.38803077e-005, -2.96617363e-005, -1.05455634e-004,
          -1.15679941e-005, -1.76121284e-005, 5.05880489e-005,
          2.31985614e-005, -4.06973668e-005, -2.73532951e-005,
          1.64704543e-005, -3.85708590e-005, -7.44677091e-005,
          5.36287152e-005, -1.78891369e-005, 3.46092420e-005,
          1.90965875e-005, -2.31315062e-005, 4.91063911e-005,
          -7.78823523e-005, -2.86314134e-005, -1.02469521e-005,
          -4.58524482e-005, 1.14288732e-005, -8.44717124e-006,
          -8.28983502e-006, -7.64268480e-005, 9.99386029e-005,
          7.13678091e-005, -4.51094274e-005, 3.23455824e-005,
          -1.19916940e-005, -5.91381540e-005, -7.14193156e-005,
          -3.05349786e-005, 4.29892607e-005, 1.27011343e-004,
          -8.34368402e-005, 1.30701164e-005, 1.59870306e-005,
          2.58700456e-005, 3.47608038e-005, 3.47652349e-005,
          3.53026667e-006, 1.10699133e-004, 2.25723034e-005,
          -4.50608713e-005, 6.93297977e-007, -5.08887433e-006,
          2.14631727e-005, 1.79934759e-005, 9.57077282e-006,
          -7.23219564e-005, -1.00039288e-004, -3.31444039e-006,
          -3.14985482e-005, 5.81346321e-005, -4.37685958e-005,
          4.63515971e-005, -5.75679696e-005, -2.06789537e-005,
          -9.43814666e-005, -5.85180096e-005, -1.16693027e-005,
          1.05330928e-005, 2.57751217e-005, -2.54923052e-005,
          -4.19034550e-005, 1.04762512e-004, 2.18767855e-005,
          3.68875553e-005, -1.21996767e-004, 9.54212283e-006,
          -1.61456919e-005, -2.07797311e-005, 6.29234000e-006,
          2.29364996e-005, -5.97855033e-005, -2.23247571e-006,
          -6.83697581e-005, 3.60841332e-005, -5.97254839e-005,
          -5.65362461e-005, -2.60132820e-005, 1.49279658e-005,
          1.36113586e-005, 5.69818731e-005, 7.30493412e-005,
          -7.03643600e-005, -3.19421342e-005, -1.86100006e-005,
          -1.22680731e-005, 2.28844692e-005, -1.46444436e-005,
          -7.73065549e-005, 1.20512432e-005, -2.77248955e-006,
          3.69601435e-006, -3.05272115e-005, -3.22283995e-005,
          3.91359972e-005, -5.41913760e-005, -9.87346266e-006,
          8.50223933e-006, -2.32752373e-005, -8.03337607e-005,
          4.07085672e-008, 9.83035443e-006, -2.41513517e-005,
          -7.86247474e-005, 2.16737135e-005, -8.18759474e-007,
          -2.21123955e-005, -2.25271269e-005, -1.68442239e-005,
          3.30013718e-005, -1.32127880e-005, 6.38694983e-005,
          -6.38645224e-006, 2.01771181e-005, -7.32250119e-005,
          -9.22762865e-006, -1.34042304e-004, -2.94526744e-005,
          4.13616399e-005, -2.45567880e-005, -1.95456937e-006,
          -1.47154897e-005, -1.08152799e-005, 7.68257814e-005,
          3.55648699e-005, -1.89009813e-006, -2.07490466e-005,
          -5.62813184e-005, -5.70107841e-005, 4.25803519e-005,
          4.79118899e-005, 1.04390865e-005, 2.44477815e-005,
          -1.38905598e-005, -1.00784833e-004, 8.52274025e-006,
          -1.84790752e-005, 9.42776660e-006, 1.35736263e-005,
          -6.30707291e-005, 8.21167487e-006, 2.92927252e-005,
          2.40116037e-007, 1.17745276e-005, 1.33899157e-005,
          2.54843562e-005, -1.01463796e-004, 3.56430610e-005,
          -9.17521993e-006, 2.63060906e-006, 3.90374444e-005,
          2.51168058e-005, -4.06127474e-005, -5.93783552e-005,
          -2.72325342e-005, -1.78644368e-005, 6.53306188e-006,
          3.50364062e-005, -1.88992192e-006, -5.16985056e-005,
          -4.38491152e-005, 3.50163245e-005, -1.35084556e-005,
          -3.68783258e-005, 4.72424908e-005, 5.91941498e-005,
          -1.96871661e-005, -1.46872171e-005, -2.31547219e-005,
          -4.24220816e-005, 2.13978310e-005, -1.71435720e-004,
          -4.47583125e-006, -1.97032332e-005, -2.88034680e-005,
          6.00765852e-005, -2.60693469e-005, 2.41046673e-005,
          -1.06504522e-005, 1.07394895e-004, -5.82175744e-005,
          -7.41274343e-005, 1.08719105e-005, -2.44481653e-005,
          -1.29258871e-004, -8.72429155e-006, 1.00024663e-004,
          5.63897265e-005, 1.78182199e-005, -2.04070275e-005,
          -2.33884584e-005, -1.29129417e-004, -8.30064091e-005,
          -6.15086028e-005, 3.13914165e-006, 7.58127426e-005,
          7.74873261e-005, -2.90940716e-005, -3.58849575e-005,
          -2.65383892e-006, -2.09887057e-005, -5.40728752e-006,
          1.63393561e-005, 4.01667094e-005, -6.01311012e-006,
          2.13959975e-005, 9.50296726e-006, -6.68672219e-005,
          9.81727062e-005, 5.47169366e-005, 1.22270530e-005,
          -5.86461756e-005, -4.47911152e-005, 3.80443271e-005,
          -1.74288452e-005, 3.88498229e-005, -2.39001893e-005,
          9.60057150e-006, 1.99780843e-005, -1.44332389e-005,
          -2.68446347e-005, 1.31603192e-005, 3.88214976e-005,
          -6.43390149e-006, -2.92959896e-007, -5.51650055e-006,
          2.57127522e-005, 6.06905996e-005, -4.00588542e-005,
          4.60773990e-005, -5.46464798e-005, -2.33713254e-005,
          9.46102737e-005, -5.38074164e-005, -1.49702237e-005,
          -8.37995904e-005, -3.58573634e-005, -8.90425072e-005,
          -2.05549950e-005, -3.26436348e-005, 7.10111199e-005,
          -4.75097913e-005, -3.63459840e-005, 3.46218912e-005,
          1.16086403e-006, 9.87120511e-005, 8.11573482e-005,
          1.36894538e-004, 2.35916086e-005, -3.88552726e-005,
          5.83004658e-005, -2.89069135e-006, 1.70677249e-005,
          7.31202526e-005, 5.66256858e-005, 3.62603932e-005,
          -4.40459917e-005, 3.97160729e-005, -4.47195780e-005,
          -6.68248831e-005, -3.94207855e-005, 1.94961522e-005,
          -5.82556750e-005, -2.92039640e-005, -7.52803899e-005,
          2.53943072e-005, 7.48366147e-005, 7.44525751e-005,
          -2.51205311e-005, 4.70433179e-006, 4.43825411e-005,
          -4.89383601e-005, -5.20497861e-006, -3.72496033e-005,
          -2.94945039e-005, 6.04442175e-005, -1.12197849e-005,
          -6.41095903e-005, -2.62922258e-005, 3.16767569e-006,
          -1.99942679e-005, 4.05072751e-005, -3.76694443e-005,
          -4.22140220e-005, 1.11254053e-006, 3.54438525e-005,
          1.44889773e-005, 7.02164398e-005, 1.33481271e-005,
          1.39251033e-005, -2.29407979e-005, -1.69766336e-005,
          -3.02061599e-005, -3.54146287e-005, 8.51500317e-006,
          -1.85341651e-005, -7.77628011e-005, 3.15285524e-006,
          -2.67021296e-005, -1.55215486e-004, 4.39942196e-005,
          6.67141285e-005, 2.22977978e-005, -3.01792516e-005,
          3.27682719e-005, -2.24249889e-005, -1.78003556e-005,
          -2.39034080e-006, -1.87632395e-005, 3.07149458e-005,
          -8.15802196e-006, 1.24933886e-005, 4.76759778e-005,
          -6.04533579e-006, 2.59255394e-005, -1.65491419e-005,
          -4.63179458e-005, 1.72075033e-005, 1.03671358e-004,
          -1.95210105e-005, -3.90842688e-005, 5.07991899e-006,
          -3.76609896e-005, -1.12349699e-006, 1.85870340e-005,
          -6.92899484e-005, -7.48588718e-005, -1.25891302e-005,
          2.16591652e-005, 6.73749855e-006, -2.99292769e-005,
          -9.46084110e-005, -2.09849113e-005, 1.10035071e-005,
          -6.68689290e-006, -1.44514588e-005, 3.90797286e-005,
          -1.28691079e-006, -2.23319512e-005, 1.33375288e-005,
          3.03133493e-005, -2.37303047e-005, -1.87543210e-005,
          2.75699495e-005, -1.18315380e-004, -3.81324171e-005,
          6.82733889e-006, -4.69989900e-005, 1.68525148e-005,
          3.70335219e-005, -7.19484451e-005, -1.33495632e-004,
          -1.91083727e-005, -6.76900672e-005, -2.54339411e-005,
          1.95317843e-005, 1.45619242e-005, -1.12673566e-004,
          -4.22614103e-005, -2.16857952e-005, -2.99078511e-005,
          2.84843627e-005, -4.47189223e-006, -4.55493864e-005,
          4.34582726e-005, -1.48966237e-005, -6.19706625e-005,
          -2.75010734e-005, 1.14856239e-005, -1.79874442e-005,
          -3.73797520e-005, -1.15262563e-004, 4.76614150e-005,
          5.71453929e-005, 1.55219386e-005, 5.38584754e-006,
          -9.95493974e-005, 3.76163086e-007, -1.28256588e-005,
          -2.56763033e-005, -5.46627780e-005, -2.50168941e-005,
          6.36784753e-005, -7.37148875e-005, 1.92516236e-005,
          6.49413560e-005, -1.39519825e-005, -1.64792873e-005,
          -5.20974572e-005, 4.12798872e-005, -1.14115719e-005,
          -4.50586776e-005, 8.25082770e-006, 2.27820674e-005,
          -1.60705804e-005, -4.51087508e-005, -6.85125679e-006,
          -4.94500382e-005, -1.38118165e-004, 8.38238066e-006,
          -1.40797229e-005, 6.78581928e-005, 4.95932636e-006,
          7.02828629e-006, 4.69840124e-005, -9.56135191e-005,
          -3.26428453e-005, 7.46795704e-005, -1.30377404e-004,
          2.82226792e-005, 3.71539500e-005, 4.94225278e-005,
          -5.01220757e-006, -1.54242298e-006, -3.08313938e-005,
          -8.86010366e-006, 3.84053492e-005, 2.87502644e-005,
          1.31323586e-005, -1.07519804e-006, -2.78022198e-005,
          3.90326750e-006, -1.64611374e-005, -1.71978336e-005,
          7.14987164e-006, 5.21391157e-005, -3.91137801e-005,
          -4.45787873e-006, -2.86430022e-005, -4.03466875e-005,
          -1.89011007e-005, 5.51817211e-005, -1.77932252e-005,
          4.18330092e-006, 2.74508438e-005, -1.33334388e-005,
          2.19372250e-005, -5.99167333e-006, 5.21434340e-005,
          -1.27637613e-004, 5.16636610e-005, 1.49554044e-005,
          -9.13831245e-005, 1.65773395e-006, 6.61113882e-005,
          -2.35909520e-005, 2.01213788e-005, -2.44723797e-005,
          -4.95185304e-006, -1.04928884e-004, 2.69166412e-005,
          3.45609478e-005, -3.26854934e-005, -7.42561724e-006,
          -1.10148176e-005, -5.00938695e-005, 9.39349993e-005,
          -2.69127959e-005, 1.44070527e-005, 2.35642965e-005,
          -1.31982406e-005, 2.33572628e-005, 2.91467586e-005,
          2.99820913e-005, -6.68757275e-005, 2.78127409e-005,
          -4.82508767e-005, -3.24544235e-005, -4.92645922e-005,
          1.88238701e-005, -4.52487875e-005, -3.80876736e-005,
          -2.28904064e-005, 1.79515573e-005, -5.81291351e-005,
          -1.41134615e-005, 5.08629237e-005, 3.00053725e-005,
          -9.96242852e-006, -4.06569161e-005, 3.04644091e-005,
          -8.23121518e-005, 3.91031790e-005, -2.09433292e-005,
          -2.78041280e-005, 2.67133582e-005, 2.27109849e-005,
          -6.56948905e-005, -7.93996605e-006, -3.97088261e-005,
          9.96620747e-006, -4.01551588e-005, 3.44197506e-005,
          5.26878030e-005, -3.75614218e-005, -6.04245542e-005,
          -3.67197717e-005, 2.14611882e-005, -8.03243602e-005,
          2.94668644e-005, -3.85009298e-005, 1.85898534e-005,
          -1.45360736e-005, -5.85176458e-005, -5.58470856e-005,
          -9.27057554e-005, 6.79698496e-005, 3.86444262e-005,
          2.91865472e-005, -3.23339009e-005, -3.55133125e-005,
          6.45314431e-005, 4.52724198e-005, 2.78463012e-005,
          -7.23598860e-005, 5.26509757e-005, -2.71900117e-005,
          -9.32541006e-005, -3.47189889e-005, -3.23774329e-005,
          1.96083220e-005, 1.36114482e-004, -6.17222177e-005,
          -2.49567165e-007, 5.06722699e-006, -9.57144948e-005,
          -3.03190063e-005, 9.05390334e-006, 1.25166453e-005,
          -7.00937962e-005, -4.36863484e-005, -4.31727640e-005,
          -8.38594278e-005, -6.77337266e-006, 1.65926904e-005,
