%YAML:1.0
my_svm: !!opencv-ml-svm
   svm_type: C_SVC
   kernel: { type:LINEAR }
   C: 1.2500000000000000e+001
   term_criteria: { epsilon:1.1920928955078125e-007, iterations:1000 }
   var_all: 8192
   var_count: 8192
   class_count: 3
   class_labels: !!opencv-matrix
      rows: 1
      cols: 3
      dt: i
      data: [ 0, 1, 2 ]
   sv_total: 3
   support_vectors:
      - [ 4.46359403e-002, -1.37392854e-005, 2.39273697e-001,
          1.26282156e-001, -8.48096833e-002, -4.43236142e-001,
          -2.96456337e-001, -4.54832494e-001, -7.77368844e-001,
          -1.68745682e-001, -1.07853733e-001, 2.51751542e-001,
          6.86945021e-002, -3.22047949e-001, -2.58441806e-001,
          -8.47359061e-001, -1.44197717e-001, -7.88931698e-002,
          2.00297777e-002, 3.61538958e-003, 3.89775693e-001,
          -2.81377941e-001, -1.77671984e-001, -6.28271937e-001,
          2.01206073e-001, 1.38074040e-001, 9.21306387e-002,
          6.76133484e-002, -4.78120632e-002, 5.99016584e-002,
          -1.04336374e-001, 5.83831482e-002, -5.80113351e-001,
          1.91031486e-001, 1.97542921e-001, 4.80960198e-002,
          2.19039142e-001, 2.98148543e-002, 3.49458575e-001,
          -1.34889007e-001, 1.02274798e-001, 9.55475122e-002,
          -2.51924217e-001, -3.16739053e-001, -2.15045046e-002,
          -8.83817449e-002, 5.16264498e-001, -3.35154049e-002,
          -9.57491472e-002, 3.65425527e-001, -7.27539659e-002,
          -3.18253875e-001, 5.61673522e-001, 8.09104443e-002,
          2.58984357e-001, -1.58474669e-001, 1.49762034e-001,
          2.02645168e-001, 4.08015907e-001, 2.35102415e-001,
          -4.80265655e-002, 4.20112945e-002, -4.09442186e-002,
          -1.55121371e-001, -5.45827448e-002, -3.02048046e-002,
          1.23813100e-001, -2.22313270e-001, -4.54204232e-001,
          -1.07415639e-001, -1.27354532e-001, -1.51043773e-001,
          9.37074646e-002, -7.79054239e-002, 2.38345712e-001,
          -3.14867832e-002, -6.64738473e-005, -1.89830717e-002,
          2.58636735e-002, -3.78627092e-001, 1.57661334e-001,
          -3.72177474e-002, 3.56709622e-002, 2.30618209e-001,
          1.29853189e-001, 4.65746783e-002, -1.29163697e-001,
          -1.47855997e-001, -1.67341530e-002, 9.28886756e-002,
          5.12388051e-001, -1.89309977e-002, 2.82113910e-001,
          6.75264373e-002, -1.03494357e-002, -1.13844439e-001,
          -9.79594737e-002, -3.35879058e-001, -1.04345292e-001,
          -4.14095134e-001, 1.90774620e-001, -1.86936215e-001,
          1.69673190e-002, -2.33358741e-001, -8.08683038e-003,
          4.25268620e-001, -1.36719897e-001, -1.90086678e-001,
          2.70265371e-001, -5.93048818e-002, 1.90211262e-003,
          -2.59200543e-001, -3.26739848e-002, -2.59211779e-001,
          4.17560786e-001, 6.56205267e-002, 7.15832531e-001,
          3.65400165e-001, 7.63464943e-002, -1.44572362e-001,
          -4.13201191e-002, -5.43770194e-002, 3.02968025e-001,
          3.91652793e-001, 1.72567859e-001, 2.91188806e-001,
          -3.00266035e-002, -2.65042543e-001, -1.14630997e-001,
          4.71010178e-001, -1.32549331e-001, 1.59766883e-001,
          -1.96880564e-001, -2.03413263e-001, -1.59124628e-001,
          3.65857333e-002, 3.01251769e-001, -1.20981075e-001,
          -2.78709829e-001, 6.98986128e-002, -1.47697181e-001,
          -2.09717736e-001, -4.60843146e-001, 1.44756556e-001,
          2.51143575e-001, -4.32960689e-002, -4.12058420e-002,
          1.32666994e-002, 4.82951896e-003, -2.20920190e-001,
          -1.69449374e-001, 2.37297580e-001, 3.48288745e-001,
          3.64196114e-002, -1.99369058e-001, -2.38683075e-001,
          6.97089136e-002, 4.91134897e-002, -2.21564710e-001,
          3.18095207e-001, 8.38781614e-003, 3.17941010e-001,
          1.56062141e-001, 1.26964286e-001, -1.16751355e-003,
          -8.91389400e-002, 3.39399502e-002, -2.65160911e-002,
          2.96140969e-001, 5.67982271e-002, 1.26931891e-001,
          2.07524598e-001, -2.43364930e-001, -1.70230880e-001,
          4.60494816e-001, 3.37511003e-001, 2.04100981e-001,
          6.13308549e-002, -1.81528419e-001, 6.23761192e-002,
          1.33103490e-001, -1.24337755e-001, 5.61763823e-001,
          1.38176486e-001, -9.02379379e-002, 4.47164327e-001,
          -6.49010092e-002, 2.37966686e-001, 2.50136014e-002,
          1.51266769e-001, 2.69242764e-001, -4.72100407e-001,
          2.56283209e-002, 5.30598834e-002, 1.87084720e-001,
          -5.24257720e-002, 5.92595339e-002, 3.94456042e-003,
          4.44881618e-001, 1.23829395e-002, 4.30731475e-001,
          -6.46286249e-001, -4.50722963e-001, -2.55950660e-001,
          -5.43564968e-002, 2.93929696e-001, 2.32544556e-001,
          2.11839259e-001, -1.56118348e-001, -6.22326553e-001,
          -8.15174997e-001, -5.44768691e-001, 5.90051472e-001,
          1.95962846e-001, 1.80563271e-001, 3.07509631e-001,
          5.31036317e-001, -1.48199443e-002, 1.91568866e-001,
          -1.24557046e-002, -7.30876625e-002, 2.93277025e-001,
          4.18776870e-001, -3.51749659e-001, -2.59032845e-001,
          -4.23142672e-001, -7.31683671e-002, -2.16719881e-002,
          -1.13276936e-001, -1.74506396e-001, 6.17643557e-002,
          -5.60193658e-002, 9.67133567e-002, -1.18407287e-001,
          8.32324922e-002, -1.35031879e-001, -8.75083432e-002,
          2.22774640e-001, 4.23114687e-001, -1.89433381e-001,
          1.88685477e-001, -6.47694394e-002, 2.59874389e-002,
          -1.89231098e-001, 2.55792916e-001, 5.79904579e-002,
          -2.68302619e-001, 5.75314105e-001, 6.82391301e-002,
          2.38258108e-001, -1.70656234e-001, -1.41857266e-002,
          -1.58041477e-001, -5.06087422e-001, 2.78890252e-001,
          -2.37084106e-002, 2.19770998e-001, -1.99690863e-001,
          5.61791360e-001, 1.38846844e-001, -1.01149984e-001,
          -3.43668103e-001, -3.79883312e-002, 2.77869582e-001,
          -3.70556861e-002, 1.31529406e-001, 6.20862246e-001,
          4.11775380e-001, -5.34217060e-002, 5.22112176e-002,
          3.07329628e-003, -1.21826373e-001, -4.31387983e-002,
          2.21231580e-001, 4.99560416e-001, 3.54950339e-001,
          5.37428781e-002, -6.16246201e-002, -2.67907739e-001,
          6.06384218e-001, 7.26667523e-001, 1.67030185e-001,
          1.41045988e-001, -6.72347918e-002, 1.81161523e-001,
          -4.04255509e-001, -6.88769221e-002, 2.41318196e-001,
          -1.36244491e-001, 5.83798476e-002, 3.24818552e-001,
          2.83176377e-002, -7.32942112e-003, -2.66471058e-001,
          -1.50796726e-001, 2.95351237e-001, 4.19725746e-001,
          1.95015818e-002, 1.94020241e-001, 6.52504712e-002,
          7.29800314e-002, 1.15235105e-001, -7.31027722e-001,
          5.30176342e-001, 1.11041069e-001, -4.30352569e-001,
          -2.18618345e-002, -4.27058563e-002, -1.63905412e-001,
          9.93602276e-002, -1.02909660e+000, -1.78089380e-001,
          4.59761888e-001, 1.81843102e-001, 1.02106825e-001,
          -3.31991196e-001, 2.41071749e-002, -1.77634493e-001,
          -3.45474690e-001, -2.37793699e-001, -6.05963469e-001,
          1.04845807e-001, 4.58682291e-002, -2.98545569e-001,
          4.00154859e-001, 1.90204024e-001, -1.35041311e-001,
          -3.16304676e-002, 4.57734317e-001, -1.69684231e-001,
          2.49796361e-001, -3.76200415e-002, -1.83147982e-001,
          -2.66038366e-002, 4.84661907e-002, -3.80715370e-001,
          -2.09865212e-001, 9.00194108e-001, 2.50945747e-001,
          1.48174152e-001, 9.71656293e-002, -2.33671486e-001,
          -7.72332847e-002, 1.12640634e-001, 7.73196161e-001,
          1.23061270e-001, 1.07369600e-002, -3.36067706e-001,
          9.61787179e-002, 1.79588273e-001, -3.68887894e-002,
          3.02617371e-001, -2.06462517e-001, -2.97545940e-001,
          -1.54870659e-001, -8.53371527e-003, 1.00593597e-001,
          -1.57016635e-001, -1.11342393e-001, 5.61346829e-001,
          2.19001278e-001, 1.18770763e-001, 1.26136824e-001,
          4.43805195e-002, -2.28428945e-001, 2.57677082e-002,
          9.91058946e-002, 2.55314827e-001, 4.19871598e-001,
          -2.21435204e-001, 2.82015473e-001, -1.18986359e-002,
          4.72456142e-002, 1.96588174e-001, -5.43999560e-002,
          3.24085325e-001, 4.23112839e-001, 1.17861174e-001,
          3.13599348e-001, -1.89538188e-002, 4.07195538e-002,
          1.06273532e-001, 1.43790826e-001, 2.96541572e-001,
          2.76981276e-002, -5.67981899e-001, 4.22933638e-001,
          1.74351186e-001, 4.68600780e-001, 2.32777581e-001,
          -2.48453300e-002, -3.81156623e-001, -2.39899561e-001,
          2.70675182e-001, 3.32817942e-001, 1.60044745e-001,
          8.07966292e-002, 3.98223013e-001, -1.68587878e-001,
          -3.29883397e-001, -2.09495202e-001, 2.69947410e-001,
          -7.62940943e-002, 1.42610356e-001, 2.30395675e-001,
          6.79117814e-002, -1.63019791e-001, -1.06761329e-001,
          1.57829121e-001, 2.41857529e-001, -2.52461493e-001,
          -1.19516127e-001, 9.68291089e-002, -4.47542101e-001,
          5.90160012e-001, -1.93592340e-001, 1.29751548e-001,
          4.07497063e-002, 2.04085070e-003, 3.51792753e-001,
          -2.84126669e-001, 2.10755229e-001, 1.69953376e-001,
          3.02029967e-001, 3.78958583e-001, -9.62035283e-002,
          2.05381349e-001, -6.76503628e-002, -1.92574084e-001,
          9.68387350e-002, 2.84956455e-001, -2.37717591e-002,
          2.12972745e-001, -9.46855638e-003, -4.05573919e-002,
          -1.54157788e-001, -1.75108816e-002, 8.82995427e-001,
          6.95502907e-002, -2.74788111e-001, -8.63311589e-002,
          -1.14275374e-001, 2.56223902e-002, 5.85461408e-002,
          1.90251559e-001, -3.09068084e-001, -2.50945203e-002,
          1.86221182e-001, 2.67211288e-001, -1.20935902e-001,
          -1.40066847e-001, -4.29334462e-001, -1.39998659e-001,
          9.16080666e-004, 2.69101501e-001, -4.83844467e-002,
          1.66943327e-001, 5.01912534e-001, -1.53603405e-001,
          -1.86079532e-001, -3.90825927e-001, 2.34439820e-001,
          8.73750970e-002, 2.05366969e-001, 1.12340748e-001,
          5.37303209e-001, 1.31978005e-001, -2.02357750e-002,
          3.04212719e-001, 4.14048493e-001, -4.42148149e-001,
          3.08862567e-001, 2.54542232e-001, 1.12023195e-002,
          -6.32145926e-002, 2.69961059e-001, 4.03597206e-001,
          -1.53853774e-001, -3.31176400e-001, 4.81884032e-001,
          3.07312086e-002, -7.18500987e-002, -2.34529525e-001,
          -2.75461853e-001, 2.47007057e-001, -5.83561845e-002,
          -3.28211427e-001, 3.52636606e-001, 3.54858279e-001,
          -4.99905586e-001, 5.45957461e-002, 1.97102979e-001,
          4.02258560e-002, 1.10529192e-001, -4.46528584e-001,
          1.08849378e-002, -2.44003817e-001, -5.06411195e-001,
          -1.58600375e-001, -1.06168455e-002, 2.21368730e-001,
          2.88502812e-001, 2.78469443e-001, -2.35070333e-001,
          9.94176641e-002, 7.40276873e-002, -3.66380930e-001,
          3.48143578e-001, 1.76623724e-002, -2.23286361e-001,
          2.59168744e-001, 7.67639130e-002, 5.68636477e-001,
          1.58999547e-001, -1.07630186e-001, 4.00587879e-002,
          1.40190125e-001, -1.43749312e-001, 9.87693742e-002,
          2.30750307e-001, -2.84294486e-001, 1.06466830e-001,
          -3.32021922e-001, -3.79330181e-002, 1.03820935e-001,
          -3.53016049e-001, 2.80493736e-001, -5.32853119e-002,
          3.30695331e-001, -6.08978748e-001, -1.10288583e-001,
          2.81110585e-001, -1.13137260e-001, -2.13808104e-001,
          -2.17105061e-001, -3.63705903e-001, -6.24711037e-001,
          2.51027733e-001, -3.50084268e-002, 1.02965944e-001,
          -8.72708037e-002, 4.55696732e-002, -9.49948058e-002,
          -1.52159661e-001, 1.12024695e-001, -7.20647722e-002,
          -5.20210043e-002, 3.23638022e-001, 9.13743302e-002,
          1.88630044e-001, 2.95906633e-001, -4.23178673e-001,
          1.48182688e-002, 2.28821278e-001, -1.29964232e-001,
          -6.37632132e-001, -3.41763735e-001, 7.78260008e-002,
          3.20418030e-001, -1.46639466e-001, 4.55561489e-001,
          1.00321457e-001, -1.68660119e-001, -7.20172822e-002,
          -1.06923208e-002, 8.57160464e-002, 9.46258530e-002,
          -1.02119476e-001, -1.77159801e-001, 2.29526266e-001,
          2.95767814e-001, 2.29174852e-001, -2.45178849e-001,
          -9.43275765e-002, -3.65470558e-001, -1.96181655e-001,
          3.44114751e-001, 3.48868936e-001, -7.89286494e-002,
          5.30291162e-002, 1.19334944e-001, -4.04718891e-002,
          3.28301013e-001, 3.46504271e-001, -1.60503402e-001,
          8.78697932e-002, 2.44984142e-002, -2.07580522e-001,
          -2.58421719e-001, 7.81056583e-001, -1.58840388e-001,
          5.06006360e-001, -2.56523043e-001, -6.77374363e-001,
          1.93052754e-001, 2.62003005e-001, 1.76053196e-001,
          3.75196129e-001, -6.19396806e-001, -1.81871668e-001,
          -2.17851400e-001, -2.51554906e-001, -1.45146936e-001,
          -3.17942277e-002, 1.57231018e-001, 1.08885981e-001,
          1.43792406e-001, -7.05166813e-003, 4.50925082e-001,
          1.34639323e-001, 8.83767456e-002, 1.72674097e-003,
          -3.72949205e-002, -2.73115039e-001, -2.81239152e-001,
          -5.49830198e-001, -2.11923290e-002, 2.56204307e-001,
          1.10534631e-001, 2.11584955e-001, -2.69125044e-001,
          2.20098406e-001, 2.30577871e-001, 2.57003844e-001,
          -1.32999212e-001, 3.23325574e-001, -1.09985135e-001,
          -2.36073449e-001, 1.57396063e-001, 2.77332723e-001,
          -9.08306465e-002, 2.84054447e-002, -4.52939630e-001,
          1.46813154e-001, -1.68422937e-001, -6.75101057e-002,
          2.80275285e-001, 1.15656272e-001, 2.24723816e-001,
          3.07628155e-001, 4.66358196e-003, 1.24191791e-001,
          2.24279791e-001, 1.89736128e-001, 1.39625117e-001,
          -3.04810613e-001, -6.43182278e-001, -6.72656119e-001,
          9.00163874e-002, 9.05160308e-002, -1.19438007e-001,
          -1.32283792e-001, -1.25525789e-002, -3.92292053e-001,
          -9.24282372e-002, -8.74426737e-002, -1.69767044e-003,
          3.75233442e-001, -4.37558174e-001, 2.17066512e-001,
          -5.31652272e-002, -4.90365237e-001, -5.74864447e-001,
          7.06166327e-002, 2.53010601e-001, 1.38841048e-001,
          1.62967891e-001, 2.44100653e-002, 2.52073765e-001,
          -2.00808540e-001, -2.96037465e-001, 2.29792833e-001,
          -3.29287022e-001, -8.64954758e-003, 1.71966523e-001,
          -3.09308559e-001, 8.03015083e-002, -1.57746568e-001,
          -2.21620843e-001, -7.88556039e-002, -1.97691973e-002,
          -6.73692748e-002, 1.46543369e-001, -1.72868874e-002,
          -4.71144974e-001, -2.36042693e-001, -3.55291478e-002,
          1.80929378e-001, 2.33267829e-001, -1.26130924e-001,
          1.40746385e-002, 1.27117066e-002, -6.56152442e-002,
          5.36904931e-002, -2.86508709e-001, -2.88365871e-001,
          -4.70975004e-002, 1.93986744e-001, 2.98628092e-001,
          -1.00262880e-001, 2.01428369e-001, 1.31165922e-001,
          -4.74263020e-002, 7.84699917e-002, -1.90822691e-001,
          -2.64990956e-001, 1.28846411e-002, 1.31436914e-001,
          1.45366872e-002, -2.05314651e-001, 1.39667735e-001,
          1.83167756e-001, 2.62793414e-002, 1.59753069e-001,
          1.20874196e-001, -1.49814621e-001, 2.26092979e-001,
          -5.96705675e-002, 2.72399336e-001, 1.95892334e-001,
          5.47922850e-001, -1.14715122e-001, 1.37463063e-001,
          -1.34942368e-001, 2.91365325e-001, -4.51456532e-002,
          1.47560045e-001, 3.36713135e-001, 1.32319406e-001,
          4.17464087e-003, 2.40652580e-002, 1.98424216e-002,
          -2.75939852e-001, -1.79711416e-001, 3.61322723e-002,
          2.68521458e-001, -2.26867378e-001, 1.84135810e-002,
          3.16440582e-001, 6.54488683e-001, 9.24495161e-002,
          2.51060128e-001, -1.10519804e-001, 3.16695988e-001,
          -5.72263449e-002, 3.63364667e-002, 2.15947673e-001,
          3.24669868e-001, 4.46601599e-001, 3.84588450e-001,
          8.96334201e-002, 1.00451618e-001, 4.33770955e-001,
          1.12978652e-001, 4.56891656e-001, -3.82914424e-001,
          1.11508705e-001, -8.11663046e-002, 2.98407562e-002,
          2.68415540e-001, 4.52768117e-001, -1.40716834e-003,
          5.56157269e-002, -8.29661191e-002, -1.43149078e-001,
          -7.10415468e-002, -4.52739775e-001, 8.53569359e-002,
          -2.15650216e-001, -4.72252697e-001, 6.49092272e-002,
          -2.11781070e-001, 1.53535992e-001, 1.99667722e-001,
          -2.43206434e-002, 1.28033280e-001, 1.85755730e-001,
          -1.52589619e-001, -1.16690002e-001, 4.79781963e-002,
          -8.79848525e-002, -4.65629190e-001, 3.69683607e-003,
          4.86683905e-001, -4.55923937e-002, 8.48944187e-002,
          -2.01485865e-002, 7.65929073e-002, 6.15847647e-001,
          9.19146687e-002, 1.03509381e-001, 1.87930077e-001,
          -3.00677004e-003, -1.04934447e-001, 4.87443134e-002,
          7.51509368e-002, -3.95166695e-001, 6.90810204e-001,
          -8.94292369e-002, 3.29648145e-002, 5.81831438e-004,
          -1.09766796e-001, -1.55271804e-002, -7.42676556e-002,
          3.50041747e-001, 1.15965987e-002, 5.16870506e-002,
          5.78695953e-001, 4.91725236e-001, 2.07392454e-001,
          4.83731151e-001, 2.06170499e-001, 6.22291267e-002,
          1.38053626e-001, 3.29967260e-001, -9.12236497e-002,
          -5.86868785e-002, 5.53103328e-001, 2.54892617e-001,
          -2.97777146e-001, 5.17113388e-001, 8.92607868e-001,
          3.53693247e-001, -3.07062924e-001, -6.63974509e-002,
          7.94609338e-002, 6.16520084e-002, -5.84591143e-002,
          -3.92443081e-003, 5.25322974e-001, -1.71160206e-001,
          1.35748135e-002, -9.47197452e-002, 2.25421444e-001,
          2.46706203e-001, -9.09204260e-002, -1.94445580e-001,
          1.50056615e-001, -1.78205804e-003, -2.65405685e-001,
          3.74943495e-001, 2.48217821e-001, 2.63867050e-001,
          -1.90024436e-001, 9.59523991e-002, 2.84647673e-001,
          -3.17472786e-001, 1.29070561e-002, 1.57260746e-001,
          -2.27727816e-001, 3.61594498e-001, 4.25788283e-001,
          5.60304224e-001, 9.77953300e-002, -1.16004460e-001,
          2.85776764e-001, -5.13491174e-003, -1.96145382e-002,
          4.95979153e-002, 6.37088204e-003, -1.27955601e-001,
          5.08684337e-001, 3.75107050e-001, 3.08908790e-001,
          -3.01834852e-001, -1.89313680e-001, -1.62184566e-001,
          -1.74297586e-001, 9.58665088e-002, 1.55450836e-001,
          -1.05602302e-001, -1.51190102e-001, -4.42891806e-001,
          -3.13438848e-002, -1.97655577e-002, -4.28447314e-002,
          -1.51350230e-001, -1.49855286e-001, -1.63090691e-001,
          1.31965637e-001, -7.96438083e-002, -2.57093012e-001,
          1.50973842e-001, -1.78410336e-001, -1.81540519e-001,
          -6.28840690e-003, 2.38918573e-001, 1.60498902e-001,
          -4.07787003e-002, 4.19015616e-001, 1.70424163e-001,
          1.96757033e-001, 1.74025655e-001, 1.91641212e-001,
          2.55097359e-001, 1.12021221e-002, -4.15202379e-001,
          -1.09370098e-001, -4.06871289e-001, -3.96920294e-001,
          2.49658242e-001, -4.25474316e-001, -2.64371812e-001,
          -2.27941796e-001, 1.01624417e+000, -1.62102968e-001,
          -4.08267230e-001, -5.42610466e-001, 2.67001241e-001,
          -2.78371722e-001, -1.22080281e-001, 1.59663334e-003,
          -7.38219023e-001, 4.13647681e-001, -2.16117769e-001,
          -1.58222079e-001, 2.61798762e-002, 2.17614532e-003,
          -8.40947852e-002, 6.75737679e-001, 2.74216026e-001,
          1.23600379e-001, 4.07400757e-001, 2.60265380e-001,
          2.98079580e-001, -8.57732669e-002, -2.06851244e-001,
          -1.38470054e-001, -3.40633929e-001, -4.53116149e-001,
          -4.09856826e-001, -1.85167063e-002, 2.15673685e-001,
          4.16024625e-002, -5.72328985e-001, 8.67386907e-002,
          2.49924481e-001, 4.05801624e-001, 2.54112810e-001,
          3.43414456e-001, 1.81017920e-001, 8.86873603e-002,
          -3.97174954e-001, 2.71945328e-001, -7.02976286e-001,
          9.02254999e-001, 1.29346877e-001, -1.68061972e-001,
          -7.88267702e-002, 9.50734168e-002, 1.21823363e-001,
          1.46324649e-001, 9.05992091e-001, -8.89928266e-002,
          3.82576466e-001, 2.73639381e-001, 2.13438705e-001,
          6.50168350e-003, 3.77425820e-001, 1.03436068e-001,
          -4.77556050e-001, -4.09351349e-001, -9.44696888e-002,
          1.23451076e-001, -5.88252321e-002, -3.01301479e-002,
          -4.43742990e-001, 3.79873477e-002, -2.76509255e-001,
          -1.59580588e-001, -2.12426528e-001, 7.47532099e-002,
          4.00442839e-001, 2.64081843e-002, 8.51980746e-002,
          1.61276862e-001, -7.35563755e-001, 2.67900467e-001,
          -9.53700244e-002, -1.68355450e-001, -1.82607502e-001,
          -1.40883103e-001, 1.05485730e-002, 1.01556480e+000,
          9.98722613e-001, -1.29307464e-001, 5.33441126e-001,
          3.62454385e-001, 2.56586254e-001, 5.29980004e-001,
          3.23487431e-001, 4.12514865e-001, -2.48558611e-001,
          -1.80107802e-001, -3.90540719e-001, -9.24321730e-003,
          -1.08245172e-001, -1.62844528e-002, -3.91549736e-001,
          -2.40900815e-001, 8.39022577e-001, -2.72781402e-001,
          -3.97147089e-001, -2.18739696e-002, 2.73395240e-001,
          1.41723275e-001, -2.89275646e-001, -1.49771869e-001,
          -5.57715833e-001, 2.53233731e-001, 1.24335386e-001,
          -1.05247162e-001, -3.10566783e-001, -9.95141864e-002,
          -9.23145264e-002, 7.67022967e-001, 5.35044789e-001,
          3.03320825e-001, 2.87765980e-001, 1.44018009e-001,
          3.20570290e-001, 4.10287350e-001, 4.48272496e-001,
          6.72048867e-001, -1.19120449e-001, -2.36947224e-001,
          7.07892478e-002, -4.09373194e-001, -1.51610643e-001,
          -1.89947248e-001, -2.03653052e-001, -2.63725936e-001,
          2.44995609e-001, -2.71221787e-001, -3.27073812e-001,
          -3.73636067e-001, -5.94303012e-001, -1.49040103e-001,
          -2.64315635e-001, 3.92063379e-001, 4.50461730e-002,
          -9.13473964e-002, 2.58941539e-002, -1.18866652e-001,
          -2.57750362e-001, 2.23636821e-001, -2.80736774e-001,
          2.35206589e-001, -1.59536824e-001, -1.05615400e-001,
          6.10943213e-002, -3.49886507e-001, 8.99329558e-002,
          -1.70171412e-003, -1.72376484e-002, 6.06569648e-002,
          -3.49171728e-001, -3.62049103e-001, -9.24351692e-001,
          -5.51021039e-001, -2.58967638e-001, 3.30715179e-001,
          1.90748051e-002, -9.57621560e-002, 8.26817751e-002,
          -3.50281566e-001, -5.09352028e-001, -8.50513726e-002,
          -1.92601219e-001, -1.56800337e-002, 6.23423934e-001,
          7.74703026e-001, -4.73413337e-003, 3.46471146e-002,
          2.54959047e-001, -1.95659414e-001, -3.40429783e-001,
          -1.08960591e-001, 1.74900845e-001, 6.14147127e-001,
          -1.21955663e-001, -2.14841291e-001, 4.16568160e-001,
          -2.61592120e-001, -2.52428740e-001, -1.28212154e-001,
          -6.47685468e-001, -2.27578983e-001, -1.02960095e-001,
          7.04208612e-002, -2.32033432e-001, -1.02591328e-001,
          -4.23588097e-001, 3.55032951e-001, 4.86096693e-003,
          -6.55134082e-001, 8.81222039e-002, 4.54694301e-001,
          4.15807009e-001, -6.38515726e-002, -6.09539449e-002,
          1.86993584e-001, -1.68154985e-001, 2.16734223e-002,
          -1.33687541e-001, 2.07822770e-001, 6.81912899e-001,
          -6.39018267e-002, 7.45611191e-002, -3.64726871e-001,
          2.87688315e-001, 2.46611133e-001, 2.58164674e-001,
          1.39948145e-001, 3.06839645e-001, 3.43865067e-001,
          -1.87559128e-001, 2.50738412e-001, -1.51216075e-001,
          1.27916299e-002, -3.06010723e-001, -8.90906379e-002,
          -1.35190021e-002, -1.50946707e-001, -6.92076027e-001,
          -8.56506377e-002, -4.54191327e-001, -7.70778656e-002,
          -2.55411118e-001, -2.97544062e-001, 1.12643046e-002,
          2.16933325e-001, 1.92341022e-002, -1.40861928e-001,
          -8.05634379e-001, -1.04765050e-001, -2.20137492e-001,
          -4.40274626e-001, -3.22093107e-002, -4.40947086e-001,
          -2.63493448e-001, -3.50715816e-001, -2.35805884e-001,
          -5.25812447e-001, 1.78683639e-001, 5.07474057e-002,
          -1.49909571e-001, -1.88675031e-001, -2.76799221e-002,
          -3.51520926e-001, -1.68323979e-001, 1.25398412e-001,
          2.08412424e-001, 3.33334431e-002, -7.87818804e-002,
          -5.94965294e-002, -7.64192268e-002, 9.68955010e-002,
          -8.58711824e-002, -5.98929748e-002, 7.29310334e-001,
          1.53063849e-001, -1.73071176e-001, -1.25716198e-002,
          1.66198626e-001, 4.79460973e-003, 2.12612972e-002,
          -1.92966446e-001, -2.16631651e-001, -1.07778244e-001,
          4.84883972e-003, 2.67753135e-002, -1.36820748e-001,
          -2.54326314e-002, -1.24740340e-001, -2.30045676e-001,
          -2.56687164e-001, -9.61975753e-002, 6.45869374e-002,
          -3.92343849e-001, 4.22315270e-001, -2.23002344e-001,
          -3.31187308e-001, -3.86126377e-002, 3.57617557e-001,
          -9.51429754e-002, -2.60886848e-001, 1.83065504e-001,
          1.14773184e-001, 5.30028250e-003, -2.23124828e-002,
          -2.36814305e-001, 4.81973171e-001, -1.32189289e-001,
          4.97242771e-002, -5.97983785e-003, 3.59081358e-001,
          5.15235886e-002, 1.62074834e-001, -2.20613971e-001,
          -2.44966596e-001, 1.71930552e-001, 2.25504935e-001,
          -9.33348760e-002, -1.17276579e-001, 6.79868340e-001,
          6.43164158e-001, 4.81948614e-001, -3.81524563e-002,
          5.42423666e-001, 7.47854039e-002, 2.14198139e-002,
          1.07074469e-001, -1.72486335e-001, 2.45970681e-001,
          1.73757285e-001, 2.67656535e-001, -2.94707239e-001,
          1.89590931e-001, 7.63003290e-001, 2.02958837e-001,
          -1.46936104e-001, -2.23743111e-001, -2.87660509e-002,
          1.60142004e-001, 4.34261411e-002, -2.28669077e-001,
          -9.59169790e-002, -9.34907123e-002, 1.19240984e-001,
          -2.28458066e-002, 1.28523231e-001, -7.78731778e-002,
          -2.78222293e-001, -3.58492762e-001, -2.36284539e-001,
          6.31537437e-002, 2.30485797e-001, -4.56365287e-001,
          1.07200250e-001, -3.03261671e-002, -1.52165098e-002,
          1.39930490e-002, 1.21914707e-001, 2.53304452e-001,
          -2.83774193e-002, -3.44662905e-001, -2.40349755e-001,
          6.03398800e-001, 5.06630957e-001, -1.20148575e-002,
          -6.02029897e-002, 1.31717965e-001, 4.84918468e-002,
          3.42512906e-001, -1.46405492e-002, -3.32995057e-001,
          -2.87435465e-002, 1.21340239e-002, -2.02488855e-001,
          -2.41295218e-001, -1.12051502e-001, 3.23444009e-002,
          -1.51317893e-002, 4.96387109e-002, -6.06953263e-001,
          -5.25346339e-001, -1.65995494e-001, 9.94928256e-002,
          1.38915181e-001, -1.01433702e-001, 8.42118543e-003,
          -4.59535718e-001, 1.94952965e-001, -3.60605031e-001,
          -1.03687413e-001, -7.30179399e-002, -1.26071870e-001,
          3.05265486e-001, -9.64509789e-003, -2.82926917e-001,
          -2.76579350e-001, -2.69200783e-002, 2.81768203e-001,
          6.62599131e-002, -1.12521201e-001, -1.07148113e-002,
          -2.36564457e-001, 2.93499053e-001, -1.11527607e-001,
          2.03531072e-001, -3.10878634e-001, -2.85545513e-002,
          -3.16657156e-001, -3.24299783e-001, -1.83084933e-003,
          -1.50007874e-001, -2.11335376e-001, -2.83944041e-001,
          7.92929996e-003, -9.92519874e-003, 2.46391535e-001,
          -4.20491695e-001, -3.73134792e-001, 1.04399092e-001,
          1.72270074e-001, -2.71665215e-001, 2.05731958e-001,
          3.79391134e-001, 2.40699962e-001, 9.99115333e-002,
          1.21046081e-002, 8.43732953e-002, -1.00785263e-001,
          1.18426479e-001, 7.59036019e-002, -2.15634421e-001,
          8.79676044e-002, -1.90100059e-001, -6.15156395e-003,
          2.06518285e-002, 1.78882629e-001, 1.12183720e-001,
          5.52622490e-002, 1.28356308e-001, 2.80753542e-002,
          -7.14287236e-002, -1.09916821e-001, 2.08559856e-001,
          2.46178210e-001, 1.20564997e-001, -2.24754035e-001,
          3.22613001e-001, 3.34730744e-001, -4.51000445e-002,
          -2.79606938e-001, 1.58705041e-001, -2.28696063e-001,
          -8.18460658e-002, 2.05050111e-001, 3.77860159e-001,
          3.05666983e-001, 5.80346286e-002, -1.34653285e-001,
          1.09023847e-001, -9.59881991e-002, -1.76239386e-002,
          -1.27809241e-001, -3.82797480e-001, -8.40038508e-002,
          -3.31286997e-001, 3.61824453e-001, -9.73684341e-002,
          -2.21062894e-003, -4.93195653e-002, -1.18112840e-001,
          -1.97481230e-001, -1.66714817e-001, 1.96615756e-001,
          -3.22623610e-001, 1.44877300e-001, -1.82826165e-002,
          4.17761534e-001, 2.96481341e-001, 4.29613918e-001,
          1.48341596e-001, -1.15655445e-001, -8.89822543e-002,
          -1.03898264e-001, -1.40326312e-002, 2.67683361e-002,
          1.20710440e-001, 1.75276890e-001, 2.14222550e-001,
          -9.79113160e-004, -2.87613034e-001, -8.95492211e-002,
          1.47208706e-001, 1.85302645e-001, -6.76938146e-002,
          -1.94717851e-002, 2.86096722e-001, 3.54816206e-002,
          6.93414882e-002, 2.44033366e-001, 3.04501325e-001,
          5.63191175e-002, -2.86346138e-001, -2.72233665e-001,
          -1.72095597e-001, -3.01749948e-002, 1.31774232e-001,
          -5.08914813e-002, 6.68828413e-002, -9.56838951e-002,
          -4.87944961e-001, 2.85293430e-001, 1.53645456e-001,
          5.31056702e-001, -3.90537679e-001, -5.12070023e-003,
          -2.08531823e-002, -4.49861772e-002, 5.19789577e-001,
          4.59834561e-002, -2.81573921e-001, 3.70569557e-001,
          1.93931870e-002, 1.58570215e-001, -9.80712920e-002,
          -3.19821894e-001, -4.20224220e-002, 3.03453803e-001,
          -1.20959327e-001, -1.96840018e-001, 1.15937963e-002,
          -7.51397967e-001, -1.61915720e-001, -2.57488817e-001,
          1.92934256e-002, 6.97763115e-002, 5.92878945e-002,
          -1.12555698e-001, 3.87369633e-001, -4.42043990e-002,
          2.12427720e-001, -1.91014767e-001, 3.55207622e-002,
          1.48904875e-001, -7.30995275e-003, -8.51423517e-002,
          -1.16712332e-001, 1.55099913e-001, 2.31272861e-001,
          -7.24122375e-002, -1.76288947e-001, 6.80568874e-001,
          -6.29666969e-002, -2.94242412e-001, -3.01020980e-001,
          2.34561116e-001, 5.17263003e-002, -9.61747393e-002,
          3.28927606e-001, 4.95452285e-001, -1.00049838e-001,
          -2.44106576e-001, -1.84043542e-001, -6.62896812e-001,
          4.49244618e-001, -5.12860902e-002, 2.49529019e-001,
          1.47894109e-002, 2.10926961e-002, -3.80743980e-001,
          2.48863012e-001, 2.93392241e-001, -9.10599455e-002,
          -2.65030593e-001, -4.82436828e-002, 2.90634036e-001,
          -3.78078222e-002, -2.64072537e-001, 4.77670699e-001,
          2.34964728e-001, -1.66697159e-001, 1.72835544e-001,
          2.70981520e-001, 6.17844045e-001, 3.65191996e-001,
          3.98230791e-001, -2.93922901e-001, 8.28916654e-002,
          -2.27283508e-001, -5.83551586e-001, 5.99915922e-001,
          8.65162075e-001, 3.71113986e-001, -4.68521595e-001,
          -2.37216875e-001, -6.66111112e-001, 5.63898087e-001,
          -2.05512829e-002, 1.33616120e-001, 2.26485096e-002,
          -1.50970653e-001, -2.95454085e-001, -1.37632340e-001,
          5.02670288e-001, 1.04549743e-001, 4.24890906e-001,
          2.81286299e-001, 1.71360314e-001, 1.62291769e-002,
          -3.53503615e-001, 3.45827788e-001, 9.99078304e-002,
          6.51153177e-002, 4.07162160e-002, 3.49767804e-001,
          5.06391823e-001, 1.12407602e-001, -1.94293130e-002,
          6.79767802e-002, 1.23230658e-001, 2.72095799e-001,
          2.42655650e-001, 1.00356705e-001, 6.85677350e-001,
          -3.12756933e-002, -5.01119316e-001, -3.46956044e-001,
          -3.89042854e-001, 6.36703789e-001, -1.26501527e-002,
          -1.31470785e-002, -5.21176569e-002, 3.14628594e-002,
          -2.08513096e-001, -2.00189933e-001, 5.12237489e-001,
          1.02784321e-001, 1.38774067e-001, 2.10631013e-001,
          3.65006864e-001, 1.39213637e-001, -2.94336826e-002,
          2.21490160e-001, -8.33896995e-002, 2.78418839e-001,
          -1.64232627e-002, 2.93071955e-001, 4.03588206e-001,
          -3.17049891e-001, -1.11897573e-001, 9.32745486e-002,
          4.44341600e-001, 2.78790087e-001, -3.34480613e-001,
          -1.34388849e-001, 1.89497843e-001, 7.47474208e-002,
          -2.13511065e-002, -1.18937798e-001, 2.35721439e-001,
          -6.36074096e-002, 1.27939761e-001, 3.42247225e-002,
          1.81314453e-001, 6.11851588e-002, 1.48916766e-001,
          -6.36659980e-001, 2.46075183e-001, -1.00426465e-001,
          1.30777076e-001, 3.13641666e-003, 4.55660552e-001,
          -1.70047015e-001, -4.48258556e-002, 1.02270484e-001,
          2.35999107e-001, -3.58621240e-001, 8.23732689e-002,
          -3.39103341e-001, -2.07018211e-001, 2.41415903e-001,
          -3.73225510e-001, 9.19029862e-002, 4.54848439e-001,
          -7.93587625e-001, 6.32801473e-001, 1.66665211e-001,
          2.42138784e-002, 1.85822755e-001, 1.12876281e-001,
          -6.53204136e-003, 2.57775754e-001, -8.82073194e-002,
          6.53740466e-001, 5.77099025e-001, 3.76495540e-001,
          -9.92225856e-002, -3.20823520e-001, -1.08722143e-001,
          2.87556112e-001, 4.47397113e-001, 1.22605160e-001,
          9.85348150e-002, 2.71097571e-001, 9.80677068e-001,
          -2.04421952e-001, -8.61589462e-002, 3.86850297e-001,
          -1.16886526e-001, -8.22182745e-003, 1.02710709e-001,
          -1.02688678e-001, 1.02954380e-001, -1.67684376e-001,
          1.31890550e-001, 4.00212944e-001, 2.48726249e-001,
          1.52866796e-001, -1.02682710e-002, -4.70341220e-002,
          -3.20404053e-001, 2.46971324e-001, 1.57956913e-001,
          7.52719343e-002, 3.48836854e-002, -2.03958422e-001,
          1.10559478e-001, 4.17216003e-001, 4.89702642e-001,
          5.38498342e-001, -1.54943630e-001, -2.39428312e-001,
          3.70812453e-002, -6.91240206e-002, 2.40625858e-001,
          2.72253036e-001, 1.30316345e-002, 1.01940855e-001,
          2.79176295e-001, 4.84621495e-001, 2.84985483e-001,
          -3.26869152e-002, -1.60209507e-001, 1.54485539e-001,
          2.28164688e-001, -1.17685832e-001, 5.83479404e-002,
          1.16832726e-001, 1.17311580e-002, 4.29269485e-002,
          7.91234076e-002, -2.66639560e-001, 1.72098160e-001,
          -2.63179719e-001, -4.15097952e-001, -1.01250805e-001,
          -8.24598074e-002, 1.54787108e-001, -2.03028023e-001,
          4.15841192e-001, 5.89689732e-001, -2.49143057e-002,
          3.41516346e-001, -1.95534050e-001, -2.76490718e-001,
          1.43303379e-001, -2.94518203e-001, 2.25258902e-001,
          -1.06963247e-001, 3.37688208e-001, -1.79679632e-001,
          -1.28268048e-001, 2.63669908e-001, 2.65457064e-001,
          -3.96663278e-001, -1.45485625e-001, -4.78799529e-002,
          2.68047526e-002, 3.66316110e-001, -3.85053903e-001,
          -1.88773274e-001, -2.42536828e-001, -2.36665279e-001,
          -4.72047538e-001, -1.37331620e-001, -4.90934819e-001,
          1.01561666e-001, 5.26229404e-002, -1.01963989e-001,
          -2.51350671e-001, 5.29135466e-002, 1.23773217e-001,
          -6.99317381e-002, -1.24521241e-001, 7.85511881e-002,
          3.55697051e-002, -5.13019025e-001, 3.36444438e-001,
          8.09388086e-002, -2.72987057e-002, 1.38991266e-001,
          5.69267094e-001, 9.75315571e-001, 3.86720598e-002,
          4.46886629e-001, 5.35196483e-001, 2.58381009e-001,
          4.73092198e-001, 2.56757308e-002, 3.00972670e-001,
          -3.16046774e-001, 2.90478438e-001, 2.52970159e-001,
          -6.91086501e-002, 6.97781611e-003, -4.17858541e-001,
          1.57639489e-003, -1.21207103e-001, -1.10609949e-001,
          -3.35199572e-002, 1.98421791e-001, 2.72610616e-002,
          2.34572217e-002, -2.24530339e-001, 3.97029752e-003,
          1.12417020e-001, 6.23112693e-002, 2.07437888e-001,
          3.54397029e-001, -4.88054082e-002, -5.62806427e-002,
          5.03190570e-002, 5.85131207e-003, -1.51473150e-001,
          -2.03365684e-001, -4.66425754e-002, 3.95772338e-001,
          4.71322723e-002, 2.59548098e-001, 6.30889714e-001,
          1.78284675e-001, 2.51150221e-001, 1.98558658e-001,
          2.71373123e-001, 2.30498895e-001, 8.37445334e-002,
          -8.07456393e-003, 4.70638424e-002, 3.31095874e-001,
          -1.51172519e-001, -9.38302279e-002, 1.62517369e-001,
          9.91814733e-002, -8.14221799e-002, 5.04962057e-002,
          -2.69455671e-001, -4.02199961e-002, 2.37824187e-001,
          -8.28737617e-002, -2.98319967e-003, 4.65815246e-001,
          -9.02352035e-002, -1.54275000e-001, -1.03865430e-001,
          -9.08131450e-002, -1.62381679e-001, -5.34517970e-003,
          -1.26272619e-001, -2.08442628e-001, 5.33696413e-001,
          2.50621408e-001, 3.09855163e-001, 1.83437064e-001,
          6.13053024e-001, 5.66961288e-001, -2.56475341e-002,
          -1.40595436e-001, -1.05169319e-001, -3.53868484e-001,
          -5.05511537e-002, -1.65973045e-002, 1.32173434e-001,
          2.40766287e-001, 1.36091486e-001, -3.54799211e-001,
          -2.81223118e-001, 5.12400009e-002, 2.45972157e-001,
          1.72335774e-001, 1.46606460e-001, 1.43423289e-001,
          2.21967652e-001, 5.77351749e-001, 4.75435495e-001,
          2.39830956e-001, 6.93471655e-002, 4.12903801e-002,
          -3.63868885e-002, -4.40271229e-001, -1.91028982e-001,
          3.05392146e-002, 2.84907341e-001, -2.60940611e-001,
          2.79012978e-001, -6.14555329e-002, 4.58558798e-001,
          2.67160892e-001, 1.03056818e-001, -3.09490293e-001,
          2.68811956e-002, -5.27878523e-001, 6.94197565e-002,
          -4.49905843e-001, 8.93758982e-002, 3.33798723e-003,
          -4.66525435e-001, -1.68347493e-001, -2.85536144e-002,
          -2.81266779e-001, -4.35257941e-001, -4.45945501e-001,
          -1.12172090e-001, -3.92802209e-001, -3.28291774e-001,
          7.57986188e-001, -7.09501579e-002, -5.34170046e-002,
          -1.63051665e-001, 3.19889903e-001, 1.39478609e-001,
          2.35775307e-001, 8.34451243e-002, -2.28010677e-002,
          2.02503935e-001, 2.73220897e-001, 3.89303982e-001,
          -4.98910807e-002, -4.18986380e-001, 2.89211839e-001,
          2.05303386e-001, -1.84544012e-001, -1.32929102e-001,
          -1.46853715e-001, 8.08290169e-002, -2.43772775e-001,
          -2.69725434e-002, -3.29007283e-002, -2.03744527e-002,
          1.49057033e-002, -2.14817584e-001, -1.26403004e-001,
          -8.95510256e-001, -7.04650640e-001, -2.86540270e-001,
          -1.78037122e-001, -2.88593443e-003, 1.60854295e-001,
          1.37538299e-001, 2.08759634e-003, -2.94693679e-001,
          1.67664632e-001, -1.84237659e-001, -8.66331220e-001,
          -3.62221291e-003, 2.43151590e-001, 3.07953563e-002,
          1.97185859e-001, 3.29159439e-001, -2.10651711e-001,
          -1.60456866e-001, -1.69768006e-001, -2.29278132e-001,
          5.19140124e-001, 1.29109442e-001, -5.88799082e-002,
          1.19828507e-001, -4.08853710e-001, 2.19438178e-003,
          -2.40610018e-002, -2.19110146e-001, 2.63089031e-001,
          2.94707954e-001, 9.10061672e-002, -7.76471496e-001,
          -1.36060327e-001, 1.64446518e-001, 1.37441069e-001,
          2.94471055e-001, -5.18154800e-001, 1.35192662e-001,
          -7.18763396e-002, -3.43633354e-001, -5.06647646e-001,
          3.33679579e-002, 1.27481133e-001, -9.70696062e-002,
          -1.80869013e-001, -7.45701641e-002, 3.17263544e-001,
          8.02312866e-002, -1.17864341e-001, -1.06241137e-001,
          3.15885693e-001, -1.64753467e-001, 5.30993462e-001,
          8.01653564e-002, 2.13906332e-003, -7.55685046e-002,
          -1.41007185e-001, 1.02135070e-001, -1.55355692e-001,
          4.10214849e-002, 1.80384085e-001, 1.66454852e-001,
          4.08854574e-001, -2.61158794e-001, 6.21495962e-001,
          -3.16720277e-001, -3.71724516e-002, 4.00206983e-001,
          -6.20731473e-001, -2.00017810e-001, 5.41482642e-002,
          -1.56272948e-001, 8.42453986e-002, -1.18858479e-001,
          -1.77495524e-001, 1.69273973e-001, -1.88772619e-001,
          4.60791998e-002, -4.34727855e-002, 1.32566527e-001,
          1.78415209e-001, 5.58357276e-002, 4.25391644e-002,
          2.29492739e-001, -1.84759036e-001, 6.45717606e-002,
          4.58629400e-001, -1.51748210e-001, 2.75282800e-001,
          1.16780892e-001, -2.85465121e-002, -6.06959760e-002,
          2.70944804e-001, 4.99568641e-001, 7.55892321e-002,
          -7.08743572e-001, -3.79019380e-001, 3.46012026e-001,
          -3.49837542e-002, 4.11885649e-001, 9.57840756e-002,
          1.97611794e-001, 1.12831980e-001, 2.25674227e-001,
          2.26629123e-001, 2.72289187e-001, 2.79643953e-001,
          2.13412344e-001, 1.56074464e-001, -2.44409233e-001,
          2.06459492e-001, -2.47601077e-001, 3.63636315e-001,
          9.51626524e-002, 1.36733307e-002, 3.13837767e-001,
          1.46558255e-001, 4.99547943e-002, 7.46981427e-002,
          1.56315684e-001, 1.71581998e-001, 1.30064860e-001,
          1.81983989e-002, 1.11478820e-001, -1.54089123e-001,
          3.01107258e-001, -4.98568416e-001, -4.92417105e-002,
          2.25545853e-001, 3.21307741e-002, -1.67767648e-002,
          2.74574012e-001, -5.07083058e-001, 1.88672990e-001,
          -2.83371031e-001, 7.21064210e-002, 2.10658815e-002,
          1.95922747e-001, 4.34579588e-002, -7.82959312e-002,
          2.71157473e-001, -1.74219206e-001, 5.64687401e-002,
          2.47839108e-001, 5.57683825e-001, 2.12342158e-001,
          -2.33682856e-001, 2.89771199e-001, -2.19832644e-001,
          -2.32130259e-001, 3.86699945e-001, -2.59479344e-001,
          5.85894398e-002, -3.80184293e-001, 1.68085713e-002,
          6.76614493e-002, 2.24446263e-002, 3.69580649e-002,
          1.31732121e-001, 2.43756384e-001, -5.11503637e-001,
          -3.35160851e-001, 1.31707400e-001, 1.66927695e-001,
          -8.56395304e-001, -7.89493501e-001, -3.90550375e-001,
          -2.91084871e-002, -2.90997207e-001, -3.40735734e-001,
          -5.39301336e-001, 4.83696349e-002, -7.15203941e-001,
          -3.94523263e-001, 1.09136000e-001, -4.68321115e-001,
          2.31875867e-001, 4.01673429e-002, 4.13102144e-003,
          2.70150542e-001, -4.00834888e-001, 2.56086379e-001,
          7.82243311e-002, -5.75973373e-003, 7.05825612e-002,
          3.31791043e-001, 2.50440121e-001, 4.61528420e-001,
          -1.64154649e-001, -3.12854469e-001, -1.45758584e-001,
          -9.10875648e-002, -2.36992091e-001, 1.76141307e-001,
          -9.31336209e-002, -3.17149073e-001, -1.70195714e-001,
          3.21026087e-001, 5.25676683e-002, -1.53684750e-001,
          -2.57511228e-001, -2.03575805e-001, 1.09870709e-001,
          4.37339768e-002, 6.91337511e-002, -3.05464059e-001,
          -4.59283978e-001, -3.54622930e-001, 3.06062102e-001,
          2.59954810e-001, 3.50325257e-001, 1.20627686e-001,
          1.24061659e-001, -2.07838174e-002, -2.30195940e-001,
          -9.85372290e-002, -1.09687530e-001, -1.52797490e-001,
          2.18435720e-001, 8.22917521e-002, -3.30932468e-001,
          3.59540656e-002, -5.34952134e-002, -6.14506423e-001,
          -4.04753536e-001, -4.11836877e-002, -5.42065650e-002,
          -3.59981894e-001, -1.83198974e-001, -7.61128440e-002,
          3.30664068e-002, 1.11604087e-001, 8.09800718e-003,
          8.35575238e-002, -7.22518191e-003, 1.17098078e-001,
          -1.67787120e-001, 3.00074935e-001, 6.32767752e-002,
          -2.24432759e-002, -7.85344690e-002, 3.37491155e-001,
          -7.80563243e-003, 6.68454096e-002, 2.26114541e-001,
          -5.65379798e-001, -2.37611100e-001, -1.29136965e-001,
          8.92326385e-002, 4.03971188e-002, 1.90949947e-001,
          -6.97457884e-003, -2.70827919e-001, 1.37963474e-001,
          1.79103181e-001, -7.08832070e-002, 5.54194190e-002,
          -1.34395719e-001, 3.46003473e-001, -4.05316763e-002,
          -6.63195923e-002, 5.20902753e-001, 1.40809044e-001,
          1.78937450e-001, 1.21328542e-002, -7.73228928e-002,
          4.64380421e-002, 4.35084224e-001, 6.28580987e-001,
          4.81161863e-001, 1.00287527e-001, 2.15591490e-001,
          6.84087956e-003, 6.09627366e-002, 1.65089354e-001,
          3.24597716e-001, -2.50357509e-001, -2.54698664e-001,
          5.46029031e-001, -3.15855652e-001, 1.85624525e-001,
          1.83794618e-001, -8.89169201e-002, 1.49752468e-001,
          7.54798055e-002, -1.08942494e-001, 1.14315487e-001,
          -1.26301467e-001, 5.99923246e-002, 2.26780668e-001,
          2.18645230e-001, -5.56356236e-002, -1.91280916e-001,
          -6.26150519e-002, -1.32928982e-001, 3.88496161e-001,
          2.88690507e-001, 6.83058023e-001, 1.77673921e-001,
          -9.45133567e-002, -2.23726965e-002, 2.90823579e-002,
          -2.86239177e-001, 2.93879937e-002, -5.45787334e-001,
          1.06763673e+000, -4.53286693e-002, -8.22693259e-002,
          -7.79200137e-001, -1.10771090e-001, -1.07219651e-001,
          -1.65816814e-001, 4.23540063e-002, -3.97027098e-002,
          -8.68389606e-002, 4.53912169e-001, -3.69744956e-001,
          -3.66375804e-001, -6.03202991e-002, 2.55373359e-001,
          -2.52428174e-001, -8.02213177e-002, -2.28825957e-001,
          -8.25137049e-002, -6.40176535e-002, -2.15428129e-001,
          2.06315905e-001, 3.92443955e-001, 3.64690006e-001,
          2.09663473e-002, -3.38504583e-001, -4.27836061e-001,
          7.46151432e-002, 2.95187563e-001, 2.00488687e-001,
          -7.45247364e-001, -6.11127019e-001, 2.44634435e-001,
          9.23478305e-002, -4.56966162e-002, 4.57864881e-001,
          4.16736484e-001, 3.85221690e-001, -6.52151480e-002,
          8.86136889e-002, 4.41329405e-002, 3.89312625e-001,
          7.87578583e-001, 3.96929681e-001, -4.75999974e-002,
          3.61807272e-002, -2.31414527e-001, 1.23402379e-001,
          3.22778826e-003, 4.80587751e-001, -6.54321313e-002,
          -1.12420820e-001, -1.79723594e-002, 4.40283492e-002,
          -1.95147201e-001, 1.86875626e-001, 3.05303603e-001,
          2.42731676e-001, 4.83222008e-001, 4.28815752e-001,
          1.30957082e-001, -1.14934430e-001, 4.57529396e-001,
          1.21075645e-001, 4.46955442e-001, 2.35035732e-001,
          3.25131625e-001, 3.69228601e-001, 6.42957464e-002,
          -2.60424870e-003, -7.71875829e-002, -3.59417021e-001,
          2.40109451e-002, 3.61561894e-001, 1.06837440e+000,
          2.48518333e-001, 1.36101887e-001, 2.55200565e-001,
          -1.65198334e-002, 1.53193668e-001, 3.71743068e-002,
          -2.79330969e-001, -1.18903592e-001, 4.11113560e-001,
          1.46346360e-001, -6.13463223e-002, 6.80071041e-002,
          2.12315582e-002, -7.69270211e-002, -7.80082792e-002,
          1.95811570e-001, -3.88880745e-002, 1.55238807e-001,
          -1.06294982e-001, -8.21073130e-002, 5.08523956e-002,
          1.32060215e-001, 3.43556434e-001, 2.83264369e-001,
          1.24559058e-002, -6.08661491e-003, -9.70123932e-002,
          -3.40026706e-001, -1.46716654e-001, 1.43478736e-001,
          2.96365246e-002, 9.30562735e-001, 1.75268725e-001,
          5.33015370e-001, 2.62591392e-001, -1.12826034e-001,
          1.92071781e-001, 1.83348179e-001, 8.66486735e-005,
          -4.02647667e-002, 2.77036965e-001, 3.93183619e-001,
          1.58239752e-001, 2.63468415e-001, -3.25856656e-001,
          -2.79929399e-001, 4.62126106e-001, 4.85710025e-001,
          3.85692000e-001, 2.50829905e-001, -5.52854575e-002,
          3.46814871e-001, -1.57914266e-001, -2.80782282e-001,
          -3.28634650e-001, -3.26873839e-001, -1.15274861e-002,
          7.55025074e-002, -4.68568206e-001, -3.12868714e-001,
          7.91802332e-002, -1.66598693e-001, -2.92014983e-003,
          1.06371450e+000, 4.10513252e-001, 1.55071393e-001,
          -1.69620693e-001, -1.73242137e-001, 4.72569242e-002,
          1.45184830e-001, 3.77169758e-001, -7.94343591e-001,
          -9.70638916e-003, -2.08767317e-002, -2.60743678e-001,
          -2.85643667e-001, -3.03595811e-002, -1.24208897e-001,
          -8.27161670e-002, 7.28539050e-001, 1.43251970e-001,
          5.50251365e-001, -2.62335837e-001, 3.89120936e-001,
          -2.39682615e-001, -2.12817520e-001, 2.09986642e-001,
          -1.35245034e-002, -2.34973598e-002, -2.38533169e-001,
          5.52022643e-002, 3.72846931e-001, -7.88376033e-002,
          -5.54433055e-002, -3.69503461e-002, 2.75896817e-001,
          -1.87239438e-001, -7.49134496e-002, 6.79728910e-002,
          2.36695573e-001, 3.22258264e-001, 6.89317361e-002,
          3.22490752e-001, 5.10283053e-001, -8.31606537e-002,
          -1.16184875e-001, 2.88088202e-001, 2.51308203e-001,
          1.70278421e-003, 4.24549848e-001, 2.30829835e-001,
          -2.23004445e-001, 4.70067441e-001, 7.28456154e-002,
          -1.67183746e-002, 3.45231086e-001, -1.80114340e-002,
          4.07095879e-001, -1.59170464e-001, 8.86875838e-002,
          8.48915055e-002, 1.22753896e-001, 8.20059702e-002,
          5.60491025e-001, 4.21554416e-001, 4.00827453e-002,
          3.40733887e-003, 3.56789589e-001, 3.03567737e-001,
          -1.70784757e-001, 1.02548577e-001, 3.10598016e-001,
          1.47339210e-001, 3.66759568e-001, 4.02029216e-001,
          8.51504058e-002, 9.49098542e-002, 3.56397070e-002,
          -1.14269942e-001, -2.13719457e-001, 4.04164135e-001,
          5.08711874e-001, 3.95805120e-001, -2.32859820e-001,
          -9.79933813e-002, 4.66792494e-001, -2.37728640e-001,
          2.56642491e-001, 2.79548347e-001, -1.03782922e-001,
          -6.94366455e-001, 2.65527546e-001, -1.96060151e-001,
          -2.50516325e-001, -6.68139681e-002, 4.36400026e-001,
          7.41040036e-002, -3.00525390e-002, 2.86463141e-001,
          3.04549843e-001, 3.60738099e-001, 2.36099496e-001,
          6.49066806e-001, 2.41764575e-001, 2.42999420e-001,
          -1.65122181e-001, 2.02584878e-001, 2.37802863e-001,
          4.83690768e-001, 3.02239031e-001, 7.29782104e-001,
          4.17268693e-001, -2.21149519e-001, -3.49597812e-001,
          7.60468617e-002, -4.02803361e-001, 6.35390580e-001,
          8.58560801e-001, -1.24570750e-001, 2.56918430e-001,
          5.57855777e-002, -3.47790346e-002, -1.47522250e-002,
          3.47487360e-001, -2.02062652e-001, -4.43231054e-002,
          8.03525466e-003, 4.98737305e-001, 1.82498172e-001,
          6.55134767e-002, 2.81691521e-001, 3.84051770e-001,
          -3.89762998e-001, 8.30325112e-002, 2.65374571e-001,
          1.26405120e-001, 4.96392921e-002, -2.25756347e-001,
          4.29475814e-001, 1.12356663e-001, 4.96586934e-002,
          3.05576861e-001, 2.38723874e-001, 3.01502109e-001,
          2.28148937e-001, 5.93798012e-002, 1.65751219e-001,
          -5.79120755e-001, 2.41978407e-001, 1.20445721e-001,
          -3.39037955e-001, 4.09638405e-001, -2.99159467e-001,
          1.95033371e-001, -8.66322666e-002, 3.44391048e-001,
          2.29017168e-001, 1.23819843e-001, 4.62410040e-002,
          -3.68824005e-002, -3.37971449e-001, -2.50211269e-001,
          4.37514067e-001, -2.16945726e-002, -7.46523663e-002,
          -9.50077996e-002, -9.22099411e-001, 1.52805984e-001,
          1.86154142e-001, 9.18980613e-002, 1.90048575e-001,
          -5.25940657e-001, 1.19529530e-001, -1.97651535e-001,
          -2.90194988e-001, -3.72329265e-001, -8.84773675e-003,
          2.41823532e-002, -2.85851151e-001, -4.02542830e-001,
          4.58570011e-002, -1.42725736e-001, -3.18083763e-002,
          -2.47446205e-002, -2.92862028e-001, 1.24930479e-001,
          3.67935300e-001, 1.35745808e-001, 7.16687813e-002,
          2.04792693e-002, -2.54690945e-001, 9.99807715e-002,
          5.94740920e-002, 5.14071643e-001, 2.35323578e-001,
          -2.32756615e-001, -3.98509890e-001, 1.74173117e-001,
          -3.92391421e-002, -5.99908352e-001, 3.64990607e-002,
          -1.67049523e-002, -8.64462629e-002, -9.66835320e-002,
          -4.59326595e-001, 7.11087510e-002, -3.39188844e-001,
          -1.50677294e-001, 2.96528824e-002, -1.76821485e-001,
          3.29410106e-001, 1.45506874e-001, -1.54252186e-001,
          -4.88828391e-001, 6.69452026e-002, -3.19308229e-002,
          -1.93718337e-002, -5.54690417e-003, 8.65561128e-001,
          -1.93937927e-001, -1.50884017e-001, -1.67749941e-001,
          5.97231686e-002, 1.40153110e-001, 3.51797491e-001,
          1.79036900e-001, 7.82482624e-002, -3.03534240e-001,
          -3.00283641e-001, -2.08922967e-001, 5.40837087e-002,
          -2.65733749e-001, -1.89252913e-001, -1.31773129e-001,
          -2.39595041e-001, -1.70569435e-001, -6.10465705e-001,
          -1.27064958e-002, -2.30315298e-001, -1.80562004e-001,
          1.15343649e-003, -4.80289519e-001, 5.16156144e-002,
          -7.92585760e-002, -3.76236588e-001, -4.18640077e-001,
          1.99410945e-001, -2.25463822e-001, 4.92442362e-002,
          1.90609694e-001, 6.07568800e-001, -1.58979326e-001,
          -5.01595289e-002, -3.92419621e-002, 2.81346664e-002,
          1.45205468e-001, 1.85069948e-001, 9.12085846e-002,
          -2.11906195e-001, 3.06753665e-001, 1.13601889e-002,
          -3.99965979e-002, 1.68326139e-001, 1.44204557e-001,
          -1.66965470e-001, -6.22896701e-002, -2.63676524e-001,
          6.45592749e-001, -5.31686366e-001, 1.84809461e-001,
          8.53202790e-002, -2.38975212e-002, 1.34061938e-002,
          -4.90017235e-002, 4.70983982e-001, 3.20809782e-001,
          -4.21397597e-001, -1.15199648e-001, -3.99623364e-002,
          8.51340592e-002, -5.50873503e-002, -2.22025529e-001,
          2.04001591e-001, -4.66374934e-001, -5.11817217e-001,
          3.96350473e-001, 6.12015724e-002, -5.79066435e-003,
          1.26025274e-001, -1.02796175e-001, -1.47271812e-001,
          6.48113310e-001, -3.13808531e-001, 4.56240892e-001,
          3.68301064e-001, -2.12640032e-001, 1.72469854e-001,
          -4.22951616e-002, 2.17286661e-001, 6.78389892e-002,
          -9.13212150e-002, 2.73573726e-001, 8.21407080e-001,
          -1.11829322e-002, -7.42239431e-002, 2.60654688e-001,
          2.57511973e-001, 3.21785241e-001, -9.69404876e-002,
          9.53896195e-002, -8.08494464e-002, 3.24254185e-002,
          1.97638586e-001, -4.31583703e-001, -5.72802639e-003,
          -1.80971771e-001, -1.99772686e-001, 5.43067276e-001,
          3.19486082e-001, 1.26569614e-001, 1.92587629e-001,
          1.93398516e-003, 7.01467097e-002, 4.42777872e-001,
          3.50101858e-001, 9.71960366e-001, 4.38510001e-001,
          1.53749347e-001, -1.20992452e-001, 2.26574689e-001,
          4.00473848e-002, -4.15412992e-001, 3.81892562e-001,
          2.22643778e-001, -1.89079031e-001, 3.24134886e-001,
          -3.67196053e-001, 1.35676906e-001, -9.90225375e-002,
          -5.20559192e-001, 2.46884465e-001, -4.79768395e-001,
          -1.31144568e-001, -3.36676598e-001, -2.88708180e-001,
          -1.45591885e-001, 1.94168791e-001, -9.39333346e-003,
          -2.51679689e-001, -1.28903657e-001, 3.65428418e-001,
          3.58282298e-001, 3.45259845e-001, -8.52652192e-001,
          -1.23243362e-001, -3.10657881e-002, 2.17607528e-001,
          -4.60216627e-002, 7.69997835e-002, -1.63788885e-001,
          -4.80265506e-002, -3.55882078e-001, -3.67569059e-001,
          -3.31487089e-001, 3.05475622e-001, -1.73831955e-001,
          1.38120249e-001, -6.34650409e-001, 1.46786898e-001,
          -1.27357747e-002, -1.34877071e-001, -4.82707433e-002,
          -1.87777787e-001, -3.49747270e-001, -2.85460562e-001,
          -4.60462362e-001, 4.49067960e-003, -1.88474670e-001,
          -1.15330508e-002, 7.01087490e-002, -3.41554135e-001,
          -2.27247611e-001, -2.48225202e-004, 2.07541853e-001,
          -1.33124739e-001, -2.92113453e-001, -1.00624442e-001,
          -5.13368666e-001, -9.13894996e-002, -1.47654250e-001,
          -2.71244735e-001, 5.01730992e-003, -5.51268935e-001,
          -5.06136358e-001, -4.42687154e-001, -4.01223749e-001,
          -5.81585348e-001, -4.73043695e-002, -2.57006556e-001,
          -4.22749996e-001, -1.21103320e-002, -5.85761249e-001,
          -1.59498364e-001, 2.67518405e-002, -2.53413320e-001,
          -6.07390642e-001, -1.78033151e-002, -2.19239786e-001,
          1.63766429e-001, -1.30391136e-001, 1.85463235e-001,
          5.13233900e-001, 2.63495713e-001, 2.14460462e-001,
          -1.41321048e-001, 1.53171301e-001, 1.29144475e-001,
          1.24931380e-001, -6.20973296e-002, -1.44012898e-001,
          2.13598311e-001, 4.02957261e-001, -3.87762904e-001,
          5.97940274e-002, 2.99386859e-001, -2.23411888e-001,
          -1.92068130e-001, -2.56346285e-001, 4.41120207e-001,
          4.81674969e-001, -1.02439724e-001, -5.04309654e-001,
          4.34282571e-002, -2.27568313e-001, 1.58998340e-001,
          1.22272028e-002, 9.52499509e-002, 3.12194228e-001,
          -2.83960961e-002, 3.84624302e-002, -6.25800714e-002,
          1.32968888e-001, 1.07824042e-001, -1.17373876e-001,
          8.03881511e-002, -1.95084453e-001, -2.36102879e-001,
          -6.47654608e-002, -3.12291458e-002, 1.64449751e-001,
          2.08365433e-002, -3.14283699e-001, 2.94441491e-001,
          3.57147574e-001, -1.92580074e-002, 2.07843408e-001,
          1.62826180e-001, 2.30685979e-001, 7.50346342e-003,
          -3.18032727e-002, 1.14768177e-001, 5.45608699e-001,
          -6.21859133e-001, -1.41007155e-001, -2.11145684e-001,
          2.60659814e-001, 3.15065622e-001, 5.47715388e-002,
          3.40014249e-002, 4.91477698e-001, -2.35390559e-001,
          -3.21785957e-001, -4.46360618e-001, -1.52991921e-001,
          1.80516601e-001, 1.07581273e-001, -3.81576002e-001,
          -8.29007551e-002, 6.34764358e-002, -1.51734836e-002,
          -3.82650852e-001, 3.13781127e-002, -1.74594745e-001,
          -3.97384055e-002, 1.22684330e-001, 4.09041852e-001,
          2.90732384e-002, -3.39100510e-001, 7.85296485e-002,
          7.56479919e-001, 1.13850325e-001, 4.89572212e-002,
          8.89880836e-001, -1.36223778e-001, -2.80636782e-003,
          8.36094320e-002, -4.06372488e-001, 4.68968600e-001,
          -1.32616851e-002, -6.65451139e-002, 3.19774926e-001,
          1.08186223e-001, -2.00568065e-002, -6.55791819e-001,
          -2.56569028e-001, 1.90779224e-001, 3.55757266e-001,
          -6.07935131e-001, 3.03705096e-001, 1.89029604e-001,
          -5.65913469e-002, -2.14127198e-001, -1.27920553e-001,
          -1.74318671e-001, -2.27100641e-001, 8.60214755e-002,
          1.46988183e-002, 1.13967419e-001, 1.69385254e-001,
          1.70205936e-001, 2.18337372e-001, 9.46007818e-002,
          -7.15686381e-002, 8.91173005e-001, -1.39671832e-001,
          -1.29215866e-001, 6.01235144e-002, 1.49110332e-001,
          -1.83143124e-001, -1.63161606e-001, -2.67528128e-002,
          2.73245752e-001, -1.64682586e-002, -2.76742578e-001,
          -2.45209754e-001, 1.11637428e-001, -9.69927236e-002,
          4.89279926e-002, 2.07581446e-001, -6.26504496e-002,
          -1.65351421e-001, 1.85416728e-001, -1.56733781e-001,
          -1.21813394e-001, 4.75450665e-001, -4.28733706e-001,
          3.20127547e-001, 1.54501796e-001, 2.84230355e-002,
          -5.45309484e-002, 4.21277918e-002, 8.00771639e-003,
          1.25069886e-001, -3.44015025e-002, 1.34767085e-001,
          2.31236368e-001, 3.42655256e-002, 1.19557686e-001,
          1.19391335e-002, 3.14749211e-001, 1.11298822e-001,
          -4.90173399e-001, 5.49769759e-001, 2.47637052e-002,
          -2.66127408e-001, 1.78678989e-001, -2.64448166e-001,
          7.10589066e-002, -1.89060166e-001, -5.41684985e-001,
          -8.30901936e-002, -1.62562802e-001, -1.34697929e-001,
          2.58420520e-002, -3.24911684e-001, 2.01629356e-001,
          4.71303910e-001, -5.38081586e-001, 4.92940068e-001,
          8.59852359e-002, 4.39289033e-001, 2.40299076e-001,
          7.89378464e-001, 1.96353253e-002, -8.97155900e-004,
          -9.57541242e-002, -4.48638313e-002, -3.34820628e-001,
          -3.15491676e-001, 2.76062399e-001, 4.46367562e-001,
          -2.28844479e-001, 4.18404877e-001, -2.73941636e-001,
          -4.13899958e-001, 2.31364965e-001, -6.81682900e-002,
          -2.48185590e-001, 8.11267644e-002, -1.79838687e-001,
          2.21522018e-001, 2.56772116e-002, -1.60955220e-001,
          2.98388809e-001, 1.83037408e-002, -4.73210663e-002,
          -1.43163547e-001, 8.27134028e-002, 5.44206023e-001,
          5.82146883e-001, 3.75670850e-001, 5.34686400e-003,
          2.28592098e-001, 1.00254275e-001, -2.74595171e-001,
          2.96893567e-001, -3.59978020e-001, 2.58867323e-001,
          3.65415990e-001, -1.28274322e-001, -4.37655270e-001,
          1.85698811e-002, -7.25370273e-002, 7.62746707e-002,
          -3.01898837e-001, -2.82619093e-002, -2.18809515e-001,
          -2.92806238e-001, -2.06164360e-001, -2.46144354e-001,
          -2.00516030e-001, -8.70243534e-002, -3.52179319e-001,
          -8.97643790e-002, 8.26055855e-002, 2.59133875e-001,
          4.56364751e-001, -4.24331516e-001, -3.91986251e-001,
          -3.52400512e-001, 9.83307838e-001, -3.26429963e-001,
          1.18004166e-001, 1.08289793e-001, 1.94666833e-001,
          1.50827587e-001, -6.80272132e-002, 3.21341515e-001,
          5.18044114e-001, -1.06249258e-001, -1.60327703e-001,
          9.14091337e-003, -3.93923193e-001, 1.88908711e-001,
          -1.17211835e-002, -1.34422734e-001, 3.82288784e-001,
          2.22992543e-002, -2.63344765e-001, 7.73222446e-002,
          -9.64258984e-002, -1.06533274e-001, -1.50694683e-001,
          -6.69529200e-001, 2.14909643e-001, 1.02266811e-001,
          2.20301807e-001, 2.77219027e-001, 3.29136789e-001,
          -3.25123221e-002, -2.02248365e-001, 2.81511933e-001,
          -8.78491521e-001, -3.45993668e-001, 3.45316753e-002,
          -4.31355357e-001, -4.66106445e-001, -1.40651435e-001,
          -3.26710403e-001, 7.13176206e-002, -6.66587949e-001,
          -3.96887124e-001, -2.47890875e-001, 2.84493446e-001,
          -1.46001682e-001, -2.76803598e-002, -1.78501695e-001,
          -1.51980251e-001, -1.34988278e-002, 1.40578474e-003,
          -3.65086108e-001, 5.73269188e-001, 4.89521146e-001,
          7.87559301e-002, 1.70362234e-001, 2.72628963e-001,
          -5.49148142e-001, -1.42215073e-001, -3.67076159e-001,
          3.07642817e-001, 2.18712702e-001, -5.52442856e-002,
          -1.27193689e-001, -7.00949086e-003, -3.30578983e-001,
          -4.96488780e-001, -3.75901423e-002, -3.53060335e-001,
          1.09276623e-001, -5.24202585e-002, -2.85064459e-001,
          1.50180712e-001, -4.89521831e-001, -2.17800751e-001,
          -2.31236726e-001, 3.63500506e-001, 1.71159223e-001,
          9.37808082e-002, -1.67630255e-001, -3.30400974e-001,
          8.31763595e-002, 7.69537985e-002, 7.60867894e-002,
          4.88307685e-001, 5.54371059e-001, 4.23103213e-001,
          6.68364227e-001, 2.30153814e-001, -3.73119637e-002,
          1.71955064e-001, 4.29483205e-001, 3.45178097e-001,
          -2.09561996e-002, -3.29012960e-001, -3.70145202e-001,
          7.33567774e-002, 3.11700910e-001, -1.42075896e-001,
          2.52499223e-001, -2.78708011e-001, -9.73672718e-002,
          -1.25335500e-001, -4.61369663e-001, -3.14734161e-001,
          7.87845924e-002, -2.47464031e-001, -3.84963304e-002,
          2.20722035e-001, -3.38049948e-001, -7.06265569e-002,
          1.14223875e-001, -3.13519567e-001, 7.85327610e-003,
          5.63826188e-002, 2.25127727e-001, 3.79057676e-001,
          2.00474501e-001, -1.25112176e-001, 6.58327579e-001,
          4.24335659e-001, 2.96466738e-001, 6.47004545e-002,
          2.36517936e-001, 3.36296409e-001, -2.05871895e-001,
          -4.30511296e-001, 1.98844224e-001, -1.32727861e-001,
          4.02443677e-001, -2.12988555e-001, 1.89627901e-001,
          -3.59892994e-001, -5.54614216e-002, -7.84412846e-002,
          -5.73098004e-001, 9.32679400e-002, 3.10080886e-001,
          -4.71134007e-001, -1.45452693e-001, -4.61998694e-002,
          -1.00376844e+000, -1.08548373e-001, -9.90383103e-002,
          -5.75214177e-002, -9.15056095e-002, -2.01278448e-001,
          -4.25694078e-001, -3.21719982e-002, -4.11410064e-001,
          8.99586752e-002, 1.03394538e-001, 5.29952645e-001,
          8.14948827e-002, -1.67357139e-002, -3.76486838e-001,
          1.32278875e-001, -1.22158743e-001, -6.49073943e-002,
          3.42216969e-001, 3.38998139e-001, 2.01177031e-001,
          -3.87338251e-001, -5.62028885e-001, 4.76551235e-001,
          -4.36979145e-001, -3.19917023e-001, 1.87122464e-001,
          3.99294734e-001, 1.23461142e-001, -1.62529707e-001,
          -3.90400082e-001, -9.01562646e-002, -9.36958194e-002,
          -1.34722413e-002, -3.15542780e-002, 2.55481929e-001,
          4.92998898e-001, 3.53150100e-001, -1.22695535e-001,
          8.28552246e-002, 1.96762737e-002, -1.70378342e-001,
          -9.50523317e-002, 8.48345011e-002, 1.07876822e-001,
          4.23492968e-001, -1.62306309e-001, 4.11440991e-002,
          1.36642054e-001, 3.42300445e-001, -6.25535473e-002,
          6.11275919e-002, 2.27131084e-001, -1.41987011e-001,
          -1.97224125e-001, 3.44675958e-001, -1.70716941e-001,
          2.04221755e-001, 7.01927543e-002, 1.86411083e-001,
          -3.08071189e-002, -1.86477467e-001, 5.87256908e-001,
          -2.20161267e-002, -2.66366005e-001, -9.96806398e-002,
          -1.74109429e-001, -6.36930168e-002, -1.44330993e-001,
          6.63451105e-002, -7.52419159e-002, -1.71664253e-001,
          -2.74146318e-001, -2.61394113e-001, -2.30866030e-001,
          -2.23907411e-001, 2.32269932e-002, 7.35703390e-003,
          -2.39730135e-001, 6.79518804e-002, 5.32284472e-003,
          1.60543725e-001, -2.90379763e-001, 2.02824958e-002,
          1.92032069e-001, -1.32817402e-001, 1.14333145e-002,
          4.41985756e-001, -1.32129431e-001, 1.11997463e-001,
          8.45344365e-002, -7.93787763e-002, -8.88785813e-003,
          -1.87562555e-001, -8.88379812e-002, -4.32493389e-002,
          -2.49341026e-001, 5.38727045e-002, 3.34800452e-001,
          -1.75042748e-001, -4.11159813e-001, -1.98095530e-001,
          -3.31356943e-001, 1.93359610e-002, 1.93643570e-001,
          -1.50812805e-001, 1.86711967e-001, 1.74623728e-001,
          -7.98559338e-002, -2.56249428e-001, -1.92825869e-001,
          -5.72961420e-002, -3.63567173e-001, -1.25966847e-001,
          4.22272831e-002, -2.64450341e-001, 9.94373858e-002,
          -6.13793097e-002, -3.80022973e-001, 5.07205665e-001,
          -2.45240733e-001, -1.78803027e-001, 1.04056977e-001,
          -1.31557956e-001, 9.92609188e-002, 2.36801788e-001,
          3.67514044e-002, -5.09363040e-002, -1.16211481e-001,
          4.58892323e-002, 2.44814545e-001, 2.67331779e-001,
          1.69299230e-001, -2.43398994e-001, 2.96124667e-001,
          -5.04153669e-002, -1.67948246e-001, -6.52391929e-003,
          1.22125931e-001, -1.75002992e-001, 1.07356481e-001,
          -8.67816806e-002, -7.23574758e-002, 2.04160109e-001,
          2.15257436e-001, 3.45501512e-001, -2.80866116e-001,
          -1.13581859e-001, -3.49182725e-001, -1.99890241e-001,
          5.26877224e-001, 1.12492993e-001, 8.08831677e-002,
          3.57364625e-001, 1.10469796e-001, -1.81118071e-001,
          -3.12545747e-001, -3.74625444e-001, 2.20760241e-001,
          1.73586190e-001, 3.03643703e-001, 2.62467802e-001,
          3.41866940e-001, -4.08774940e-003, -2.12712616e-001,
          -5.93482554e-001, 1.82544872e-001, 4.12422597e-001,
          -1.82954177e-001, 3.89799535e-001, -3.12208414e-001,
          -5.04793227e-001, -1.62524953e-001, -4.70973134e-001,
          -2.27099374e-001, -2.15047717e-001, -1.72990680e-001,
          4.52193946e-001, -1.75144702e-001, -8.11786484e-003,
          1.79988429e-001, 2.45930880e-001, 2.53418595e-001,
          2.08664443e-002, 4.80431944e-001, 3.43335211e-001,
          1.78873330e-001, -3.26280259e-002, 1.40464846e-002,
          -1.29182622e-001, 3.57695818e-001, 7.32084990e-001,
          -6.44062385e-002, -1.30735531e-001, -5.41126058e-002,
          1.27735212e-001, -1.73289612e-001, -2.85922348e-001,
          1.94236070e-001, 8.13248903e-002, 1.58639342e-001,
          7.87131131e-001, 1.65310726e-001, -3.55119646e-001,
          -3.78101557e-001, -2.14523882e-001, 2.23356575e-001,
          2.22310066e-001, 3.95078063e-001, 1.42506380e-002,
          -1.44365594e-001, -3.38981926e-001, 2.74723947e-001,
          8.83091018e-002, 4.36956048e-001, 1.04495272e-001,
          4.63228852e-001, 1.71753764e-001, -8.57835636e-004,
          1.01970769e-001, 7.49362856e-002, -8.14563707e-002,
          -4.51426841e-002, 3.90421420e-001, 1.77140161e-001,
          1.07681900e-002, 2.40513816e-001, 1.01933159e-001,
          -8.69090185e-002, -5.44664487e-002, 5.15350282e-001,
          -1.38386443e-001, -1.24757275e-001, 2.08734170e-001,
          -1.23561800e-001, -6.24764301e-002, 3.18712473e-001,
          -2.25162104e-001, 2.12748691e-001, 2.48283371e-001,
          7.45724261e-001, 3.13999861e-001, -2.25533783e-001,
          -2.81202644e-001, -2.56959409e-001, 4.83537512e-003,
          4.25565317e-002, -9.70271975e-002, 3.59450251e-001,
          5.34856558e-001, 2.37697130e-003, -1.68606900e-002,
          1.21717274e-001, -1.99502051e-001, -4.50815354e-003,
          -3.19071710e-001, 5.86478636e-002, 2.61643082e-001,
          -7.07048774e-002, -2.61952668e-001, -2.17645243e-002,
          -1.26258329e-001, -9.53222960e-002, 4.13045168e-001,
          -2.00832769e-001, -1.90480456e-001, -2.71543920e-001,
          -1.84538998e-002, -3.10577657e-002, -1.55940831e-001,
          -4.34466265e-002, 1.93970293e-001, -4.83257264e-001,
          2.44065464e-001, -5.84936813e-002, 2.83533633e-002,
          -1.00006811e-001, 7.01012462e-002, 1.01755738e-001,
          -5.80075204e-001, -3.16750497e-001, 2.00089380e-001,
          1.06787808e-001, 1.31992772e-001, -2.04825670e-001,
          -2.39578262e-001, 1.42332703e-001, 5.30046642e-001,
          2.09680051e-001, -2.68531740e-002, 1.20453522e-001,
          -4.96301986e-003, 2.34117340e-002, 2.28863284e-001,
          -7.70638362e-002, 1.56462088e-001, -7.34179318e-002,
          1.15795657e-001, 1.72323883e-001, -5.02710082e-002,
          -3.11744601e-001, 2.49721557e-001, 2.56520331e-001,
          7.49400333e-002, -1.82691589e-001, 1.99003145e-001,
          -4.44516726e-002, -1.21158548e-001, -1.30117267e-001,
          1.02483831e-001, 1.42050505e-001, 1.20851666e-001,
          7.63436779e-003, 6.27863929e-002, -1.54668111e-002,
          5.12546860e-004, 4.33511809e-002, 1.91431746e-001,
          4.75616366e-001, 2.22836986e-001, 4.40115839e-001,
          5.06012380e-001, 7.00117499e-002, -8.79897252e-002,
          1.46345705e-001, 1.95283502e-001, 4.13364738e-001,
          3.54200125e-001, 3.65932435e-001, 2.65868902e-001,
          3.86743993e-001, -5.85892461e-002, -2.82653004e-001,
          8.99535567e-002, 5.34653030e-002, -9.61522833e-002,
          -4.94400144e-001, -1.48920501e-002, 7.36754388e-003,
          -7.94314370e-002, -2.54217058e-001, 3.35610777e-001,
          -3.05856913e-001, -6.40766546e-002, 5.60539424e-001,
          2.87303269e-001, 1.53370395e-001, 2.32626319e-001,
          -2.15291698e-002, 1.54413864e-001, 2.10390538e-001,
          3.01818430e-001, 2.80281067e-001, 5.80834448e-001,
          3.91684324e-001, 6.73728228e-001, -1.45447716e-001,
          1.11279972e-002, -1.65362790e-001, 9.69813019e-002,
          3.01789045e-001, -1.86665207e-002, 2.78272778e-001,
          5.11610448e-001, -1.54930547e-001, 5.04163392e-002,
          -1.04133621e-001, -2.42597401e-001, -4.24100399e-001,
          -5.37042469e-002, -2.68600285e-001, -1.33452654e-001,
          1.34852603e-001, -1.25727773e-001, -5.32031000e-001,
          -2.47159749e-001, -7.37073362e-001, -1.98212236e-001,
          3.13685417e-001, 1.61405683e-001, 1.81539074e-001,
          -2.90017158e-001, -3.96020144e-001, 1.43086240e-001,
          -1.66585162e-001, -2.52978325e-001, 3.91310424e-001,
          6.48232043e-001, -1.62535071e-001, 1.20840557e-001,
          -3.54626298e-001, -2.31941134e-001, -4.86646116e-001,
          -2.88232833e-001, -1.72052130e-001, 1.54575212e-002,
          -4.38012034e-002, -1.19437799e-001, 2.14060992e-001,
          -1.24945089e-001, -2.28987917e-001, -5.25595807e-002,
          1.61474198e-001, 9.40523595e-002, -3.34879369e-001,
          4.30328883e-002, 2.49949962e-001, -1.20265096e-001,
          -3.17730367e-001, 2.68582702e-001, 1.82345107e-001,
          1.65947631e-001, 2.76851177e-001, 3.25689107e-001,
          1.69395491e-001, 8.11344907e-002, 7.65295029e-002,
          1.12906992e-001, -3.74248922e-002, 2.39267379e-001,
          1.20100111e-001, 2.27009460e-001, 3.39248627e-001,
          -3.13527405e-001, 3.28368932e-001, 9.88158435e-002,
          -1.26831919e-001, -9.05444697e-002, -1.11192696e-001,
          1.32873282e-001, -2.33772025e-001, -2.48847455e-001,
          1.25911474e-001, 3.52076888e-001, 7.62998700e-001,
          -2.71056801e-001, -3.57076223e-003, -3.26477200e-001,
          -2.52708830e-002, 1.04420885e-001, 3.27756882e-001,
          2.02857018e-001, 1.99350864e-001, -8.86618569e-002,
          3.14384326e-002, 2.95279860e-001, 7.53754973e-002,
          5.62393725e-001, 2.63873339e-001, 3.35325330e-001,
          -3.07715893e-001, -1.45510405e-001, 5.90358019e-001,
          2.26541102e-001, -3.20963142e-003, -8.94051716e-002,
          -1.52383208e-001, 1.27130389e-001, -2.15344816e-001,
          -3.50491889e-002, -1.62149340e-001, -1.65280461e-001,
          3.77325505e-001, 3.65149193e-002, 2.19251528e-001,
          -1.83500722e-001, 1.45335510e-001, 2.10938737e-001,
          1.11006675e-002, -1.57938048e-001, -8.72223303e-002,
          1.85011744e-001, 4.36868697e-001, -3.17818999e-001,
          2.31680926e-002, -1.30594745e-001, -9.43586007e-002,
          -2.65527405e-002, 2.14194462e-001, -9.74792615e-002,
          6.94029732e-003, 6.56070635e-002, -2.67890189e-002,
          1.28071144e-001, 3.36584181e-001, 6.62912875e-002,
          3.33533734e-001, 4.51227603e-003, 1.11358158e-001,
          8.23754072e-002, -1.29252121e-001, 7.74967447e-002,
          -3.93876076e-001, -2.42136836e-001, 5.77421367e-001,
          1.83857232e-001, -1.21211886e-001, 1.73579544e-001,
          3.90704840e-001, 2.06767693e-001, 9.88797937e-003,
          -5.44350147e-001, 9.43231657e-002, -2.85111845e-001,
          7.36590251e-002, -1.01134880e-002, -1.41723052e-001,
          7.35181272e-002, -1.97041735e-001, -5.02703965e-001,
          -3.46238166e-001, -2.71283649e-002, 7.47239366e-002,
          -1.50386123e-002, 1.11326978e-001, 1.20654665e-001,
          -9.09582898e-002, 4.36901115e-002, -2.11584028e-002,
          5.75822651e-001, 2.27325350e-001, 3.60420704e-001,
          -4.40013187e-004, -1.16439365e-001, -2.19171122e-001,
          2.73390561e-001, -8.75495598e-002, -1.09771669e-001,
          7.63075501e-002, -6.84209019e-002, -2.93417275e-001,
          1.19813271e-001, 3.19578424e-002, -6.23914838e-001,
          2.91269999e-002, -9.65235159e-002, 3.58916014e-001,
          -5.11880144e-002, 3.74136150e-001, -3.46941143e-001,
          -5.10323979e-002, -2.63915867e-001, -4.97513652e-001,
          -1.49236873e-001, 1.28896847e-001, 2.91888505e-001,
          5.25192246e-002, -5.10226309e-001, -3.53480637e-001,
          -1.26542881e-001, 2.33938709e-001, -4.61390428e-002,
          7.75438473e-002, 2.99644530e-001, -1.36795133e-001,
          2.93053240e-002, -2.78192699e-001, -8.41417462e-002,
          -2.04678550e-001, -1.51351467e-001, -2.38555148e-001,
          -5.26460588e-001, -5.00800908e-001, 2.85207778e-001,
          -4.67594802e-001, -1.86552569e-001, -2.04619095e-001,
          1.65920705e-002, -1.57781765e-002, -3.91796798e-001,
          1.44661397e-001, 9.54009593e-003, -5.71339689e-002,
          -1.05664857e-001, -3.21502358e-001, -4.61442349e-003,
          -4.65823829e-001, 3.55491042e-001, 1.33305892e-001,
          -2.09369987e-001, -1.86034605e-001, -1.26295015e-001,
          1.15134232e-001, -2.69987106e-001, 4.66406316e-001,
          3.12730134e-001, 4.73151915e-002, -2.40561143e-001,
          -1.74729317e-001, -4.52845171e-002, -8.84188190e-002,
          -4.34772559e-002, -3.27790171e-001, -3.28239530e-001,
          -3.90672773e-001, 4.07996714e-001, -4.63496685e-001,
          1.64109260e-001, 3.29840958e-001, -1.90101475e-001,
          -2.21801534e-001, -3.45271975e-001, -2.59992629e-001,
          -4.22198445e-001, 4.35091227e-001, 3.82768333e-001,
          1.49500579e-001, -6.67668926e-003, -4.79804158e-001,
          3.59439962e-002, 8.95773843e-002, 3.70931663e-002,
          -3.32138985e-001, 7.72860289e-001, -2.81803131e-001,
          1.06887706e-001, 2.35009193e-001, 1.45768493e-001,
          3.03501248e-001, -1.24234006e-001, -1.07514046e-001,
          2.91243851e-001, -4.05075252e-002, 3.68974924e-001,
          -6.22748911e-001, -4.53930140e-001, -9.77765620e-002,
          -2.16085434e-001, -2.24958271e-001, 4.86891866e-002,
          -1.76145434e-001, -2.09245130e-001, -1.68957204e-001,
          -6.22348905e-001, -3.88154924e-001, 4.10033375e-001,
          4.73176353e-002, -3.95311981e-001, -6.39575198e-002,
          1.27122864e-001, -2.35532597e-001, -1.05055422e-001,
          -2.64660176e-003, 2.83157378e-002, 7.80742466e-002,
          -5.55324331e-002, 2.42556423e-001, 1.21843457e-001,
          -1.94779798e-001, -4.70819265e-001, -2.90493160e-001,
          -3.29935223e-001, 1.19373575e-001, -1.87875181e-002,
          1.92461848e-001, -1.84138209e-001, -4.75061953e-001,
          -3.58283728e-001, 1.02205224e-001, -1.21175289e-001,
          -4.08637464e-001, 1.65092908e-002, 2.70624012e-001,
          6.07351251e-002, 4.19231236e-001, -2.13679016e-001,
          -2.47878507e-001, -6.09197497e-001, -1.14449725e-001,
          3.87589671e-002, -1.54379249e-001, 3.99173936e-003,
          -2.54844338e-001, -3.22701223e-002, -7.51245141e-001,
          -2.42027462e-001, 1.52985752e-001, -9.02181640e-002,
          -5.31146646e-001, 6.49929106e-001, -3.91423516e-002,
          2.97274470e-001, -3.04538369e-001, 1.06515875e-002,
          1.29762411e-001, -1.26268223e-001, -2.24885225e-001,
          -2.02629954e-001, -6.43212989e-004, 2.42460951e-001,
          -2.73030519e-001, 6.17065281e-002, -2.16164663e-001,
          -3.83455791e-002, -3.06491386e-002, 4.51413870e-001,
          8.47873747e-001, 3.45593989e-001, 3.48499238e-001,
          -6.12023920e-002, -3.87667455e-002, 8.13863799e-002,
          -2.57242024e-001, -4.28658873e-001, -2.09358186e-001,
          -3.38299990e-001, 1.87195048e-001, -2.55189668e-002,
          1.59238890e-001, 1.45891488e-001, -6.17848575e-001,
          1.90357596e-001, 5.94207756e-002, -2.35823318e-001,
          -4.08774912e-001, 9.03084055e-002, 5.49785733e-001,
          4.82710265e-002, -4.81233567e-001, 1.98178813e-002,
          -4.30915445e-001, 5.02833247e-001, 2.78530538e-001,
          9.03206784e-003, -5.26686251e-001, 1.66118503e-001,
          5.04944175e-002, 5.21314263e-001, -3.91922772e-001,
          -1.24297701e-001, 2.49939337e-001, -8.63187108e-003,
          -1.69248894e-001, 1.82718262e-001, -5.07283881e-002,
          2.02307612e-001, 7.92992294e-001, 5.10708690e-001,
          1.87421545e-001, 1.19830549e-001, 1.52129889e-001,
          -2.12723330e-001, -4.93812971e-002, -3.10683668e-001,
          -1.12838514e-001, 7.82740593e-001, 7.20927417e-001,
          1.57087669e-002, 6.64144099e-001, 1.93743948e-002,
          1.85451377e-002, 1.31222069e-001, -6.56832382e-002,
          -7.53626078e-002, -5.96316531e-002, -4.97066267e-002,
          -1.83462054e-001, -6.22988880e-001, -1.56222001e-001,
          -1.15739115e-001, -1.76459089e-001, -5.07707149e-002,
          2.56009847e-001, 2.39940494e-001, 3.61329205e-002,
          1.07363425e-001, -2.01828167e-001, 4.37409282e-001,
          2.71118701e-001, -1.70276046e-001, 8.04839507e-002,
          2.80572951e-001, -8.90021846e-002, -2.02709213e-001,
          -2.46469043e-002, -2.41064101e-001, 3.54136407e-001,
          2.60360558e-002, -5.35278916e-001, 4.13151532e-001,
          3.15161318e-001, 2.19949126e-001, 2.61061847e-001,
          1.67887688e-001, 1.39942452e-001, -2.46014923e-001,
          -1.30212575e-001, -1.41967222e-001, -2.20412880e-001,
          7.14702858e-003, 2.14769423e-001, 9.53234673e-001,
          9.08544138e-002, -2.01855507e-002, -5.31990938e-002,
          2.18843162e-001, 1.33228227e-001, 1.56115438e-003,
          -1.22214638e-001, 2.63153259e-002, 4.69063580e-001,
          -1.86593294e-001, 1.78423841e-002, 2.94401914e-001,
          -1.94843128e-001, -7.58700073e-002, -1.31010294e-001,
          1.00096568e-001, 3.16771641e-002, -2.50697613e-001,
          -7.84683973e-002, 3.46817255e-001, 2.35633150e-001,
          1.50071025e-001, -4.84785765e-001, 5.71330249e-001,
          2.68764287e-001, -2.41803288e-001, 7.98491597e-001,
          2.08825082e-001, 4.10299063e-001, -2.62338370e-002,
          1.22623041e-001, 3.08750778e-001, 2.29109675e-001,
          9.81838182e-002, -9.47642401e-002, -9.43227038e-002,
          1.98676750e-001, -1.88608885e-001, 4.96396869e-001,
          -3.23228806e-001, -2.30951719e-002, 1.27623945e-001,
          1.94612339e-001, 4.02686626e-001, -2.27674082e-001,
          -4.17482946e-003, 2.52411395e-001, -1.02000028e-001,
          1.03416167e-001, -1.19597159e-001, -1.96058407e-001,
          4.73319232e-001, -4.58939195e-001, -1.83080286e-001,
          -1.30182624e-001, 3.14337127e-002, -7.81762302e-002,
          3.60802747e-002, 3.93545777e-001, 6.15150034e-001,
          8.28251541e-002, -1.28726847e-002, 2.75130957e-001,
          3.31387401e-001, -1.35952868e-002, -3.25380340e-002,
          8.85736123e-002, 2.44496703e-001, 5.89673594e-002,
          6.93619251e-002, 1.84437931e-001, -1.87363684e-001,
          -1.63898114e-002, 7.55163282e-002, 4.57972765e-001,
          2.22678006e-001, 8.40661600e-002, 1.74841985e-001,
          3.00435543e-001, 3.21809888e-001, 4.20288980e-001,
          2.45275006e-001, -1.16419159e-001, -1.13930544e-002,
          -6.97107017e-002, -4.19560447e-002, 2.28742644e-001,
          -2.85439372e-001, 1.07613474e-001, 1.31806761e-001,
          3.65507185e-001, 4.08980966e-001, 1.99836135e-001,
          7.04093218e-001, 6.05132639e-001, 1.29080102e-001,
          -7.53063187e-002, -1.95458099e-001, -9.44196656e-002,
          2.69371793e-002, -2.62969017e-001, 2.87922621e-001,
          1.12100795e-001, -1.40399992e-001, -6.10330189e-003,
          -7.69030824e-002, 2.68214911e-001, -4.95505966e-002,
          2.33641595e-001, 1.10590747e-002, 4.01866734e-001,
          -1.37921512e-001, 1.13611996e-001, -2.33161002e-001,
          1.79245621e-001, -2.12543625e-002, -3.20350640e-002,
          8.67717564e-002, 5.05645990e-001, 7.18007283e-003,
          5.38369641e-002, 1.50112644e-001, 1.15025878e-001,
          -1.30295455e-001, 1.63557634e-001, -3.83373141e-001,
          -2.62450159e-001, 4.55181338e-002, -2.89802223e-001,
          -2.44833782e-001, 3.21265996e-001, -2.51315504e-001,
          -1.38681665e-001, -8.02672505e-001, 1.72716185e-001,
          4.25506622e-001, 3.47572565e-001, -1.67835072e-001,
          8.24752301e-002, 3.38135548e-002, 6.84740767e-002,
          -2.38240752e-002, -5.13489664e-001, 2.30951667e-001,
          -2.64091909e-001, -5.76814897e-002, -1.30742356e-001,
          -3.73097390e-001, -1.85859725e-001, -4.25238051e-002,
          4.62126965e-003, 4.78684396e-001, -1.12609409e-001,
          1.61110207e-001, -4.80753332e-002, -4.08381164e-001,
          -1.64519742e-001, -4.14131612e-001, 1.75625384e-001,
          -7.33320042e-002, -1.73060507e-001, 2.44318888e-001,
          3.94374020e-002, 3.13986480e-001, 1.26405835e-001,
          -1.82827175e-001, -3.57043222e-002, 4.05521393e-001,
          -3.85657787e-001, 3.08008850e-001, -1.27156168e-001,
          2.11098403e-001, 9.01836380e-002, -1.00296214e-001,
          -3.35410446e-001, 7.10608885e-002, 1.35554522e-001,
          -7.68290833e-002, -3.50332959e-003, -2.35025004e-001,
          4.58836198e-001, -3.14421147e-001, 3.26630808e-002,
          3.01144987e-001, -7.00270906e-002, 2.29619339e-001,
          1.46596313e-001, -1.22287385e-001, 4.85247262e-002,
          -2.38832489e-001, -1.03253443e-002, 7.16704363e-003,
          -2.08887517e-001, 2.18968764e-001, 3.70353222e-001,
          -5.81609756e-002, 1.35645002e-001, 1.13011897e-001,
          -2.61273552e-002, 1.58595100e-001, 3.13673109e-001,
          8.57597888e-002, 4.09738362e-001, 5.25187790e-001,
          7.20468163e-002, -1.75389349e-001, -3.02139409e-002,
          1.94289818e-001, 2.14338899e-001, 8.05597752e-002,
          -1.85893103e-001, 4.09888402e-002, 2.55995959e-001,
          -1.81239590e-001, 2.50439495e-001, -7.41944611e-002,
          -3.72986794e-001, 9.60677117e-002, 1.64112970e-001,
          -2.22268388e-001, 2.42447451e-001, -1.54922560e-001,
          -2.26298049e-001, 2.88243264e-001, -2.62470692e-001,
          8.94795284e-002, 4.64315228e-002, -8.29121470e-002,
          3.02625477e-001, 3.36051345e-001, -2.49055073e-001,
          1.27228498e-001, -1.34302422e-001, 7.08556036e-004,
          -9.42135677e-002, 2.63222754e-001, 1.03914432e-001,
          1.27371728e-001, -2.36894377e-002, -4.42022271e-002,
          -2.69454032e-001, 1.92038089e-001, -5.33855380e-003,
          -8.55791569e-002, 6.01615429e-001, -1.56113878e-001,
          2.44966209e-001, 5.88628687e-002, -1.08926952e-001,
          -2.12245926e-001, 2.63162732e-001, 3.11495632e-001,
          -8.14832002e-002, -1.44168347e-001, 1.04708478e-001,
          3.80888693e-002, -2.79710710e-001, -4.08933938e-001,
          6.90626860e-001, -1.36987492e-001, -6.50284141e-002,
          4.36164051e-001, 2.03388929e-001, 7.04826653e-001,
          1.62105083e-001, -4.61558625e-002, 4.03806835e-001,
          -2.07164988e-001, 1.78575367e-001, 3.39878619e-001,
          2.77972162e-001, 6.53541863e-001, 2.21554041e-001,
          1.04411133e-001, 3.81441638e-002, -6.14474192e-002,
          -1.29386485e-001, 3.08194786e-001, 4.82837230e-001,
          1.81571305e-001, -3.07693332e-001, 1.47733778e-001,
          1.46408111e-001, 2.75479883e-001, 6.62765563e-001,
          -3.46192598e-001, -3.14502656e-001, -2.01215610e-001,
          1.97700545e-001, 4.71355692e-002, 1.45081297e-001,
          -5.78185394e-002, 2.08862182e-002, -1.09858267e-001,
          -2.40501598e-001, 1.52290910e-001, 4.54755545e-001,
          3.75305355e-001, -3.10427040e-001, -3.06860209e-001,
          -4.49279286e-002, 1.29347995e-001, 2.15100184e-001,
          4.75569189e-001, -2.32189551e-001, 2.07376152e-001,
          3.00607294e-001, -6.09453321e-002, 2.20033467e-001,
          5.90670966e-002, -4.11192961e-002, -3.14158760e-002,
          1.41741678e-001, -2.01586470e-001, 7.79038131e-001,
          1.35370577e-002, 1.75291747e-001, -2.48923246e-002,
          8.45818147e-002, -4.08691168e-001, -2.47472927e-001,
          -3.27121824e-001, 2.85149187e-001, -6.64847076e-001,
          9.19936523e-002, 7.58208558e-002, -1.28331482e-001,
          7.87201673e-002, -1.54243531e-002, 2.54765481e-001,
          4.10828786e-003, -1.38683870e-001, -9.28954631e-002,
          6.02910817e-002, -1.05219029e-001, 5.55672407e-001,
          -3.30024838e-001, 6.16681337e-001, 1.52087599e-001,
          -1.56333640e-001, 2.60292888e-001, -1.58965345e-002,
          1.01433612e-001, 2.55511045e-001, 5.32548070e-001,
          8.52095634e-002, 6.96029305e-001, 2.83589453e-001,
          4.66730781e-002, -5.79111092e-002, -1.43671051e-001,
          -7.63526857e-002, -3.14855367e-001, 8.77705067e-002,
          4.68013793e-001, -5.90316117e-001, -5.86952977e-002,
          -8.82859156e-002, -1.92679122e-001, -2.12735862e-001,
          -3.34561653e-002, 3.91839266e-001, 1.00720786e-001,
          -2.46298358e-001, -2.63250098e-002, 5.97326783e-003,
          -1.48214296e-001, 1.27633408e-001, 3.58951360e-001,
          -6.21582031e-001, 4.37845029e-002, 4.56548423e-001,
          1.69877812e-001, -1.52922034e-001, 2.85355508e-001,
          -7.47589394e-002, 5.84928952e-002, 4.29075241e-001,
          7.46269882e-001, -6.02543712e-001, -4.44927253e-002,
          -3.62852752e-001, -4.63413179e-001, 7.30557367e-002,
          3.14886123e-001, 2.29525268e-001, 3.96558642e-001,
          -9.00719762e-002, -2.13057883e-002, 6.13853633e-002,
          8.71144608e-002, 6.23232186e-001, 3.20516616e-001,
          -1.51758781e-003, 3.41835976e-001, 1.05600864e-001,
          8.68595615e-002, -3.24681461e-001, 4.93686229e-001,
          2.91116200e-002, 9.23033133e-002, 2.32692137e-001,
          -1.51951179e-001, -5.84982559e-002, -4.52619419e-002,
          4.08775449e-001, 3.38965207e-001, -3.58806759e-001,
          1.13597875e-002, -2.12465644e-001, 7.72768408e-002,
          -4.24547106e-001, -2.83761889e-001, 2.06400096e-001,
          1.21699542e-001, 2.52568066e-001, -1.36900410e-001,
          6.09057061e-002, -2.40861364e-002, -2.51814187e-001,
          -1.12101816e-001, -1.16422921e-001, 4.86488819e-001,
          7.16590658e-002, 2.30435774e-001, -2.58653849e-001,
          -2.52075315e-001, 2.59498507e-001, 3.23242843e-001,
          6.72714561e-002, 3.26485127e-001, -1.56158775e-001,
          1.41499341e-002, -3.00388932e-001, -1.44823745e-001,
          -2.18468974e-003, 3.14744152e-002, 2.50749260e-001,
          -1.28565922e-001, -1.25335172e-001, 3.18540335e-001,
          1.55973539e-001, -6.47982359e-002, 1.92887977e-001,
          -6.70910478e-002, 4.26967293e-001, -1.62797809e-001,
          3.53941143e-001, 1.34453908e-001, 2.02510118e-001,
          2.23861992e-001, 2.02581719e-001, 3.48724842e-001,
          -2.52632439e-001, -1.66161448e-001, 2.97536075e-001,
          -1.75788745e-001, -8.98366272e-002, 3.65871996e-001,
          2.86338776e-001, -2.25123346e-001, -6.59499969e-003,
          4.45385307e-001, -1.41451016e-001, -5.33941388e-001,
          -2.00191379e-001, -3.56475085e-001, -2.46927872e-001,
          1.35569841e-001, 1.65816665e-001, -1.70429394e-001,
          -5.49003780e-002, 2.23115403e-002, 1.16139069e-001,
          -1.12596482e-001, 5.51142335e-001, 1.28736392e-001,
          -3.50259930e-001, -1.00330330e-001, 3.66213888e-001,
          -1.27290055e-001, -1.95851237e-001, -2.27568418e-001,
          -2.23292246e-001, 5.17277718e-001, -3.29143077e-001,
          3.60633373e-001, 2.18400851e-001, -3.25829089e-001,
          -2.39978269e-001, -1.79407656e-001, -3.36655438e-001,
          -4.64287288e-002, -1.76933125e-001, -7.25612342e-002,
          -3.30023199e-001, -7.11671531e-001, 1.01971023e-001,
          -4.16264206e-001, 1.25409132e-002, -3.57278258e-001,
          -1.89699382e-001, 3.28465492e-001, 2.89030492e-001,
          3.32734524e-003, -1.02006502e-001, -3.30607504e-001,
          2.70057507e-002, -4.51181591e-001, 2.31206998e-001,
          -1.14023685e-002, 7.06671655e-001, -4.36282724e-001,
          7.60287642e-002, -2.83112735e-001, -3.46655883e-002,
          -9.17452723e-002, 3.27609390e-001, -9.97039750e-002,
          -1.48208179e-002, -3.60784441e-001, 4.12579924e-001,
          -4.47063111e-002, -6.91297427e-002, 1.80204853e-001,
          2.86293596e-001, -2.19635859e-001, -3.44257690e-002,
          3.68812054e-001, -4.52500721e-003, -7.25471601e-002,
          1.81900188e-001, -3.69631022e-001, 2.07739606e-001,
          7.90530294e-002, 6.51831746e-001, -2.16675371e-001,
          -1.78488538e-001, -5.11065781e-001, -2.97602355e-001,
          -6.03233017e-002, 5.87159544e-002, 3.59997302e-001,
          5.10637701e-001, 3.07290941e-001, -1.44056424e-001,
          -1.25606731e-001, 1.53110579e-001, 2.70265907e-001,
          8.51603821e-002, -2.53874958e-001, -1.04463965e-001,
          -5.88101409e-002, -2.81985939e-001, -1.59151822e-001,
          1.70788676e-001, 2.72777885e-001, 2.63216764e-001,
          -2.22474664e-001, 1.23312749e-001, 1.95016950e-001,
          7.50745879e-004, -5.10433078e-001, 5.07561803e-001,
          -1.43484220e-001, 3.76678407e-001, 2.75703162e-001,
          7.36402869e-001, 1.46134362e-001, -1.06628880e-001,
          -1.78971544e-001, -2.55369812e-001, -2.68894732e-001,
          -5.03719449e-001, 5.71025908e-001, 2.83565670e-001,
          -1.12522945e-001, -9.10751447e-002, -2.34046131e-001,
          -2.24351004e-001, 1.52548805e-001, 1.27713770e-001,
          4.66246247e-001, 3.99617523e-001, 4.15567569e-002,
          9.09026936e-002, -6.53013438e-002, -7.99233466e-002,
          1.02936197e-002, -6.22002259e-002, -4.85033868e-003,
          -1.13050193e-001, 2.10810959e-001, 1.49637118e-001,
          -1.98361471e-001, 7.05390453e-001, -3.56800467e-001,
          8.29862654e-002, -9.80214253e-002, 7.03470528e-001,
          -1.00922413e-001, 1.13041960e-001, -3.69724929e-001,
          -1.50623202e-001, -1.16912298e-001, 1.54375643e-001,
          2.36795112e-001, 3.59717727e-001, -1.83959469e-001,
          -2.21004322e-001, -2.23395154e-001, -2.90642262e-001,
          -2.60515720e-001, 5.45982532e-002, -3.23848009e-001,
          5.07273436e-001, -2.33715978e-002, 1.28375385e-002,
          2.61446327e-001, -1.68009743e-001, -5.51453158e-002,
          -2.72672623e-002, 5.10265052e-001, -6.22347780e-002,
          -7.36345202e-002, 2.02720210e-001, -3.45076978e-001,
          8.75826120e-001, -2.22171664e-001, -4.82468456e-002,
          1.02933355e-001, -4.45023388e-001, 1.42689720e-001,
          -2.80205548e-001, 2.61856705e-001, -2.61806995e-001,
          -1.96133569e-001, 1.44102871e-001, -1.42687142e-001,
          1.19191661e-001, 2.96384782e-001, -1.00930095e-001,
          3.26446980e-001, -2.60941505e-001, -4.28382784e-001,
          2.51220763e-001, 4.38855775e-002, -1.17718153e-001,
          4.03899312e-001, -3.44406292e-002, -3.98998559e-001,
          -3.04666072e-001, -2.10150331e-001, -4.15996984e-002,
          -6.80135712e-002, 1.62145570e-001, 7.56503865e-002,
          6.60553277e-002, -2.05071703e-001, -3.75296921e-001,
          1.66090205e-001, -1.43315569e-001, -1.69169754e-001,
          -2.08315492e-001, 5.70011102e-002, 1.03100322e-001,
          3.72179374e-002, 9.07224268e-002, 6.59325626e-003,
          -1.58024505e-001, -9.60946307e-002, 6.80013716e-001,
          -2.13943690e-001, -4.16554302e-001, -1.20361552e-001,
          -1.90072626e-001, -1.76647559e-001, 2.77397037e-001,
          1.09383844e-001, 9.85432714e-002, 2.58499309e-002,
          4.52966206e-002, 2.37243414e-001, -3.19700427e-002,
          -2.23332010e-002, -1.39179498e-001, -4.63177375e-002,
          3.63925286e-003, 6.45897090e-001, 3.25556427e-001,
          -2.85221785e-001, 1.66369841e-001, -4.78755683e-002,
          4.55814600e-001, 2.14986324e-001, 4.99280021e-002,
          -2.81877697e-001, -2.72678941e-001, -1.21730775e-001,
          4.24376428e-002, 8.07568431e-002, -3.07792127e-001,
          -1.60640016e-001, 5.06516472e-002, -2.32434258e-001,
          -3.49600494e-001, 4.87177223e-002, 5.28137803e-001,
          6.53658330e-001, 1.81082655e-002, 8.65982994e-002,
          1.97034553e-001, -4.30924267e-001, -1.85658008e-001,
          -2.14206465e-002, 8.68900642e-002, 1.86429471e-001,
          1.58499945e-002, -4.94485199e-001, -2.88921315e-002,
          6.97885975e-002, -2.97530681e-001, 4.76067066e-002,
          -5.38507879e-001, 1.32016763e-001, 2.48533159e-001,
          5.70115566e-001, 1.99447456e-003, -2.30003119e-001,
          -4.96573597e-001, -2.54526973e-001, -9.37667862e-002,
          -3.09136301e-001, -9.71518829e-002, 6.84777722e-002,
          2.08013132e-001, 2.07280591e-002, -8.49335417e-002,
          2.04818491e-002, 4.96843504e-003, 1.21394187e-001,
          -2.08405897e-001, -3.82115245e-002, -1.76144958e-001,
          1.59558967e-001, -9.15749744e-002, 1.23703778e-001,
          1.04390316e-001, 4.31106240e-002, -1.05764434e-001,
          -1.28132440e-002, 1.23363547e-001, 5.51978499e-002,
          -2.71560289e-002, -2.31903959e-002, 2.53293365e-001,
          -2.81419784e-001, 9.08822343e-002, 1.34218693e-001,
          -1.90616444e-001, -2.42561296e-001, -1.02750972e-001,
          1.17014997e-001, -5.40172338e-001, -2.57116258e-001,
          1.92532137e-001, 3.23514551e-001, -3.66531089e-002,
          -1.38164073e-001, -7.56420568e-003, 1.05463557e-001,
          -1.61881775e-001, -4.27873522e-001, -5.60425162e-001,
          -2.38338634e-001, -6.76048756e-001, -1.37530148e-001,
          -2.83951983e-002, -1.57305092e-001, -2.37173676e-001,
          -1.18026480e-001, -4.50977199e-002, 3.41143608e-001,
          -2.02428013e-001, 2.77347028e-001, 2.44795084e-001,
          2.42021695e-001, 2.52992451e-001, -9.05610397e-002,
          2.96610415e-001, 1.70425639e-001, -4.50831920e-001,
          9.48712602e-002, 4.93566915e-002, -6.55327663e-002,
          -6.59863949e-001, -3.31323236e-001, -1.82700247e-001,
          -9.48040485e-001, -1.62377264e-002, -2.69702822e-002,
          -1.38032809e-001, 2.77396142e-001, 2.27633983e-001,
          -5.34380615e-001, 6.16518676e-001, -2.26456851e-001,
          -1.06206939e-001, -3.39748889e-001, -6.15130290e-002,
          1.13501452e-001, -8.74733403e-002, 3.71484667e-001,
          2.64497519e-001, 1.77808270e-001, -2.74796277e-001,
          -1.57965109e-001, -2.17290282e-001, 2.00940162e-001,
          -1.18434094e-001, 3.91720176e-001, -1.70202911e-001,
          -2.26279899e-001, -8.28574151e-002, 1.23707876e-001,
          1.16370313e-001, -8.77143964e-002, -7.94773363e-003,
          -3.96960735e-001, 5.13834767e-002, -4.08254057e-001,
          6.32482488e-003, 3.83225590e-001, 3.53448123e-001,
          -3.48601192e-001, 1.62446927e-002, -3.56465369e-001,
          1.20888568e-001, -3.61234806e-002, -1.47958435e-002,
          -7.53044486e-001, -4.07043397e-001, 2.36645103e-001,
          -1.88170716e-001, -3.88707191e-001, -7.80669749e-001,
          -5.23561239e-001, 1.46043196e-001, -4.65698212e-001,
          -4.12110746e-001, 3.06545854e-001, 4.32994217e-002,
          4.26814377e-001, 1.43570453e-001, 1.79925576e-001,
          -2.54847348e-001, -2.12939516e-001, 5.17110266e-002,
          -1.04358934e-001, 5.98120540e-002, 2.68521041e-001,
          2.16000929e-001, -9.25072432e-002, 1.98615789e-001,
          -8.61434937e-002, 2.10786700e-001, -2.90487111e-001,
          -3.28843057e-001, -7.11917551e-003, -4.46988225e-001,
          2.88170964e-001, 5.88400245e-001, -2.21842945e-001,
          -1.52996853e-001, 1.48058400e-001, -5.71009636e-001,
          -8.30978513e-001, 2.49756455e-001, 4.63312387e-001,
          4.48864877e-001, -2.24405617e-001, -5.37319109e-002,
          -2.32401922e-001, -9.55483690e-002, 3.45972508e-001,
          1.42254844e-001, 3.15928340e-001, -4.04490322e-001,
          -2.03520060e-001, -1.68976724e-001, -3.80674571e-001,
          1.74556985e-001, 1.36634961e-001, 2.20050916e-001,
          3.42166454e-001, 4.87840354e-001, -5.41658044e-001,
          -6.71530291e-002, -2.87802845e-001, -6.41598761e-001,
          3.83091494e-002, 2.10875019e-001, 6.08352423e-001,
          3.50317776e-001, -5.85317731e-001, -1.48852780e-001,
          2.16753542e-001, 4.59691957e-002, 9.59514901e-002,
          -3.49960737e-002, -1.83647051e-001, -3.97313565e-001,
          3.11144963e-002, -1.53443053e-001, 6.23206645e-002,
          3.48228782e-001, -9.24875066e-002, -1.68397337e-001,
          -1.04459502e-001, 1.04234822e-001, -2.28724450e-001,
          -1.98716640e-001, -1.26633421e-001, 1.67467818e-001,
          9.33592841e-002, 2.41603032e-002, 1.50595009e-001,
          1.00752127e+000, -6.48052767e-002, -1.40553802e-001,
          1.78131700e-001, -1.41131863e-001, 6.57417700e-002,
          7.15095550e-002, -1.85978740e-001, 6.47188902e-001,
