%YAML:1.0
my_svm: !!opencv-ml-svm
   svm_type: C_SVC
   kernel: { type:LINEAR }
   C: 2.5000000000000000e+000
   term_criteria: { epsilon:1.1920928955078125e-007, iterations:1000 }
   var_all: 8192
   var_count: 8192
   class_count: 3
   class_labels: !!opencv-matrix
      rows: 1
      cols: 3
      dt: i
      data: [ 0, 1, 2 ]
   sv_total: 3
   support_vectors:
      - [ 1.98703222e-002, 4.40760422e-003, 1.73796713e-002,
          2.27451585e-002, 2.08011121e-002, 1.02973012e-002,
          2.29678508e-002, 2.35238466e-002, 1.40183056e-002,
          1.04286270e-002, 2.11073216e-002, 1.20929228e-002,
          2.02850178e-002, 1.59335155e-002, 7.36502372e-003,
          2.17558313e-002, 9.65254568e-003, 1.23645002e-002,
          7.32290745e-003, 1.72863640e-002, 9.22965817e-003,
          8.44832230e-003, 2.29020547e-002, 2.01603472e-002,
          1.91167891e-002, 9.16674454e-003, 1.09920539e-002,
          1.27185080e-002, 6.75065815e-003, 1.22190900e-002,
          6.59603626e-003, 1.64847244e-002, -5.77221485e-003,
          -6.78903377e-003, -9.39774048e-003, -8.17779172e-003,
          -1.03809824e-002, -1.15158753e-002, -1.12231933e-002,
          -1.02640530e-002, -7.80904246e-003, -9.21992399e-003,
          -9.67058353e-003, 6.48189394e-004, -1.49161154e-002,
          -8.41164868e-003, -1.02370279e-002, -7.85984937e-003,
          -6.47426629e-003, -1.70141328e-002, -7.70183222e-004,
          -9.53749940e-003, -5.87855373e-003, -5.05525572e-003,
          -5.57332113e-003, -8.05482361e-003, -4.71475907e-003,
          -5.84082678e-003, -8.86812992e-003, -1.16959745e-002,
          -7.78604345e-003, 1.35620881e-004, -1.07509913e-002,
          -1.09839058e-002, 2.95465672e-003, 3.12831858e-003,
          5.38556138e-003, 2.79608555e-003, 3.31058796e-003,
          2.93577951e-003, 1.53265323e-003, 6.15971221e-004,
          -5.63915027e-003, 1.58293301e-003, -7.25215394e-003,
          -2.10705446e-003, -4.16728761e-003, -1.02671678e-003,
          3.46175069e-003, -1.12724071e-003, 4.29143058e-003,
          -1.16699419e-004, 3.57686612e-003, 2.34297058e-003,
          1.05744107e-002, -1.14280998e-003, -4.96802153e-003,
          6.87991641e-003, -5.05144056e-003, -4.27084556e-003,
          -9.30920593e-004, 1.13851018e-003, 4.16031713e-003,
          4.70718555e-003, 4.83853603e-003, 9.41692293e-003,
          -2.40885722e-003, -3.90113913e-003, 3.82355135e-003,
          -4.59702127e-003, -9.81295016e-003, -1.00513641e-003,
          -1.05514948e-003, -3.95060936e-003, 1.64352695e-003,
          5.93058858e-003, -3.41350189e-003, -2.49746977e-003,
          -3.89403640e-003, -5.29137859e-003, -1.38257456e-003,
          -5.50370011e-003, -3.05352872e-003, 1.48626522e-003,
          -5.18263457e-003, -4.12988337e-003, 2.88785086e-003,
          -5.02456678e-003, 4.26663028e-004, -4.10601171e-003,
          1.03339751e-003, -8.51490162e-003, 5.40772639e-003,
          1.79821672e-003, -9.13878344e-003, -7.81655777e-003,
          1.73262873e-004, 2.42916471e-003, 5.44208335e-003,
          3.80657078e-003, 9.22294392e-004, -4.70185839e-003,
          3.34582594e-003, -9.51624650e-004, -2.33452558e-003,
          -2.46527576e-004, 2.75540049e-003, -3.23049328e-003,
          6.52892003e-003, -1.26415363e-003, -2.70609814e-003,
          4.70274856e-004, 6.27205474e-003, -3.19161941e-003,
          6.19484950e-003, -2.11776327e-003, 8.40224978e-003,
          4.72890865e-003, 6.53526001e-003, 4.79132496e-003,
          5.60880057e-004, 3.24857514e-003, 2.67175469e-003,
          4.21332102e-003, 1.17512234e-003, 6.05024304e-003,
          9.99503024e-003, 3.36165051e-003, 3.48148285e-003,
          -1.83002194e-004, -1.39553780e-002, -1.03693623e-002,
          -2.64050579e-003, -7.29719782e-003, -9.69096739e-003,
          -7.06472807e-003, -1.27848294e-002, -1.20308874e-002,
          -9.13605746e-003, -1.35716330e-002, -1.20885959e-002,
          -1.21935885e-002, -2.85500078e-003, -7.44606648e-003,
          -7.60080898e-003, -1.39086023e-002, -5.19758742e-003,
          -1.36777200e-002, -1.52686546e-002, -1.79075710e-002,
          -8.58111214e-003, -7.33060390e-003, -1.23664094e-002,
          -1.06931599e-002, -8.95649288e-003, -6.63644914e-003,
          -8.23973492e-003, -3.78591614e-003, -7.44691677e-003,
          -9.86779667e-003, -1.28538944e-002, -7.14423950e-004,
          3.57185467e-003, 2.60671810e-003, -1.25332642e-003,
          1.30665314e-003, 6.26276992e-003, 7.67801469e-003,
          -5.43306756e-004, 1.89837208e-003, 8.31668917e-003,
          1.15544489e-003, -3.52844270e-003, -8.14796239e-003,
          -7.96783832e-004, -4.76630218e-003, -1.16529805e-003,
          -8.79662484e-003, -5.04259765e-003, -3.44012573e-004,
          -4.56594257e-003, -3.88704284e-005, 1.02786184e-003,
          2.05123588e-003, -5.52147673e-003, -6.18138257e-003,
          -2.46985629e-003, -7.19106896e-003, -9.05286055e-003,
          5.52150933e-003, -2.50159646e-003, 4.78616630e-006,
          -8.47600773e-003, -1.59164343e-003, -6.98378542e-003,
          -6.35109004e-003, -2.74713058e-003, -3.08109354e-003,
          -3.02818324e-003, -1.11083407e-003, 1.98110798e-003,
          -3.66640580e-003, -5.99532272e-004, -5.30639710e-003,
          -8.55527353e-003, 3.09394812e-003, -4.97451238e-003,
          -4.34611645e-003, -8.43605772e-003, 9.47597530e-003,
          -5.40912803e-003, -7.29731563e-003, 2.98763183e-003,
          -1.69453979e-003, -5.36163524e-003, -1.30761219e-002,
          2.11247080e-003, 2.31491937e-003, 2.32633157e-003,
          -7.38654984e-003, -1.39886606e-002, -6.24916516e-003,
          3.48347798e-003, -1.83264026e-003, -6.90412149e-003,
          -4.98482259e-003, -4.69105411e-003, 5.58497570e-003,
          -2.35227472e-003, 1.82699424e-003, 3.24120093e-003,
          1.27878797e-004, -2.35062721e-003, 5.19085629e-003,
          -4.81269369e-003, -5.59285225e-004, -3.81402991e-004,
          -4.09584027e-003, -1.78076210e-003, -1.30415754e-003,
          -6.05779188e-003, -7.32707977e-003, -2.42202915e-003,
          -1.94387499e-003, -8.85245949e-003, -3.18363169e-003,
          -7.34594744e-003, -1.03923515e-003, 5.92621218e-004,
          -8.42015026e-004, -1.60825718e-003, 4.95937653e-003,
          -6.26301067e-003, -3.46690329e-004, -1.34157424e-003,
          -3.18759098e-003, 3.02528497e-003, 7.58777512e-003,
          1.90496091e-002, 1.17597245e-002, 1.21460147e-002,
          9.97898728e-003, 9.51361377e-003, 9.90800932e-003,
          4.92693996e-003, 1.07763540e-002, 6.98458357e-003,
          1.75641440e-002, 1.48608498e-002, 2.46701995e-003,
          7.05950428e-003, 4.88278735e-003, 3.05481721e-003,
          7.63157988e-003, -4.99217585e-003, 8.48975126e-003,
          4.64203581e-003, 4.72828886e-003, 6.80490118e-003,
          6.87828893e-003, 7.21743098e-003, 1.15934154e-002,
          8.21621157e-003, 4.48446069e-003, 1.25191617e-003,
          9.34495777e-003, 1.59739181e-002, 5.77287609e-003,
          1.22626275e-002, 1.21803842e-002, 6.62340922e-003,
          1.57573854e-003, 2.89066089e-003, 9.01561347e-004,
          5.84478548e-004, 5.05496329e-003, 4.16425662e-003,
          4.53162473e-003, -3.23237153e-003, 8.76679085e-004,
          -1.78841560e-003, -3.37838032e-003, 2.99415522e-004,
          3.61709436e-003, 3.00668669e-003, 4.82224580e-003,
          -4.38430638e-004, -2.46405718e-003, 2.61131558e-003,
          5.20741451e-004, 5.28907822e-003, 1.33730704e-003,
          5.65848500e-003, 1.99597958e-003, 7.69007346e-003,
          2.60530692e-003, -2.79857195e-003, 6.38180319e-003,
          -8.46941897e-004, -5.93172899e-003, 3.63806798e-003,
          4.82681580e-003, 4.46271058e-003, -5.12362458e-003,
          -3.83997662e-003, 1.13802125e-004, -2.24533514e-003,
          4.14507417e-003, 3.29976523e-004, 8.88260605e-004,
          -2.14090425e-004, 1.17687543e-003, -1.25296263e-003,
          -6.49767602e-003, 1.69372733e-003, -5.50491270e-003,
          -1.16921042e-003, -4.96116979e-003, 2.75998004e-003,
          -3.26078734e-003, -6.85241073e-004, -4.48546233e-003,
          -1.63758337e-003, -2.04869965e-003, -2.11942638e-003,
          2.54481519e-003, 4.97190980e-004, -1.40309785e-004,
          -5.61441993e-003, -1.96624338e-003, -4.22842521e-003,
          1.53663754e-003, -4.23808256e-003, -6.48840854e-004,
          -5.38454158e-003, -1.73864737e-002, -1.09912790e-002,
          -1.03991674e-002, -1.37319816e-002, -1.42398635e-002,
          2.58319150e-003, -1.06048351e-002, -4.13738610e-003,
          -1.47784511e-002, -9.09033325e-003, -7.48367235e-003,
          -1.14013301e-002, -1.15733752e-002, -6.85331039e-003,
          -1.64940786e-002, -5.59661398e-003, -6.98312791e-003,
          -9.64806974e-003, -1.53854927e-002, -9.10989288e-003,
          -1.17933853e-002, -1.21333711e-002, -6.02971343e-003,
          -6.97025657e-003, -6.30719401e-003, -9.02551971e-003,
          -1.22653516e-002, -1.11026401e-002, -1.59645882e-002,
          -1.67890396e-002, -7.62853166e-003, -8.68543424e-003,
          -1.05410320e-004, -1.34141967e-002, -6.89736288e-003,
          -6.90756831e-003, -2.07450613e-003, -7.05676991e-003,
          -8.58717319e-003, -5.76624367e-003, -7.61421584e-003,
          3.58721660e-003, -7.33763492e-003, -2.02633720e-003,
          -5.57884807e-003, -1.41375908e-003, -1.03409216e-002,
          -4.44191089e-003, -5.11100143e-003, -1.58542790e-003,
          -7.54680514e-005, -8.98278505e-003, -1.06953355e-002,
          -7.03296205e-003, -4.18264943e-004, -4.58188215e-003,
          -5.53824799e-003, -7.11964956e-003, -1.08970888e-002,
          -4.47463756e-003, -8.98217410e-003, -5.79875056e-003,
          -4.48186276e-003, -1.03836926e-002, -9.12452955e-003,
          -5.67672821e-003, -1.01434672e-002, -1.41047314e-002,
          -1.30282575e-002, -1.09646944e-002, -1.00286044e-002,
          -1.10782413e-002, -1.58536732e-002, -1.13786077e-002,
          -1.35577004e-002, -1.74166840e-002, -1.07873874e-002,
          -8.76172446e-003, -1.53017091e-002, -1.35789923e-002,
          -1.21896751e-002, -6.84237015e-003, -1.10768005e-002,
          -9.70039330e-003, -1.17985858e-002, -5.42577542e-003,
          -9.66721401e-003, -6.25199452e-003, -8.31758138e-003,
          -1.03895208e-002, -1.42579880e-002, -1.34891523e-002,
          -1.34792393e-002, -1.45285865e-002, -9.80208442e-003,
          2.02676300e-002, 1.86119303e-002, 1.12358090e-002,
          2.34852228e-002, 1.67397764e-002, 1.95611697e-002,
          1.80819184e-002, 1.74322445e-002, 2.74533946e-002,
          2.44036932e-002, 8.97978246e-003, 2.22018994e-002,
          1.75200496e-002, 8.22332315e-003, 1.90017000e-002,
          1.87820550e-002, 1.70846712e-002, 1.38355270e-002,
          2.82518775e-003, 8.99467058e-003, 1.30506046e-002,
          1.74749251e-002, 1.77086722e-002, 1.02873771e-002,
          2.57121772e-002, 1.51808122e-002, 1.83720142e-002,
          1.19618792e-002, 1.57720707e-002, 1.70146897e-002,
          1.49067212e-002, 1.73076261e-002, 4.05056775e-003,
          4.37680120e-003, 8.65474716e-003, 5.19347005e-003,
          1.71391279e-004, 3.36323469e-003, 7.57095031e-003,
          -1.33540726e-003, -1.53775862e-003, 4.73779486e-003,
          4.90409881e-003, 5.51107386e-003, 4.72754985e-003,
          6.08699070e-003, 2.56927265e-003, -1.86436751e-003,
          4.18773066e-004, 3.42845591e-003, 3.10962857e-003,
          8.76888982e-004, 4.32370417e-003, -4.28575464e-003,
          1.97675894e-003, 9.18988790e-003, 6.08633365e-003,
          2.80532683e-003, 1.19877943e-004, 4.86288825e-003,
          2.75493576e-003, -5.52591344e-004, 3.07556055e-003,
          -4.15800285e-004, -6.91935234e-003, -2.08954629e-003,
          -7.44158588e-003, -5.10942377e-003, 8.29937198e-005,
          -4.99104196e-003, -7.96112139e-003, -4.33706772e-003,
          -2.27695191e-003, -3.53642041e-003, -7.40260584e-003,
          -1.79929507e-003, -3.64994048e-003, 2.12262548e-003,
          -3.54834669e-003, -3.23399412e-003, -5.13373595e-003,
          -8.31346214e-003, -6.66998676e-004, -2.50417925e-003,
          -6.57302979e-003, -7.20799947e-003, -1.35928183e-003,
          -6.07822649e-003, -7.25968927e-003, -8.86569079e-003,
          -4.40723496e-003, -2.22982233e-003, 9.79230041e-004,
          -6.21560495e-003, -2.12722854e-003, -2.07943725e-003,
          1.54513415e-004, 7.31925247e-003, -5.33644995e-003,
          9.85727366e-003, -6.63694739e-003, -1.33499922e-003,
          1.64110679e-003, -1.14142452e-003, 5.77343209e-003,
          1.07260020e-002, 6.04420342e-003, 2.17182026e-003,
          -2.02491088e-003, 1.05791492e-003, 1.11610501e-003,
          -1.31805730e-003, 1.83049333e-003, 2.19415361e-003,
          7.46783568e-003, 2.72779167e-003, -2.74553057e-003,
          1.24165183e-003, 3.55928787e-003, 1.12395198e-003,
          3.39549297e-004, 6.72386494e-003, 1.76712195e-003,
          -1.73300703e-003, 4.29532910e-003, -3.72083555e-003,
          -2.80500413e-003, 4.21519019e-003, -5.49769634e-003,
          -1.08056124e-002, -8.23840778e-003, -5.87909110e-003,
          -1.19745675e-002, -1.63412057e-002, -1.81836616e-002,
          -1.52591988e-002, -1.66406035e-002, -1.38662346e-002,
          -1.84038728e-002, -1.75432302e-002, -2.18234565e-002,
          -1.05540445e-002, -1.60537921e-002, -1.00662755e-002,
          -1.88051891e-002, -1.77244302e-002, -2.03674547e-002,
          -6.30661752e-003, -1.51052522e-002, -1.68050844e-002,
          -4.66738222e-003, -1.89490411e-002, -1.64816733e-002,
          -1.41694313e-002, -1.51896803e-002, -1.68027505e-002,
          -9.40410327e-003, -1.17271384e-002, -1.01097729e-002,
          -3.62033094e-003, 6.21314393e-003, 4.87028714e-003,
          1.11161778e-002, 1.19969565e-002, 6.84948685e-003,
          4.25121188e-003, 1.00079272e-002, 1.90481655e-002,
          9.34124831e-003, 1.20460009e-002, 1.26974275e-002,
          7.41585577e-003, 1.15949232e-002, 2.15382408e-003,
          4.80240723e-003, 2.12478582e-002, 7.24083232e-003,
          1.37428893e-002, 1.06210280e-002, 9.86787491e-003,
          1.19432192e-002, 2.29526777e-003, 1.47349304e-002,
          1.07222339e-002, 5.86341741e-003, 1.57768391e-002,
          -1.00265362e-003, 1.48251429e-002, 8.09944794e-003,
          1.31868813e-002, 5.73321339e-003, 1.37628317e-002,
          5.75757166e-003, 6.13931706e-003, 1.13498922e-002,
          1.40265366e-002, 7.38407485e-003, 9.70906485e-003,
          1.34477774e-002, 3.97830131e-003, 6.51720306e-003,
          9.82608739e-003, 8.33649188e-003, 6.37702597e-003,
          8.84065777e-003, 4.80018510e-003, 9.78591945e-003,
          1.28287962e-002, 8.22702516e-003, 1.07983397e-002,
          5.94227854e-003, 1.36675145e-002, 6.68736221e-003,
          1.21819805e-002, 6.33647759e-003, 9.82197747e-003,
          1.31465252e-002, 3.62725020e-003, 1.06776655e-002,
          4.66914568e-003, 1.42004220e-002, 1.29755363e-002,
          -2.03000993e-004, 6.81485841e-003, -1.95187517e-002,
          -1.05882464e-002, -1.04101859e-002, -8.79815221e-003,
          -1.23167643e-002, -8.39954522e-003, -9.72050801e-003,
          -2.08637081e-002, -1.26133524e-002, -7.29875499e-003,
          -1.67180225e-002, -1.02952141e-002, -2.27866750e-002,
          -1.67835038e-002, -1.59771796e-002, -1.34852454e-002,
          -1.17403138e-002, -1.45773850e-002, -1.19534368e-002,
          -1.19038615e-002, -7.91650079e-003, -1.43058151e-002,
          -1.66439377e-002, -1.11462977e-002, -1.44216157e-002,
          -9.06073302e-003, -8.45192745e-003, -1.73971914e-002,
          -8.82318430e-003, -1.42573686e-002, -1.03708534e-002,
          -1.03876516e-002, -1.69954989e-002, -1.84106566e-002,
          -1.50732808e-002, -1.62140597e-002, -1.74779166e-002,
          -2.24590320e-002, -1.41663216e-002, -2.26146057e-002,
          -1.78617351e-002, -1.36977341e-002, -1.56872272e-002,
          -1.55024389e-002, -1.72149949e-002, -1.42615428e-002,
          -1.78784933e-002, -1.81982927e-002, -1.03018861e-002,
          -1.82798728e-002, -1.53355543e-002, -1.39221856e-002,
          -1.27737960e-002, -1.64991152e-002, -2.23809704e-002,
          -2.11459510e-002, -1.68871768e-002, -1.64872594e-002,
          -1.38400085e-002, -1.19441459e-002, -2.44424231e-002,
          -1.29694371e-002, -1.62661057e-002, -2.06747409e-002,
          -6.26706472e-003, -1.18335877e-002, -9.20748338e-003,
          -1.29749244e-002, -2.28439248e-003, -4.69968608e-003,
          -1.49068935e-002, -1.07688559e-002, -1.12442411e-002,
          -1.23070469e-002, -6.58789370e-003, -4.89038555e-003,
          -1.47433197e-002, -9.65694897e-003, -4.69065085e-003,
          -1.23453243e-002, -6.47075986e-003, -3.11388867e-003,
          -1.00756474e-002, -5.70604298e-003, -5.07972995e-003,
          -5.58935339e-003, -5.44790970e-003, -4.77678888e-003,
          -1.11461682e-002, -6.15928043e-003, -9.82595142e-004,
          -1.15687624e-002, -1.00206416e-002, -5.06857550e-003,
          -5.74838021e-004, -6.12667762e-003, 1.24422973e-002,
          8.14720150e-003, 1.12735853e-002, 7.64979329e-003,
          3.53986723e-003, 8.14536400e-003, 7.82034826e-003,
          7.58600002e-003, 4.10552323e-003, 7.28726620e-003,
          6.68073026e-003, 5.71890408e-003, 1.38729410e-002,
          -2.78281987e-005, 4.76148864e-003, -2.92834989e-003,
          -1.78018573e-003, 5.97469602e-003, -1.37995393e-003,
          3.58527876e-003, 1.15438011e-002, 2.67091178e-004,
          1.43575398e-002, 7.74671324e-003, 4.80475510e-003,
          1.22657195e-002, 6.72125490e-003, 6.87663071e-003,
          5.73027506e-003, 2.12905766e-003, 1.02899792e-002,
          1.01198116e-002, -1.30446134e-002, -3.84271657e-003,
          -8.72533862e-003, -1.50240473e-002, -1.25579005e-002,
          -5.66867087e-003, -2.76900642e-003, -7.67291291e-003,
          -1.08828414e-002, -5.53118251e-003, -1.24640455e-002,
          -1.10035278e-002, -1.71734784e-002, -1.34978881e-002,
          -1.19095352e-002, -3.93292028e-003, -1.72946118e-002,
          -8.87607690e-003, -8.09097197e-003, -9.65119898e-003,
          -1.01641892e-002, -1.26396334e-002, -9.96465422e-003,
          -1.49717592e-002, -1.39084319e-002, -1.04986746e-002,
          -7.87298754e-003, -8.25273152e-003, -5.94369881e-003,
          -8.99895746e-003, -1.29380599e-002, -8.04804079e-003,
          1.22514078e-002, 1.56791210e-002, 1.41927535e-002,
          8.29268526e-003, 3.06661264e-003, 1.44503443e-002,
          1.36063332e-002, 1.07503776e-002, 4.24099527e-003,
          6.14211522e-003, 1.67393126e-002, 1.62011515e-002,
          1.30012836e-002, 1.50250113e-002, 3.89944250e-003,
          7.59408157e-003, 3.97472503e-003, 1.04309805e-002,
          3.46680707e-003, 1.09129483e-002, 1.03663132e-002,
          8.68875254e-003, 1.09611796e-002, 7.69063132e-003,
          9.45847668e-003, 6.43899525e-003, 7.07899313e-003,
          1.80380046e-002, 1.79789942e-002, 1.33054089e-002,
          1.40837254e-002, 1.25997458e-002, 9.86138824e-003,
          -2.03039171e-003, -1.67335884e-003, 7.45638274e-004,
          1.02085322e-002, 1.98429869e-003, 5.98096754e-003,
          2.12215609e-003, 5.34549588e-003, 8.92110728e-003,
          4.49337158e-003, 1.07099665e-002, 9.87337343e-003,
          6.24443125e-003, 6.02846267e-003, 2.57050968e-003,
          1.22633046e-002, 6.99653989e-003, 5.55193285e-003,
          1.25140836e-002, 1.17407292e-002, 3.64738028e-003,
          7.74714118e-003, 8.44040979e-003, 9.41078644e-003,
          9.78342351e-003, -8.04011070e-004, 3.59859341e-003,
          6.10966701e-003, 4.92441235e-003, 1.44950319e-002,
          4.71152132e-003, -1.18599264e-002, -1.50920264e-002,
          -7.40575604e-003, -7.26729631e-003, -9.51143354e-003,
          -9.89529584e-003, -5.45960153e-003, -7.22302636e-003,
          -7.08975410e-003, -7.49347673e-004, -5.91930794e-003,
          -1.07134590e-002, -8.69589578e-003, -1.27163902e-002,
          5.29636582e-003, -1.27672609e-002, -1.69147353e-003,
          -5.35492552e-003, -1.01601873e-002, -1.01334909e-002,
          1.95282255e-003, -1.10665997e-002, -3.91495274e-003,
          -9.73824703e-004, -1.64878611e-002, -4.88891546e-003,
          -3.60433594e-003, -8.48614797e-003, -9.34561901e-003,
          -5.35594858e-003, -1.27067640e-002, -1.36941103e-002,
          1.00936145e-002, 7.13345781e-003, 5.97545877e-003,
          6.56102644e-003, 1.00733517e-002, 8.56473763e-003,
          -1.80187519e-003, 1.51657918e-003, 4.04297840e-003,
          8.53725150e-003, 8.30878597e-003, 1.38958478e-002,
          9.51310154e-003, 6.94323471e-003, 1.17955199e-002,
          2.07715458e-003, 1.39304111e-002, 2.50911200e-003,
          1.17947755e-003, 1.68247009e-003, 9.88147128e-003,
          9.21961572e-003, 5.06176008e-003, 2.23738421e-003,
          6.36668550e-003, 1.12937801e-002, 7.95667432e-003,
          1.25227980e-002, 1.39789039e-003, 4.45779739e-003,
          1.10078454e-002, 1.70066003e-002, 1.18841603e-002,
          1.04380455e-002, 8.01844522e-003, 9.31229070e-003,
          1.29627567e-002, 9.82010178e-003, 1.47801200e-002,
          9.33107361e-003, 1.40414899e-002, 7.31581915e-003,
          1.29028573e-003, 1.22397915e-002, 9.12208389e-003,
          7.52717117e-003, 8.98743700e-003, 1.02258297e-002,
          1.12188887e-002, 8.07753485e-003, 1.24923456e-002,
          1.27208438e-002, 7.39241904e-003, 5.99614624e-003,
          5.42513374e-003, 1.02177309e-002, 8.52889940e-003,
          6.51132036e-003, 8.72993190e-003, 1.14563406e-002,
          8.83150660e-003, 5.26512275e-003, 6.45782379e-003,
          4.34386265e-003, -1.04051977e-001, -6.83345795e-002,
          9.96960402e-002, 1.62927613e-001, 1.50507018e-001,
          1.07475765e-001, 6.39525503e-002, -1.77482322e-001,
          1.12546593e-001, -3.05002570e-001, 2.15041805e-002,
          3.25047523e-002, -3.84288430e-002, -1.52310595e-001,
          1.71788614e-002, 2.52941787e-001, 4.87071611e-002,
          1.18448727e-001, -2.22022325e-001, -6.66849539e-002,
          -7.25874379e-002, 5.60890883e-002, -1.42180339e-001,
          1.19398326e-001, 5.68050668e-002, 3.67849767e-002,
          1.12846345e-001, 6.53274432e-002, 2.39468455e-001,
          -6.77553564e-002, -9.04430076e-003, 1.48624778e-001,
          1.60421118e-001, 1.86388329e-001, 2.17722915e-002,
          -1.03261419e-001, -1.23398550e-001, -5.60714640e-002,
          -1.37741327e-001, 3.42915654e-002, 8.73382092e-002,
          2.91030277e-002, 1.27360106e-001, 2.09165066e-002,
          5.03410436e-002, -2.00149700e-001, -6.42889142e-002,
          -1.23320511e-002, 5.72714694e-002, 1.28688931e-001,
          3.16387892e-001, -9.55459848e-002, 2.03841984e-001,
          1.08138546e-001, 7.21805841e-002, -1.61095396e-001,
          2.91249603e-002, 3.09962919e-003, -1.38887063e-001,
          -3.54899168e-002, 4.44464386e-003, -1.63225219e-001,
          -8.27128738e-002, -1.01859299e-002, 3.40938494e-002,
          7.14324340e-002, 4.29053046e-002, -1.69279084e-001,
          -1.46894515e-001, -5.94064333e-002, 1.04788139e-001,
          -8.62585679e-002, 1.96539760e-001, -1.83840599e-002,
          2.41774291e-001, -8.18590820e-002, 1.27291441e-001,
          -2.04176158e-002, -3.21205631e-002, 7.01307878e-002,
          8.72025564e-002, 1.72543019e-001, 1.53127745e-001,
          1.09884769e-001, -4.63260757e-003, 3.58303860e-002,
          1.01161916e-002, -4.44421032e-003, 4.02624607e-002,
          1.37281701e-001, 9.10534523e-003, -1.76612332e-001,
          3.57032306e-002, 7.61936679e-002, -1.35481134e-001,
          -8.00816044e-002, 3.00640047e-001, 6.40950538e-003,
          -2.27175672e-002, 4.05833609e-002, 1.32532239e-001,
          3.58163491e-002, 1.65375769e-001, 3.42112303e-001,
          2.58225590e-001, -2.56360233e-001, 4.08302665e-001,
          9.87813026e-002, -1.43858507e-001, 1.03722781e-001,
          1.56548738e-001, 1.52903825e-001, 5.54834828e-002,
          5.09941168e-002, 7.97856078e-002, -1.25667423e-001,
          -1.26370430e-001, 2.41269469e-002, 1.02735236e-001,
          -1.35563202e-002, -8.30618292e-003, -2.90778071e-001,
          -1.39026240e-001, 7.86619484e-002, 2.03544348e-001,
          2.41098434e-001, 1.21016495e-001, -9.66321081e-002,
          -1.48386329e-001, -3.01450342e-002, 2.16866910e-001,
          8.99339467e-002, -5.35623319e-002, 7.49351606e-002,
          1.86671596e-002, -1.27226897e-002, -6.00269511e-002,
          -3.83259617e-002, 2.00227015e-002, -1.37382403e-001,
          -2.36529075e-002, 3.76680121e-002, -9.57141370e-002,
          -7.42379501e-002, -5.16037568e-002, 1.41049966e-001,
          2.75584430e-001, -1.15783848e-002, -9.58735198e-002,
          -1.10736042e-001, 2.56226361e-002, 3.99091169e-002,
          -2.10435204e-002, 2.06850395e-001, -4.56533805e-002,
          6.67442903e-002, -7.09094629e-002, 2.63574589e-002,
          -5.08212261e-002, -5.38049005e-002, -1.06635198e-001,
          5.43999188e-002, -8.46766010e-002, -6.46096691e-002,
          -4.30599004e-002, -2.38953251e-002, 9.29213911e-002,
          -9.53909084e-002, -1.47883698e-001, 2.86665875e-002,
          1.42627850e-001, -5.32803722e-002, 1.50780320e-001,
          1.64069325e-001, 6.33432269e-002, 1.97230488e-001,
          3.36114652e-002, 4.52583469e-002, 1.67155266e-002,
          -3.42599116e-002, -7.99780190e-002, 2.44046021e-002,
          1.22601978e-001, 3.00071388e-002, -2.57196035e-002,
          9.43635032e-002, -1.08064458e-001, 1.56558324e-002,
          -2.01322325e-003, 6.53744936e-002, 2.33546384e-002,
          -1.78563684e-001, 2.25006565e-001, 1.30753726e-001,
          3.93378027e-002, -5.54129295e-002, -2.92460289e-004,
          -5.02643287e-002, -5.17708994e-003, -6.30638450e-002,
          8.32036436e-002, 1.40069826e-002, -1.58860415e-001,
          2.23483145e-001, 5.64677455e-002, -1.75884038e-001,
          5.96097298e-002, -4.75665480e-002, -3.49263288e-002,
          8.03897856e-004, -3.36248428e-002, 6.89614192e-002,
          1.19259745e-001, -1.39517216e-002, -1.45493401e-003,
          -1.48322552e-001, 1.27979424e-002, 5.01584411e-002,
          -1.10938493e-002, 7.86931068e-002, -5.28174825e-003,
          8.84310529e-002, -4.33349200e-002, 4.15907465e-002,
          1.83643214e-002, -1.09495781e-001, -2.69207507e-002,
          -6.65551275e-002, -5.12032658e-002, -7.96895102e-002,
          1.28054470e-001, -1.64472118e-001, -4.23868299e-002,
          -5.32071590e-002, 4.82791364e-002, 1.43192394e-003,
          -7.46650398e-002, -2.90569812e-001, 2.98961978e-002,
          1.56395927e-001, 8.20343271e-002, 3.16974312e-001,
          5.71184456e-002, 9.12057459e-002, 1.71427324e-001,
          3.07599697e-002, 3.92193310e-002, 7.11216480e-002,
          5.10287024e-002, 1.33390501e-001, -3.85168009e-002,
          3.95066999e-002, -8.64873976e-002, 2.68191278e-001,
          2.07428224e-002, -7.79031292e-002, -1.35241672e-001,
          -3.66255753e-002, -8.46903473e-002, -7.11375177e-002,
          4.34478447e-002, -4.52588871e-002, 7.15765450e-003,
          -5.53131774e-002, -6.67031482e-002, -6.95190579e-002,
          8.64409208e-002, 2.42255256e-002, 4.79498506e-002,
          1.44029902e-002, -1.12313718e-001, -4.71277498e-002,
          -6.07629009e-002, -5.62327877e-002, -2.33064033e-002,
          4.89737913e-002, -1.50513314e-002, 5.99604920e-002,
          -1.30783260e-001, 6.77336380e-002, 3.32991034e-002,
          -1.06530510e-001, 6.85307458e-002, 7.70724798e-003,
          -1.32096097e-001, -3.77519242e-002, -9.60346777e-003,
          -9.64186937e-002, 2.53818929e-001, 3.82771045e-002,
          -2.73808632e-002, -7.67615885e-002, 2.52835918e-002,
          -9.69041139e-002, 1.60685107e-001, 1.76550716e-001,
          1.34495506e-002, -1.62261844e-001, 2.44382799e-001,
          1.35501968e-002, 1.14736654e-001, -2.52655670e-002,
          -3.53219025e-002, 1.18171223e-001, 4.68486995e-002,
          7.66905695e-002, -2.68453918e-002, 5.91928475e-002,
          -2.28997648e-001, 2.37323835e-001, -2.01831043e-001,
          -2.27353498e-001, 5.13232835e-002, 1.99044049e-001,
          1.30298436e-001, 6.70039505e-002, -2.01120935e-002,
          -5.47785312e-002, 2.02796996e-001, 1.27887294e-001,
          -6.87213764e-002, 5.56996316e-002, -4.62652333e-002,
          -5.21249659e-002, 4.47620526e-002, -2.05217525e-002,
          8.92621949e-002, -1.55856371e-001, 1.14098892e-001,
          -3.20448726e-002, 6.80076107e-002, -1.86290257e-002,
          1.82411335e-002, -3.05448826e-002, 3.17936987e-002,
          2.61217374e-002, 4.50420938e-003, -1.17395788e-001,
          1.34343728e-001, -8.04766640e-002, -1.96307704e-001,
          3.01168784e-002, -7.00109601e-002, -1.00626744e-001,
          -3.11584603e-002, 7.09242001e-002, 4.38913144e-002,
          -5.75776305e-003, -6.65725097e-002, -3.14033367e-002,
          9.42083225e-002, -5.16073033e-002, -1.50255533e-002,
          -7.21283704e-002, 1.47107318e-002, 1.28538460e-002,
          -1.22472428e-001, 1.69403240e-001, -6.02878071e-002,
          -2.04623178e-001, 2.61224317e-003, -1.32068340e-003,
          -1.14401570e-002, 5.14711924e-002, 2.53771842e-001,
          1.73650831e-002, -5.40222274e-003, -2.27042101e-002,
          -6.18166365e-002, -5.59291132e-002, -1.64624564e-002,
          -1.54903710e-001, 2.68643610e-002, 1.74770325e-001,
          1.01372585e-001, -1.66048706e-001, -8.79795551e-002,
          1.23410784e-002, 1.24077410e-001, -1.97408393e-001,
          -1.10471481e-002, -2.87641007e-002, -1.68746635e-001,
          5.86101450e-002, 3.16692263e-001, -4.34714667e-002,
          1.13338474e-002, 2.39637569e-001, 2.43268237e-001,
          1.62808165e-001, 1.28005311e-001, 8.18260610e-002,
          1.63628370e-001, 1.36266604e-001, 9.59215164e-002,
          -1.46960512e-001, 1.22233227e-001, 3.29780757e-001,
          -1.71512604e-001, 3.64914425e-002, 2.52507646e-002,
          6.35829270e-002, -1.38371056e-002, 3.68155949e-002,
          2.31851004e-002, -1.35716945e-001, -1.09159328e-001,
          -3.14403302e-003, 2.78308671e-002, 2.44009092e-001,
          -2.91218966e-001, -2.43612919e-002, -3.06357089e-002,
          2.78271168e-001, 1.06829159e-001, 2.71162063e-001,
          -1.43243717e-002, 3.78843062e-002, -2.27768421e-002,
          4.34445441e-002, 1.58856511e-002, -2.11732388e-001,
          4.49744165e-002, 1.14086375e-001, -6.30158782e-002,
          -1.06417574e-001, -7.56491721e-002, -4.57750335e-002,
          5.62084056e-002, -5.93621247e-002, -8.42159688e-002,
          1.30672678e-001, 2.50176992e-004, 1.41363531e-001,
          -1.76477470e-002, 1.90837249e-001, 1.20173991e-001,
          1.87354919e-003, -5.42038716e-002, 1.20171517e-001,
          -3.05251661e-003, 1.39702395e-001, -4.94350977e-002,
          3.71141993e-002, -9.50635448e-002, -5.68845943e-002,
          -7.46201305e-003, 4.67782542e-002, -1.40532002e-001,
          2.55721528e-002, 1.86031573e-002, 1.18832842e-001,
          -1.56930774e-001, 5.85793369e-002, 2.16506451e-001,
          -3.81538458e-002, -3.51297073e-002, -2.56051123e-002,
          3.46859731e-002, 1.94028452e-001, -4.54342850e-002,
          -2.05297723e-001, 2.23676655e-002, 6.33451939e-002,
          5.38653657e-002, -5.78871258e-002, 2.31002450e-001,
          -1.45335287e-001, -1.43378884e-001, -5.07851839e-002,
          2.54460461e-002, -1.00561224e-001, -4.13860977e-002,
          7.86035135e-002, -2.68389404e-001, 1.80548891e-001,
          1.89215302e-001, -1.49855781e-002, -1.40722215e-001,
          5.78563362e-002, -3.07654887e-002, 7.72807933e-003,
          1.08337596e-001, -5.46052530e-002, -1.15836874e-001,
          -1.14764638e-001, 3.40470187e-002, 1.82490721e-001,
          2.01910678e-002, 1.38054043e-001, 2.24601060e-001,
          2.22816356e-002, -2.52706057e-004, 1.85378522e-001,
          -4.53829728e-002, -1.04784183e-001, 1.47931010e-001,
          1.17129311e-001, 2.97933519e-001, 2.06751511e-001,
          1.89210996e-001, -1.22074559e-001, 2.04582855e-001,
          9.06637311e-002, 7.33852386e-002, 9.06757936e-002,
          -3.43120068e-001, -4.92787398e-002, -1.38260247e-002,
          -2.35054567e-002, -2.71524847e-001, 4.45657829e-003,
          2.16918364e-001, 6.29674792e-002, 5.46755642e-002,
          -1.69444233e-001, 1.05076768e-001, 9.82943699e-002,
          -9.48304087e-002, 1.19833335e-001, 9.46937576e-002,
          1.82555407e-001, 1.79982707e-001, -5.07588917e-003,
          7.61658326e-002, 1.18114688e-001, -2.45659947e-002,
          5.18111661e-002, 1.22246616e-001, -4.94382419e-002,
          2.17238501e-001, -1.34088024e-001, -1.01972995e-002,
          4.40035798e-002, 9.60270464e-002, 6.35135407e-003,
          4.39646989e-002, 7.48610049e-002, -1.23933904e-001,
          1.54109806e-001, -6.63349554e-002, -4.82808538e-002,
          -9.88770351e-002, -2.32521296e-001, 1.20614454e-001,
          -1.06772318e-001, 5.18940352e-002, -1.84476227e-001,
          4.66788001e-002, -1.45092532e-001, 6.96411431e-002,
          -4.51126359e-002, 2.95431137e-001, 9.93859097e-002,
          -1.56351507e-001, 6.89943656e-002, 2.66746879e-001,
          -1.32742137e-001, 7.56090358e-002, 9.50122476e-002,
          -8.27249140e-003, -9.30073708e-002, 2.89388299e-002,
          -6.54238164e-002, 4.18274142e-002, -5.68587380e-003,
          3.72579359e-002, -5.61134219e-002, -4.19364013e-002,
          4.57796119e-002, -2.96230409e-002, -3.39859352e-002,
          -6.63502216e-002, 5.79038337e-002, 7.65740201e-002,
          -3.84590495e-003, 7.31485412e-002, 3.44126523e-002,
          4.96213622e-002, -2.98404861e-002, -6.99183624e-003,
          7.61006549e-002, 1.93370692e-002, 1.42132398e-002,
          -3.41464323e-003, -1.50306546e-003, 2.66891047e-002,
          -1.82111319e-002, 4.27932702e-002, 7.37507418e-002,
          -2.80600563e-002, 7.67102391e-002, 2.40993705e-002,
          2.04723418e-001, 9.60781053e-002, -4.17922065e-002,
          3.58401574e-002, -3.47989053e-002, -7.49302655e-002,
          -5.05334586e-002, 7.00493529e-002, 2.21954845e-002,
          -3.15842390e-001, 1.03717772e-002, 1.63856581e-001,
          2.26122469e-001, -5.98922223e-002, 9.22760889e-002,
          -6.89068204e-003, -2.49108896e-001, -2.75803823e-002,
          -2.76614189e-001, 2.46361420e-002, -1.09885983e-001,
          -1.58272423e-002, 1.51859164e-001, 1.00862600e-001,
          9.05336514e-002, 2.09983855e-001, 1.87831566e-001,
          9.76641551e-002, -2.12478861e-002, -4.45412062e-002,
          1.02827437e-001, 6.40350655e-002, 1.98694438e-001,
          3.45535539e-002, 1.92890480e-001, 1.60171509e-001,
          1.70820773e-001, 1.69212446e-002, -1.52536929e-001,
          3.35661019e-003, 6.38699383e-002, -1.18720187e-002,
          -2.24242788e-002, 5.70513755e-002, 1.39613122e-001,
          5.47315218e-002, 1.88779403e-002, 5.49894534e-002,
          -1.09355547e-001, 1.31456822e-001, 3.90807576e-002,
          1.10278293e-001, 1.63402557e-001, -9.58076268e-002,
          -4.93241809e-002, 7.99971297e-002, -1.94904745e-001,
          5.62645420e-002, 5.52379489e-002, 3.75745003e-003,
          1.40241250e-001, 3.22044082e-002, -1.27473520e-002,
          -1.36380345e-001, 2.98070051e-002, 5.58426790e-002,
          1.43168688e-001, -1.73466161e-001, 5.43005951e-002,
          2.78264433e-001, -5.54900616e-003, -4.15446739e-005,
          1.60244852e-001, -1.16024412e-001, 1.23327114e-001,
          3.83535624e-002, 7.10744262e-002, 2.01770335e-001,
          -3.73129430e-003, -2.68846415e-002, 2.52083778e-001,
          -1.77945375e-001, -1.63376480e-001, 1.26022652e-001,
          1.13359764e-001, 1.87316000e-001, 1.89890459e-001,
          7.66073260e-003, 3.63634303e-002, 2.43724450e-001,
          -6.62823915e-002, -5.13262935e-002, 8.83566141e-002,
          -8.27403739e-002, 4.45302539e-002, -4.95685376e-002,
          4.75489907e-002, 1.23216949e-001, 1.63559452e-001,
          -4.56692949e-002, 1.17751211e-001, 4.06374671e-002,
          1.34639516e-001, 1.21614754e-001, 7.47561753e-002,
          -2.37096637e-001, -9.75605324e-002, -1.03527717e-001,
          2.19410565e-002, 1.55155569e-001, 2.54214674e-001,
          -3.73957083e-002, -1.46794707e-001, 1.19746797e-001,
          1.32459730e-001, -7.01691136e-002, -2.53386423e-002,
          7.20891217e-003, -4.70204167e-002, 1.31612465e-001,
          1.38072118e-001, 3.10863048e-001, 1.65037498e-001,
          2.47194767e-001, 6.55011535e-002, -4.72972356e-002,
          8.81520733e-002, -1.15617421e-002, 7.93703571e-002,
          1.58164442e-001, -2.39946693e-002, 1.20696217e-001,
          1.30645126e-001, 1.10760264e-001, 6.27263188e-002,
          1.00351579e-001, 2.46961877e-001, -2.14026142e-002,
          1.94056019e-001, 7.71387890e-002, 1.01979591e-001,
          1.53111517e-001, -2.76726973e-003, 1.25525175e-002,
          -9.96047258e-002, 1.55119106e-001, 1.56998828e-001,
          6.07369654e-002, 1.19706793e-002, 3.55773866e-002,
          1.21666692e-001, -2.14758739e-001, 4.42814492e-002,
          -4.66604531e-002, 1.45554483e-001, 1.24392629e-001,
          1.12979516e-001, 1.41468763e-001, -5.72853833e-002,
          1.98589370e-001, 4.73810807e-002, 6.53339401e-002,
          -1.40504315e-001, -1.32339627e-001, 2.74438765e-002,
          6.40026554e-002, 1.29995465e-001, -8.30890909e-002,
          1.08095713e-001, 6.24088645e-002, 1.83922738e-001,
          1.82564080e-001, 6.97019920e-002, -1.00153863e-001,
          -5.42480275e-002, -2.60348976e-001, 6.66419193e-002,
          -1.69188917e-001, 1.21041954e-001, 1.32787293e-002,
          -3.93900424e-002, 1.89349741e-001, -1.16727070e-003,
          -1.24559678e-001, 9.48666558e-002, 6.17857985e-002,
          6.19602352e-002, 1.89285249e-001, -8.71872157e-002,
          7.86966383e-002, -1.13126509e-001, 1.46535844e-001,
          -8.09711963e-002, 2.24664107e-001, -3.86645682e-002,
          1.29033506e-001, 8.81121233e-002, 1.85205981e-001,
          -1.10796697e-001, 1.04880318e-001, 5.32701910e-002,
          -6.98408186e-002, 1.13117270e-001, 3.54038328e-002,
          -2.66796118e-003, 2.20939945e-002, 1.94705889e-001,
          1.04197636e-001, 1.22407921e-001, -2.12894250e-002,
          2.99459714e-002, -1.11795679e-001, -3.79711725e-002,
          4.67589982e-002, 1.18474349e-001, -1.22523986e-001,
          5.96091598e-002, 8.02936479e-002, 2.99293660e-002,
          4.75803912e-002, 1.94357168e-002, 1.13048861e-002,
          -1.03387110e-001, 1.08228341e-001, 1.17041364e-001,
          1.98272690e-002, -6.25837408e-003, -1.30614892e-001,
          1.79374546e-001, 2.04337090e-001, 4.60497253e-002,
          1.11166582e-001, 2.68566199e-002, -2.48102117e-002,
          -1.77360643e-002, 1.38490126e-001, -2.21973564e-002,
          -5.54958060e-002, 1.02000952e-001, -8.71763825e-002,
          6.06154371e-003, -2.82591246e-002, -4.73547168e-002,
          1.19937100e-002, -6.84112031e-003, 9.83010307e-002,
          4.65659536e-002, -7.89508969e-002, 1.28863111e-001,
          1.44731417e-001, 2.80476473e-002, -5.34192892e-003,
          1.29998103e-001, -3.93217802e-002, -1.83046721e-002,
          9.67115164e-002, 1.05918869e-001, -6.57551363e-002,
          -3.35062258e-002, 4.30471934e-002, 1.98620334e-001,
          -7.87621886e-002, 3.07895299e-002, 2.99900193e-002,
          6.06295243e-002, 7.86608551e-003, 2.88170800e-002,
          1.37078548e-002, 1.11624757e-002, 2.07086235e-001,
          -1.01668686e-001, 5.91688789e-002, -5.90822659e-002,
          8.31569433e-002, -3.86088863e-002, 7.93317705e-003,
          8.59120563e-002, -2.39157565e-002, -8.79486557e-003,
          4.16534208e-002, -6.99331015e-002, 1.04967495e-002,
          5.84189817e-002, -2.13208795e-002, 2.22101018e-001,
          8.64694640e-002, -1.32017108e-002, 6.60271347e-002,
          -1.14466794e-001, 8.56886134e-002, -7.17920586e-002,
          -1.85195506e-002, 1.74686924e-001, -7.09738582e-002,
          9.71890613e-002, -2.78183147e-002, 1.50415665e-002,
          6.02284912e-003, -5.94026819e-002, 5.75102381e-002,
          1.10860039e-002, -9.03983414e-002, -3.19761187e-002,
          -4.41028401e-002, 8.55926797e-002, -7.42635131e-002,
          4.53191772e-002, 8.16780031e-002, -7.13367015e-002,
          -3.37514021e-002, 6.94886521e-002, -4.98926975e-002,
          -1.63228363e-001, 1.62038609e-001, 7.88654089e-002,
          6.74092025e-002, -2.62916777e-002, -3.15754511e-003,
          9.43593532e-002, -4.59665572e-003, 6.01789616e-002,
          1.37740389e-001, -1.73380747e-001, -4.90103550e-002,
          1.55037388e-001, 5.14240414e-002, 2.28116196e-002,
          -8.62940997e-002, 7.10558817e-002, -4.71096523e-002,
          1.19861238e-001, 4.11618762e-002, 3.91128026e-002,
          2.14306563e-002, 2.88992580e-002, -7.86852986e-002,
          -8.28657970e-002, 4.08600196e-002, 8.83143097e-002,
          1.13420010e-001, 5.14990240e-002, 4.96480949e-002,
          -1.09868152e-002, 1.89770367e-002, 6.28354996e-002,
          1.81867220e-002, 1.43329531e-001, 1.44030023e-002,
          4.94450107e-002, 5.67416213e-002, 1.43911578e-002,
          -5.75194731e-002, 1.48225993e-001, -9.37922150e-002,
          -2.70201806e-002, -1.01455025e-001, 1.62036091e-001,
          -1.12886488e-001, 1.04440674e-001, -2.52788551e-002,
          -1.26739219e-003, 7.92868137e-002, 1.35534885e-003,
          7.87884649e-003, 6.76987991e-002, 1.87814608e-001,
          -1.12343118e-001, 9.71332714e-002, -7.32753938e-003,
          7.31911138e-002, 2.47614812e-002, -7.79567705e-003,
          -7.54845142e-002, 1.71162248e-001, 6.75364211e-002,
          -2.51906030e-002, 1.27083600e-001, 6.44300357e-002,
          -2.05124706e-001, 1.37763485e-001, 1.46970502e-003,
          -1.04791597e-001, 6.14028685e-002, 1.30812481e-001,
          1.82937622e-001, 2.43550107e-001, -9.05828029e-002,
          5.20518757e-002, 2.21767977e-001, 2.14323252e-001,
          1.56128585e-001, 1.40118167e-001, 1.38901174e-001,
          -2.49036010e-002, -1.51248485e-001, 7.31967390e-002,
          9.45996493e-002, 1.31617874e-001, -1.85872540e-001,
          -1.95190441e-002, 3.10719442e-002, -1.19093463e-001,
          1.50511861e-002, 2.78796311e-002, 1.21066824e-001,
          -1.45385280e-001, 1.29352152e-001, 4.98294979e-002,
          8.17275196e-002, 4.06837650e-002, 1.31511703e-001,
          2.09069148e-001, 1.94987759e-001, 4.26047631e-002,
          2.23674864e-001, -1.30114257e-001, 6.22503366e-003,
          5.45552820e-002, -6.08232133e-002, 6.46245107e-002,
          -4.92133237e-002, 2.13792220e-001, -5.57348467e-002,
          4.67781909e-002, 1.08561642e-001, 1.09484769e-001,
          2.06511140e-001, 7.40617290e-002, 2.08420202e-001,
          4.25822921e-002, -4.82786633e-003, -9.47889760e-002,
          5.62583394e-002, 7.11051673e-002, -4.50588353e-002,
          6.76112920e-002, -2.31346384e-001, -4.58659865e-002,
          -3.84156704e-002, 9.84299108e-002, 2.05047771e-001,
          9.13817659e-002, 2.47034714e-001, 2.58623231e-002,
          9.58183855e-002, -7.45175779e-002, 8.71083736e-002,
          1.27397075e-001, -7.44168786e-003, 1.19800441e-001,
          -6.45675510e-002, -1.49195582e-001, 3.10628079e-002,
          -7.31527135e-002, -2.30346471e-001, -2.60363407e-002,
          1.17273577e-001, -1.52302414e-001, -7.15797171e-002,
          -8.44798833e-002, -1.56311840e-001, 4.16384153e-002,
          2.55776215e-002, -7.13323727e-002, 3.09265256e-001,
          -9.17792544e-002, -1.33846879e-001, 9.26121026e-002,
          -1.55670136e-001, -1.54741243e-001, 3.48102272e-001,
          1.74883872e-001, 1.44390985e-002, 1.75040081e-001,
          3.57125849e-002, 2.42614940e-001, 5.61293922e-002,
          -6.52119517e-002, 6.36964142e-002, 1.20024621e-001,
          1.21852912e-001, -9.02152210e-002, -1.17990203e-001,
          -8.78344700e-002, 3.82969856e-001, -6.70350045e-002,
          2.67038494e-001, -1.80960260e-002, 1.05982497e-001,
          5.42838424e-002, -1.11164950e-001, 1.43324301e-001,
          3.02225854e-002, 1.29062518e-001, 2.58075204e-002,
          1.67783171e-001, 5.90961725e-002, 3.02965064e-002,
          1.17865369e-001, -2.17232138e-001, 8.56982097e-002,
          -1.52296424e-002, 1.74827296e-002, 9.45027359e-003,
          -9.90542024e-002, 9.16256309e-002, -3.86850327e-001,
          -8.82280804e-003, -6.50301501e-002, 2.35136654e-002,
          -5.23279786e-001, 7.85967633e-002, -8.46642256e-002,
          -2.87076868e-002, -1.35755152e-001, 4.52364422e-003,
          -3.56524028e-002, 2.60200677e-003, 2.45917775e-002,
          1.15883872e-001, -1.63187273e-002, -9.54261720e-002,
          2.00687617e-001, 1.82228126e-002, -1.07052490e-001,
          -7.36719444e-002, -3.59341800e-002, 8.89724120e-003,
          1.20789215e-001, -1.19296424e-001, 2.42976006e-002,
          -6.24459609e-002, 2.01347411e-001, 8.29693303e-002,
          -1.61369920e-001, -1.73105478e-001, -2.77148616e-002,
          1.98427200e-001, -1.26889184e-001, 1.82086617e-001,
          -1.10429399e-001, 1.21024340e-001, -8.96129608e-002,
          3.02306172e-002, -1.07899547e-001, 1.17752463e-001,
          -1.35332108e-001, -5.23331575e-003, -8.56329408e-003,
          2.29599118e-001, -1.54977301e-002, 1.05697706e-001,
          -2.13721264e-002, -2.33675137e-001, 2.22906731e-002,
          3.59482504e-002, -2.07089260e-001, 4.28341627e-002,
          2.68721074e-001, 3.45184281e-002, 1.35214850e-001,
          -7.27998018e-002, -1.23841785e-001, 7.43656829e-002,
          -1.33077400e-002, -3.38706151e-002, 9.21290889e-002,
          1.38189644e-001, -6.57459423e-002, 5.14397584e-002,
          -1.01307690e-001, 1.45015270e-001, -3.09429895e-002,
          -1.60203248e-001, -2.68177241e-001, -1.08024105e-001,
          7.92172924e-002, 6.15964420e-002, -1.02331288e-001,
          -1.56482458e-001, 1.71957105e-001, 1.13203442e-002,
          -1.47404253e-001, 7.81741589e-002, -1.50685698e-001,
          6.46989793e-002, 6.97697233e-003, -5.71371801e-002,
          -1.08108763e-002, 8.70164856e-003, -8.98672044e-002,
          1.03320412e-001, -4.45713848e-002, 5.92279667e-003,
          5.23002744e-002, 6.00406900e-002, -5.26957251e-002,
          -6.01070262e-002, 7.55555853e-002, 4.55144756e-002,
          -9.84219164e-002, 6.54841363e-002, 1.17434427e-001,
          9.55057219e-002, 2.36721903e-001, -1.04220606e-001,
          1.27692550e-001, -4.35211509e-002, 1.23984568e-001,
          -7.25455657e-002, 3.81777948e-003, -1.55773386e-001,
          1.41085923e-001, 1.72589853e-001, -5.16193882e-002,
          -6.13830835e-002, -4.90570702e-002, -2.31266581e-003,
          -9.99582261e-002, 1.52211459e-002, 1.03964008e-001,
          -6.50483146e-002, -1.39014085e-003, -2.78730989e-001,
          1.48143908e-002, -2.42643114e-002, 7.93488696e-002,
          1.41976565e-001, 7.64785782e-002, 1.15727708e-001,
          -4.48165387e-002, 1.20209716e-002, -9.90239754e-002,
          1.87008083e-002, 1.72882259e-001, 7.10542649e-002,
          1.86692774e-002, 1.53159127e-001, 2.67698336e-002,
          -9.74466950e-002, -7.28598535e-002, 6.70099780e-002,
          -1.59181103e-001, -3.05136330e-002, -2.49762405e-002,
          8.32820758e-002, -8.05668831e-002, -3.79969217e-002,
          1.19045429e-001, -1.22771658e-001, 1.56955019e-001,
          1.12166196e-001, -2.76894961e-002, 9.56372544e-002,
          1.92947969e-001, 4.32966560e-001, 1.89166702e-002,
          1.30576223e-001, -2.32318729e-001, -6.46283329e-002,
          -3.16157006e-002, -4.23705168e-002, 2.03258201e-001,
          1.91874668e-001, 5.59136719e-002, 2.56679505e-001,
          3.61821353e-001, -2.23090705e-002, -2.02936947e-001,
          2.49768067e-002, -2.84569841e-002, -5.18923849e-002,
          1.90218031e-001, 1.48906097e-001, -4.54750508e-002,
          -3.20434794e-002, 7.97768235e-002, 1.17317341e-001,
          -5.30450195e-002, 1.98869351e-002, 1.44630134e-001,
          9.16747898e-002, 2.49805510e-001, -3.98991294e-002,
          -1.09941863e-001, -1.46283835e-001, 1.02415204e-001,
          5.67010641e-002, -5.24274558e-002, -9.23177153e-002,
          -2.00641587e-001, -1.01483144e-001, -8.15337151e-003,
          1.37884900e-001, -1.45924538e-001, 1.75368518e-001,
          -4.64259870e-002, -1.85896754e-002, -5.18989190e-003,
          3.23154442e-002, 8.31369832e-002, -7.15042129e-002,
          -3.37062142e-004, -1.26022831e-001, 6.12656772e-002,
          1.43136308e-001, -1.14115052e-001, 1.29625131e-003,
          1.66522563e-001, -8.19509998e-002, 4.87739481e-002,
          1.61118895e-001, 6.82419613e-002, 5.83267100e-002,
          -6.62076985e-004, 2.29223832e-001, 9.30752903e-002,
          4.92791869e-002, 3.38635780e-002, -2.25577980e-001,
          3.44902128e-002, -1.42418861e-001, -8.52711722e-002,
          7.57047459e-002, 4.28060412e-001, 1.31154284e-001,
          -6.12781420e-002, -4.27957550e-002, -2.72708267e-001,
          3.86792272e-001, 2.55303025e-001, 1.62710726e-001,
          -1.48874283e-001, 1.42421827e-001, -1.73333570e-001,
          1.21283859e-001, 2.71855950e-001, 1.36348888e-001,
          3.72851826e-002, -2.47024815e-003, 2.19519243e-001,
          2.68303677e-002, 2.44676806e-002, -2.13266104e-001,
          7.70340711e-002, -2.01399073e-001, 7.09203109e-002,
          -1.73007682e-001, 4.87407781e-002, -1.30634103e-002,
          3.63113880e-001, 1.47767454e-001, 1.09533109e-001,
          -4.20389362e-002, -1.74540449e-002, 1.12659313e-001,
          6.16596341e-002, -2.31837165e-002, 1.34781063e-001,
          8.38134736e-002, 3.37984450e-002, -3.68119627e-002,
          6.29613996e-002, -6.93112910e-002, -1.10293664e-001,
          8.66504312e-002, -4.19975892e-002, 5.53050451e-003,
          -9.70521644e-002, 8.00033063e-002, -2.21922711e-001,
          7.86567926e-002, 2.27878466e-002, -1.20169587e-001,
          -8.97325650e-002, 1.07043549e-001, -5.48670590e-002,
          -2.61522412e-001, 2.54335016e-001, 1.46501809e-001,
          7.33258808e-003, -2.66168006e-002, 7.50122815e-002,
          -8.79793316e-002, -2.96931297e-001, 6.96464851e-002,
          -2.25221887e-002, 9.74183679e-002, -2.29919121e-001,
          -5.92595190e-002, -9.83870476e-002, 1.10585026e-001,
          -2.40522400e-002, -4.19407152e-002, 2.53980428e-001,
          -6.79794252e-002, -1.92295369e-002, 1.96686223e-001,
          -1.75422952e-002, 1.87686875e-001, -2.62116283e-001,
          1.18409954e-001, -1.13793020e-003, -1.09501436e-001,
          -1.14373751e-001, 8.57560709e-002, 6.67401403e-002,
          9.98545364e-002, 2.23415019e-003, -8.32903981e-002,
          2.21222281e-001, -1.06896468e-001, -1.02996610e-001,
          -2.03480974e-001, 4.23327982e-002, 1.47538960e-001,
          1.01000078e-001, -2.60279104e-002, -1.67673111e-001,
          -2.86824834e-002, 1.24656253e-001, -3.10925599e-002,
          2.86848973e-002, 1.04317427e-001, -6.07007183e-002,
          1.50658265e-001, 2.74910890e-002, 8.14549029e-002,
          -3.43587436e-002, -4.02485691e-002, -1.00952052e-001,
          3.01221982e-002, 4.80362624e-002, 1.62779272e-001,
          6.67188838e-002, 4.81082080e-003, 1.21829867e-001,
          1.00806668e-001, 3.13086323e-002, -9.36599523e-002,
          -4.10518795e-002, 1.08172763e-002, -1.72106057e-001,
          1.07506417e-001, -9.29337963e-002, 7.25938231e-002,
          -6.96632266e-002, 1.81436628e-001, -6.54401332e-002,
          1.90929100e-002, -1.17096715e-001, -1.64613053e-001,
          7.58085698e-002, 9.00539681e-002, -8.40746537e-002,
          6.69378489e-002, 7.70685077e-002, 1.01711877e-001,
          5.07469587e-002, -6.95729703e-002, -3.58969159e-002,
          7.69643411e-002, -1.95824072e-001, 5.22225015e-002,
          1.80293202e-001, 4.62274939e-001, 7.56858513e-002,
          1.04097530e-001, 2.27790903e-002, 2.39977464e-001,
          -1.71955619e-002, 1.29230902e-001, 1.15999408e-001,
          -5.52229881e-002, 5.08648492e-002, -8.53563566e-003,
          1.10110819e-001, -1.93058521e-001, 2.72241294e-001,
          -6.06470183e-002, 3.43418531e-002, 8.64942223e-002,
          -1.26577899e-001, 3.12697664e-002, 5.44600673e-002,
          7.34572262e-002, 2.11794496e-001, 6.77343309e-002,
          -7.07340892e-003, 1.27799481e-001, -3.52923758e-003,
          -4.11899351e-002, 4.14825827e-002, -1.76492780e-002,
          -3.26493755e-002, 5.19111715e-002, 1.66096777e-001,
          9.96671095e-002, 2.59481054e-002, 1.32894978e-001,
          5.01913726e-002, -2.44807415e-002, 1.47457778e-001,
          5.42274714e-002, -1.20598622e-001, -1.67136226e-004,
          -1.56333428e-002, 1.83631599e-001, 1.05503909e-001,
          8.97429362e-002, 1.45141631e-001, 1.54960081e-001,
          -9.02099088e-002, 4.30108346e-002, -3.20497081e-002,
          2.37561330e-001, 1.63809448e-001, 5.72727695e-002,
          1.59124832e-003, 1.49736805e-002, -4.76403016e-004,
          4.26158309e-002, 1.16364602e-002, 5.91322742e-002,
          8.77452344e-002, 9.93418917e-002, 6.05144389e-002,
          7.29929283e-002, 4.14227247e-002, 8.72129202e-002,
          -9.53797027e-002, 2.66030058e-002, 1.71152223e-002,
          1.78721678e-002, -1.40403043e-002, -1.74466386e-001,
          -7.39197955e-002, 1.51556224e-001, 1.39632955e-001,
          -8.21512267e-002, 1.08670611e-002, 2.27600131e-002,
          4.74190898e-002, 1.95165217e-001, -6.92774057e-002,
          3.11776280e-001, -1.88127369e-001, -1.48721755e-001,
          -6.71510100e-002, 1.64855629e-001, 4.97146882e-002,
          1.66070536e-002, 8.75483677e-002, 2.28099748e-001,
          -4.91818488e-002, 3.12809348e-002, -4.52005826e-002,
          -1.52234226e-001, 1.56313777e-002, 1.26986250e-001,
          3.12203374e-002, 1.63490489e-001, -1.79748267e-001,
          2.21200869e-003, 9.84421596e-002, 1.27315000e-001,
          1.65517163e-002, 4.68190685e-002, 1.50872201e-001,
          -2.97760278e-001, -1.24196701e-001, 3.13481539e-001,
          -1.58623997e-002, 1.20746344e-002, 2.00367287e-001,
          -1.48567613e-002, 7.20842835e-003, 7.97768161e-002,
          1.34796510e-002, 2.01989394e-002, 2.87477642e-001,
          1.47066727e-001, 5.43379113e-002, 2.46934041e-001,
          -6.68947771e-002, 1.33746922e-001, -2.91929334e-001,
          -1.58766657e-001, 1.06933735e-001, 9.91453454e-002,
          -1.96456000e-001, 2.25661576e-001, -5.21218032e-002,
          2.78208971e-001, -1.87015593e-001, -1.45961903e-002,
          8.69354084e-002, -5.92866354e-003, 2.52105594e-001,
          1.46328509e-002, 2.19954252e-001, -7.99154118e-002,
          1.84261128e-001, 4.11285102e-001, 8.98833759e-003,
          1.16194673e-001, -3.68012823e-002, 4.02904004e-002,
          1.19521298e-001, 6.69122264e-002, 1.06366523e-001,
          5.97427189e-002, 4.86683771e-002, 9.12317783e-002,
          -1.19516999e-003, 6.04557134e-002, 1.95260361e-001,
          2.68287584e-002, 1.80035233e-002, -6.74033165e-002,
          6.74081221e-002, -1.54381841e-001, -5.54431975e-003,
          -5.79372384e-002, 1.22064561e-001, 8.07749033e-002,
          -9.37832147e-002, -1.42117381e-001, 2.90070269e-002,
          2.22706437e-001, -1.02049246e-001, 1.56776518e-001,
          -8.88673216e-002, 9.99875739e-003, 1.77585874e-002,
          2.82523558e-002, -2.91550159e-002, 7.06079602e-002,
          4.55115503e-003, 3.10082678e-002, 2.43685339e-002,
          -3.46780084e-002, 8.81296247e-002, -2.18353271e-001,
          -3.16499220e-003, 9.88325179e-002, -1.49518102e-002,
          -1.28063738e-001, -6.28920645e-002, 4.26367335e-002,
          -6.19448423e-002, 4.22276184e-002, -1.44067377e-001,
          -7.92837590e-002, 9.13116634e-002, 9.68938544e-002,
          1.35212764e-001, 1.77549794e-002, -1.34596437e-001,
          -4.23647910e-002, 1.19110413e-001, 8.18753019e-002,
          3.41495462e-002, 1.50473816e-002, 1.08377077e-001,
          -1.97801352e-001, -1.46685392e-001, 6.60225451e-002,
          2.82005202e-002, 1.06028123e-002, 2.01402813e-001,
          2.43580677e-002, 1.93454057e-001, 9.57261547e-002,
          -4.57475781e-002, -1.15916327e-001, -1.84094086e-002,
          -1.93534955e-001, 1.02154046e-001, 7.11763976e-003,
          1.29190922e-001, 2.50471890e-001, 6.31132051e-002,
          4.78374958e-002, -4.44797426e-002, -1.81811571e-003,
          -2.91066524e-002, 8.36289972e-002, 2.25517005e-002,
          1.34169862e-001, -5.83368577e-002, 8.82931426e-002,
          1.24683186e-001, 1.94506019e-001, -2.87458628e-001,
          7.03054592e-002, 1.28382072e-001, 6.56407401e-002,
          4.66107614e-002, -4.13489603e-002, -4.99248467e-002,
          -5.53639270e-002, 1.02086730e-001, -8.32893178e-002,
          -4.07398632e-003, 9.75860804e-002, -6.68879077e-002,
          1.73660666e-002, 1.05149105e-001, -1.63236871e-001,
          4.64274846e-002, 1.19702779e-002, 3.15509439e-002,
          3.28282952e-001, 2.15692565e-001, 1.62493363e-001,
          1.46630824e-001, -5.30306734e-002, 9.40620229e-002,
          6.78183585e-002, 2.14293584e-001, 5.95082045e-002,
          -1.64610967e-001, -1.49964914e-001, 1.03605330e-001,
          2.54258118e-003, 9.55924913e-002, 4.40151282e-002,
          -3.70521434e-002, -3.31005529e-002, 1.95944216e-002,
          1.30391553e-001, 2.66601387e-002, 1.08249579e-002,
          5.29594496e-002, -6.79158140e-003, 1.08999901e-001,
          2.72716843e-002, -1.86248973e-001, -1.83121324e-001,
          1.50543470e-002, -1.35769576e-001, 4.41954248e-002,
          2.10176576e-002, 1.14148609e-001, -4.85829152e-002,
          9.21863616e-002, 2.53452286e-002, -5.84977604e-002,
          5.83401807e-002, -7.50996023e-002, -1.41082242e-001,
          8.85359496e-002, 8.38323031e-003, -1.55998826e-001,
          -7.34335417e-003, 3.06366272e-002, -7.44822323e-002,
          -1.90299153e-001, 1.14065140e-001, -5.19200936e-002,
          -2.98501968e-001, -2.39116773e-002, -7.87731931e-002,
          8.84904042e-002, -1.78522408e-001, 8.73745009e-002,
          -1.86955303e-001, 1.50820881e-001, -1.47214374e-002,
          1.30552858e-001, -1.50702015e-001, 1.53502002e-001,
          -5.17683998e-002, 1.31680921e-001, -3.32425207e-001,
          4.30360511e-002, 2.14668751e-001, 8.95838439e-002,
          5.01501858e-002, 4.56709042e-002, -8.46190602e-002,
          1.99607730e-001, 1.10998116e-002, -5.83416410e-002,
          1.94481388e-001, -1.21309003e-003, -1.83787614e-001,
          -1.16055019e-001, 7.40443990e-002, -5.03234146e-003,
          1.20314136e-001, 1.68355986e-001, -2.57262021e-001,
          1.18525013e-001, -9.71640870e-002, 2.92009413e-001,
          -2.82682359e-001, -1.17881969e-001, 9.20737609e-002,
          1.26557484e-001, -5.16585670e-002, -1.81189612e-001,
          -2.25659646e-002, 1.61498785e-002, -4.02560411e-003,
          6.10303469e-002, -8.96984432e-003, -4.54531226e-004,
          5.29426709e-002, 1.48971379e-001, 1.08580127e-001,
          -1.17490096e-002, -4.61679045e-003, 1.55414462e-001,
          -4.98989820e-002, 1.06897533e-001, -1.59913450e-001,
          1.21136770e-001, 1.17004737e-001, 6.45138174e-002,
          -6.79315776e-002, 6.19019419e-002, 1.28953651e-001,
          3.42447236e-002, -7.75773823e-002, -6.24068119e-002,
          -5.73700853e-003, -8.30070525e-002, -3.04751601e-002,
          -1.59539610e-001, 6.56476989e-002, 2.86354031e-003,
          -4.13356572e-002, -2.70538051e-002, -2.65614260e-002,
          3.57226312e-001, -2.13525351e-002, 1.21812306e-001,
          -1.13479681e-002, -1.20817423e-001, 2.48491913e-001,
          8.73733163e-002, 2.90448070e-001, 1.80113390e-001,
          -1.60992101e-001, -4.96766865e-001, -8.57406482e-002,
          1.44417226e-001, -5.30296862e-002, -6.22238731e-003,
          1.26356870e-001, 4.58786599e-002, 7.65028074e-002,
          -1.81383714e-001, 1.79784030e-001, -8.43476653e-002,
          -4.44294652e-003, -4.21305448e-002, 7.60483220e-002,
          1.97944894e-001, -1.51899070e-001, 2.52121329e-001,
          1.83153927e-001, 2.78296769e-001, 1.97802886e-001,
          1.47964776e-001, -1.81356166e-002, -2.71811455e-001,
          1.17005780e-001, 2.65555918e-001, 2.65249107e-002,
          -2.92351395e-001, 1.09728798e-001, 1.11922666e-001,
          2.40091801e-001, -1.95867971e-001, -5.79095408e-002,
          3.91654149e-002, -8.71845633e-002, -1.64419144e-001,
          -1.60264999e-001, 1.64776608e-001, 2.61335582e-001,
          -1.08114406e-001, -1.14597484e-001, -8.31321627e-002,
          4.50107567e-002, -1.77024752e-001, 4.93042618e-002,
          -2.49114066e-001, -5.25859743e-003, 1.48816362e-001,
          6.86329678e-002, 7.17881620e-002, 1.48280606e-001,
          7.86881223e-002, -8.08322802e-002, 8.31756683e-004,
          -3.71043198e-002, 2.95676850e-002, -9.41151008e-002,
          2.52477080e-001, -1.70148954e-001, -6.01588972e-002,
          2.34890684e-001, 8.26005861e-002, 1.14419304e-001,
          5.15473559e-002, -2.10828468e-001, -7.96864107e-002,
          9.96935517e-002, 3.28286476e-002, -2.40549788e-001,
          -1.34912118e-001, 2.76549846e-001, -4.08840403e-002,
          5.53303510e-002, -3.04813660e-003, 7.60839731e-002,
          2.13127080e-002, -2.64518142e-001, -2.78359707e-002,
          -3.72201055e-001, 8.36180598e-002, 9.61709917e-002,
          4.81802337e-002, 2.81363040e-001, -2.95654479e-002,
          7.82985240e-002, 1.26362398e-001, -3.13324094e-001,
          1.67819262e-001, -9.02729854e-002, 4.45742533e-002,
          1.41556770e-001, 9.14668813e-002, 2.69132912e-001,
          8.19025636e-002, 1.57691315e-002, -1.73895769e-002,
          -1.35008231e-001, 7.48587400e-002, -6.70771375e-002,
          4.23033714e-001, 3.14233810e-001, 1.57661233e-002,
          -1.18736707e-001, -8.99215490e-002, 1.52286530e-001,
          3.45962763e-001, 1.52260810e-001, 1.54978242e-002,
          1.06828675e-001, -2.03753397e-001, -5.67748509e-002,
          1.09123759e-001, -1.53270975e-001, -1.57284036e-001,
          -7.22924322e-002, -8.31137672e-002, -1.23132870e-001,
          -8.46409649e-002, 1.89125426e-002, -6.46151006e-002,
          -1.01865409e-002, 1.26195431e-001, 1.22693323e-001,
          1.06999457e-001, 1.25511065e-001, 1.55412957e-001,
          9.17870104e-002, 1.58190727e-001, -1.30108923e-001,
          1.80588514e-002, 2.35141128e-001, -2.65554595e-003,
          1.42487332e-001, 1.18511871e-001, -1.83091626e-001,
          -1.49525493e-001, -1.33632049e-001, -1.19749671e-002,
          6.47745356e-002, -1.03592589e-001, -1.13809690e-001,
          -6.26879036e-002, 1.63104817e-001, -5.62594049e-002,
          -3.28501612e-002, -1.19570829e-001, 2.01283786e-002,
          -6.15048781e-002, 7.82772526e-002, -7.11923093e-002,
          6.49982765e-002, 2.75058627e-001, -1.44395784e-001,
          1.83040261e-001, 7.05930665e-002, -1.07718885e-001,
          -6.26627132e-002, 2.06240475e-001, 1.79308623e-001,
          4.39024419e-002, -8.96249712e-002, -1.62708253e-001,
          -5.76196201e-002, 1.16894536e-001, -3.29659246e-002,
          1.11531325e-001, -4.00974415e-002, -4.14586626e-003,
          -9.01478380e-002, -1.64628595e-001, -1.07197523e-001,
          7.25920172e-003, -5.03692068e-002, -1.56948969e-001,
          1.37188658e-001, 4.16942090e-002, -2.78065391e-002,
          -6.25317246e-002, -1.27058789e-001, 2.20057905e-001,
          -2.42432237e-001, 4.45304029e-002, -1.37625277e-001,
          7.92527646e-002, -1.45582393e-001, -8.60339403e-002,
          9.31017473e-002, 4.54215854e-002, -5.59006967e-002,
          -7.91393816e-002, -1.92828830e-002, 4.78813797e-002,
          3.77029479e-002, -6.14706241e-002, -3.48543599e-002,
          4.29395773e-003, -3.99158755e-003, -4.56785923e-003,
          -4.05948870e-002, 7.88311362e-002, -6.20250665e-002,
          9.71987247e-002, -1.67297497e-002, -2.98900884e-002,
          -4.81659658e-002, 1.56493694e-001, -3.29717547e-001,
          -2.19441876e-001, -1.75609924e-002, -1.76200047e-001,
          1.17291577e-001, -3.97732034e-002, -2.00730246e-002,
          -3.19526382e-002, 7.39889815e-002, 4.98130284e-002,
          -4.93111052e-002, -2.04647873e-002, 7.33265504e-002,
          9.56337824e-002, 1.49288267e-001, -2.36508772e-002,
          1.70056634e-002, 2.63631884e-002, -1.33418724e-001,
          1.61031485e-002, -5.58283888e-002, 1.46480009e-001,
          -9.93246585e-003, -1.67498827e-001, -2.62841117e-004,
          8.98222998e-002, -1.18404292e-001, -6.51558191e-002,
          -2.00883765e-002, 1.10247582e-001, -1.37455210e-001,
          1.41582459e-001, -1.41376868e-001, 3.44164595e-002,
          -3.18877921e-002, 1.59506425e-001, 1.10364802e-001,
          -1.38537586e-001, 1.36657715e-001, 1.35326594e-001,
          7.19234273e-002, -1.06350154e-001, 2.95243189e-002,
          -2.07737759e-001, 8.81652012e-002, 4.36789505e-002,
          -3.24502662e-002, 1.14690766e-001, 1.54048055e-001,
          1.36853278e-001, -1.20326385e-001, -3.97569314e-002,
          -7.37212300e-002, 7.11041093e-002, -1.38986871e-001,
          6.28472939e-002, -5.44360466e-002, -3.90638560e-002,
          1.76051885e-001, 2.84239888e-001, -1.44074202e-001,
          1.12907933e-002, -5.38131483e-002, 9.99929011e-003,
          -3.51417214e-002, -4.69627231e-002, -1.15562156e-001,
          -1.05695417e-002, -2.04321593e-001, 3.50627266e-002,
          2.13527195e-002, -1.59364954e-001, 4.60495949e-002,
          1.42687894e-002, -8.84425268e-002, -1.71729103e-001,
          -3.13118584e-002, 1.29898533e-001, 2.00570285e-001,
          1.01754270e-001, -7.68166184e-002, -2.38219246e-001,
          1.03557222e-001, 9.93691981e-002, 1.48149565e-001,
          1.64921135e-001, 2.63055623e-001, 6.47890344e-002,
          4.79964949e-002, 8.40751603e-002, 6.71334937e-002,
          3.59729528e-001, 5.69619872e-002, 1.78685084e-001,
          -2.09836513e-002, 1.16608500e-001, 6.76345378e-002,
          2.66406070e-002, 2.08688788e-002, -3.53427492e-002,
          -1.11850038e-001, 1.00473918e-001, -3.94695736e-002,
          -2.32099351e-002, 4.29818556e-002, -7.57938921e-002,
          9.73320007e-003, 8.07623938e-002, 3.14998627e-002,
          -9.34379641e-003, 6.13699257e-002, -9.32319276e-003,
          1.84986532e-001, -1.01760566e-001, -1.08015999e-001,
          5.74342236e-002, 6.63560256e-002, -6.68443856e-004,
          4.56683375e-002, -1.25183806e-001, -1.28101155e-001,
          6.00546133e-003, 1.14122748e-001, -3.14419381e-002,
          -7.43307825e-003, -2.21714024e-002, 4.47673239e-002,
          -1.60511229e-002, 1.92226563e-002, 1.03458919e-001,
          -1.64793164e-001, -7.04079196e-002, -4.66214195e-002,
          7.37960115e-002, 9.36551578e-003, -7.44061098e-002,
          1.24344930e-001, -2.11082339e-001, -9.39975213e-003,
          1.62823111e-001, -1.92086212e-003, -4.93288524e-002,
          -2.51589175e-002, 3.37145701e-002, 1.62963733e-001,
          -1.63167492e-001, -1.23427816e-001, 8.03949428e-004,
          -7.05427444e-003, -1.32665947e-001, -3.17905024e-002,
          -1.86268240e-001, -6.40771445e-003, -5.68563789e-002,
          1.23400584e-001, -1.26015946e-001, 1.29668778e-002,
          1.08418234e-001, -2.98447371e-001, -3.28837000e-002,
          -4.98394892e-002, 6.54380992e-002, -6.69870302e-002,
          1.18996568e-001, -7.81582762e-003, 1.30658999e-001,
          -2.96907667e-002, -1.79949820e-001, 3.11456352e-001,
          1.64764017e-001, 4.89085400e-003, 6.58032894e-002,
          2.44110197e-001, -1.42840862e-001, 2.52697408e-001,
          -1.28645808e-001, 2.05966592e-001, 3.31321836e-001,
          3.36232558e-002, -1.82835519e-001, 4.30568159e-002,
          2.38780692e-001, 3.97308171e-003, 2.46266145e-002,
          5.31090088e-002, 2.37884298e-001, -1.72075704e-001,
          5.29856370e-005, 1.28801763e-001, -2.15488225e-001,
          -1.82390779e-001, -9.73949432e-002, 1.08533904e-001,
          -9.81114432e-002, 3.13083738e-001, -6.92385882e-002,
          2.10880280e-001, 8.80854428e-002, 8.23089555e-002,
          6.10246807e-002, 6.92239925e-002, 6.05628192e-002,
          8.75314847e-002, 8.62196553e-003, -8.92866123e-003,
          -1.58176437e-001, -1.24498662e-002, 5.77413440e-002,
          -1.16315126e-001, 2.92881429e-002, -8.15281793e-002,
          -8.22361186e-002, -2.12427508e-002, 1.95274241e-002,
          2.19355419e-001, -1.77275185e-002, -1.35439441e-001,
          8.61268640e-002, 4.95521761e-002, 3.36907874e-003,
          -7.77987577e-003, 1.33109927e-001, -1.27373010e-001,
          -1.10142477e-001, -1.37511104e-001, -8.81864801e-002,
          -5.92619665e-002, 8.63382965e-002, -3.76000777e-002,
          9.21652317e-002, 1.56921014e-001, 3.22451955e-003,
          -3.51563394e-002, 9.85147506e-002, 3.62658165e-002,
          -2.15480477e-001, 3.14345330e-001, -1.07417166e-001,
          -1.41755238e-001, 1.05266962e-002, -6.81809634e-002,
          1.59968156e-002, -8.09244346e-003, -6.53828159e-002,
          5.18977977e-002, -1.72467470e-001, 8.63490254e-002,
          -1.68344367e-003, -1.95436329e-001, 6.72984347e-002,
          -1.19318012e-002, 1.21624880e-002, -5.14849648e-002,
          -1.28653914e-001, -1.94394276e-001, 9.53148678e-002,
          -1.72859758e-001, -1.67104423e-001, -3.42983715e-002,
          1.58746317e-001, -3.44250686e-002, 1.19877219e-001,
          -9.53637064e-002, -2.07228094e-001, 6.32405952e-002,
          1.62227124e-001, -1.55136436e-001, 1.56416908e-001,
          1.42118856e-001, -1.29769921e-001, 3.06196421e-001,
          -3.29446532e-002, -6.28238264e-003, 1.11493595e-001,
          1.23121940e-001, -1.48447663e-001, -1.35135446e-002,
          1.52539741e-002, 1.19358405e-001, -2.43186414e-001,
          -7.52421170e-002, 2.16569845e-002, 1.07152283e-001,
          -1.69166699e-001, -4.69333166e-003, 1.00053668e-001,
          -4.57897276e-001, -5.07754646e-002, -3.56239043e-002,
          7.56154805e-002, 1.16328672e-001, 2.27512121e-002,
          1.89041778e-001, -1.98224753e-001, -2.72952151e-002,
          -3.10239084e-002, 3.70678231e-002, -1.16686702e-001,
          2.74685979e-001, -1.66883811e-001, 1.82861835e-001,
          -7.91185070e-003, -5.51674282e-003, -1.76694319e-002,
          -2.25349497e-002, 2.09276304e-002, 8.38002469e-003,
          -2.23329246e-001, -1.98895246e-001, -2.16145664e-001,
          -2.94615120e-001, -1.88394487e-001, 1.40210479e-001,
          1.53694555e-001, -4.23596092e-002, -3.05674016e-001,
          -1.65336877e-002, 1.75980534e-002, -2.87678033e-001,
          -7.91023299e-002, -1.17839535e-003, -1.16917780e-002,
          -1.24109909e-001, 2.70913213e-001, -8.51643309e-002,
          1.42972674e-002, 8.59839618e-002, 7.33365417e-002,
          -2.26310298e-001, -2.62618005e-001, 2.65085399e-002,
          -3.39237333e-004, 2.20678508e-001, 7.10580572e-002,
          9.06275362e-002, 2.25013226e-001, 1.85953483e-001,
          -1.07511193e-001, -1.70645714e-001, -1.04243681e-001,
          4.10151072e-002, 4.87588309e-002, 1.03577934e-001,
          -6.61520809e-002, -1.04717594e-002, 1.00581869e-001,
          -1.77841961e-001, -1.36589840e-001, 4.42827214e-003,
          9.77194030e-003, 1.38779804e-001, -5.27017191e-002,
          -8.41363743e-002, 9.64821801e-002, -1.77237809e-001,
          -1.93762220e-002, 1.38501391e-001, -1.03787012e-001,
          -4.05937612e-001, -2.28027608e-002, 1.53371632e-001,
          -9.10928100e-002, 6.15917742e-002, -9.88422260e-002,
          -1.14860728e-001, -3.69843356e-002, 1.53282493e-001,
          1.25634938e-001, 1.83568839e-002, -6.52046874e-003,
          -9.23462305e-003, 6.00315258e-003, 7.06409365e-002,
          -1.75608948e-001, 1.55493185e-001, -1.74827427e-001,
          1.86041236e-001, 1.17894672e-001, 2.12866464e-003,
          1.83463525e-002, 9.09107849e-002, 8.81038904e-002,
          -3.87842506e-001, -1.51579261e-001, -5.77380462e-003,
          -9.84925963e-003, -4.11151946e-002, -1.03362493e-001,
          1.76326245e-001, 5.40842488e-002, -8.92563462e-002,
          8.42444040e-003, -5.83276302e-002, 7.36547112e-002,
          -3.52804139e-002, 3.83451357e-002, 1.28651395e-001,
          -5.62766287e-003, 9.49921831e-002, 4.68930006e-002,
          -1.84417032e-002, -2.52982788e-002, -8.33809562e-003,
          2.51639094e-002, -2.01287791e-001, 1.34780020e-001,
          8.53760540e-003, -5.31383157e-002, 7.74039477e-002,
          1.75774708e-001, 1.22575350e-001, -5.98292828e-001,
          7.08376020e-002, 6.68399781e-002, -3.06237787e-001,
          -1.55801833e-001, -1.46637568e-002, -8.87933895e-002,
          4.72780578e-002, 7.69848516e-003, 4.13636416e-002,
          -5.94354980e-002, 3.16414833e-002, 6.84663206e-002,
          -3.26098911e-002, -4.27507535e-002, -5.71424775e-002,
          -5.26600629e-002, 5.48181906e-002, 1.65076911e-001,
          2.43512154e-001, -7.57515877e-002, 4.61202413e-002,
          -4.26116958e-002, 6.80886433e-002, 6.87135458e-002,
          -5.38064726e-002, 3.97357531e-002, 3.16185981e-001,
          -4.94907834e-002, 1.67283267e-001, 1.95355237e-001,
          3.19088362e-002, 4.46448326e-002, 1.37157422e-002,
          4.24370281e-002, 9.01220590e-002, -8.86448398e-002,
          -1.46960616e-001, 1.74499884e-001, -8.17876160e-002,
          -1.34855837e-001, 3.07290200e-002, 1.08369440e-001,
          -9.23148617e-002, -8.00240859e-002, -1.10951476e-001,
          5.01219518e-002, -5.79718165e-002, 4.08231132e-002,
          2.50842631e-001, 1.31118089e-001, 4.83190447e-001,
          1.96810067e-001, -1.10833645e-001, 1.76410735e-001,
          8.19903836e-002, 7.37247244e-002, -2.33710669e-002,
          2.24152505e-001, 2.52655894e-001, -4.50051017e-002,
          8.87099057e-002, 3.93211693e-002, 7.22191483e-002,
          -7.62985125e-002, 2.05035135e-001, 1.51414117e-002,
          -1.47240683e-001, 3.69644575e-002, 4.74896394e-002,
          4.17469963e-002, 1.43137410e-001, 6.80762157e-002,
          7.84492642e-002, 6.90159053e-002, -1.75835356e-001,
          -2.04973131e-001, 1.59785941e-001, -2.56061733e-001,
          7.92347938e-002, -1.83605067e-002, 4.85967845e-002,
          9.30424780e-002, 1.13944650e-001, 5.79957180e-002,
          1.25839591e-001, 4.20379490e-002, -6.33173436e-002,
          1.32014006e-001, 3.79495695e-002, 1.76868543e-001,
          1.33100465e-001, -7.42900698e-003, -5.73485009e-002,
          2.13861745e-002, 6.99466094e-002, -3.39382291e-001,
          3.18750143e-001, 6.37371615e-002, 3.60298268e-002,
          7.71986395e-002, -8.57814625e-002, 3.02264690e-001,
          2.71443427e-002, 1.76336855e-001, -2.08302215e-001,
          -7.56573081e-002, 7.24549145e-002, -8.42171907e-002,
          -8.00551251e-002, -4.56056150e-004, 1.03482291e-001,
          -1.68154284e-001, 4.08953242e-002, 7.61450529e-002,
          1.92686364e-001, 2.39709899e-001, 5.81371821e-002,
          -2.53215861e-002, 1.89271972e-001, 8.43106881e-002,
          3.10551971e-002, 1.58687904e-001, 8.91951993e-002,
          6.19745813e-002, 3.44600379e-001, 2.06710383e-001,
          2.57723369e-002, 1.08195469e-001, -3.68295163e-002,
          1.78066362e-002, 1.68587223e-001, 1.99162021e-001,
          2.39198282e-002, 6.86226040e-002, -4.77263704e-002,
          -1.15925837e-002, 1.20382570e-002, -2.38932874e-002,
          -6.69425949e-002, 3.31386141e-002, 2.90214142e-004,
          1.42623752e-001, -1.52599365e-001, 1.72092542e-001,
          1.46386892e-001, -9.06004012e-002, -2.19577700e-002,
          1.19519308e-001, 8.55747759e-002, 2.07954064e-001,
          -9.35388505e-002, 2.38129437e-001, 1.33162111e-001,
          1.82380497e-001, 2.09851474e-001, 1.88125253e-001,
          -1.18725546e-001, 8.48732889e-002, 9.56020355e-002,
          1.99602947e-001, 1.01484163e-002, 1.13770336e-001,
          1.40924722e-001, -2.25259021e-001, -6.60480335e-002,
          -2.29654070e-002, 1.20125532e-001, 2.93097019e-001,
          -6.92569911e-002, -1.99816935e-002, -4.84567955e-002,
          1.29422843e-001, -5.01362272e-002, -4.52467054e-003,
          4.20461260e-002, -1.63821056e-001, -3.45855355e-002,
          -1.67945435e-003, 1.60188004e-001, 9.88783501e-003,
          -1.65196636e-003, 7.63860643e-002, -7.37039223e-002,
          4.06391174e-002, 3.66582051e-002, 3.94289345e-002,
          1.78842261e-001, 9.53597128e-002, -9.11616161e-002,
          6.36970997e-002, 7.43440241e-002, -3.64809632e-002,
          6.38949126e-002, -1.39321283e-001, 1.63911609e-003,
          3.82082947e-002, -1.18994273e-001, -1.60359681e-001,
          1.74289197e-002, 2.74883173e-002, -8.93819928e-002,
          2.08086986e-002, -3.80349830e-002, -1.02374228e-002,
          -2.28158340e-001, -5.86210154e-002, -2.01140083e-002,
          9.02287569e-003, -1.89323500e-002, -9.63288322e-002,
          6.42399564e-002, -7.79438615e-002, 5.83918057e-002,
          -6.33152649e-002, 1.57123450e-002, 1.10517316e-001,
          1.12453558e-001, 4.80973050e-002, 9.98951378e-004,
          -5.38882501e-002, -6.91148862e-002, -7.56852562e-003,
          1.34156384e-002, 6.34405240e-002, -1.58201270e-002,
          -1.48358243e-002, -4.90538143e-002, 6.40894314e-006,
          5.64826019e-002, 1.65507063e-001, -1.21667676e-001,
          1.01759611e-002, -1.20713443e-001, -1.22112639e-001,
          -4.96109091e-002, -8.65344852e-002, 1.26251981e-001,
          6.91500679e-003, 4.38156165e-002, -3.31058055e-002,
          -1.65972356e-002, 5.98292938e-003, 2.34750494e-001,
          1.11707345e-001, -3.41896042e-002, 1.73929241e-002,
          2.43722498e-001, 1.86678797e-001, 2.19998494e-001,
          3.04110534e-002, 5.43590896e-002, 3.92386802e-002,
          3.57202850e-002, 1.59293979e-001, 8.49843398e-002,
          8.75394195e-002, -5.96874356e-002, 6.41703233e-002,
          -9.33101699e-002, 5.24177924e-002, -3.17506567e-002,
          -1.86091930e-001, -1.77374315e-002, 1.20018870e-001,
          1.74900964e-002, 5.28420061e-002, -4.82995017e-003,
          -2.70489424e-001, 6.27522310e-003, 3.80239636e-002,
          1.26533002e-001, 1.10263035e-001, 2.87810564e-001,
          -3.07202399e-001, 2.51216199e-002, -3.37773971e-002,
          2.39982512e-002, 5.90763390e-002, 1.07726362e-002,
          -1.69971347e-001, -9.23856571e-002, 1.63129523e-001,
          1.01064265e-001, -1.48842618e-001, 2.14248806e-001,
          6.96929097e-002, -9.20476019e-002, -6.79775402e-002,
          -9.78674889e-002, -1.44929767e-001, -3.86091061e-002,
          1.93968177e-001, 1.27792567e-001, 1.28729463e-001,
          3.81942779e-001, -1.62725344e-001, -7.87337273e-002,
          2.40181666e-002, -2.18075365e-002, 2.12740190e-002,
          -4.70111007e-003, 4.13376614e-002, 2.19071843e-002,
          -6.88357949e-002, 4.54901904e-002, 6.05226271e-002,
          4.04868536e-002, 2.58368198e-002, 1.18929550e-001,
          -7.92143047e-002, -3.38941179e-002, -1.74378514e-001,
          -5.51417172e-002, 7.63661563e-002, 1.31696522e-001,
          -1.69452708e-002, 3.57462354e-002, 4.55177389e-002,
          9.41328257e-002, -5.88156991e-002, 2.82873869e-001,
          9.41244066e-002, -7.86251277e-002, 3.05139840e-001,
          -1.07709713e-001, -9.19797570e-002, -6.10381216e-002,
          7.17089400e-002, -4.67711687e-002, 8.89752731e-002,
          -1.22264571e-001, 7.33389780e-002, 1.57468528e-001,
          4.48046327e-002, -1.94566250e-001, -5.82148507e-002,
          2.24748969e-001, -2.35812925e-002, 8.80066007e-002,
          1.01194121e-001, 1.41587988e-001, 2.04849273e-001,
          -1.16586931e-001, 4.96157669e-002, -1.21543884e-001,
          1.36442140e-001, 3.12886417e-001, -1.30373612e-001,
          7.39934146e-002, 3.45768511e-001, 2.68194405e-003,
          -4.34188135e-002, 9.75140631e-002, -3.74690033e-002,
          -9.53935310e-002, -3.40687521e-002, 2.06060678e-001,
          -3.44901308e-002, 3.43429074e-002, 5.38252741e-002,
          -3.36417556e-001, -7.68310484e-003, 7.85442349e-003,
          1.10884167e-001, 1.56594962e-001, 2.70679984e-002,
          -6.13835342e-002, -3.83015871e-002, -6.71377927e-002,
          -2.25627378e-001, 8.69403780e-002, 8.29054192e-002,
          -7.47276768e-002, 9.12357718e-002, 2.57524084e-002,
          2.18305346e-002, -6.33347258e-002, 1.08093090e-001,
          3.40856165e-002, 4.85393219e-002, -1.36245862e-001,
          2.16153935e-001, -8.41128081e-003, 5.91808222e-002,
          4.50683199e-003, 9.11726281e-002, 4.01621200e-002,
          -5.80518367e-003, 1.08870082e-002, -6.96942955e-002,
          -1.16089657e-001, -5.16547747e-002, 5.77829704e-002,
          4.74132858e-002, 2.30834365e-001, 1.30278796e-001,
          -9.87399891e-002, 3.33922416e-001, 6.43767640e-002,
          5.44595756e-002, 1.36847436e-001, 5.84328361e-002,
          1.53650105e-001, 9.67265517e-002, 3.02389681e-001,
          3.31967622e-001, 2.26699159e-001, -7.02565089e-002,
          2.13439465e-001, -1.31288439e-001, 2.41846979e-001,
          -8.25496018e-002, -4.92681973e-002, 1.70444727e-001,
          1.86541155e-001, 3.50293145e-002, -1.31665664e-002,
          5.77324107e-002, 1.45416275e-001, 3.32947314e-001,
          -1.02413837e-002, 2.96258014e-002, 5.05287461e-002,
          5.06279357e-002, 3.07162821e-001, -9.56062451e-002,
          1.05461419e-001, 2.27902457e-002, 1.14191063e-001,
          -1.00788504e-001, 3.42392665e-003, 3.87684591e-002,
          6.55983686e-002, -1.18399583e-001, 1.31052285e-001,
          -7.78249651e-002, 4.68274690e-002, 8.11347440e-002,
          9.36082304e-002, -4.34178747e-002, -2.25068517e-002,
          7.91987479e-002, -9.16975588e-002, -5.84152751e-002,
          4.68287915e-002, -3.21468972e-002, -2.80880146e-002,
          9.58474725e-002, -6.96913823e-002, -2.04308480e-002,
          1.04413338e-001, 7.79184625e-002, 7.13362396e-002,
          3.60764265e-002, 1.99669972e-002, -2.98454165e-001,
          -2.70193554e-002, 9.94341150e-002, 6.28344808e-003,
          -1.35993492e-002, 3.24072763e-002, 8.83338079e-002,
          -3.64510417e-002, 9.40976739e-002, 2.99681313e-002,
          -8.02876502e-002, 3.32456641e-002, 1.95143476e-001,
          8.45838487e-002, 1.22461841e-001, 5.76978251e-002,
          -1.24493808e-001, 1.27875462e-001, -1.11855812e-001,
          2.85579652e-001, 8.46148655e-002, -1.11015774e-001,
          -2.61065327e-002, 1.57930419e-001, 9.15616658e-003,
          1.78390652e-001, 9.39133298e-003, 7.10469484e-002,
          -8.03061053e-002, -1.04827277e-001, -6.36724532e-002,
          1.14149839e-001, 8.96415412e-002, 2.86836565e-001,
          -2.98127681e-001, -3.75976712e-002, 2.30490183e-003,
          7.59231334e-004, 5.25465840e-003, 1.71366677e-001,
          -2.64230445e-002, 1.26960754e-001, 2.49290280e-002,
          7.02864081e-002, -1.20149456e-001, 6.42494112e-002,
          -5.80329672e-002, 2.24036485e-001, 1.73152447e-001,
          1.22621141e-001, 1.00378908e-001, 3.58678222e-001,
          -1.12606823e-001, 1.07454292e-001, 1.99129954e-001,
          4.04972017e-001, -1.14843898e-001, 4.92219403e-002,
          -1.23389745e-002, -2.82959267e-002, -1.55570358e-002,
          1.81917325e-001, 7.05295429e-002, -2.20052097e-002,
          -5.39249144e-002, -1.11667544e-001, -8.54165182e-002,
          -3.04529537e-002, -9.99307483e-002, 1.47618711e-001,
          5.39872190e-003, -9.93717238e-002, 9.74809844e-003,
          -2.12871104e-001, -4.56153937e-002, -7.63858575e-003,
          1.91100985e-002, 7.62028322e-002, 7.31097609e-002,
          4.28381227e-002, 1.10140011e-001, -9.48460177e-002,
          6.30710870e-002, -1.60415284e-002, 9.53318328e-002,
          -8.79077315e-002, -1.21864900e-001, 1.37386531e-001,
          2.91047376e-002, 2.24888381e-002, -4.45088074e-002,
          7.62138739e-002, 9.67216566e-002, 8.73225182e-002,
          -5.87142259e-002, 1.09795369e-001, -5.08665293e-003,
          2.28002369e-001, -2.03782454e-001, -3.60682383e-002,
          1.04359068e-001, 2.19582826e-001, 2.96092063e-001,
          -1.43297806e-001, 2.95974370e-002, 1.21908687e-001,
          7.26391049e-003, -2.41494346e-002, 1.43472292e-002,
          2.66184866e-001, 2.35189244e-001, 4.79508080e-002,
          2.53281355e-001, 5.47867939e-002, 7.74695203e-002,
          1.84062898e-001, 6.78504482e-002, -1.02086999e-001,
          1.28774986e-001, -4.47999649e-002, -2.58061253e-002,
          2.84507070e-002, 4.44576703e-002, 6.30811378e-002,
          -8.18337500e-002, -1.93242073e-001, 1.70947194e-001,
          -1.59336448e-001, 2.43333533e-001, 1.67788357e-001,
          7.24078715e-002, -1.96201116e-001, -2.38351583e-001,
          -1.10116370e-001, 7.84503445e-002, 1.37305558e-001,
          2.54828297e-002, 2.87060410e-001, -5.69076166e-002,
          2.50018209e-001, 2.54034013e-001, 2.28346676e-001,
          2.20147550e-001, -6.10120781e-002, 1.50004670e-001,
          2.80266166e-001, 2.88820475e-001, 1.46085262e-001,
          -2.59623021e-001, -5.49993441e-002, 2.62818128e-001,
          7.20982850e-002, 1.16622016e-001, 1.80976279e-002,
          2.78112311e-002, -1.52274787e-001, -1.57682952e-002,
          -1.59400880e-001, -4.34055850e-002, 6.06940016e-002,
          -1.52108401e-001, 4.77297567e-002, 1.43994212e-001,
          1.50160491e-002, 5.83749227e-002, 1.04297763e-002,
          1.20255545e-001, -5.89731708e-002, 9.11252052e-002,
          -9.73306037e-003, 1.84772462e-001, 1.03971183e-001,
          7.77192414e-002, 2.55743712e-002, -4.34759595e-002,
          5.50649241e-002, 1.43049201e-002, -2.30792575e-002,
          6.49258271e-002, -3.30659226e-002, 5.60422651e-002,
          7.57510401e-003, -4.35813293e-002, 1.03288010e-001,
          -1.20941386e-001, -3.02515011e-002, 4.13215011e-002,
          -8.95056874e-002, 3.50924581e-002, -1.93084717e-001,
          -2.39869222e-001, -9.90425572e-002, 1.25936463e-001,
          4.18782644e-002, -2.77889776e-003, 8.70808735e-002,
          1.05364233e-001, 1.74434960e-001, -1.85538784e-001,
          2.48236582e-002, 1.56746116e-002, -1.31844819e-001,
          2.05357656e-001, 2.14336440e-002, -2.92328335e-002,
          4.99742061e-001, 1.36581108e-001, -9.21587795e-002,
          -1.23065757e-002, 1.57606259e-001, 8.56500790e-002,
          2.07758188e-001, -1.30901396e-001, -9.99386460e-002,
          1.00834273e-001, 1.70304447e-001, 5.65748289e-002,
          1.03624105e-001, 2.48398945e-001, -8.30036625e-002,
          -2.58209445e-002, 3.72509062e-002, -5.49884774e-002,
          -2.01335073e-001, -2.63981763e-002, 9.61266607e-002,
          1.66242614e-001, -2.15849690e-002, 5.05891405e-002,
          -2.39179805e-001, -5.10364547e-002, 3.09414510e-002,
          1.21730343e-001, 6.52810559e-003, -4.57482450e-002,
          -4.07654606e-003, 1.33668169e-001, 1.77588642e-001,
          2.93875132e-002, 5.23304678e-002, 4.03825864e-002,
          6.04452379e-002, 2.54407548e-003, 1.33124262e-001,
          -2.14397889e-002, 6.46791756e-002, 7.64260516e-002,
          1.49020012e-002, -3.44290137e-001, 9.28684026e-002,
          2.97155846e-002, 3.76885794e-002, -7.73958564e-002,
          2.08082013e-002, 3.78536656e-002, -1.78030148e-001,
          -1.71489164e-001, 8.86083841e-002, 1.84214264e-001,
          -1.29276574e-001, -3.83156501e-002, 3.20265219e-002,
          4.03750986e-002, -2.87259072e-002, 3.49439740e-001,
          -2.53460348e-001, -8.31078291e-002, 2.70895243e-001,
          1.29617462e-002, 1.29060149e-001, 6.50963560e-002,
          8.44349265e-002, 1.82781801e-001, 1.20468333e-001,
          6.62208572e-002, 1.02374487e-001, -8.50351229e-002,
          -1.84728086e-001, -7.50013813e-002, -1.06778536e-002,
          1.08877616e-002, 4.59350385e-002, -2.56809115e-001,
          -2.66652890e-002, -6.92332238e-002, 1.25937060e-001,
          1.36696130e-001, 1.77581236e-001, -8.99121910e-002,
          -7.19583267e-003, 8.14887658e-002, -1.84531242e-001,
          -1.01200361e-002, 2.00601012e-001, 1.63454134e-002,
          -2.64285803e-002, 5.07403612e-002, -1.30051374e-001,
          -1.46830320e-001, 3.18755247e-002, -6.03197441e-002,
          7.27702752e-002, 3.27707082e-002, 2.95542758e-002,
          5.02040870e-002, -1.79694295e-002, -6.12035431e-002,
          -6.11940138e-002, -3.36041003e-002, 8.71279314e-002,
          -5.35862856e-002, 6.53617755e-002, 7.78437853e-002,
          5.27848490e-002, -1.91376321e-002, 4.38539386e-002,
          -2.79627025e-001, -2.13993131e-003, -3.67776044e-002,
          7.89789185e-002, 4.36272612e-003, 4.02039923e-002,
          7.32877152e-003, 2.91301254e-002, 1.31410360e-001,
          5.44782579e-002, -4.21781614e-002, 2.35857312e-002,
          -6.69973195e-002, -2.30288878e-001, 3.30373719e-002,
          4.91303690e-002, 4.90465425e-002, 2.68942639e-002,
          -4.46438603e-002, -1.94169376e-002, 2.12503951e-002,
          -2.75986400e-002, 3.98113728e-002, -5.50426282e-002,
          1.05286479e-001, -1.21036293e-002, 2.30012238e-001,
          3.76451947e-002, -1.67340785e-001, -3.92987728e-002,
          2.44471550e-001, 1.19668413e-002, 1.29331425e-002,
          9.75043774e-002, 9.46747884e-003, -8.30246881e-002,
          1.79020494e-001, -1.28782600e-001, -7.71315023e-002,
          -7.91537985e-002, -1.71992853e-001, -5.13133295e-002,
          1.68867931e-001, 6.50058836e-002, 1.47458212e-002,
          -1.40293362e-002, -1.53717548e-001, 1.18922219e-001,
          -4.02165391e-003, 1.58889499e-002, -1.53372064e-001,
          4.56885770e-002, 1.62860658e-002, -2.95895734e-003,
          -1.23336855e-002, -6.60737902e-002, 4.50465903e-002,
          1.97728444e-002, -2.31538102e-001, 1.08305700e-001,
          1.79003373e-001, -1.39103487e-001, -8.75859037e-002,
          1.28783388e-002, -7.45098069e-002, -6.06813282e-002,
          -7.66578540e-002, 1.27238095e-001, -3.11881974e-002,
          2.66403425e-002, 4.94472682e-002, 1.85520090e-002,
          4.99441735e-002, -6.05444722e-002, -1.82913139e-001,
          1.58521384e-001, -1.13870511e-002, 1.28415406e-001,
          -4.38855812e-002, 1.96107715e-001, -3.28958482e-002,
          8.81376937e-002, 2.30084229e-002, 1.78789347e-001,
          -1.26970097e-001, -1.50852557e-002, -6.56568408e-002,
          -4.16013459e-003, -8.49884227e-002, -6.43529296e-002,
          6.65253326e-002, -1.50502091e-002, 4.16625664e-002,
          1.61632910e-001, 9.37020332e-002, -1.49805576e-001,
          -8.13372433e-003, 1.11060172e-001, 4.00054231e-002,
          2.10261513e-002, 4.77004498e-002, 1.25602648e-001,
          1.26002759e-001, 4.86195348e-002, 2.04186304e-003,
          -1.08465664e-001, 4.52059396e-002, -8.87129270e-003,
          1.58926696e-001, 4.01777685e-001, -2.59636670e-001,
          1.14191920e-001, -7.91748427e-003, -4.67197560e-002,
          -2.44657788e-002, 3.82628813e-002, -5.40601127e-002,
          -9.46212932e-002, 3.63157596e-003, -1.54022157e-001,
          -1.95724577e-001, -2.96201967e-002, -3.69526371e-002,
          1.43406651e-004, 7.66424611e-002, 2.55450867e-002,
          -2.85234060e-002, -9.77655500e-002, 4.44165245e-002,
          7.69674927e-002, -2.02846274e-001, 4.39695157e-002,
          -1.20755821e-001, 1.31226167e-001, 7.01474771e-002,
          -3.06292772e-001, 7.02845007e-002, -1.11681975e-001,
          4.12344597e-002, -1.32920831e-001, -2.19403841e-002,
          1.28733441e-001, -1.45384729e-001, 8.79746154e-002,
          -6.01694658e-002, -6.91241249e-002, -2.65890500e-003,
          -1.57324031e-001, 1.14030778e-001, 9.01730582e-002,
          3.25863324e-002, 1.62055511e-002, 2.70287339e-002,
          -2.08881959e-001, -1.01317219e-001, -4.62494791e-002,
          1.68727463e-004, -4.51060608e-002, 7.88723752e-002,
          -2.31938865e-002, -3.02674118e-002, -3.23123112e-002,
          -3.31237018e-002, 1.65327303e-002, -1.14562549e-001,
          6.26220778e-002, -7.57323056e-002, -1.62724242e-001,
          1.28146783e-001, -2.50946861e-002, -7.37985820e-002,
          6.35962561e-002, -1.32790759e-001, 7.98187964e-003,
          7.50909150e-002, 6.56347573e-002, 4.64241616e-002,
          -2.95359939e-002, -8.32718797e-003, -3.70848775e-002,
          -7.95586854e-002, 1.21753797e-001, -1.01814970e-001,
          -6.99431151e-002, 6.61674663e-002, -1.52170584e-001,
          2.21868306e-001, 1.13516912e-001, -3.49869095e-002,
          1.47862390e-001, 3.02404672e-001, 8.82853195e-002,
          -1.14500545e-001, -8.53355005e-002, -7.64923543e-002,
          -1.49900272e-001, 1.72137365e-001, 5.37718832e-003,
          -1.70916125e-001, -3.27843800e-002, 1.78477596e-002,
          7.87063241e-002, 1.23335779e-001, 1.17894158e-001,
          -1.83391690e-001, -7.02371774e-003, 6.54931515e-002,
          1.79183140e-001, -1.27372965e-001, -2.51757558e-002,
          -7.51950070e-002, 5.10835275e-002, 7.50775710e-002,
          3.21858265e-002, 1.17030226e-001, -2.04488784e-002,
          7.14808479e-002, 5.51009923e-002, 1.65691432e-002,
          4.97616768e-001, -4.52122465e-002, 5.57127083e-003,
          2.29190663e-001, -1.39806345e-001, 7.78481290e-002,
          -2.45232657e-002, -8.13509971e-002, 1.26223579e-001,
          8.07967931e-002, 2.10212484e-001, -3.42939012e-002,
          -9.24617201e-002, -1.71754465e-001, -1.99022237e-002,
          -1.09156623e-001, -1.02933720e-001, -1.47908896e-001,
          1.19831271e-001, 6.42570928e-002, 4.66579497e-001,
          -9.28297341e-002, -3.56453024e-002, 7.13532194e-002,
          -1.90043777e-001, -4.72106375e-002, 5.12146801e-002,
          2.11666569e-001, -5.74602820e-002, 1.02449954e-001,
          7.84793943e-002, 2.56440137e-003, -8.47655814e-003,
          -7.69316107e-002, -1.63584396e-001, 8.51414427e-002,
          2.02401131e-002, -1.98220000e-001, -6.37746379e-002,
          2.14358177e-002, -9.92445275e-002, 2.44487934e-002,
          6.45021722e-002, 8.59298483e-002, 6.38449490e-002,
          1.92720108e-002, 2.66999751e-001, -2.97164936e-002,
          1.71766147e-001, 1.01659767e-001, -4.73954603e-002,
          1.18694395e-001, 1.30908221e-001, 1.09287880e-001,
          1.32710831e-002, 1.22740425e-001, 5.46510443e-002,
          -1.44331247e-001, 8.87962133e-002, 1.06662884e-001,
          1.22960508e-001, -2.07123861e-001, -1.50170118e-001,
          -1.62135493e-002, 1.92472905e-001, 3.96152399e-002,
          7.46175721e-002, -1.87153928e-002, -5.60135134e-002,
          6.35514334e-002, -3.51179428e-002, -1.52354375e-001,
          -1.45297199e-001, 3.70448500e-001, 3.58649343e-002,
          4.02754657e-002, -1.42295539e-001, -4.09608990e-001,
          2.00554699e-001, -1.31319359e-001, -1.26749247e-001,
          -5.15679494e-002, 1.07801311e-001, 6.07713461e-002,
          8.75479952e-002, 1.25194117e-001, 4.80814189e-001,
          1.28016338e-001, -1.72688693e-001, -4.03550506e-001,
          -8.58173594e-002, 6.60868408e-003, 1.18464343e-001,
          1.36568781e-003, 1.22984260e-001, 2.21439272e-001,
          3.68305922e-001, -1.24595007e-002, 1.55962184e-001,
          -1.11011580e-001, -6.44881232e-003, -1.26836985e-001,
          5.64757641e-003, 1.21711150e-001, -1.21213771e-001,
          2.76088059e-001, -2.18330309e-001, -2.26757135e-002,
          -1.17210671e-002, 4.05341759e-002, 1.19561762e-001,
          1.32330582e-001, -4.04873006e-002, -8.45811442e-002,
          2.00236775e-002, 1.41117081e-001, -9.95962992e-002,
          -2.45439098e-003, -1.49829537e-001, -5.24300039e-002,
          -5.60847782e-002, -1.54646644e-002, -3.11623514e-002,
          3.00280992e-002, -1.87022146e-002, 1.70108415e-002,
          -1.00601360e-001, -1.19095314e-002, -9.88642052e-002,
          5.52291870e-002, 3.63844223e-002, 6.06572330e-002,
          -1.82124063e-001, 8.34060460e-002, 5.62217161e-002,
          -7.23564206e-003, -1.21981822e-001, 2.05203041e-001,
          1.65918041e-002, -1.44153044e-001, -7.89525360e-002,
          -1.47148922e-001, -1.97098572e-002, -8.69743526e-002,
          6.22307695e-002, -1.44682650e-003, 1.49496496e-001,
          5.16590141e-002, 8.85732919e-002, -3.97026725e-002,
          1.38444733e-002, 9.47741121e-002, -2.39227358e-002,
          -1.26145445e-002, -1.81551687e-002, 2.99929846e-002,
          2.44360223e-001, 4.28697318e-002, 1.84144620e-002,
          7.23795518e-002, 2.55369209e-002, -8.18001851e-003,
          -5.15060797e-002, -4.54222457e-003, 2.24477295e-002,
          -3.38575765e-002, -9.93494876e-003, -1.64342254e-001,
          7.28434175e-002, -1.93955004e-002, 8.70731920e-002,
          -3.28417569e-002, 3.08961533e-002, 3.30515541e-002,
          -9.41530429e-003, 3.16309296e-002, 5.94154224e-002,
          7.61043429e-002, -1.62998196e-002, 5.85447662e-002,
          1.05328977e-001, -4.25406247e-002, 5.03269546e-002,
          1.52778670e-001, -4.81103882e-002, -2.03841135e-001,
          -2.00137421e-002, 1.09176047e-001, 5.75198010e-002,
          1.82479378e-002, -7.17590675e-002, 6.44113868e-002,
          -5.04762866e-002, -2.70665959e-002, -3.22770812e-002,
          -1.55147715e-002, 6.22565746e-002, 9.63888988e-002,
          2.63214242e-002, 3.83258685e-002, -4.07353602e-002,
          7.09017813e-002, 3.27038676e-001, 1.58506438e-001,
          -3.17745842e-002, -1.41933233e-001, 1.03638805e-001,
          4.65513840e-002, 2.73537058e-002, -2.57460456e-002,
          6.16664998e-002, 3.12882289e-002, 5.67460135e-002,
          1.92437470e-001, -8.97253454e-002, 7.52201653e-004,
          -7.70282596e-002, 4.56300229e-002, -2.18494117e-001,
          5.57806492e-002, 1.17128029e-001, -9.83879790e-002,
          7.68878916e-003, 8.89831558e-002, -8.34649950e-002,
          -2.24751249e-001, 9.89248902e-002, 1.36692241e-001,
          -8.11088830e-002, 2.24779770e-001, 5.37717305e-002,
          1.76921740e-001, 2.94260144e-001, -1.64796233e-001,
          2.22120181e-001, 1.27889561e-002, -6.89906403e-002,
          -9.65588354e-003, -3.62819172e-002, -9.47941616e-002,
          7.15696439e-002, -1.08423516e-001, -1.37313223e-002,
          -4.01366763e-002, 7.82660991e-002, 1.36538565e-001,
          9.26764011e-002, -3.28215696e-002, 4.52968702e-002,
          4.86093722e-002, 1.32203519e-001, 4.49923091e-002,
          6.81490898e-002, -7.70974904e-002, 6.13090210e-002,
          -1.40534602e-002, 1.39716536e-001, -6.22932203e-002,
          2.90878378e-002, 1.12109207e-001, 1.90024935e-002,
          8.38885903e-002, -1.13517329e-001, 5.77251147e-003,
          -8.29598308e-002, 4.56526056e-002, 1.17569812e-001,
          9.34476480e-002, -2.09168624e-002, -6.27480447e-002,
          1.52977742e-002, -7.86852837e-002, 1.33328170e-001,
          7.50741512e-002, 1.09868355e-001, -1.20595895e-001,
          3.74377184e-002, -4.89764754e-003, -1.30119562e-001,
          -1.43037771e-003, -3.29510979e-002, 1.48242518e-001,
          1.60810053e-001, -1.89906582e-002, -5.19782817e-003,
          8.96391347e-002, -2.21858993e-002, 1.79446772e-001,
          -2.13537272e-002, 2.03760847e-001, -2.13756800e-001,
          7.32754245e-002, 2.67535113e-002, -1.16421036e-001,
          -1.14336357e-001, 6.79421648e-002, 1.26589701e-001,
          3.41388881e-002, -8.80336985e-002, -8.97194084e-004,
          5.11239544e-002, 2.74352282e-002, 3.57674584e-002,
          2.10182577e-001, -6.34494051e-002, 5.59611432e-002,
          -8.67338665e-003, 5.49742430e-002, 1.25121921e-001,
          2.59691536e-001, 1.45743722e-002, 2.57025119e-002,
          -4.85071018e-002, 2.25100014e-002, -1.85036466e-001,
          -6.65337741e-002, 1.78891644e-001, -5.33128716e-002,
          -5.48168980e-002, 1.43740371e-001, -1.07632980e-001,
